-4.856538461538464219e-03 -1.491010989010988462e-02 -1.219780219780219801e-03
3.138021720539804424e-03 -1.189362969807792984e-02 -1.552337231284912650e-03
4.960325721861719508e-03 -1.719464204013864198e-02 -2.302933583849068981e-03
9.504831264241968627e-03 -1.855744797380792441e-02 -2.861497637572369204e-03
1.264584011139104763e-02 -2.167090660791760187e-02 -3.511040711882631397e-03
1.631420488965105650e-02 -2.388117072645531275e-02 -4.119327853404900451e-03
1.961467127373642261e-02 -2.642476510272566415e-02 -4.747831719499018624e-03
2.296684806279362945e-02 -2.872906749271354754e-02 -5.367925791758296900e-03
2.617923135047979175e-02 -3.106169237833048338e-02 -5.992845174843390750e-03
2.934352954904402566e-02 -3.330093465987973844e-02 -6.616426610141832795e-03
3.242040629787657641e-02 -3.550499909926662506e-02 -7.241477238668541164e-03
3.543089191326784931e-02 -3.764911821797460589e-02 -7.866669512360634567e-03
3.836818734795591906e-02 -3.974661551994539826e-02 -8.492578155493141559e-03
4.123818046751276389e-02 -4.179331682056919295e-02 -9.118907364489906020e-03
4.404089206317798877e-02 -4.379299342556897123e-02 -9.745760285741211087e-03
4.677894402753862008e-02 -4.574575511473193135e-02 -1.037305969502639279e-02
4.945370832048821136e-02 -4.765332666456148503e-02 -1.100081139416860497e-02
5.206705262262609907e-02 -4.951665805051821273e-02 -1.162898483548738954e-02
5.462055302902413256e-02 -5.133700315480946297e-02 -1.225756696668627542e-02
5.711584901261312214e-02 -5.311543532998624917e-02 -1.288653798221628052e-02
5.955448549492067117e-02 -5.485306483320411680e-02 -1.351588214390695916e-02
6.193798446801510038e-02 -5.655094250446787707e-02 -1.414558291594311332e-02
6.426781444585505376e-02 -5.821010324281172821e-02 -1.477562508725534587e-02
6.654540532009416143e-02 -5.983154754641754891e-02 -1.540599379477751614e-02
6.877214321790317553e-02 -6.141625045382047288e-02 -1.603667491628470165e-02
7.094937420205339740e-02 -6.296515847646645681e-02 -1.666765486161981766e-02
7.307840413136840185e-02 -6.447919181990054149e-02 -1.729892062825814231e-02
7.516050021721598640e-02 -6.595924432303373885e-02 -1.793045974258502054e-02
7.719689185583504532e-02 -6.740618440421586310e-02 -1.856226025181387587e-02
7.918877177738153916e-02 -6.882085558284135873e-02 -1.919431069509678831e-02
8.113729705525894731e-02 -7.020407718882529235e-02 -1.982660008469466772e-02
8.304359016570993235e-02 -7.155664499240203813e-02 -2.045911788396404321e-02
8.490874001119304293e-02 -7.287933186475059610e-02 -2.109185398783254214e-02
8.673380293997887125e-02 -7.417288841905199381e-02 -2.172479870334631871e-02
8.851980374455580003e-02 -7.543804365047707128e-02 -2.235794273130459892e-02
9.026773664317465362e-02 -7.667550556488147984e-02 -2.299127714853739513e-02
9.197856624026137795e-02 -7.788596179847298573e-02 -2.362479339099219852e-02
9.365322846552680269e-02 -7.907008022582177886e-02 -2.425848323753563435e-02
9.529263149032073110e-02 -8.022850955593087419e-02 -2.489233879448136608e-02
9.689765662068483554e-02 -8.136187991537618958e-02 -2.552635248080933200e-02
9.846915916650909872e-02 -8.247080341805261561e-02 -2.616051701405877616e-02
1.000079692864974668e-01 -8.355587472105194258e-02 -2.679482539686917769e-02
1.015148928087677704e-01 -8.461767156638141940e-02 -2.742927090414579161e-02
1.029907120270689841e-01 -8.565675530831379225e-02 -2.806384707082518193e-02
1.044361864727118561e-01 -8.667367142626133947e-02 -2.869854768021655456e-02
1.058520536624127928e-01 -8.766895002314208096e-02 -2.933336675289474615e-02
1.072390298223351440e-01 -8.864310630927615953e-02 -2.996829853612118302e-02
1.085978105886831746e-01 -8.959664107190828952e-02 -3.060333749376951962e-02
1.099290716852629607e-01 -9.053004113050128199e-02 -3.123847829673322835e-02
1.112334695784711058e-01 -9.144377977798813506e-02 -3.187371581379308538e-02
1.125116421102114600e-01 -9.233831720820405431e-02 -3.250904510292312172e-02
1.137642091092688490e-01 -9.321410092974921624e-02 -3.314446140301437194e-02
1.149917729816921502e-01 -9.407156616655604209e-02 -3.377996012599646797e-02
1.161949192807550518e-01 -9.491113624545369221e-02 -3.441553684933786744e-02
1.173742172570742121e-01 -9.573322297103689649e-02 -3.505118730890633555e-02
1.185302203894708778e-01 -9.653822698815768544e-02 -3.568690739217201396e-02
1.196634668971645749e-01 -9.732653813236620544e-02 -3.632269313173616676e-02
1.207744802338866774e-01 -9.809853576863229729e-02 -3.695854069916943568e-02
1.218637695644981256e-01 -9.885458911868252874e-02 -3.759444639914424902e-02
1.229318302246895089e-01 -9.959505757728819020e-02 -3.823040666384661806e-02
1.239791441643336017e-01 -1.003202910178394719e-01 -3.886641804765331165e-02
1.250061803750511236e-01 -1.010306300875382923e-01 -3.950247722206114143e-02
1.260133953025391884e-01 -1.017264064925394729e-01 -4.013858097085556964e-02
1.270012332442001513e-01 -1.024079432733651374e-01 -4.077472618550662814e-02
1.279701267325955016e-01 -1.030755550709123447e-01 -4.141090986078070635e-02
1.289204969052359928e-01 -1.037295483833674259e-01 -4.204712909055726561e-02
1.298527538612052890e-01 -1.043702218143347099e-01 -4.268338106384016867e-02
1.307672970050998140e-01 -1.049978663124796902e-01 -4.331966306095382663e-02
1.316645153787532885e-01 -1.056127654029798274e-01 -4.395597244991483049e-02
1.325447879811994800e-01 -1.062151954110681223e-01 -4.459230668297025496e-02
1.334084840773121783e-01 -1.068054256779473465e-01 -4.522866329329427310e-02
1.342559634955471370e-01 -1.073837187693442163e-01 -4.586503989183512292e-02
1.350875769151955175e-01 -1.079503306769657306e-01 -4.650143416430492505e-02
1.359036661435450155e-01 -1.085055110131106643e-01 -4.713784386830519729e-02
1.367045643833302293e-01 -1.090495031986825625e-01 -4.777426683058136336e-02
1.374905964908401668e-01 -1.095825446448415869e-01 -4.841070094439977461e-02
1.382620792250377761e-01 -1.101048669285251691e-01 -4.904714416704123586e-02
1.390193214880325878e-01 -1.106166959620598217e-01 -4.968359451740527594e-02
1.397626245572353432e-01 -1.111182521570785731e-01 -5.032005007371970207e-02
1.404922823095106632e-01 -1.116097505829511533e-01 -5.095650897135028945e-02
1.412085814376322079e-01 -1.120914011199267424e-01 -5.159296940070568632e-02
1.419118016593324261e-01 -1.125634086071821000e-01 -5.222942960523295486e-02
1.426022159192282535e-01 -1.130259729859607598e-01 -5.286588787949929313e-02
1.432800905838931826e-01 -1.134792894379822448e-01 -5.350234256735580257e-02
1.439456856303346910e-01 -1.139235485192940933e-01 -5.413879206017936652e-02
1.445992548281272438e-01 -1.143589362897323020e-01 -5.477523479518885824e-02
1.452410459154397648e-01 -1.147856344381505411e-01 -5.541166925383218811e-02
1.458713007691881391e-01 -1.152038204035718411e-01 -5.604809396024074825e-02
1.464902555695334063e-01 -1.156136674924110319e-01 -5.668450747974815296e-02
1.470981409589379452e-01 -1.160153449919105045e-01 -5.732090841747016635e-02
1.476951821959833488e-01 -1.164090182799263490e-01 -5.795729541694299991e-02
1.482815993041454450e-01 -1.167948489311970428e-01 -5.859366715881724613e-02
1.488576072157144492e-01 -1.171729948202215044e-01 -5.923002235960483225e-02
1.494234159110402194e-01 -1.175436102208686218e-01 -5.986635977047660012e-02
1.499792305532758330e-01 -1.179068459028357052e-01 -6.050267817610810450e-02
1.505252516187856049e-01 -1.182628492250688140e-01 -6.113897639357149250e-02
1.510616750233768346e-01 -1.186117642262535382e-01 -6.177525327127134092e-02
1.515886922445087159e-01 -1.189537317124806509e-01 -6.241150768792242537e-02
1.521064904396250417e-01 -1.192888893421871210e-01 -6.304773855156754758e-02
1.526152525607519794e-01 -1.196173717084690474e-01 -6.368394479863365154e-02
1.531151574654965319e-01 -1.199393104188592879e-01 -6.432012539302449372e-02
1.536063800245755229e-01 -1.202548341726592807e-01 -6.495627932524818127e-02
1.540890912260002577e-01 -1.205640688359106705e-01 -6.559240561157815563e-02
1.545634582760367914e-01 -1.208671375140895898e-01 -6.622850329324606045e-02
1.550296446970567954e-01 -1.211641606226029344e-01 -6.686457143566509886e-02
1.554878104223902380e-01 -1.214552559551628774e-01 -6.750060912768258981e-02
1.559381118882854911e-01 -1.217405387501133557e-01 -6.813661548086044628e-02
1.563807021230795291e-01 -1.220201217547789985e-01 -6.877258962878234072e-02
1.568157308336761702e-01 -1.222941152879045562e-01 -6.940853072638644705e-02
1.572433444894264787e-01 -1.225626273002502903e-01 -7.004443794932264933e-02
1.576636864035021179e-01 -1.228257634334060933e-01 -7.068031049333316218e-02
1.580768968118486661e-01 -1.230836270768850549e-01 -7.131614757365561941e-02
1.584831129498025792e-01 -1.233363194235545940e-01 -7.195194842444764538e-02
1.588824691264522360e-01 -1.235839395234613197e-01 -7.258771229823200721e-02
1.592750967968202813e-01 -1.238265843361034818e-01 -7.322343846536154277e-02
1.596611246319420141e-01 -1.240643487812029960e-01 -7.385912621350296248e-02
1.600406785869107340e-01 -1.242973257880271021e-01 -7.449477484713883102e-02
1.604138819669594651e-01 -1.245256063433075877e-01 -7.513038368708691017e-02
1.607808554916446697e-01 -1.247492795378041253e-01 -7.576595207003625210e-02
1.611417173571959571e-01 -1.249684326115562683e-01 -7.640147934809923824e-02
1.614965832970928217e-01 -1.251831509978669765e-01 -7.703696488837902256e-02
1.618455666409274185e-01 -1.253935183660592201e-01 -7.767240807255168522e-02
1.621887783716099984e-01 -1.255996166630454214e-01 -7.830780829646263874e-02
1.625263271809716803e-01 -1.258015261537482610e-01 -7.894316496973649566e-02
1.628583195238170744e-01 -1.259993254604095114e-01 -7.957847751540013392e-02
1.631848596704772170e-01 -1.261930916008232040e-01 -8.021374536951823842e-02
1.635060497579118033e-01 -1.263829000255267121e-01 -8.084896798084086067e-02
1.638219898394073226e-01 -1.265688246539835304e-01 -8.148414481046270530e-02
1.641327779329164183e-01 -1.267509379097892519e-01 -8.211927533149340763e-02
1.644385100680821610e-01 -1.269293107549317456e-01 -8.275435902873859439e-02
1.647392803319888688e-01 -1.271040127231351791e-01 -8.338939539839128334e-02
1.650351809136800796e-01 -1.272751119523163610e-01 -8.402438394773312225e-02
1.653263021474826178e-01 -1.274426752161812726e-01 -8.465932419484518967e-02
1.656127325551743079e-01 -1.276067679549881817e-01 -8.529421566832799673e-02
1.658945588870314458e-01 -1.277674543055031253e-01 -8.592905790703027347e-02
1.661718661617909987e-01 -1.279247971301726017e-01 -8.656385045978631787e-02
1.664447377055611188e-01 -1.280788580455372583e-01 -8.719859288516147722e-02
1.667132551897126669e-01 -1.282296974499096964e-01 -8.783328475120556755e-02
1.669774986677825812e-01 -1.283773745503388741e-01 -8.846792563521385655e-02
1.672375466114198739e-01 -1.285219473888822850e-01 -8.910251512349534608e-02
1.674934759454029254e-01 -1.286634728682068962e-01 -8.973705281114817411e-02
1.677453620817565827e-01 -1.288020067765388299e-01 -9.037153830184177505e-02
1.679932789529957893e-01 -1.289376038119813550e-01 -9.100597120760557657e-02
1.682372990445224481e-01 -1.290703176062193980e-01 -9.164035114862409404e-02
1.684774934262003587e-01 -1.292002007476292513e-01 -9.227467775303800634e-02
1.687139317831330976e-01 -1.293273048038105222e-01 -9.290895065675124076e-02
1.689466824456679062e-01 -1.294516803435573904e-01 -9.354316950324363666e-02
1.691758124186490408e-01 -1.295733769582853578e-01 -9.417733394338910491e-02
1.694013874099419836e-01 -1.296924432829293372e-01 -9.481144363527914398e-02
1.696234718582501078e-01 -1.298089270163283737e-01 -9.544549824405133831e-02
1.698421289602443929e-01 -1.299228749411115158e-01 -9.607949744172290807e-02
1.700574206970258684e-01 -1.300343329430993233e-01 -9.671344090702890806e-02
1.702694078599401861e-01 -1.301433460302345579e-01 -9.734732832526510338e-02
1.704781500757626134e-01 -1.302499583510557668e-01 -9.798115938813527215e-02
1.706837058312717370e-01 -1.303542132127260278e-01 -9.861493379360274092e-02
1.708861324972290596e-01 -1.304561530986298734e-01 -9.924865124574613895e-02
1.710854863517811131e-01 -1.305558196855503839e-01 -9.988231145461913540e-02
1.712818226033007707e-01 -1.306532538604377458e-01 -1.005159141361140485e-01
1.714751954126829958e-01 -1.307484957367810730e-01 -1.011494590118291875e-01
1.716656579151104867e-01 -1.308415846705940633e-01 -1.017829458089398592e-01
1.718532622413039834e-01 -1.309325592760253176e-01 -1.024163742600728705e-01
1.720380595382711986e-01 -1.310214574406034782e-01 -1.030497441031843625e-01
1.722200999895684426e-01 -1.311083163401270402e-01 -1.036830550814410307e-01
1.723994328350881844e-01 -1.311931724532086063e-01 -1.043163069431044532e-01
1.725761063903853143e-01 -1.312760615754828830e-01 -1.049494994414185006e-01
1.727501680655549599e-01 -1.313570188334873545e-01 -1.055826323344997569e-01
1.729216643836736234e-01 -1.314360786982243789e-01 -1.062157053852307992e-01
1.730906409988155481e-01 -1.315132749984133931e-01 -1.068487183611562530e-01
1.732571427136556930e-01 -1.315886409334410811e-01 -1.074816710343816095e-01
1.734212134966703622e-01 -1.316622090860178618e-01 -1.081145631814745822e-01
1.735828964989459267e-01 -1.317340114345481039e-01 -1.087473945833691141e-01
1.737422340706064328e-01 -1.318040793652217324e-01 -1.093801650252717306e-01
1.738992677768696204e-01 -1.318724436838344394e-01 -1.100128742965703621e-01
1.740540384137415075e-01 -1.319391346273434684e-01 -1.106455221907454434e-01
1.742065860233586172e-01 -1.320041818751660212e-01 -1.112781085052832325e-01
1.743569499089873687e-01 -1.320676145602264207e-01 -1.119106330415913925e-01
1.745051686496890408e-01 -1.321294612797592749e-01 -1.125430956049165848e-01
1.746512801146594407e-01 -1.321897501058738322e-01 -1.131754960042641589e-01
1.747953214772510755e-01 -1.322485085958866602e-01 -1.138078340523198256e-01
1.749373292286863502e-01 -1.323057638024276450e-01 -1.144401095653732603e-01
1.750773391914694499e-01 -1.323615422833254451e-01 -1.150723223632435371e-01
1.752153865325045690e-01 -1.324158701112779501e-01 -1.157044722692064376e-01
1.753515057759278961e-01 -1.324687728833128797e-01 -1.163365591099234930e-01
1.754857308156604900e-01 -1.325202757300440459e-01 -1.169685827153727486e-01
1.756180949276891223e-01 -1.325704033247279701e-01 -1.176005429187811507e-01
1.757486307820817217e-01 -1.326191798921261822e-01 -1.182324395565585995e-01
1.758773704547442196e-01 -1.326666292171777284e-01 -1.188642724682335700e-01
1.760043454389247919e-01 -1.327127746534864650e-01 -1.194960414963902040e-01
1.761295866564722423e-01 -1.327576391316279969e-01 -1.201277464866069428e-01
1.762531244688540499e-01 -1.328012451672802852e-01 -1.207593872873965607e-01
1.763749886879401874e-01 -1.328436148691822805e-01 -1.213909637501476013e-01
1.764952085865583720e-01 -1.328847699469250243e-01 -1.220224757290672285e-01
1.766138129088264119e-01 -1.329247317185786592e-01 -1.226539230811252712e-01
1.767308298802665600e-01 -1.329635211181598720e-01 -1.232853056659997393e-01
1.768462872177077316e-01 -1.330011587029431841e-01 -1.239166233460234079e-01
1.769602121389802218e-01 -1.330376646606199476e-01 -1.245478759861317342e-01
1.770726313724079737e-01 -1.330730588163084871e-01 -1.251790634538119118e-01
1.771835711661031987e-01 -1.331073606394193309e-01 -1.258101856190531054e-01
1.772930572970681795e-01 -1.331405892503782495e-01 -1.264412423542977393e-01
1.774011150801085568e-01 -1.331727634272110439e-01 -1.270722335343940079e-01
1.775077693765625964e-01 -1.332039016119929142e-01 -1.277031590365493019e-01
1.776130446028508225e-01 -1.332340219171658791e-01 -1.283340187402847166e-01
1.777169647388500973e-01 -1.332631421317268250e-01 -1.289648125273906432e-01
1.778195533360963643e-01 -1.332912797272897132e-01 -1.295955402818832480e-01
1.779208335258197493e-01 -1.333184518640243843e-01 -1.302262018899618956e-01
1.780208280268161525e-01 -1.333446753964751541e-01 -1.308567972399676260e-01
1.781195591531589684e-01 -1.333699668792615034e-01 -1.314873262223423822e-01
1.782170488217545423e-01 -1.333943425726639709e-01 -1.321177887295891806e-01
1.783133185597450265e-01 -1.334178184480976914e-01 -1.327481846562332535e-01
1.784083895117619667e-01 -1.334404101934758835e-01 -1.333785138987838015e-01
1.785022824470341996e-01 -1.334621332184661724e-01 -1.340087763556967460e-01
1.785950177663530314e-01 -1.334830026596417751e-01 -1.346389719273382302e-01
1.786866155088982777e-01 -1.335030333855302120e-01 -1.352691005159488702e-01
1.787770953589280232e-01 -1.335222400015614874e-01 -1.358991620256087551e-01
1.788664766523350991e-01 -1.335406368549183209e-01 -1.365291563622032522e-01
1.789547783830735261e-01 -1.335582380392902613e-01 -1.371590834333894227e-01
1.790420192094574758e-01 -1.335750573995341528e-01 -1.377889431485632699e-01
1.791282174603358590e-01 -1.335911085362425643e-01 -1.384187354188275432e-01
1.792133911411449565e-01 -1.336064048102226232e-01 -1.390484601569602907e-01
1.792975579398421171e-01 -1.336209593468870305e-01 -1.396781172773840785e-01
1.793807352327228544e-01 -1.336347850405590620e-01 -1.403077066961357366e-01
1.794629400901239791e-01 -1.336478945586936362e-01 -1.409372283308368834e-01
1.795441892820152929e-01 -1.336603003460160033e-01 -1.415666821006648923e-01
1.796244992834822030e-01 -1.336720146285801103e-01 -1.421960679263245542e-01
1.797038862801014769e-01 -1.336830494177482787e-01 -1.428253857300203211e-01
1.797823661732128597e-01 -1.336934165140934994e-01 -1.434546354354290509e-01
1.798599545850882164e-01 -1.337031275112268158e-01 -1.440838169676732783e-01
1.799366668640007827e-01 -1.337121937995504328e-01 -1.447129302532952078e-01
1.800125180891966603e-01 -1.337206265699389940e-01 -1.453419752202309845e-01
1.800875230757703616e-01 -1.337284368173498050e-01 -1.459709517977856030e-01
1.801616963794465953e-01 -1.337356353443640844e-01 -1.465998599166083993e-01
1.802350523012704875e-01 -1.337422327646603237e-01 -1.472286995086688477e-01
1.803076048922076791e-01 -1.337482395064213681e-01 -1.478574705072329132e-01
1.803793679576566611e-01 -1.337536658156764924e-01 -1.484861728468399589e-01
1.804503550618749563e-01 -1.337585217595799181e-01 -1.491148064632800141e-01
1.805205795323209239e-01 -1.337628172296269902e-01 -1.497433712935714312e-01
1.805900544639130467e-01 -1.337665619448095700e-01 -1.503718672759391806e-01
1.806587927232084223e-01 -1.337697654547112813e-01 -1.510002943497933126e-01
1.807268069525019838e-01 -1.337724371425447201e-01 -1.516286524557080850e-01
1.807941095738482828e-01 -1.337745862281311815e-01 -1.522569415354013134e-01
1.808607127930072778e-01 -1.337762217708240720e-01 -1.528851615317142199e-01
1.809266286033157645e-01 -1.337773526723777806e-01 -1.535133123885915607e-01
1.809918687894859490e-01 -1.337779876797622614e-01 -1.541413940510623637e-01
1.810564449313326885e-01 -1.337781353879251567e-01 -1.547694064652207213e-01
1.811203684074307041e-01 -1.337778042425022129e-01 -1.553973495782072500e-01
1.811836503987035163e-01 -1.337770025424768194e-01 -1.560252233381906606e-01
1.812463018919450441e-01 -1.337757384427902818e-01 -1.566530276943498834e-01
1.813083336832757297e-01 -1.337740199569031618e-01 -1.572807625968563050e-01
1.813697563815339087e-01 -1.337718549593092665e-01 -1.579084279968566429e-01
1.814305804116043697e-01 -1.337692511880027302e-01 -1.585360238464557925e-01
1.814908160176849361e-01 -1.337662162468994109e-01 -1.591635500987003404e-01
1.815504732664924015e-01 -1.337627576082136283e-01 -1.597910067075620777e-01
1.816095620504091512e-01 -1.337588826147906029e-01 -1.604183936279220957e-01
1.816680920905714702e-01 -1.337545984823962086e-01 -1.610457108155549377e-01
1.817260729399008401e-01 -1.337499123019642300e-01 -1.616729582271132226e-01
1.817835139860793925e-01 -1.337448310418023756e-01 -1.623001358201124900e-01
1.818404244544703507e-01 -1.337393615497576849e-01 -1.629272435529163232e-01
1.818968134109849311e-01 -1.337335105553422443e-01 -1.635542813847217225e-01
1.819526897648964803e-01 -1.337272846718197128e-01 -1.641812492755448105e-01
1.820080622716028496e-01 -1.337206903982539052e-01 -1.648081471862067326e-01
1.820629395353384750e-01 -1.337137341215196562e-01 -1.654349750783199180e-01
1.821173300118363869e-01 -1.337064221182771573e-01 -1.660617329142744236e-01
1.821712420109419528e-01 -1.336987605569100457e-01 -1.666884206572247229e-01
1.822246836991786578e-01 -1.336907554994283265e-01 -1.673150382710766049e-01
1.822776631022671456e-01 -1.336824129033366837e-01 -1.679415857204743512e-01
1.823301881075984066e-01 -1.336737386234685965e-01 -1.685680629707881351e-01
1.823822664666619742e-01 -1.336647384137874262e-01 -1.691944699881016978e-01
1.824339057974300460e-01 -1.336554179291545574e-01 -1.698208067392001919e-01
1.824851135866981666e-01 -1.336457827270658427e-01 -1.704470731915582182e-01
1.825358971923837226e-01 -1.336358382693561553e-01 -1.710732693133281690e-01
1.825862638457825537e-01 -1.336255899238736056e-01 -1.716993950733287644e-01
1.826362206537849864e-01 -1.336150429661230876e-01 -1.723254504410337007e-01
1.826857746010516204e-01 -1.336042025808805711e-01 -1.729514353865605758e-01
1.827349325521500645e-01 -1.335930738637779447e-01 -1.735773498806600645e-01
1.827837012536528694e-01 -1.335816618228595487e-01 -1.742031938947051495e-01
1.828320873361979348e-01 -1.335699713801106470e-01 -1.748289674006806571e-01
1.828800973165116972e-01 -1.335580073729583650e-01 -1.754546703711729605e-01
1.829277375993959842e-01 -1.335457745557458720e-01 -1.760803027793598208e-01
1.829750144796791766e-01 -1.335332776011798894e-01 -1.767058645990004506e-01
1.830219341441324532e-01 -1.335205211017523597e-01 -1.773313558044257443e-01
1.830685026733515353e-01 -1.335075095711368287e-01 -1.779567763705286743e-01
1.831147260436048751e-01 -1.334942474455595440e-01 -1.785821262727548264e-01
1.831606101286486765e-01 -1.334807390851463493e-01 -1.792074054870931576e-01
1.832061607015096627e-01 -1.334669887752453210e-01 -1.798326139900669474e-01
1.832513834362357041e-01 -1.334530007277259789e-01 -1.804577517587247770e-01
1.832962839096155816e-01 -1.334387790822551545e-01 -1.810828187706317871e-01
1.833408676028676909e-01 -1.334243279075504607e-01 -1.817078150038609896e-01
1.833851399032991047e-01 -1.334096512026110293e-01 -1.823327404369848859e-01
1.834291061059347694e-01 -1.333947528979267105e-01 -1.829575950490670566e-01
1.834727714151178912e-01 -1.333796368566657620e-01 -1.835823788196539741e-01
1.835161409460818738e-01 -1.333643068758412487e-01 -1.842070917287670362e-01
1.835592197264943604e-01 -1.333487666874569599e-01 -1.848317337568945451e-01
1.836020126979738265e-01 -1.333330199596330368e-01 -1.854563048849840190e-01
1.836445247175794437e-01 -1.333170702977114208e-01 -1.860808050944345593e-01
1.836867605592743535e-01 -1.333009212453421521e-01 -1.867052343670893011e-01
1.837287249153632951e-01 -1.332845762855500438e-01 -1.873295926852281135e-01
1.837704223979045037e-01 -1.332680388417827599e-01 -1.879538800315602720e-01
1.838118575400970178e-01 -1.332513122789404092e-01 -1.885780963892174089e-01
1.838530347976432278e-01 -1.332343999043867910e-01 -1.892022417417464908e-01
1.838939585500874996e-01 -1.332173049689429900e-01 -1.898263160731029353e-01
1.839346331021310954e-01 -1.332000306678634838e-01 -1.904503193676438388e-01
1.839750626849241677e-01 -1.331825801417947930e-01 -1.910742516101213984e-01
1.840152514573347442e-01 -1.331649564777176442e-01 -1.916981127856763334e-01
1.840552035071954251e-01 -1.331471627098723409e-01 -1.923219028798314745e-01
1.840949228525284032e-01 -1.331292018206678696e-01 -1.929456218784854626e-01
1.841344134427486123e-01 -1.331110767415752127e-01 -1.935692697679065599e-01
1.841736791598460321e-01 -1.330927903540047863e-01 -1.941928465347265154e-01
1.842127238195470640e-01 -1.330743454901685552e-01 -1.948163521659346531e-01
1.842515511724556188e-01 -1.330557449339271892e-01 -1.954397866488719326e-01
1.842901649051742474e-01 -1.330369914216221472e-01 -1.960631499712251480e-01
1.843285686414054825e-01 -1.330180876428933845e-01 -1.966864421210212932e-01
1.843667659430341388e-01 -1.329990362414825433e-01 -1.973096630866219281e-01
1.844047603111903522e-01 -1.329798398160224326e-01 -1.979328128567177103e-01
1.844425551872943547e-01 -1.329605009208123800e-01 -1.985558914203229552e-01
1.844801539540828483e-01 -1.329410220665801223e-01 -1.991788987667703348e-01
1.845175599366173924e-01 -1.329214057212305955e-01 -1.998018348857057147e-01
1.845547764032752780e-01 -1.329016543105814574e-01 -2.004246997670829089e-01
1.845918065667231101e-01 -1.328817702190857875e-01 -2.010474934011587389e-01
1.846286535848733479e-01 -1.328617557905422963e-01 -2.016702157784880101e-01
1.846653205618242755e-01 -1.328416133287931566e-01 -2.022928668899186544e-01
1.847018105487835127e-01 -1.328213450984094823e-01 -2.029154467265869566e-01
1.847381265449754006e-01 -1.328009533253652619e-01 -2.035379552799127523e-01
1.847742714985328161e-01 -1.327804401976991344e-01 -2.041603925415948761e-01
1.848102483073732205e-01 -1.327598078661650083e-01 -2.047827585036066100e-01
1.848460598200596383e-01 -1.327390584448711608e-01 -2.054050531581911310e-01
1.848817088366465633e-01 -1.327181940119083747e-01 -2.060272764978571536e-01
1.849171981095112660e-01 -1.326972166099670558e-01 -2.066494285153745725e-01
1.849525303441706958e-01 -1.326761282469436642e-01 -2.072715092037702433e-01
1.849877082000839779e-01 -1.326549308965367935e-01 -2.078935185563237364e-01
1.850227342914413375e-01 -1.326336264988325908e-01 -2.085154565665632287e-01
1.850576111879390362e-01 -1.326122169608803247e-01 -2.091373232282615069e-01
1.850923414155410673e-01 -1.325907041572578493e-01 -2.097591185354319432e-01
1.851269274572275580e-01 -1.325690899306273540e-01 -2.103808424823245815e-01
1.851613717537303194e-01 -1.325473760922812605e-01 -2.110024950634222518e-01
1.851956767042554630e-01 -1.325255644226790985e-01 -2.116240762734368508e-01
1.852298446671937493e-01 -1.325036566719746400e-01 -2.122455861073055672e-01
1.852638779608185571e-01 -1.324816545605342066e-01 -2.128670245601872735e-01
1.852977788639716683e-01 -1.324595597794459845e-01 -2.134883916274588345e-01
1.853315496167373677e-01 -1.324373739910204295e-01 -2.141096873047116378e-01
1.853651924211048574e-01 -1.324150988292820685e-01 -2.147309115877480967e-01
1.853987094416191528e-01 -1.323927359004529458e-01 -2.153520644725782363e-01
1.854321028060208487e-01 -1.323702867834274932e-01 -2.159731459554163069e-01
1.854653746058747832e-01 -1.323477530302394067e-01 -2.165941560326774262e-01
1.854985268971877932e-01 -1.323251361665203629e-01 -2.172150947009744426e-01
1.855315617010160067e-01 -1.323024376919509082e-01 -2.178359619571146044e-01
1.855644810040614490e-01 -1.322796590807034378e-01 -2.184567577980964792e-01
1.855972867592585451e-01 -1.322568017818776531e-01 -2.190774822211068451e-01
1.856299808863503265e-01 -1.322338672199285803e-01 -2.196981352235176377e-01
1.856625652724549769e-01 -1.322108567950870395e-01 -2.203187168028829523e-01
1.856950417726223601e-01 -1.321877718837730087e-01 -2.209392269569361023e-01
1.857274122103811376e-01 -1.321646138390018543e-01 -2.215596656835867040e-01
1.857596783782763383e-01 -1.321413839907835119e-01 -2.221800329809178187e-01
1.857918420383979086e-01 -1.321180836465148389e-01 -2.228003288471832044e-01
1.858239049228998241e-01 -1.320947140913653339e-01 -2.234205532808045125e-01
1.858558687345106819e-01 -1.320712765886559448e-01 -2.240407062803685678e-01
1.858877351470351047e-01 -1.320477723802317427e-01 -2.246607878446247319e-01
1.859195058058469574e-01 -1.320242026868277962e-01 -2.252807979724822107e-01
1.859511823283736820e-01 -1.320005687084291612e-01 -2.259007366630076119e-01
1.859827663045726387e-01 -1.319768716246242368e-01 -2.265206039154222528e-01
1.860142592973990372e-01 -1.319531125949525985e-01 -2.271403997290997456e-01
1.860456628432659854e-01 -1.319292927592463083e-01 -2.277601241035635549e-01
1.860769784524965997e-01 -1.319054132379658406e-01 -2.283797770384844994e-01
1.861082076097683724e-01 -1.318814751325298185e-01 -2.289993585336784765e-01
1.861393517745497661e-01 -1.318574795256395871e-01 -2.296188685891040748e-01
1.861704123815296763e-01 -1.318334274815976814e-01 -2.302383072048602708e-01
1.862013908410391494e-01 -1.318093200466212422e-01 -2.308576743811841525e-01
1.862322885394660232e-01 -1.317851582491499363e-01 -2.314769701184487549e-01
1.862631068396626011e-01 -1.317609431001485198e-01 -2.320961944171608393e-01
1.862938470813461089e-01 -1.317366755934043232e-01 -2.327153472779587007e-01
1.863245105814924640e-01 -1.317123567058195721e-01 -2.333344287016101415e-01
1.863550986347232152e-01 -1.316879873976987969e-01 -2.339534386890103068e-01
1.863856125136858499e-01 -1.316635686130311900e-01 -2.345723772411796582e-01
1.864160534694276616e-01 -1.316391012797682725e-01 -2.351912443592620028e-01
1.864464227317632339e-01 -1.316145863100966484e-01 -2.358100400445224398e-01
1.864767215096354847e-01 -1.315900246007063179e-01 -2.364287642983455007e-01
1.865069509914706880e-01 -1.315654170330541051e-01 -2.370474171222331505e-01
1.865371123455274172e-01 -1.315407644736228676e-01 -2.376659985178029011e-01
1.865672067202393813e-01 -1.315160677741760986e-01 -2.382845084867860619e-01
1.865972352445525451e-01 -1.314913277720082263e-01 -2.389029470310257697e-01
1.866271990282565296e-01 -1.314665452901906395e-01 -2.395213141524752953e-01
1.866570991623100750e-01 -1.314417211378135775e-01 -2.401396098531962675e-01
1.866869367191613116e-01 -1.314168561102236621e-01 -2.407578341353568685e-01
1.867167127530622861e-01 -1.313919509892576554e-01 -2.413759870012302244e-01
1.867464283003781866e-01 -1.313670065434720813e-01 -2.419940684531926289e-01
1.867760843798913772e-01 -1.313420235283688786e-01 -2.426120784937219610e-01
1.868056819931001311e-01 -1.313170026866173068e-01 -2.432300171253959920e-01
1.868352221245122569e-01 -1.312919447482720769e-01 -2.438478843508908589e-01
1.868647057419339230e-01 -1.312668504309875417e-01 -2.444656801729794549e-01
1.868941337967531813e-01 -1.312417204402285542e-01 -2.450834045945298467e-01
1.869235072242190487e-01 -1.312165554694774972e-01 -2.457010576185038320e-01
1.869528269437155110e-01 -1.311913562004378697e-01 -2.463186392479553288e-01
1.869820938590310844e-01 -1.311661233032343221e-01 -2.469361494860290440e-01
1.870113088586236039e-01 -1.311408574366094426e-01 -2.475535883359588907e-01
1.870404728158806262e-01 -1.311155592481169918e-01 -2.481709558010666283e-01
1.870695865893753085e-01 -1.310902293743119451e-01 -2.487882518847604474e-01
1.870986510231179567e-01 -1.310648684409373987e-01 -2.494054765905336091e-01
1.871276669468033282e-01 -1.310394770631079508e-01 -2.500226299219630022e-01
1.871566351760536595e-01 -1.310140558454904458e-01 -2.506397118827079495e-01
1.871855565126575582e-01 -1.309886053824811658e-01 -2.512567224765087648e-01
1.872144317448048156e-01 -1.309631262583803579e-01 -2.518736617071855588e-01
1.872432616473173050e-01 -1.309376190475634860e-01 -2.524905295786368242e-01
1.872720469818758282e-01 -1.309120843146499291e-01 -2.531073260948383807e-01
1.873007884972432147e-01 -1.308865226146683769e-01 -2.537240512598419873e-01
1.873294869294834797e-01 -1.308609344932198104e-01 -2.543407050777741762e-01
1.873581430021774297e-01 -1.308353204866374020e-01 -2.549572875528350879e-01
1.873867574266344094e-01 -1.308096811221439448e-01 -2.555737986892973046e-01
1.874153309021006075e-01 -1.307840169180063128e-01 -2.561902384915045738e-01
1.874438641159636709e-01 -1.307583283836876165e-01 -2.568066069638708648e-01
1.874723577439539879e-01 -1.307326160199965004e-01 -2.574229041108791471e-01
1.875008124503424467e-01 -1.307068803192340256e-01 -2.580391299370802805e-01
1.875292288881348080e-01 -1.306811217653380819e-01 -2.586552844470919599e-01
1.875576076992628294e-01 -1.306553408340252465e-01 -2.592713676455976612e-01
1.875859495147721989e-01 -1.306295379929303113e-01 -2.598873795373455864e-01
1.876142549550070815e-01 -1.306037137017433403e-01 -2.605033201271476084e-01
1.876425246297917238e-01 -1.305778684123445332e-01 -2.611191894198783281e-01
1.876707591386088114e-01 -1.305520025689366481e-01 -2.617349874204740190e-01
1.876989590707749678e-01 -1.305261166081753132e-01 -2.623507141339316284e-01
1.877271250056131158e-01 -1.305002109592970083e-01 -2.629663695653078337e-01
1.877552575126219259e-01 -1.304742860442449082e-01 -2.635819537197182094e-01
1.877833571516424604e-01 -1.304483422777926727e-01 -2.641974666023360618e-01
1.878114244730220150e-01 -1.304223800676658773e-01 -2.648129082183917626e-01
1.878394600177749618e-01 -1.303963998146618064e-01 -2.654282785731716388e-01
1.878674643177411230e-01 -1.303704019127666647e-01 -2.660435776720172507e-01
1.878954378957412852e-01 -1.303443867492713459e-01 -2.666588055203243379e-01
1.879233812657301328e-01 -1.303183547048848423e-01 -2.672739621235421525e-01
1.879512949329465166e-01 -1.302923061538459326e-01 -2.678890474871724603e-01
1.879791793940613076e-01 -1.302662414640327893e-01 -2.685040616167687633e-01
1.880070351373226423e-01 -1.302401609970709750e-01 -2.691190045179355783e-01
1.880348626426986136e-01 -1.302140651084393863e-01 -2.697338761963274378e-01
1.880626623820177701e-01 -1.301879541475744750e-01 -2.703486766576482236e-01
1.880904348191070052e-01 -1.301618284579727225e-01 -2.709634059076503898e-01
1.881181804099271992e-01 -1.301356883772913919e-01 -2.715780639521341300e-01
1.881458996027066399e-01 -1.301095342374473940e-01 -2.721926507969466558e-01
1.881735928380719458e-01 -1.300833663647147920e-01 -2.728071664479815306e-01
1.882012605491770740e-01 -1.300571850798202811e-01 -2.734216109111777815e-01
1.882289031618298303e-01 -1.300309906980374464e-01 -2.740359841925193440e-01
1.882565210946164913e-01 -1.300047835292789666e-01 -2.746502862980341741e-01
1.882841147590241238e-01 -1.299785638781876529e-01 -2.752645172337937485e-01
1.883116845595608768e-01 -1.299523320442257934e-01 -2.758786770059122873e-01
1.883392308938743875e-01 -1.299260883217628337e-01 -2.764927656205459772e-01
1.883667541528678824e-01 -1.298998330001618073e-01 -2.771067830838925272e-01
1.883942547208145857e-01 -1.298735663638642124e-01 -2.777207294021903361e-01
1.884217329754700465e-01 -1.298472886924733338e-01 -2.783346045817178815e-01
1.884491892881824671e-01 -1.298210002608363722e-01 -2.789484086287932207e-01
1.884766240240015323e-01 -1.297947013391249071e-01 -2.795621415497732132e-01
1.885040375417848246e-01 -1.297683921929143058e-01 -2.801758033510529655e-01
1.885314301943030180e-01 -1.297420730832614943e-01 -2.807893940390652210e-01
1.885588023283428505e-01 -1.297157442667815630e-01 -2.814029136202798043e-01
1.885861542848085159e-01 -1.296894059957231227e-01 -2.820163621012030108e-01
1.886134863988214727e-01 -1.296630585180421624e-01 -2.826297394883770520e-01
1.886407989998182266e-01 -1.296367020774749634e-01 -2.832430457883794439e-01
1.886680924116468372e-01 -1.296103369136094308e-01 -2.838562810078225085e-01
1.886953669526613975e-01 -1.295839632619555926e-01 -2.844694451533527624e-01
1.887226229358153484e-01 -1.295575813540144616e-01 -2.850825382316505285e-01
1.887498606687527114e-01 -1.295311914173462309e-01 -2.856955602494292146e-01
1.887770804538982661e-01 -1.295047936756368312e-01 -2.863085112134348686e-01
1.888042825885458409e-01 -1.294783883487637399e-01 -2.869213911304457909e-01
1.888314673649452713e-01 -1.294519756528603738e-01 -2.875342000072718118e-01
1.888586350703878314e-01 -1.294255558003796491e-01 -2.881469378507539592e-01
1.888857859872902500e-01 -1.293991290001562933e-01 -2.887596046677639028e-01
1.889129203932772838e-01 -1.293726954574681565e-01 -2.893722004652035107e-01
1.889400385612628741e-01 -1.293462553740964416e-01 -2.899847252500043493e-01
1.889671407595299446e-01 -1.293198089483850455e-01 -2.905971790291272394e-01
1.889942272518088939e-01 -1.292933563752986792e-01 -2.912095618095618121e-01
1.890212982973546174e-01 -1.292668978464802110e-01 -2.918218735983260093e-01
1.890483541510223908e-01 -1.292404335503068991e-01 -2.924341144024656947e-01
1.890753950633423941e-01 -1.292139636719457085e-01 -2.930462842290541547e-01
1.891024212805929305e-01 -1.291874883934077678e-01 -2.936583830851917654e-01
1.891294330448724248e-01 -1.291610078936017703e-01 -2.942704109780054367e-01
1.891564305941703106e-01 -1.291345223483865712e-01 -2.948823679146484467e-01
1.891834141624365306e-01 -1.291080319306228130e-01 -2.954942539022996639e-01
1.892103839796500098e-01 -1.290815368102237459e-01 -2.961060689481635477e-01
1.892373402718858788e-01 -1.290550371542052155e-01 -2.967178130594694263e-01
1.892642832613816162e-01 -1.290285331267346236e-01 -2.973294862434712749e-01
1.892912131666020792e-01 -1.290020248891792787e-01 -2.979410885074473270e-01
1.893181302023032864e-01 -1.289755126001538299e-01 -2.985526198586996305e-01
1.893450345795953393e-01 -1.289489964155668411e-01 -2.991640803045537700e-01
1.893719265060041235e-01 -1.289224764886666708e-01 -2.997754698523584227e-01
1.893988061855320371e-01 -1.288959529700865470e-01 -3.003867885094850809e-01
1.894256738187176381e-01 -1.288694260078888376e-01 -3.009980362833275525e-01
1.894525296026943195e-01 -1.288428957476085990e-01 -3.016092131813017940e-01
1.894793737312479298e-01 -1.288163623322964302e-01 -3.022203192108455228e-01
1.895062063948735609e-01 -1.287898259025604952e-01 -3.028313543794177165e-01
1.895330277808311981e-01 -1.287632865966079898e-01 -3.034423186944985584e-01
1.895598380732005650e-01 -1.287367445502856644e-01 -3.040532121635888818e-01
1.895866374529348586e-01 -1.287101998971199868e-01 -3.046640347942099480e-01
1.896134260979139008e-01 -1.286836527683563047e-01 -3.052747865939031691e-01
1.896402041829960139e-01 -1.286571032929975100e-01 -3.058854675702297188e-01
1.896669718800692295e-01 -1.286305515978421465e-01 -3.064960777307702555e-01
1.896937293581016371e-01 -1.286039978075215473e-01 -3.071066170831247000e-01
1.897204767831908168e-01 -1.285774420445366939e-01 -3.077170856349117356e-01
1.897472143186123283e-01 -1.285508844292942709e-01 -3.083274833937688086e-01
1.897739421248677283e-01 -1.285243250801420545e-01 -3.089378103673515730e-01
1.898006603597313380e-01 -1.284977641134039672e-01 -3.095480665633337791e-01
1.898273691782965678e-01 -1.284712016434141346e-01 -3.101582519894069412e-01
1.898540687330211862e-01 -1.284446377825507746e-01 -3.107683666532800038e-01
1.898807591737720624e-01 -1.284180726412692541e-01 -3.113784105626792864e-01
1.899074406478690191e-01 -1.283915063281345914e-01 -3.119883837253479286e-01
1.899341133001278825e-01 -1.283649389498535964e-01 -3.125982861490458897e-01
1.899607772729029753e-01 -1.283383706113062905e-01 -3.132081178415494493e-01
1.899874327061287782e-01 -1.283118014155768261e-01 -3.138178788106512074e-01
1.900140797373608692e-01 -1.282852314639839342e-01 -3.144275690641596954e-01
1.900407185018162803e-01 -1.282586608561107899e-01 -3.150371886098991547e-01
1.900673491324129660e-01 -1.282320896898344886e-01 -3.156467374557092587e-01
1.900939717598089107e-01 -1.282055180613548284e-01 -3.162562156094449461e-01
1.901205865124402372e-01 -1.281789460652228707e-01 -3.168656230789761996e-01
1.901471935165589267e-01 -1.281523737943686680e-01 -3.174749598721877120e-01
1.901737928962697610e-01 -1.281258013401288809e-01 -3.180842259969788310e-01
1.902003847735666830e-01 -1.280992287922737283e-01 -3.186934214612631711e-01
1.902269692683686009e-01 -1.280726562390334666e-01 -3.193025462729684461e-01
1.902535464985544156e-01 -1.280460837671245633e-01 -3.199116004400363589e-01
1.902801165799976879e-01 -1.280195114617752039e-01 -3.205205839704222681e-01
1.903066796266004446e-01 -1.279929394067506332e-01 -3.211294968720950216e-01
1.903332357503267069e-01 -1.279663676843778575e-01 -3.217383391530367343e-01
1.903597850612352704e-01 -1.279397963755700418e-01 -3.223471108212426772e-01
1.903863276675118732e-01 -1.279132255598504353e-01 -3.229558118847210002e-01
1.904128636755010595e-01 -1.278866553153758523e-01 -3.235644423514925094e-01
1.904393931897372105e-01 -1.278600857189599871e-01 -3.241730022295905012e-01
1.904659163129753252e-01 -1.278335168460959792e-01 -3.247814915270607061e-01
1.904924331462210796e-01 -1.278069487709788954e-01 -3.253899102519609010e-01
1.905189437887604142e-01 -1.277803815665276566e-01 -3.259982584123608529e-01
1.905454483381887609e-01 -1.277538153044066593e-01 -3.266065360163420417e-01
1.905719468904395753e-01 -1.277272500550470369e-01 -3.272147430719976602e-01
1.905984395398125086e-01 -1.277006858876676143e-01 -3.278228795874322810e-01
1.906249263790011084e-01 -1.276741228702952813e-01 -3.284309455707617453e-01
1.906514074991199348e-01 -1.276475610697853091e-01 -3.290389410301129969e-01
1.906778829897314009e-01 -1.276210005518411406e-01 -3.296468659736238593e-01
1.907043529388719461e-01 -1.275944413810339573e-01 -3.302547204094429811e-01
1.907308174330779593e-01 -1.275678836208218037e-01 -3.308625043457295578e-01
1.907572765574111762e-01 -1.275413273335684328e-01 -3.314702177906533320e-01
1.907837303954835473e-01 -1.275147725805618748e-01 -3.320778607523942050e-01
1.908101790294819411e-01 -1.274882194220326170e-01 -3.326854332391424030e-01
1.908366225401921801e-01 -1.274616679171715616e-01 -3.332929352590979777e-01
1.908630610070227440e-01 -1.274351181241476505e-01 -3.339003668204709174e-01
1.908894945080281680e-01 -1.274085701001250459e-01 -3.345077279314809249e-01
1.909159231199319129e-01 -1.273820239012803390e-01 -3.351150186003572506e-01
1.909423469181489585e-01 -1.273554795828191200e-01 -3.357222388353385267e-01
1.909687659768078971e-01 -1.273289371989924923e-01 -3.363293886446727110e-01
1.909951803687727490e-01 -1.273023968031132547e-01 -3.369364680366169207e-01
1.910215901656644177e-01 -1.272758584475717214e-01 -3.375434770194372103e-01
1.910479954378816458e-01 -1.272493221838514321e-01 -3.381504156014086271e-01
1.910743962546217756e-01 -1.272227880625444729e-01 -3.387572837908149337e-01
1.911007926839011217e-01 -1.271962561333665476e-01 -3.393640815959484969e-01
1.911271847925748446e-01 -1.271697264451719100e-01 -3.399708090251101766e-01
1.911535726463567952e-01 -1.271431990459677974e-01 -3.405774660866092707e-01
1.911799563098386390e-01 -1.271166739829289738e-01 -3.411840527887632923e-01
1.912063358465090901e-01 -1.270901513024116636e-01 -3.417905691398978596e-01
1.912327113187723693e-01 -1.270636310499675126e-01 -3.423970151483466950e-01
1.912590827879666611e-01 -1.270371132703572159e-01 -3.430033908224514039e-01
1.912854503143822660e-01 -1.270105980075637853e-01 -3.436096961705613628e-01
1.913118139572791143e-01 -1.269840853048059826e-01 -3.442159312010336092e-01
1.913381737749044742e-01 -1.269575752045509487e-01 -3.448220959222327853e-01
1.913645298245098825e-01 -1.269310677485271932e-01 -3.454281903425309719e-01
1.913908821623681589e-01 -1.269045629777369455e-01 -3.460342144703076883e-01
1.914172308437898928e-01 -1.268780609324685338e-01 -3.466401683139496148e-01
1.914435759231397638e-01 -1.268515616523085143e-01 -3.472460518818505926e-01
1.914699174538525839e-01 -1.268250651761534120e-01 -3.478518651824115127e-01
1.914962554884490076e-01 -1.267985715422215720e-01 -3.484576082240402606e-01
1.915225900785510749e-01 -1.267720807880645117e-01 -3.490632810151514942e-01
1.915489212748973102e-01 -1.267455929505783563e-01 -3.496688835641666993e-01
1.915752491273577940e-01 -1.267191080660147740e-01 -3.502744158795139673e-01
1.916015736849488726e-01 -1.266926261699920786e-01 -3.508798779696279957e-01
1.916278949958475086e-01 -1.266661472975058045e-01 -3.514852698429499211e-01
1.916542131074056576e-01 -1.266396714829393089e-01 -3.520905915079272641e-01
1.916805280661640631e-01 -1.266131987600742081e-01 -3.526958429730138178e-01
1.917068399178661620e-01 -1.265867291621003976e-01 -3.533010242466695927e-01
1.917331487074714069e-01 -1.265602627216263210e-01 -3.539061353373607610e-01
1.917594544791687561e-01 -1.265337994706886016e-01 -3.545111762535594901e-01
1.917857572763895790e-01 -1.265073394407618124e-01 -3.551161470037438872e-01
1.918120571418204523e-01 -1.264808826627680516e-01 -3.557210475963978880e-01
1.918383541174159268e-01 -1.264544291670861853e-01 -3.563258780400113124e-01
1.918646482444107959e-01 -1.264279789835611734e-01 -3.569306383430795870e-01
1.918909395633323356e-01 -1.264015321415130066e-01 -3.575353285141038562e-01
1.919172281140122949e-01 -1.263750886697456721e-01 -3.581399485615907041e-01
1.919435139355986364e-01 -1.263486485965558681e-01 -3.587444984940522663e-01
1.919697970665671938e-01 -1.263222119497415807e-01 -3.593489783200060628e-01
1.919960775447329682e-01 -1.262957787566105772e-01 -3.599533880479749426e-01
1.920223554072613692e-01 -1.262693490439886490e-01 -3.605577276864870284e-01
1.920486306906792062e-01 -1.262429228382278557e-01 -3.611619972440754944e-01
1.920749034308855130e-01 -1.262165001652144902e-01 -3.617661967292787883e-01
1.921011736631621503e-01 -1.261900810503769899e-01 -3.623703261506402984e-01
1.921274414221843252e-01 -1.261636655186936518e-01 -3.629743855167084643e-01
1.921537067420307776e-01 -1.261372535947003493e-01 -3.635783748360365553e-01
1.921799696561939663e-01 -1.261108453024979703e-01 -3.641822941171827255e-01
1.922062301975899778e-01 -1.260844406657597172e-01 -3.647861433687098476e-01
1.922324883985682131e-01 -1.260580397077385728e-01 -3.653899225991855682e-01
1.922587442909211020e-01 -1.260316424512741007e-01 -3.659936318171821412e-01
1.922849979058934289e-01 -1.260052489187997726e-01 -3.665972710312764282e-01
1.923112492741917423e-01 -1.259788591323496021e-01 -3.672008402500498425e-01
1.923374984259933473e-01 -1.259524731135650277e-01 -3.678043394820882384e-01
1.923637453909553263e-01 -1.259260908837016024e-01 -3.684077687359817999e-01
1.923899901982233374e-01 -1.258997124636353770e-01 -3.690111280203252075e-01
1.924162328764402741e-01 -1.258733378738695341e-01 -3.696144173437173053e-01
1.924424734537548143e-01 -1.258469671345404939e-01 -3.702176367147612668e-01
1.924687119578297467e-01 -1.258206002654243261e-01 -3.708207861420643736e-01
1.924949484158502699e-01 -1.257942372859426894e-01 -3.714238656342380707e-01
1.925211828545319581e-01 -1.257678782151689656e-01 -3.720268751998978551e-01
1.925474153001288935e-01 -1.257415230718340604e-01 -3.726298148476632766e-01
1.925736457784412714e-01 -1.257151718743323154e-01 -3.732326845861578257e-01
1.925998743148233383e-01 -1.256888246407270315e-01 -3.738354844240088792e-01
1.926261009341906916e-01 -1.256624813887563252e-01 -3.744382143698477550e-01
1.926523256610279122e-01 -1.256361421358384300e-01 -3.750408744323095456e-01
1.926785485193957537e-01 -1.256098068990771921e-01 -3.756434646200330629e-01
1.927047695329383581e-01 -1.255834756952674269e-01 -3.762459849416609492e-01
1.927309887248903342e-01 -1.255571485409001375e-01 -3.768484354058393992e-01
1.927572061180836405e-01 -1.255308254521675937e-01 -3.774508160212183272e-01
1.927834217349544688e-01 -1.255045064449684944e-01 -3.780531267964511444e-01
1.928096355975499054e-01 -1.254781915349129084e-01 -3.786553677401948703e-01
1.928358477275345373e-01 -1.254518807373271316e-01 -3.792575388611099663e-01
1.928620581461969186e-01 -1.254255740672585440e-01 -3.798596401678603907e-01
1.928882668744560103e-01 -1.253992715394803004e-01 -3.804616716691134326e-01
1.929144739328673697e-01 -1.253729731684959936e-01 -3.810636333735398229e-01
1.929406793416292842e-01 -1.253466789685442340e-01 -3.816655252898135675e-01
1.929668831205889334e-01 -1.253203889536030902e-01 -3.822673474266119475e-01
1.929930852892482451e-01 -1.252941031373945580e-01 -3.828690997926155193e-01
1.930192858667697242e-01 -1.252678215333889455e-01 -3.834707823965079476e-01
1.930454848719823646e-01 -1.252415441548089536e-01 -3.840723952469761726e-01
1.930716823233870894e-01 -1.252152710146340886e-01 -3.846739383527101874e-01
1.930978782391624404e-01 -1.251890021256046592e-01 -3.852754117224030939e-01
1.931240726371700467e-01 -1.251627375002258569e-01 -3.858768153647510468e-01
1.931502655349599529e-01 -1.251364771507717244e-01 -3.864781492884531433e-01
1.931764569497758377e-01 -1.251102210892891531e-01 -3.870794135022115334e-01
1.932026468985603151e-01 -1.250839693276016296e-01 -3.876806080147312539e-01
1.932288353979600415e-01 -1.250577218773130106e-01 -3.882817328347202834e-01
1.932550224643306003e-01 -1.250314787498114366e-01 -3.888827879708894875e-01
1.932812081137416094e-01 -1.250052399562727456e-01 -3.894837734319524514e-01
1.933073923619813839e-01 -1.249790055076642065e-01 -3.900846892266257027e-01
1.933335752245618488e-01 -1.249527754147480296e-01 -3.906855353636284334e-01
1.933597567167232023e-01 -1.249265496880848092e-01 -3.912863118516826111e-01
1.933859368534383838e-01 -1.249003283380370477e-01 -3.918870186995129234e-01
1.934121156494178206e-01 -1.248741113747723203e-01 -3.924876559158466671e-01
1.934382931191137023e-01 -1.248478988082667995e-01 -3.930882235094138588e-01
1.934644692767244212e-01 -1.248216906483083505e-01 -3.936887214889470687e-01
1.934906441361989304e-01 -1.247954869044997223e-01 -3.942891498631814762e-01
1.935168177112408239e-01 -1.247692875862618234e-01 -3.948895086408548138e-01
1.935429900153126659e-01 -1.247430927028366360e-01 -3.954897978307073125e-01
1.935691610616399605e-01 -1.247169022632903523e-01 -3.960900174414817010e-01
1.935953308632152314e-01 -1.246907162765163307e-01 -3.966901674819231505e-01
1.936214994328018801e-01 -1.246645347512380236e-01 -3.972902479607793302e-01
1.936476667829382103e-01 -1.246383576960118228e-01 -3.978902588868002965e-01
1.936738329259411195e-01 -1.246121851192299734e-01 -3.984902002687384370e-01
1.936999978739099293e-01 -1.245860170291232666e-01 -3.990900721153485819e-01
1.937261616387300489e-01 -1.245598534337638424e-01 -3.996898744353878374e-01
1.937523242320765560e-01 -1.245336943410678410e-01 -4.002896072376156411e-01
1.937784856654178600e-01 -1.245075397587980665e-01 -4.008892705307936510e-01
1.938046459500190888e-01 -1.244813896945665965e-01 -4.014888643236858012e-01
1.938308050969456686e-01 -1.244552441558372802e-01 -4.020883886250583017e-01
1.938569631170665719e-01 -1.244291031499283467e-01 -4.026878434436795828e-01
1.938831200210577588e-01 -1.244029666840147930e-01 -4.032872287883201845e-01
1.939092758194053689e-01 -1.243768347651308531e-01 -4.038865446677528115e-01
1.939354305224089969e-01 -1.243507074001723445e-01 -4.044857910907523335e-01
1.939615841401848284e-01 -1.243245845958990681e-01 -4.050849680660957297e-01
1.939877366826687211e-01 -1.242984663589371125e-01 -4.056840756025620331e-01
1.940138881596193687e-01 -1.242723526957810187e-01 -4.062831137089323863e-01
1.940400385806211880e-01 -1.242462436127961950e-01 -4.068820823939899856e-01
1.940661879550872881e-01 -1.242201391162209290e-01 -4.074809816665200257e-01
1.940923362922624684e-01 -1.241940392121686221e-01 -4.080798115353097555e-01
1.941184836012259662e-01 -1.241679439066299545e-01 -4.086785720091483110e-01
1.941446298908943435e-01 -1.241418532054748558e-01 -4.092772630968268266e-01
1.941707751700241513e-01 -1.241157671144546421e-01 -4.098758848071384353e-01
1.941969194472147331e-01 -1.240896856392039865e-01 -4.104744371488781574e-01
1.942230627309108892e-01 -1.240636087852429043e-01 -4.110729201308429004e-01
1.942492050294054307e-01 -1.240375365579786948e-01 -4.116713337618314594e-01
1.942753463508417877e-01 -1.240114689627078992e-01 -4.122696780506444614e-01
1.943014867032165915e-01 -1.239854060046180761e-01 -4.128679530060844760e-01
1.943276260943820888e-01 -1.239593476887897588e-01 -4.134661586369557940e-01
1.943537645320486396e-01 -1.239332940201982175e-01 -4.140642949520645932e-01
1.943799020237870767e-01 -1.239072450037152495e-01 -4.146623619602187727e-01
1.944060385770311483e-01 -1.238812006441109143e-01 -4.152603596702281186e-01
1.944321741990797658e-01 -1.238551609460553093e-01 -4.158582880909040269e-01
1.944583088970993634e-01 -1.238291259141202083e-01 -4.164561472310597257e-01
1.944844426781260627e-01 -1.238030955527808230e-01 -4.170539370995101636e-01
1.945105755490679211e-01 -1.237770698664172886e-01 -4.176516577050719548e-01
1.945367075167071802e-01 -1.237510488593164260e-01 -4.182493090565634342e-01
1.945628385877022637e-01 -1.237250325356732406e-01 -4.188468911628046576e-01
1.945889687685899427e-01 -1.236990208995925183e-01 -4.194444040326171796e-01
1.946150980657874452e-01 -1.236730139550903246e-01 -4.200418476748243868e-01
1.946412264855944263e-01 -1.236470117060955304e-01 -4.206392220982511643e-01
1.946673540341949393e-01 -1.236210141564513115e-01 -4.212365273117240627e-01
1.946934807176594895e-01 -1.235950213099165224e-01 -4.218337633240711870e-01
1.947196065419468658e-01 -1.235690331701672501e-01 -4.224309301441222519e-01
1.947457315129061117e-01 -1.235430497407981054e-01 -4.230280277807085820e-01
1.947718556362783293e-01 -1.235170710253236798e-01 -4.236250562426630006e-01
1.947979789176985665e-01 -1.234910970271798497e-01 -4.242220155388198299e-01
1.948241013626975104e-01 -1.234651277497251787e-01 -4.248189056780150019e-01
1.948502229767034299e-01 -1.234391631962421243e-01 -4.254157266690859474e-01
1.948763437650437302e-01 -1.234132033699384540e-01 -4.260124785208715403e-01
1.949024637329468124e-01 -1.233872482739484105e-01 -4.266091612422122092e-01
1.949285828855436831e-01 -1.233612979113340308e-01 -4.272057748419497702e-01
1.949547012278695923e-01 -1.233353522850863387e-01 -4.278023193289275938e-01
1.949808187648656987e-01 -1.233094113981265394e-01 -4.283987947119904383e-01
1.950069355013806516e-01 -1.232834752533072120e-01 -4.289952009999844496e-01
1.950330514421721728e-01 -1.232575438534135315e-01 -4.295915382017573281e-01
1.950591665919085838e-01 -1.232316172011642952e-01 -4.301878063261580509e-01
1.950852809551703038e-01 -1.232056952992131721e-01 -4.307840053820370385e-01
1.951113945364514046e-01 -1.231797781501497296e-01 -4.313801353782460990e-01
1.951375073401610261e-01 -1.231538657565005440e-01 -4.319761963236384283e-01
1.951636193706248468e-01 -1.231279581207302826e-01 -4.325721882270686103e-01
1.951897306320864167e-01 -1.231020552452427586e-01 -4.331681110973924498e-01
1.952158411287087392e-01 -1.230761571323818748e-01 -4.337639649434672506e-01
1.952419508645754087e-01 -1.230502637844328312e-01 -4.343597497741515379e-01
1.952680598436921378e-01 -1.230243752036229155e-01 -4.349554655983052243e-01
1.952941680699879778e-01 -1.229984913921225997e-01 -4.355511124247894439e-01
1.953202755473166796e-01 -1.229726123520465120e-01 -4.361466902624667186e-01
1.953463822794579419e-01 -1.229467380854543240e-01 -4.367421991202007914e-01
1.953724882701186882e-01 -1.229208685943517371e-01 -4.373376390068566821e-01
1.953985935229342608e-01 -1.228950038806913558e-01 -4.379330099313006874e-01
1.954246980414696966e-01 -1.228691439463736185e-01 -4.385283119024003806e-01
1.954508018292208660e-01 -1.228432887932477124e-01 -4.391235449290245563e-01
1.954769048896157213e-01 -1.228174384231123378e-01 -4.397187090200432857e-01
1.955030072260153240e-01 -1.227915928377166926e-01 -4.403138041843278061e-01
1.955291088417151213e-01 -1.227657520387612361e-01 -4.409088304307505757e-01
1.955552097399460010e-01 -1.227399160278985352e-01 -4.415037877681852740e-01
1.955813099238753461e-01 -1.227140848067341111e-01 -4.420986762055068020e-01
1.956074093966082283e-01 -1.226882583768271334e-01 -4.426934957515912261e-01
1.956335081611882964e-01 -1.226624367396913912e-01 -4.432882464153157787e-01
1.956596062205989972e-01 -1.226366198967958482e-01 -4.438829282055589132e-01
1.956857035777644638e-01 -1.226108078495655729e-01 -4.444775411312001934e-01
1.957118002355506259e-01 -1.225850005993824182e-01 -4.450720852011203488e-01
1.957378961967661257e-01 -1.225591981475857295e-01 -4.456665604242012191e-01
1.957639914641633450e-01 -1.225334004954731215e-01 -4.462609668093258652e-01
1.957900860404392651e-01 -1.225076076443011863e-01 -4.468553043653784029e-01
1.958161799282365778e-01 -1.224818195952861177e-01 -4.474495731012441135e-01
1.958422731301444342e-01 -1.224560363496044746e-01 -4.480437730258093332e-01
1.958683656486994717e-01 -1.224302579083938469e-01 -4.486379041479615637e-01
1.958944574863866195e-01 -1.224044842727534665e-01 -4.492319664765893616e-01
1.959205486456400969e-01 -1.223787154437449148e-01 -4.498259600205823938e-01
1.959466391288441356e-01 -1.223529514223927195e-01 -4.504198847888313817e-01
1.959727289383338955e-01 -1.223271922096850484e-01 -4.510137407902281570e-01
1.959988180763963805e-01 -1.223014378065742092e-01 -4.516075280336656061e-01
1.960249065452710771e-01 -1.222756882139774404e-01 -4.522012465280376703e-01
1.960509943471509253e-01 -1.222499434327772860e-01 -4.527948962822392898e-01
1.960770814841830412e-01 -1.222242034638224006e-01 -4.533884773051665151e-01
1.961031679584694931e-01 -1.221984683079279793e-01 -4.539819896057164517e-01
1.961292537720680795e-01 -1.221727379658763685e-01 -4.545754331927871483e-01
1.961553389269930781e-01 -1.221470124384176625e-01 -4.551688080752777088e-01
1.961814234252159950e-01 -1.221212917262701897e-01 -4.557621142620883470e-01
1.962075072686663146e-01 -1.220955758301211086e-01 -4.563553517621201094e-01
1.962335904592321378e-01 -1.220698647506268941e-01 -4.569485205842752085e-01
1.962596729987609590e-01 -1.220441584884138925e-01 -4.575416207374567445e-01
1.962857548890603598e-01 -1.220184570440788069e-01 -4.581346522305688729e-01
1.963118361318986205e-01 -1.219927604181892389e-01 -4.587276150725167478e-01
1.963379167290054683e-01 -1.219670686112841324e-01 -4.593205092722064120e-01
1.963639966820726612e-01 -1.219413816238743148e-01 -4.599133348385449072e-01
1.963900759927547368e-01 -1.219156994564429136e-01 -4.605060917804402743e-01
1.964161546626694843e-01 -1.218900221094459252e-01 -4.610987801068015535e-01
1.964422326933987495e-01 -1.218643495833125340e-01 -4.616913998265386176e-01
1.964683100864889342e-01 -1.218386818784457371e-01 -4.622839509485623943e-01
1.964943868434516072e-01 -1.218130189952226494e-01 -4.628764334817846438e-01
1.965204629657641699e-01 -1.217873609339950036e-01 -4.634688474351181808e-01
1.965465384548703565e-01 -1.217617076950896077e-01 -4.640611928174767087e-01
1.965726133121808716e-01 -1.217360592788087059e-01 -4.646534696377747631e-01
1.965986875390738631e-01 -1.217104156854304786e-01 -4.652456779049279345e-01
1.966247611368955872e-01 -1.216847769152093334e-01 -4.658378176278526461e-01
1.966508341069608534e-01 -1.216591429683764325e-01 -4.664298888154662648e-01
1.966769064505536901e-01 -1.216335138451400122e-01 -4.670218914766870455e-01
1.967029781689277057e-01 -1.216078895456858405e-01 -4.676138256204341315e-01
1.967290492633067267e-01 -1.215822700701775227e-01 -4.682056912556275541e-01
1.967551197348852421e-01 -1.215566554187569037e-01 -4.687974883911882329e-01
1.967811895848289860e-01 -1.215310455915444843e-01 -4.693892170360379756e-01
1.968072588142752988e-01 -1.215054405886397404e-01 -4.699808771990994227e-01
1.968333274243337094e-01 -1.214798404101214840e-01 -4.705724688892961582e-01
1.968593954160864357e-01 -1.214542450560482101e-01 -4.711639921155526545e-01
1.968854627905887167e-01 -1.214286545264584988e-01 -4.717554468867941053e-01
1.969115295488694239e-01 -1.214030688213712655e-01 -4.723468332119467039e-01
1.969375956919313941e-01 -1.213774879407861912e-01 -4.729381510999373650e-01
1.969636612207519566e-01 -1.213519118846839717e-01 -4.735294005596940026e-01
1.969897261362833218e-01 -1.213263406530266791e-01 -4.741205816001452522e-01
1.970157904394530257e-01 -1.213007742457580668e-01 -4.747116942302205822e-01
1.970418541311643179e-01 -1.212752126628039162e-01 -4.753027384588504045e-01
1.970679172122966616e-01 -1.212496559040722593e-01 -4.758937142949658528e-01
1.970939796837060665e-01 -1.212241039694538086e-01 -4.764846217474988932e-01
1.971200415462254774e-01 -1.211985568588221374e-01 -4.770754608253823803e-01
1.971461028006652183e-01 -1.211730145720340407e-01 -4.776662315375499457e-01
1.971721634478133811e-01 -1.211474771089297714e-01 -4.782569338929359981e-01
1.971982234884361584e-01 -1.211219444693333730e-01 -4.788475679004757790e-01
1.972242829232782324e-01 -1.210964166530529157e-01 -4.794381335691053625e-01
1.972503417530632186e-01 -1.210708936598808155e-01 -4.800286309077615998e-01
1.972763999784938604e-01 -1.210453754895940426e-01 -4.806190599253821194e-01
1.973024576002525843e-01 -1.210198621419544401e-01 -4.812094206309053268e-01
1.973285146190016937e-01 -1.209943536167089329e-01 -4.817997130332704048e-01
1.973545710353837856e-01 -1.209688499135898460e-01 -4.823899371414174242e-01
1.973806268500220840e-01 -1.209433510323150718e-01 -4.829800929642870666e-01
1.974066820635207165e-01 -1.209178569725884028e-01 -4.835701805108209572e-01
1.974327366764651037e-01 -1.208923677340996983e-01 -4.841601997899613319e-01
1.974587906894223199e-01 -1.208668833165251616e-01 -4.847501508106513146e-01
1.974848441029412316e-01 -1.208414037195276042e-01 -4.853400335818347511e-01
1.975108969175530527e-01 -1.208159289427565841e-01 -4.859298481124562086e-01
1.975369491337714001e-01 -1.207904589858487254e-01 -4.865195944114610871e-01
1.975630007520927933e-01 -1.207649938484278845e-01 -4.871092724877954527e-01
1.975890517729968210e-01 -1.207395335301053862e-01 -4.876988823504061488e-01
1.976151021969465016e-01 -1.207140780304802458e-01 -4.882884240082407956e-01
1.976411520243885611e-01 -1.206886273491393630e-01 -4.888778974702476798e-01
1.976672012557536551e-01 -1.206631814856577722e-01 -4.894673027453759206e-01
1.976932498914567016e-01 -1.206377404395987396e-01 -4.900566398425753034e-01
1.977192979318971588e-01 -1.206123042105140958e-01 -4.906459087707963351e-01
1.977453453774591918e-01 -1.205868727979443750e-01 -4.912351095389902444e-01
1.977713922285121162e-01 -1.205614462014189675e-01 -4.918242421561090927e-01
1.977974384854104262e-01 -1.205360244204563835e-01 -4.924133066311054963e-01
1.978234841484942663e-01 -1.205106074545643779e-01 -4.930023029729329043e-01
1.978495292180895426e-01 -1.204851953032402001e-01 -4.935912311905454319e-01
1.978755736945081722e-01 -1.204597879659707049e-01 -4.941800912928979161e-01
1.979016175780483888e-01 -1.204343854422325749e-01 -4.947688832889459154e-01
1.979276608689949646e-01 -1.204089877314924867e-01 -4.953576071876455988e-01
1.979537035676193768e-01 -1.203835948332072775e-01 -4.959462629979539683e-01
1.979797456741801132e-01 -1.203582067468241118e-01 -4.965348507288286362e-01
1.980057871889228382e-01 -1.203328234717806616e-01 -4.971233703892279365e-01
1.980318281120806434e-01 -1.203074450075052454e-01 -4.977118219881108696e-01
1.980578684438742687e-01 -1.202820713534169944e-01 -4.983002055344371573e-01
1.980839081845122973e-01 -1.202567025089260611e-01 -4.988885210371671874e-01
1.981099473341913775e-01 -1.202313384734336882e-01 -4.994767685052619588e-01
1.981359858930964446e-01 -1.202059792463324311e-01 -5.000649479476833026e-01
1.981620238614008322e-01 -1.201806248270062827e-01 -5.006530593733935497e-01
1.981880612392666330e-01 -1.201552752148307979e-01 -5.012411027913559192e-01
1.982140980268447261e-01 -1.201299304091732745e-01 -5.018290782105340186e-01
1.982401342242750553e-01 -1.201045904093928779e-01 -5.024169856398923439e-01
1.982661698316868504e-01 -1.200792552148407938e-01 -5.030048250883959460e-01
1.982922048491987388e-01 -1.200539248248603391e-01 -5.035925965650106528e-01
1.983182392769189395e-01 -1.200285992387871425e-01 -5.041803000787027367e-01
1.983442731149455129e-01 -1.200032784559492277e-01 -5.047679356384393579e-01
1.983703063633664443e-01 -1.199779624756671659e-01 -5.053555032531881208e-01
1.983963390222598655e-01 -1.199526512972542147e-01 -5.059430029319175182e-01
1.984223710916942218e-01 -1.199273449200164293e-01 -5.065304346835963756e-01
1.984484025717284106e-01 -1.199020433432528010e-01 -5.071177985171945179e-01
1.984744334624120310e-01 -1.198767465662553405e-01 -5.077050944416821032e-01
1.985004637637854119e-01 -1.198514545883092725e-01 -5.082923224660300665e-01
1.985264934758799171e-01 -1.198261674086930628e-01 -5.088794825992100090e-01
1.985525225987179732e-01 -1.198008850266786274e-01 -5.094665748501940872e-01
1.985785511323132912e-01 -1.197756074415313732e-01 -5.100535992279550124e-01
1.986045790766710339e-01 -1.197503346525103235e-01 -5.106405557414663843e-01
1.986306064317878983e-01 -1.197250666588682705e-01 -5.112274443997021356e-01
1.986566331976523381e-01 -1.196998034598518307e-01 -5.118142652116370872e-01
1.986826593742446190e-01 -1.196745450547015976e-01 -5.124010181862465041e-01
1.987086849615370687e-01 -1.196492914426521975e-01 -5.129877033325062063e-01
1.987347099594941047e-01 -1.196240426229324416e-01 -5.135743206593927912e-01
1.987607343680724559e-01 -1.195987985947653959e-01 -5.141608701758835220e-01
1.987867581872212741e-01 -1.195735593573684780e-01 -5.147473518909559953e-01
1.988127814168821894e-01 -1.195483249099536099e-01 -5.153337658135885846e-01
1.988388040569895876e-01 -1.195230952517271905e-01 -5.159201119527603296e-01
1.988648261074705825e-01 -1.194978703818903587e-01 -5.165063903174508253e-01
1.988908475682452659e-01 -1.194726502996389245e-01 -5.170926009166401105e-01
1.989168684392267628e-01 -1.194474350041635768e-01 -5.176787437593090013e-01
1.989428887203213703e-01 -1.194222244946499256e-01 -5.182648188544388690e-01
1.989689084114286965e-01 -1.193970187702785707e-01 -5.188508262110117508e-01
1.989949275124416883e-01 -1.193718178302252547e-01 -5.194367658380100172e-01
1.990209460232468808e-01 -1.193466216736608632e-01 -5.200226377444169268e-01
1.990469639437244254e-01 -1.193214302997515630e-01 -5.206084419392161822e-01
1.990729812737482007e-01 -1.192962437076588861e-01 -5.211941784313920412e-01
1.990989980131859516e-01 -1.192710618965397845e-01 -5.217798472299293167e-01
1.991250141618993996e-01 -1.192458848655467418e-01 -5.223654483438134877e-01
1.991510297197443269e-01 -1.192207126138278006e-01 -5.229509817820306994e-01
1.991770446865706590e-01 -1.191955451405267014e-01 -5.235364475535674300e-01
1.992030590622226316e-01 -1.191703824447829241e-01 -5.241218456674108239e-01
1.992290728465388461e-01 -1.191452245257317438e-01 -5.247071761325486916e-01
1.992550860393523526e-01 -1.191200713825043556e-01 -5.252924389579693987e-01
1.992810986404908169e-01 -1.190949230142278881e-01 -5.258776341526617548e-01
1.993071106497764922e-01 -1.190697794200255427e-01 -5.264627617256151249e-01
1.993331220670264692e-01 -1.190446405990165935e-01 -5.270478216858195397e-01
1.993591328920526762e-01 -1.190195065503164840e-01 -5.276328140422655855e-01
1.993851431246619066e-01 -1.189943772730369526e-01 -5.282177388039444033e-01
1.994111527646560966e-01 -1.189692527662859350e-01 -5.288025959798475784e-01
1.994371618118322143e-01 -1.189441330291678423e-01 -5.293873855789673621e-01
1.994631702659824812e-01 -1.189190180607834768e-01 -5.299721076102965611e-01
1.994891781268943731e-01 -1.188939078602301441e-01 -5.305567620828284259e-01
1.995151853943507581e-01 -1.188688024266016802e-01 -5.311413490055567621e-01
1.995411920681299245e-01 -1.188437017589885902e-01 -5.317258683874760417e-01
1.995671981480057200e-01 -1.188186058564779934e-01 -5.323103202375811804e-01
1.995932036337476345e-01 -1.187935147181538031e-01 -5.328947045648676495e-01
1.996192085251207726e-01 -1.187684283430967269e-01 -5.334790213783314750e-01
1.996452128218860478e-01 -1.187433467303842805e-01 -5.340632706869692381e-01
1.996712165238002379e-01 -1.187182698790909124e-01 -5.346474524997779643e-01
1.996972196306160130e-01 -1.186931977882880324e-01 -5.352315668257553449e-01
1.997232221420819909e-01 -1.186681304570440659e-01 -5.358156136738994046e-01
1.997492240579429035e-01 -1.186430678844245107e-01 -5.363995930532089451e-01
1.997752253779395970e-01 -1.186180100694919637e-01 -5.369835049726831011e-01
1.998012261018090874e-01 -1.185929570113062326e-01 -5.375673494413215625e-01
1.998272262292846713e-01 -1.185679087089243078e-01 -5.381511264681245743e-01
1.998532257600960094e-01 -1.185428651614004597e-01 -5.387348360620929366e-01
1.998792246939690986e-01 -1.185178263677863081e-01 -5.393184782322278936e-01
1.999052230306264666e-01 -1.184927923271307942e-01 -5.399020529875311336e-01
1.999312207697870880e-01 -1.184677630384803337e-01 -5.404855603370051220e-01
1.999572179111665793e-01 -1.184427385008787331e-01 -5.410690002896525463e-01
1.999832144544771706e-01 -1.184177187133673564e-01 -5.416523728544768712e-01
2.000092103994278447e-01 -1.183927036749850836e-01 -5.422356780404817833e-01
2.000352057457243093e-01 -1.183676933847684215e-01 -5.428189158566716355e-01
2.000612004930691079e-01 -1.183426878417515038e-01 -5.434020863120513356e-01
2.000871946411616753e-01 -1.183176870449661328e-01 -5.439851894156261247e-01
2.001131881896983655e-01 -1.182926909934418486e-01 -5.445682251764019099e-01
2.001391811383725350e-01 -1.182676996862059293e-01 -5.451511936033850425e-01
2.001651734868745980e-01 -1.182427131222834743e-01 -5.457340947055823177e-01
2.001911652348920267e-01 -1.182177313006974456e-01 -5.463169284920010860e-01
2.002171563821095179e-01 -1.181927542204686266e-01 -5.468996949716491418e-01
2.002431469282089371e-01 -1.181677818806157881e-01 -5.474823941535348348e-01
2.002691368728693744e-01 -1.181428142801556197e-01 -5.480650260466669588e-01
2.002951262157672552e-01 -1.181178514181028122e-01 -5.486475906600547514e-01
2.003211149565763405e-01 -1.180928932934700859e-01 -5.492300880027080057e-01
2.003471030949678378e-01 -1.180679399052682321e-01 -5.498125180836369585e-01
2.003730906306103454e-01 -1.180429912525061409e-01 -5.503948809118524021e-01
2.003990775631699917e-01 -1.180180473341908426e-01 -5.509771764963654617e-01
2.004250638923104344e-01 -1.179931081493275358e-01 -5.515594048461879284e-01
2.004510496176929168e-01 -1.179681736969196010e-01 -5.521415659703319267e-01
2.004770347389763230e-01 -1.179432439759686979e-01 -5.527236598778100252e-01
2.005030192558172053e-01 -1.179183189854747099e-01 -5.533056865776354583e-01
2.005290031678698126e-01 -1.178933987244358689e-01 -5.538876460788216827e-01
2.005549864747861732e-01 -1.178684831918486858e-01 -5.544695383903828212e-01
2.005809691762161229e-01 -1.178435723867080759e-01 -5.550513635213334407e-01
2.006069512718073322e-01 -1.178186663080073165e-01 -5.556331214806884411e-01
2.006329327612053071e-01 -1.177937649547381310e-01 -5.562148122774632775e-01
2.006589136440535548e-01 -1.177688683258906743e-01 -5.567964359206739600e-01
2.006848939199934456e-01 -1.177439764204535888e-01 -5.573779924193367208e-01
2.007108735886644346e-01 -1.177190892374140319e-01 -5.579594817824684583e-01
2.007368526497039507e-01 -1.176942067757576760e-01 -5.585409040190865149e-01
2.007628311027475077e-01 -1.176693290344687781e-01 -5.591222591382085660e-01
2.007888089474287041e-01 -1.176444560125301797e-01 -5.597035471488528424e-01
2.008147861833793346e-01 -1.176195877089233066e-01 -5.602847680600379077e-01
2.008407628102293341e-01 -1.175947241226282941e-01 -5.608659218807828806e-01
2.008667388276068333e-01 -1.175698652526238758e-01 -5.614470086201074350e-01
2.008927142351382145e-01 -1.175450110978875085e-01 -5.620280282870314670e-01
2.009186890324481667e-01 -1.175201616573953584e-01 -5.626089808905753165e-01
2.009446632191596305e-01 -1.174953169301223566e-01 -5.631898664397599896e-01
2.009706367948939365e-01 -1.174704769150421574e-01 -5.637706849436068257e-01
2.009966097592707501e-01 -1.174456416111272217e-01 -5.643514364111374970e-01
2.010225821119081824e-01 -1.174208110173488168e-01 -5.649321208513742310e-01
2.010485538524227345e-01 -1.173959851326770581e-01 -5.655127382733396990e-01
2.010745249804294088e-01 -1.173711639560809095e-01 -5.660932886860569058e-01
2.011004954955416535e-01 -1.173463474865282102e-01 -5.666737720985494109e-01
2.011264653973714733e-01 -1.173215357229856898e-01 -5.672541885198411071e-01
2.011524346855294021e-01 -1.172967286644190088e-01 -5.678345379589564423e-01
2.011784033596245858e-01 -1.172719263097927456e-01 -5.684148204249200864e-01
2.012043714192646993e-01 -1.172471286580704930e-01 -5.689950359267573754e-01
2.012303388640561408e-01 -1.172223357082147477e-01 -5.695751844734938674e-01
2.012563056936039207e-01 -1.171975474591870764e-01 -5.701552660741556755e-01
2.012822719075117173e-01 -1.171727639099480328e-01 -5.707352807377692461e-01
2.013082375053819317e-01 -1.171479850594572131e-01 -5.713152284733615804e-01
2.013342024868157165e-01 -1.171232109066732696e-01 -5.718951092899599020e-01
2.013601668514129750e-01 -1.170984414505539251e-01 -5.724749231965919893e-01
2.013861305987723616e-01 -1.170736766900560277e-01 -5.730546702022860650e-01
2.014120937284913926e-01 -1.170489166241354823e-01 -5.736343503160705737e-01
2.014380562401663632e-01 -1.170241612517473884e-01 -5.742139635469746262e-01
2.014640181333924585e-01 -1.169994105718459299e-01 -5.747935099040275553e-01
2.014899794077637252e-01 -1.169746645833844995e-01 -5.753729893962592490e-01
2.015159400628731001e-01 -1.169499232853156434e-01 -5.759524020326998173e-01
2.015419000983124653e-01 -1.169251866765911030e-01 -5.765317478223799252e-01
2.015678595136726203e-01 -1.169004547561618701e-01 -5.771110267743305711e-01
2.015938183085433377e-01 -1.168757275229781317e-01 -5.776902388975831970e-01
2.016197764825133631e-01 -1.168510049759893116e-01 -5.782693842011696894e-01
2.016457340351704708e-01 -1.168262871141441117e-01 -5.788484626941222677e-01
2.016716909661014634e-01 -1.168015739363904848e-01 -5.794274743854734844e-01
2.016976472748921168e-01 -1.167768654416757174e-01 -5.800064192842563360e-01
2.017236029611273740e-01 -1.167521616289463604e-01 -5.805852973995043742e-01
2.017495580243911790e-01 -1.167274624971482849e-01 -5.811641087402512618e-01
2.017755124642666431e-01 -1.167027680452267097e-01 -5.817428533155313275e-01
2.018014662803359338e-01 -1.166780782721261872e-01 -5.823215311343791223e-01
2.018274194721803860e-01 -1.166533931767906318e-01 -5.829001422058296411e-01
2.018533720393805020e-01 -1.166287127581633193e-01 -5.834786865389182120e-01
2.018793239815159513e-01 -1.166040370151869426e-01 -5.840571641426806071e-01
2.019052752981655707e-01 -1.165793659468035565e-01 -5.846355750261529316e-01
2.019312259889074479e-01 -1.165546995519546464e-01 -5.852139191983717348e-01
2.019571760533188653e-01 -1.165300378295811151e-01 -5.857921966683738990e-01
2.019831254909763285e-01 -1.165053807786233103e-01 -5.863704074451967507e-01
2.020090743014556489e-01 -1.164807283980210106e-01 -5.869485515378779494e-01
2.020350224843318887e-01 -1.164560806867134535e-01 -5.875266289554554877e-01
2.020609700391793606e-01 -1.164314376436393905e-01 -5.881046397069678022e-01
2.020869169655717668e-01 -1.164067992677369628e-01 -5.886825838014536627e-01
2.021128632630820321e-01 -1.163821655579439229e-01 -5.892604612479522830e-01
2.021388089312824987e-01 -1.163575365131974404e-01 -5.898382720555030989e-01
2.021647539697447871e-01 -1.163329121324342408e-01 -5.904160162331461015e-01
2.021906983780399347e-01 -1.163082924145905500e-01 -5.909936937899215037e-01
2.022166421557383131e-01 -1.162836773586021499e-01 -5.915713047348699627e-01
2.022425853024097109e-01 -1.162590669634043644e-01 -5.921488490770324686e-01
2.022685278176233059e-01 -1.162344612279320871e-01 -5.927263268254503448e-01
2.022944697009477211e-01 -1.162098601511197399e-01 -5.933037379891653584e-01
2.023204109519509686e-01 -1.161852637319013837e-01 -5.938810825772194990e-01
2.023463515702005056e-01 -1.161606719692106077e-01 -5.944583605986553110e-01
2.023722915552633173e-01 -1.161360848619805985e-01 -5.950355720625155609e-01
2.023982309067057506e-01 -1.161115024091442238e-01 -5.956127169778433483e-01
2.024241696240937083e-01 -1.160869246096338792e-01 -5.961897953536822170e-01
2.024501077069925936e-01 -1.160623514623816133e-01 -5.967668071990760437e-01
2.024760451549672269e-01 -1.160377829663191418e-01 -5.973437525230689271e-01
2.025019819675820398e-01 -1.160132191203777641e-01 -5.979206313347055213e-01
2.025279181444009369e-01 -1.159886599234884602e-01 -5.984974436430308131e-01
2.025538536849873783e-01 -1.159641053745818634e-01 -5.990741894570899007e-01
2.025797885889043803e-01 -1.159395554725882876e-01 -5.996508687859284370e-01
2.026057228557145151e-01 -1.159150102164377139e-01 -6.002274816385924083e-01
2.026316564849799384e-01 -1.158904696050597899e-01 -6.008040280241281339e-01
2.026575894762623620e-01 -1.158659336373838583e-01 -6.013805079515821550e-01
2.026835218291230811e-01 -1.158414023123389841e-01 -6.019569214300014570e-01
2.027094535431230582e-01 -1.158168756288539131e-01 -6.025332684684333584e-01
2.027353846178227836e-01 -1.157923535858571273e-01 -6.031095490759255107e-01
2.027613150527824426e-01 -1.157678361822767898e-01 -6.036857632615257874e-01
2.027872448475618039e-01 -1.157433234170408554e-01 -6.042619110342826172e-01
2.028131740017203033e-01 -1.157188152890769595e-01 -6.048379924032445398e-01
2.028391025148170157e-01 -1.156943117973124879e-01 -6.054140073774606501e-01
2.028650303864106830e-01 -1.156698129406745906e-01 -6.059899559659801538e-01
2.028909576160596862e-01 -1.156453187180901815e-01 -6.065658381778527009e-01
2.029168842033221565e-01 -1.156208291284858969e-01 -6.071416540221282743e-01
2.029428101477558366e-01 -1.155963441707881928e-01 -6.077174035078571901e-01
2.029687354489181916e-01 -1.155718638439232754e-01 -6.082930866440899864e-01
2.029946601063664091e-01 -1.155473881468171288e-01 -6.088687034398776454e-01
2.030205841196573435e-01 -1.155229170783955428e-01 -6.094442539042713713e-01
2.030465074883476273e-01 -1.154984506375840714e-01 -6.100197380463228125e-01
2.030724302119935876e-01 -1.154739888233081019e-01 -6.105951558750837282e-01
2.030983522901512739e-01 -1.154495316344928135e-01 -6.111705073996064330e-01
2.031242737223764860e-01 -1.154250790700632051e-01 -6.117457926289433523e-01
2.031501945082248017e-01 -1.154006311289440534e-01 -6.123210115721473557e-01
2.031761146472515489e-01 -1.153761878100600380e-01 -6.128961642382716457e-01
2.032020341390118057e-01 -1.153517491123355887e-01 -6.134712506363695361e-01
2.032279529830604003e-01 -1.153273150346950243e-01 -6.140462707754948957e-01
2.032538711789520225e-01 -1.153028855760624694e-01 -6.146212246647018151e-01
2.032797887262410563e-01 -1.152784607353619095e-01 -6.151961123130446074e-01
2.033057056244817196e-01 -1.152540405115171779e-01 -6.157709337295780294e-01
2.033316218732280634e-01 -1.152296249034519410e-01 -6.163456889233570601e-01
2.033575374720339168e-01 -1.152052139100897682e-01 -6.169203779034369006e-01
2.033834524204528871e-01 -1.151808075303540901e-01 -6.174950006788731960e-01
2.034093667180384701e-01 -1.151564057631681570e-01 -6.180695572587218134e-01
2.034352803643439123e-01 -1.151320086074551496e-01 -6.186440476520390641e-01
2.034611933589223765e-01 -1.151076160621380823e-01 -6.192184718678812594e-01
2.034871057013268036e-01 -1.150832281261398859e-01 -6.197928299153052656e-01
2.035130173911099960e-01 -1.150588447983833945e-01 -6.203671218033681711e-01
2.035389284278246447e-01 -1.150344660777912753e-01 -6.209413475411273975e-01
2.035648388110232188e-01 -1.150100919632861679e-01 -6.215155071376404772e-01
2.035907485402581041e-01 -1.149857224537905453e-01 -6.220896006019654978e-01
2.036166576150815477e-01 -1.149613575482268252e-01 -6.226636279431605470e-01
2.036425660350456857e-01 -1.149369972455173416e-01 -6.232375891702842674e-01
2.036684737997024874e-01 -1.149126415445843180e-01 -6.238114842923954129e-01
2.036943809086038393e-01 -1.148882904443498942e-01 -6.243853133185530702e-01
2.037202873613015164e-01 -1.148639439437361687e-01 -6.249590762578166592e-01
2.037461931573471552e-01 -1.148396020416651425e-01 -6.255327731192458218e-01
2.037720982962923644e-01 -1.148152647370587198e-01 -6.261064039119005331e-01
2.037980027776885861e-01 -1.147909320288387908e-01 -6.266799686448409901e-01
2.038239066010871792e-01 -1.147666039159271484e-01 -6.272534673271276118e-01
2.038498097660394748e-01 -1.147422803972455302e-01 -6.278268999678212614e-01
2.038757122720966375e-01 -1.147179614717156459e-01 -6.284002665759830242e-01
2.039016141188098319e-01 -1.146936471382591083e-01 -6.289735671606740963e-01
2.039275153057300838e-01 -1.146693373957975298e-01 -6.295468017309561182e-01
2.039534158324084190e-01 -1.146450322432524260e-01 -6.301199702958910631e-01
2.039793156983957523e-01 -1.146207316795453124e-01 -6.306930728645409046e-01
2.040052149032429707e-01 -1.145964357035976627e-01 -6.312661094459681710e-01
2.040311134465008780e-01 -1.145721443143309093e-01 -6.318390800492353909e-01
2.040570113277202224e-01 -1.145478575106664426e-01 -6.324119846834056480e-01
2.040829085464517800e-01 -1.145235752915256117e-01 -6.329848233575420258e-01
2.041088051022461602e-01 -1.144992976558298070e-01 -6.335575960807080520e-01
2.041347009946540558e-01 -1.144750246025002943e-01 -6.341303028619674764e-01
2.041605962232260207e-01 -1.144507561304584226e-01 -6.347029437103841598e-01
2.041864907875126922e-01 -1.144264922386254435e-01 -6.352755186350224070e-01
2.042123846870645687e-01 -1.144022329259226506e-01 -6.358480276449467450e-01
2.042382779214321764e-01 -1.143779781912712956e-01 -6.364204707492219226e-01
2.042641704901660415e-01 -1.143537280335926304e-01 -6.369928479569129109e-01
2.042900623928166348e-01 -1.143294824518079067e-01 -6.375651592770849030e-01
2.043159536289344547e-01 -1.143052414448383625e-01 -6.381374047188035359e-01
2.043418441980699718e-01 -1.142810050116052495e-01 -6.387095842911344468e-01
2.043677340997736291e-01 -1.142567731510298334e-01 -6.392816980031437168e-01
2.043936233335958974e-01 -1.142325458620333523e-01 -6.398537458638976494e-01
2.044195118990872195e-01 -1.142083231435370577e-01 -6.404257278824626587e-01
2.044453997957980940e-01 -1.141841049944622155e-01 -6.409976440679056031e-01
2.044712870232789914e-01 -1.141598914137301329e-01 -6.415694944292933410e-01
2.044971735810803826e-01 -1.141356824002621173e-01 -6.421412789756931749e-01
2.045230594687527659e-01 -1.141114779529794621e-01 -6.427129977161725183e-01
2.045489446858466676e-01 -1.140872780708035023e-01 -6.432846506597992287e-01
2.045748292319126138e-01 -1.140630827526556146e-01 -6.438562378156411636e-01
2.046007131065011864e-01 -1.140388919974571758e-01 -6.444277591927665139e-01
2.046265963091629392e-01 -1.140147058041296041e-01 -6.449992148002436920e-01
2.046524788394484817e-01 -1.139905241715943318e-01 -6.455706046471413329e-01
2.046783606969085068e-01 -1.139663470987728189e-01 -6.461419287425284042e-01
2.047042418810936237e-01 -1.139421745845866085e-01 -6.467131870954739847e-01
2.047301223915546087e-01 -1.139180066279571746e-01 -6.472843797150473755e-01
2.047560022278421821e-01 -1.138938432278061574e-01 -6.478555066103183213e-01
2.047818813895071477e-01 -1.138696843830551420e-01 -6.484265677903564562e-01
2.048077598761003648e-01 -1.138455300926257963e-01 -6.489975632642318581e-01
2.048336376871726927e-01 -1.138213803554398162e-01 -6.495684930410148272e-01
2.048595148222750739e-01 -1.137972351704189394e-01 -6.501393571297758855e-01
2.048853912809585065e-01 -1.137730945364849727e-01 -6.507101555395856662e-01
2.049112670627740440e-01 -1.137489584525597369e-01 -6.512808882795151355e-01
2.049371421672727678e-01 -1.137248269175651638e-01 -6.518515553586354816e-01
2.049630165940058424e-01 -1.137006999304231575e-01 -6.524221567860180038e-01
2.049888903425244879e-01 -1.136765774900557330e-01 -6.529926925707343344e-01
2.050147634123799800e-01 -1.136524595953849470e-01 -6.535631627218562167e-01
2.050406358031236775e-01 -1.136283462453329118e-01 -6.541335672484556163e-01
2.050665075143069949e-01 -1.136042374388217951e-01 -6.547039061596048315e-01
2.050923785454814019e-01 -1.135801331747738480e-01 -6.552741794643763829e-01
2.051182488961985073e-01 -1.135560334521113351e-01 -6.558443871718427909e-01
2.051441185660098920e-01 -1.135319382697566465e-01 -6.564145292910769092e-01
2.051699875544672758e-01 -1.135078476266321995e-01 -6.569846058311519243e-01
2.051958558611224337e-01 -1.134837615216604811e-01 -6.575546168011410231e-01
2.052217234855272521e-01 -1.134596799537640616e-01 -6.581245622101176140e-01
2.052475904272336726e-01 -1.134356029218655665e-01 -6.586944420671555500e-01
2.052734566857937482e-01 -1.134115304248877049e-01 -6.592642563813285728e-01
2.052993222607595591e-01 -1.133874624617532689e-01 -6.598340051617107571e-01
2.053251871516833249e-01 -1.133633990313851064e-01 -6.604036884173765110e-01
2.053510513581173480e-01 -1.133393401327061345e-01 -6.609733061574002422e-01
2.053769148796139865e-01 -1.133152857646393674e-01 -6.615428583908565807e-01
2.054027777157257373e-01 -1.132912359261079027e-01 -6.621123451268204896e-01
2.054286398660051804e-01 -1.132671906160348935e-01 -6.626817663743670428e-01
2.054545013300049516e-01 -1.132431498333436037e-01 -6.632511221425714254e-01
2.054803621072778530e-01 -1.132191135769573531e-01 -6.638204124405091555e-01
2.055062221973767145e-01 -1.131950818457995722e-01 -6.643896372772558623e-01
2.055320815998545048e-01 -1.131710546387937472e-01 -6.649587966618872859e-01
2.055579403142643036e-01 -1.131470319548634751e-01 -6.655278906034796105e-01
2.055837983401593017e-01 -1.131230137929324364e-01 -6.660969191111089094e-01
2.056096556770927453e-01 -1.130990001519244087e-01 -6.666658821938516999e-01
2.056355123246180194e-01 -1.130749910307632250e-01 -6.672347798607844993e-01
2.056613682822886202e-01 -1.130509864283728433e-01 -6.678036121209840470e-01
2.056872235496581269e-01 -1.130269863436773187e-01 -6.683723789835274154e-01
2.057130781262802854e-01 -1.130029907756007479e-01 -6.689410804574915659e-01
2.057389320117088971e-01 -1.129789997230674081e-01 -6.695097165519539040e-01
2.057647852054979298e-01 -1.129550131850016043e-01 -6.700782872759919462e-01
2.057906377072014070e-01 -1.129310311603277661e-01 -6.706467926386832090e-01
2.058164895163734909e-01 -1.129070536479704068e-01 -6.712152326491056531e-01
2.058423406325685101e-01 -1.128830806468541365e-01 -6.717836073163372390e-01
2.058681910553408212e-01 -1.128591121559037180e-01 -6.723519166494561494e-01
2.058940407842450027e-01 -1.128351481740439283e-01 -6.729201606575407890e-01
2.059198898188356608e-01 -1.128111887001997382e-01 -6.734883393496696735e-01
2.059457381586675961e-01 -1.127872337332961328e-01 -6.740564527349214297e-01
2.059715858032956648e-01 -1.127632832722582773e-01 -6.746245008223749062e-01
2.059974327522749171e-01 -1.127393373160113926e-01 -6.751924836211091741e-01
2.060232790051604868e-01 -1.127153958634808245e-01 -6.757604011402034150e-01
2.060491245615076739e-01 -1.126914589135920297e-01 -6.763282533887370329e-01
2.060749694208718619e-01 -1.126675264652705760e-01 -6.768960403757895428e-01
2.061008135828085730e-01 -1.126435985174421284e-01 -6.774637621104405705e-01
2.061266570468734960e-01 -1.126196750690324488e-01 -6.780314186017699640e-01
2.061524998126223751e-01 -1.125957561189674522e-01 -6.785990098588576824e-01
2.061783418796111766e-01 -1.125718416661731225e-01 -6.791665358907840178e-01
2.062041832473959779e-01 -1.125479317095755549e-01 -6.797339967066291511e-01
2.062300239155329118e-01 -1.125240262481010250e-01 -6.803013923154735965e-01
2.062558638835783609e-01 -1.125001252806758362e-01 -6.808687227263979791e-01
2.062817031510887911e-01 -1.124762288062264581e-01 -6.814359879484830351e-01
2.063075417176207793e-01 -1.124523368236794579e-01 -6.820031879908097228e-01
2.063333795827310968e-01 -1.124284493319615275e-01 -6.825703228624591112e-01
2.063592167459765980e-01 -1.124045663299994696e-01 -6.831373925725123808e-01
2.063850532069143318e-01 -1.123806878167202122e-01 -6.837043971300509337e-01
2.064108889651014578e-01 -1.123568137910507803e-01 -6.842713365441562834e-01
2.064367240200952747e-01 -1.123329442519183513e-01 -6.848382108239101651e-01
2.064625583714532198e-01 -1.123090791982502001e-01 -6.854050199783942032e-01
2.064883920187329247e-01 -1.122852186289737264e-01 -6.859717640166904662e-01
2.065142249614920766e-01 -1.122613625430164686e-01 -6.865384429478810224e-01
2.065400571992886125e-01 -1.122375109393060483e-01 -6.871050567810481624e-01
2.065658887316805248e-01 -1.122136638167702677e-01 -6.876716055252741766e-01
2.065917195582260002e-01 -1.121898211743369844e-01 -6.882380891896415775e-01
2.066175496784833643e-01 -1.121659830109342226e-01 -6.888045077832329888e-01
2.066433790920111091e-01 -1.121421493254901314e-01 -6.893708613151311448e-01
2.066692077983678100e-01 -1.121183201169329985e-01 -6.899371497944190024e-01
2.066950357971122920e-01 -1.120944953841911812e-01 -6.905033732301796290e-01
2.067208630878034359e-01 -1.120706751261932310e-01 -6.910695316314960923e-01
2.067466896700003443e-01 -1.120468593418677689e-01 -6.916356250074517931e-01
2.067725155432622308e-01 -1.120230480301435960e-01 -6.922016533671301319e-01
2.067983407071485036e-01 -1.119992411899495832e-01 -6.927676167196146206e-01
2.068241651612186538e-01 -1.119754388202148232e-01 -6.933335150739888819e-01
2.068499889050323948e-01 -1.119516409198684365e-01 -6.938993484393368716e-01
2.068758119381495508e-01 -1.119278474878397101e-01 -6.944651168247424344e-01
2.069016342601301406e-01 -1.119040585230580837e-01 -6.950308202392896373e-01
2.069274558705342937e-01 -1.118802740244531219e-01 -6.955964586920626580e-01
2.069532767689223340e-01 -1.118564939909545003e-01 -6.961620321921456744e-01
2.069790969548547244e-01 -1.118327184214920611e-01 -6.967275407486231975e-01
2.070049164278921217e-01 -1.118089473149957297e-01 -6.972929843705797381e-01
2.070307351875952662e-01 -1.117851806703956258e-01 -6.978583630670999183e-01
2.070565532335251480e-01 -1.117614184866219385e-01 -6.984236768472685819e-01
2.070823705652428126e-01 -1.117376607626050650e-01 -6.989889257201704620e-01
2.071081871823095832e-01 -1.117139074972754581e-01 -6.995541096948906246e-01
2.071340030842868385e-01 -1.116901586895637788e-01 -7.001192287805141357e-01
2.071598182707361790e-01 -1.116664143384007712e-01 -7.006842829861261723e-01
2.071856327412193721e-01 -1.116426744427173462e-01 -7.012492723208121337e-01
2.072114464952983237e-01 -1.116189390014445393e-01 -7.018141967936574188e-01
2.072372595325350786e-01 -1.115952080135135388e-01 -7.023790564137474268e-01
2.072630718524919036e-01 -1.115714814778556302e-01 -7.029438511901678899e-01
2.072888834547311765e-01 -1.115477593934023071e-01 -7.035085811320045401e-01
2.073146943388154695e-01 -1.115240417590851185e-01 -7.040732462483431098e-01
2.073405045043075212e-01 -1.115003285738358219e-01 -7.046378465482696640e-01
2.073663139507702091e-01 -1.114766198365862993e-01 -7.052023820408701571e-01
2.073921226777666327e-01 -1.114529155462685162e-01 -7.057668527352307652e-01
2.074179306848599746e-01 -1.114292157018146878e-01 -7.063312586404376647e-01
2.074437379716136676e-01 -1.114055203021570573e-01 -7.068955997655772538e-01
2.074695445375912273e-01 -1.113818293462280895e-01 -7.074598761197359309e-01
2.074953503823564194e-01 -1.113581428329603329e-01 -7.080240877120000942e-01
2.075211555054731205e-01 -1.113344607612865439e-01 -7.085882345514564751e-01
2.075469599065054016e-01 -1.113107831301395623e-01 -7.091523166471916939e-01
2.075727635850175001e-01 -1.112871099384523943e-01 -7.097163340082925931e-01
2.075985665405738201e-01 -1.112634411851581850e-01 -7.102802866438461260e-01
2.076243687727389320e-01 -1.112397768691902461e-01 -7.108441745629391351e-01
2.076501702810776007e-01 -1.112161169894819862e-01 -7.114079977746586847e-01
2.076759710651547020e-01 -1.111924615449670362e-01 -7.119717562880919504e-01
2.077017711245353337e-01 -1.111688105345790822e-01 -7.125354501123261075e-01
2.077275704587847605e-01 -1.111451639572520050e-01 -7.130990792564484426e-01
2.077533690674684130e-01 -1.111215218119198239e-01 -7.136626437295463532e-01
2.077791669501518612e-01 -1.110978840975167248e-01 -7.142261435407073478e-01
2.078049641064008968e-01 -1.110742508129769768e-01 -7.147895786990189348e-01
2.078307605357814780e-01 -1.110506219572350711e-01 -7.153529492135687340e-01
2.078565562378597020e-01 -1.110269975292256101e-01 -7.159162550934444758e-01
2.078823512122018602e-01 -1.110033775278833346e-01 -7.164794963477338907e-01
2.079081454583744104e-01 -1.109797619521431522e-01 -7.170426729855248205e-01
2.079339389759440049e-01 -1.109561508009401093e-01 -7.176057850159052176e-01
2.079597317644774346e-01 -1.109325440732094048e-01 -7.181688324479630348e-01
2.079855238235417125e-01 -1.109089417678863765e-01 -7.187318152907863356e-01
2.080113151527039905e-01 -1.108853438839065425e-01 -7.192947335534632947e-01
2.080371057515315869e-01 -1.108617504202055321e-01 -7.198575872450820867e-01
2.080628956195920420e-01 -1.108381613757191408e-01 -7.204203763747308864e-01
2.080886847564530351e-01 -1.108145767493833173e-01 -7.209831009514980904e-01
2.081144731616824117e-01 -1.107909965401341623e-01 -7.215457609844720954e-01
2.081402608348482397e-01 -1.107674207469079020e-01 -7.221083564827414092e-01
2.081660477755186978e-01 -1.107438493686409564e-01 -7.226708874553945394e-01
2.081918339832622145e-01 -1.107202824042698430e-01 -7.232333539115199939e-01
2.082176194576473571e-01 -1.106967198527312873e-01 -7.237957558602063912e-01
2.082434041982428319e-01 -1.106731617129621537e-01 -7.243580933105424613e-01
2.082691882046176224e-01 -1.106496079838994034e-01 -7.249203662716170449e-01
2.082949714763408233e-01 -1.106260586644802202e-01 -7.254825747525188717e-01
2.083207540129816682e-01 -1.106025137536419123e-01 -7.260447187623367826e-01
2.083465358141096679e-01 -1.105789732503219269e-01 -7.266067983101597294e-01
2.083723168792944447e-01 -1.105554371534579056e-01 -7.271688134050766639e-01
2.083980972081058147e-01 -1.105319054619875868e-01 -7.277307640561766489e-01
2.084238768001137609e-01 -1.105083781748489175e-01 -7.282926502725487472e-01
2.084496556548884882e-01 -1.104848552909799414e-01 -7.288544720632820217e-01
2.084754337720003126e-01 -1.104613368093189246e-01 -7.294162294374656463e-01
2.085012111510198274e-01 -1.104378227288042164e-01 -7.299779224041889059e-01
2.085269877915176817e-01 -1.104143130483743879e-01 -7.305395509725410852e-01
2.085527636930648299e-01 -1.103908077669680937e-01 -7.311011151516113582e-01
2.085785388552323094e-01 -1.103673068835242382e-01 -7.316626149504891208e-01
2.086043132775914077e-01 -1.103438103969817813e-01 -7.322240503782637688e-01
2.086300869597135232e-01 -1.103203183062799048e-01 -7.327854214440246983e-01
2.086558599011703041e-01 -1.102968306103579016e-01 -7.333467281568614160e-01
2.086816321015335651e-01 -1.102733473081552729e-01 -7.339079705258634290e-01
2.087074035603752598e-01 -1.102498683986116446e-01 -7.344691485601202441e-01
2.087331742772675636e-01 -1.102263938806667815e-01 -7.350302622687214793e-01
2.087589442517827909e-01 -1.102029237532606426e-01 -7.355913116607567526e-01
2.087847134834935059e-01 -1.101794580153332981e-01 -7.361522967453156818e-01
2.088104819719724115e-01 -1.101559966658250400e-01 -7.367132175314878850e-01
2.088362497167924048e-01 -1.101325397036762715e-01 -7.372740740283630911e-01
2.088620167175265496e-01 -1.101090871278275624e-01 -7.378348662450311402e-01
2.088877829737480762e-01 -1.100856389372196487e-01 -7.383955941905816500e-01
2.089135484850304647e-01 -1.100621951307933916e-01 -7.389562578741044607e-01
2.089393132509473339e-01 -1.100387557074898603e-01 -7.395168573046894123e-01
2.089650772710724691e-01 -1.100153206662502631e-01 -7.400773924914263446e-01
2.089908405449798778e-01 -1.099918900060159466e-01 -7.406378634434052088e-01
2.090166030722437340e-01 -1.099684637257284381e-01 -7.411982701697157339e-01
2.090423648524383782e-01 -1.099450418243294314e-01 -7.417586126794478707e-01
2.090681258851383728e-01 -1.099216243007607452e-01 -7.423188909816915704e-01
2.090938861699184192e-01 -1.098982111539644063e-01 -7.428791050855367839e-01
2.091196457063534409e-01 -1.098748023828825526e-01 -7.434392550000735733e-01
2.091454044940185275e-01 -1.098513979864575024e-01 -7.439993407343917786e-01
2.091711625324889356e-01 -1.098279979636317544e-01 -7.445593622975814618e-01
2.091969198213401715e-01 -1.098046023133479182e-01 -7.451193196987325740e-01
2.092226763601478523e-01 -1.097812110345488257e-01 -7.456792129469351771e-01
2.092484321484877896e-01 -1.097578241261774196e-01 -7.462390420512793332e-01
2.092741871859360447e-01 -1.097344415871768231e-01 -7.467988070208551044e-01
2.092999414720687901e-01 -1.097110634164903259e-01 -7.473585078647524416e-01
2.093256950064624200e-01 -1.096876896130613566e-01 -7.479181445920615179e-01
2.093514477886934955e-01 -1.096643201758335379e-01 -7.484777172118723954e-01
2.093771998183387995e-01 -1.096409551037506314e-01 -7.490372257332751360e-01
2.094029510949752537e-01 -1.096175943957565652e-01 -7.495966701653598019e-01
2.094287016181800021e-01 -1.095942380507954200e-01 -7.501560505172164550e-01
2.094544513875303271e-01 -1.095708860678114710e-01 -7.507153667979352685e-01
2.094802004026037612e-01 -1.095475384457491042e-01 -7.512746190166063043e-01
2.095059486629779755e-01 -1.095241951835529137e-01 -7.518338071823196245e-01
2.095316961682308632e-01 -1.095008562801676327e-01 -7.523929313041652911e-01
2.095574429179404563e-01 -1.094775217345381746e-01 -7.529519913912333662e-01
2.095831889116850089e-01 -1.094541915456095915e-01 -7.535109874526140228e-01
2.096089341490429414e-01 -1.094308657123271161e-01 -7.540699194973973229e-01
2.096346786295928966e-01 -1.094075442336361337e-01 -7.546287875346733287e-01
2.096604223529136557e-01 -1.093842271084822099e-01 -7.551875915735321021e-01
2.096861653185842223e-01 -1.093609143358110491e-01 -7.557463316230637052e-01
2.097119075261837662e-01 -1.093376059145685503e-01 -7.563050076923581999e-01
2.097376489752916795e-01 -1.093143018437007369e-01 -7.568636197905056484e-01
2.097633896654874930e-01 -1.092910021221538408e-01 -7.574221679265960017e-01
2.097891295963509317e-01 -1.092677067488742326e-01 -7.579806521097193217e-01
2.098148687674619428e-01 -1.092444157228084356e-01 -7.585390723489655596e-01
2.098406071784006399e-01 -1.092211290429031534e-01 -7.590974286534247772e-01
2.098663448287473032e-01 -1.091978467081052701e-01 -7.596557210321869258e-01
2.098920817180824627e-01 -1.091745687173617946e-01 -7.602139494943419562e-01
2.099178178459867594e-01 -1.091512950696199441e-01 -7.607721140489797085e-01
2.099435532120410564e-01 -1.091280257638270745e-01 -7.613302147051902447e-01
2.099692878158264109e-01 -1.091047607989306945e-01 -7.618882514720634047e-01
2.099950216569240746e-01 -1.090815001738785067e-01 -7.624462243586890287e-01
2.100207547349154658e-01 -1.090582438876183807e-01 -7.630041333741569565e-01
2.100464870493821967e-01 -1.090349919390983247e-01 -7.635619785275570282e-01
2.100722185999060743e-01 -1.090117443272665271e-01 -7.641197598279790837e-01
2.100979493860690994e-01 -1.089885010510713570e-01 -7.646774772845128521e-01
2.101236794074534397e-01 -1.089652621094613222e-01 -7.652351309062480622e-01
2.101494086636414571e-01 -1.089420275013851108e-01 -7.657927207022744431e-01
2.101751371542157354e-01 -1.089187972257915638e-01 -7.663502466816817238e-01
2.102008648787589973e-01 -1.088955712816297300e-01 -7.669077088535595221e-01
2.102265918368541597e-01 -1.088723496678487695e-01 -7.674651072269974561e-01
2.102523180280843895e-01 -1.088491323833980368e-01 -7.680224418110851436e-01
2.102780434520329644e-01 -1.088259194272270525e-01 -7.685797126149120917e-01
2.103037681082833565e-01 -1.088027107982855179e-01 -7.691369196475679182e-01
2.103294919964193155e-01 -1.087795064955232455e-01 -7.696940629181420190e-01
2.103552151160246741e-01 -1.087563065178902971e-01 -7.702511424357237901e-01
2.103809374666835152e-01 -1.087331108643368460e-01 -7.708081582094027384e-01
2.104066590479800880e-01 -1.087099195338132318e-01 -7.713651102482682598e-01
2.104323798594988360e-01 -1.086867325252699884e-01 -7.719219985614095281e-01
2.104580999008243969e-01 -1.086635498376578163e-01 -7.724788231579159392e-01
2.104838191715415752e-01 -1.086403714699275547e-01 -7.730355840468766671e-01
2.105095376712353972e-01 -1.086171974210302371e-01 -7.735922812373809965e-01
2.105352553994910558e-01 -1.085940276899170637e-01 -7.741489147385179903e-01
2.105609723558939383e-01 -1.085708622755393732e-01 -7.747054845593767114e-01
2.105866885400296262e-01 -1.085477011768487265e-01 -7.752619907090462226e-01
2.106124039514838953e-01 -1.085245443927967957e-01 -7.758184331966155867e-01
2.106381185898426600e-01 -1.085013919223354745e-01 -7.763748120311737555e-01
2.106638324546921404e-01 -1.084782437644167541e-01 -7.769311272218095699e-01
2.106895455456185839e-01 -1.084550999179928893e-01 -7.774873787776119816e-01
2.107152578622085992e-01 -1.084319603820161904e-01 -7.780435667076697204e-01
