-0.003155 -0.008191 -0.000654
-0.002654 -0.011358 -0.001056
-0.001202 -0.013186 -0.001391
0.000494 -0.014635 -0.001709
0.002244 -0.015967 -0.002021
0.003992 -0.017255 -0.002332
0.005726 -0.018520 -0.002643
0.007440 -0.019767 -0.002954
0.009134 -0.021000 -0.003264
0.010808 -0.022217 -0.003575
0.012462 -0.023420 -0.003886
0.014096 -0.024609 -0.004198
0.015711 -0.025784 -0.004509
0.017306 -0.026944 -0.004820
0.018883 -0.028091 -0.005132
0.020440 -0.029225 -0.005443
0.021979 -0.030345 -0.005755
0.023499 -0.031452 -0.006067
0.025002 -0.032546 -0.006378
0.026487 -0.033627 -0.006690
0.027954 -0.034696 -0.007002
0.029404 -0.035751 -0.007314
0.030836 -0.036795 -0.007627
0.032252 -0.037826 -0.007939
0.033651 -0.038845 -0.008251
0.035034 -0.039853 -0.008564
0.036401 -0.040848 -0.008876
0.037751 -0.041832 -0.009189
0.039086 -0.042805 -0.009501
0.040405 -0.043766 -0.009814
0.041709 -0.044716 -0.010127
0.042998 -0.045655 -0.010440
0.044272 -0.046583 -0.010752
0.045531 -0.047501 -0.011065
0.046775 -0.048408 -0.011378
0.048006 -0.049304 -0.011691
0.049222 -0.050190 -0.012005
0.050424 -0.051066 -0.012318
0.051612 -0.051932 -0.012631
0.052787 -0.052788 -0.012944
0.053948 -0.053634 -0.013258
0.055097 -0.054471 -0.013571
0.056232 -0.055298 -0.013884
0.057354 -0.056116 -0.014198
0.058464 -0.056924 -0.014512
0.059561 -0.057724 -0.014825
0.060646 -0.058514 -0.015139
0.061718 -0.059295 -0.015452
0.062779 -0.060068 -0.015766
0.063827 -0.060831 -0.016080
0.064864 -0.061587 -0.016394
0.065890 -0.062333 -0.016707
0.066904 -0.063072 -0.017021
0.067907 -0.063802 -0.017335
0.068898 -0.064524 -0.017649
0.069879 -0.065238 -0.017963
0.070849 -0.065944 -0.018277
0.071808 -0.066642 -0.018591
0.072757 -0.067333 -0.018905
0.073695 -0.068016 -0.019219
0.074624 -0.068691 -0.019534
0.075542 -0.069359 -0.019848
0.076450 -0.070019 -0.020162
0.077348 -0.070673 -0.020476
0.078236 -0.071319 -0.020790
0.079115 -0.071958 -0.021105
0.079984 -0.072590 -0.021419
0.080844 -0.073215 -0.021733
0.081695 -0.073833 -0.022048
0.082537 -0.074445 -0.022362
0.083369 -0.075050 -0.022676
0.084193 -0.075648 -0.022991
0.085008 -0.076240 -0.023305
0.085814 -0.076826 -0.023620
0.086612 -0.077405 -0.023934
0.087401 -0.077978 -0.024249
0.088182 -0.078545 -0.024563
0.088955 -0.079105 -0.024878
0.089720 -0.079660 -0.025192
0.090476 -0.080209 -0.025507
0.091225 -0.080752 -0.025822
0.091966 -0.081289 -0.026136
0.092699 -0.081820 -0.026451
0.093424 -0.082346 -0.026766
0.094142 -0.082866 -0.027080
0.094853 -0.083381 -0.027395
0.095556 -0.083890 -0.027710
0.096252 -0.084394 -0.028024
0.096940 -0.084892 -0.028339
0.097622 -0.085386 -0.028654
0.098296 -0.085874 -0.028969
0.098964 -0.086357 -0.029283
0.099625 -0.086834 -0.029598
0.100279 -0.087307 -0.029913
0.100926 -0.087775 -0.030228
0.101567 -0.088238 -0.030543
0.102201 -0.088696 -0.030857
0.102829 -0.089150 -0.031172
0.103450 -0.089598 -0.031487
0.104065 -0.090043 -0.031802
0.104674 -0.090482 -0.032117
0.105277 -0.090917 -0.032432
0.105874 -0.091347 -0.032747
0.106465 -0.091773 -0.033062
0.107050 -0.092195 -0.033376
0.107629 -0.092612 -0.033691
0.108202 -0.093025 -0.034006
0.108769 -0.093433 -0.034321
0.109331 -0.093838 -0.034636
0.109887 -0.094238 -0.034951
0.110438 -0.094634 -0.035266
0.110983 -0.095026 -0.035581
0.111523 -0.095414 -0.035896
0.112058 -0.095798 -0.036211
0.112587 -0.096179 -0.036526
0.113111 -0.096555 -0.036841
0.113630 -0.096927 -0.037156
0.114144 -0.097296 -0.037471
0.114653 -0.097661 -0.037786
0.115157 -0.098022 -0.038101
0.115656 -0.098380 -0.038416
0.116150 -0.098734 -0.038731
0.116639 -0.099084 -0.039046
0.117124 -0.099431 -0.039361
0.117604 -0.099775 -0.039676
0.118079 -0.100115 -0.039991
0.118549 -0.100451 -0.040306
0.119015 -0.100784 -0.040621
0.119477 -0.101114 -0.040936
0.119934 -0.101440 -0.041251
0.120387 -0.101764 -0.041566
0.120835 -0.102084 -0.041881
0.121279 -0.102400 -0.042196
0.121719 -0.102714 -0.042511
0.122155 -0.103024 -0.042826
0.122586 -0.103332 -0.043141
0.123014 -0.103636 -0.043456
0.123437 -0.103937 -0.043771
0.123856 -0.104235 -0.044086
0.124272 -0.104531 -0.044401
0.124683 -0.104823 -0.044716
0.125091 -0.105113 -0.045031
0.125494 -0.105399 -0.045346
0.125894 -0.105683 -0.045662
0.126290 -0.105964 -0.045977
0.126682 -0.106242 -0.046292
0.127071 -0.106517 -0.046607
0.127456 -0.106790 -0.046922
0.127838 -0.107060 -0.047237
0.128215 -0.107327 -0.047552
0.128590 -0.107592 -0.047867
0.128961 -0.107854 -0.048182
0.129328 -0.108113 -0.048497
0.129692 -0.108370 -0.048812
0.130052 -0.108625 -0.049127
0.130410 -0.108877 -0.049442
0.130764 -0.109126 -0.049757
0.131114 -0.109373 -0.050072
0.131462 -0.109617 -0.050387
0.131806 -0.109860 -0.050702
0.132147 -0.110099 -0.051017
0.132485 -0.110337 -0.051332
0.132820 -0.110572 -0.051647
0.133151 -0.110805 -0.051962
0.133480 -0.111035 -0.052277
0.133806 -0.111264 -0.052592
0.134128 -0.111490 -0.052907
0.134448 -0.111713 -0.053222
0.134765 -0.111935 -0.053537
0.135079 -0.112155 -0.053852
0.135390 -0.112372 -0.054167
0.135698 -0.112587 -0.054482
0.136003 -0.112800 -0.054797
0.136306 -0.113011 -0.055112
0.136606 -0.113220 -0.055427
0.136903 -0.113427 -0.055742
0.137197 -0.113632 -0.056057
0.137489 -0.113835 -0.056372
0.137779 -0.114036 -0.056687
0.138065 -0.114235 -0.057001
0.138349 -0.114433 -0.057316
0.138631 -0.114628 -0.057631
0.138910 -0.114821 -0.057946
0.139186 -0.115013 -0.058261
0.139460 -0.115202 -0.058576
0.139731 -0.115390 -0.058891
0.140000 -0.115576 -0.059206
0.140267 -0.115760 -0.059521
0.140531 -0.115942 -0.059836
0.140793 -0.116123 -0.060151
0.141053 -0.116302 -0.060465
0.141310 -0.116479 -0.060780
0.141565 -0.116654 -0.061095
0.141818 -0.116828 -0.061410
0.142068 -0.117000 -0.061725
0.142317 -0.117171 -0.062040
0.142563 -0.117339 -0.062355
0.142807 -0.117506 -0.062670
0.143049 -0.117672 -0.062984
0.143288 -0.117836 -0.063299
0.143526 -0.117998 -0.063614
0.143761 -0.118159 -0.063929
0.143994 -0.118318 -0.064244
0.144226 -0.118476 -0.064558
0.144455 -0.118632 -0.064873
0.144682 -0.118786 -0.065188
0.144908 -0.118940 -0.065503
0.145131 -0.119091 -0.065818
0.145352 -0.119241 -0.066132
0.145572 -0.119390 -0.066447
0.145789 -0.119537 -0.066762
0.146005 -0.119683 -0.067077
0.146219 -0.119828 -0.067391
0.146430 -0.119971 -0.067706
0.146641 -0.120113 -0.068021
0.146849 -0.120253 -0.068336
0.147055 -0.120392 -0.068650
0.147260 -0.120530 -0.068965
0.147463 -0.120666 -0.069280
0.147664 -0.120801 -0.069595
0.147863 -0.120935 -0.069909
0.148061 -0.121067 -0.070224
0.148257 -0.121198 -0.070539
0.148451 -0.121328 -0.070853
0.148644 -0.121457 -0.071168
0.148835 -0.121584 -0.071483
0.149024 -0.121710 -0.071797
0.149212 -0.121835 -0.072112
0.149398 -0.121959 -0.072427
0.149582 -0.122082 -0.072741
0.149765 -0.122203 -0.073056
0.149946 -0.122323 -0.073370
0.150126 -0.122442 -0.073685
0.150304 -0.122560 -0.074000
0.150481 -0.122677 -0.074314
0.150656 -0.122792 -0.074629
0.150830 -0.122907 -0.074943
0.151002 -0.123020 -0.075258
0.151173 -0.123133 -0.075572
0.151343 -0.123244 -0.075887
0.151511 -0.123354 -0.076202
0.151677 -0.123463 -0.076516
0.151842 -0.123571 -0.076831
0.152006 -0.123678 -0.077145
0.152168 -0.123784 -0.077460
0.152329 -0.123889 -0.077774
0.152489 -0.123993 -0.078089
0.152647 -0.124096 -0.078403
0.152804 -0.124198 -0.078718
0.152960 -0.124298 -0.079032
0.153114 -0.124398 -0.079346
0.153267 -0.124497 -0.079661
0.153419 -0.124595 -0.079975
0.153569 -0.124692 -0.080290
0.153719 -0.124788 -0.080604
0.153866 -0.124884 -0.080919
0.154013 -0.124978 -0.081233
0.154159 -0.125071 -0.081547
0.154303 -0.125163 -0.081862
0.154446 -0.125255 -0.082176
0.154588 -0.125346 -0.082491
0.154729 -0.125435 -0.082805
0.154868 -0.125524 -0.083119
0.155007 -0.125612 -0.083434
0.155144 -0.125699 -0.083748
0.155280 -0.125786 -0.084062
0.155415 -0.125871 -0.084377
0.155549 -0.125956 -0.084691
0.155682 -0.126039 -0.085005
0.155814 -0.126122 -0.085320
0.155944 -0.126204 -0.085634
0.156074 -0.126286 -0.085948
0.156202 -0.126366 -0.086262
0.156330 -0.126446 -0.086577
0.156456 -0.126525 -0.086891
0.156581 -0.126603 -0.087205
0.156706 -0.126680 -0.087519
0.156829 -0.126757 -0.087834
0.156951 -0.126833 -0.088148
0.157073 -0.126908 -0.088462
0.157193 -0.126982 -0.088776
0.157312 -0.127056 -0.089090
0.157431 -0.127129 -0.089405
0.157548 -0.127201 -0.089719
0.157665 -0.127273 -0.090033
0.157780 -0.127343 -0.090347
0.157895 -0.127414 -0.090661
0.158008 -0.127483 -0.090975
0.158121 -0.127552 -0.091289
0.158233 -0.127620 -0.091603
0.158344 -0.127687 -0.091918
0.158454 -0.127754 -0.092232
0.158563 -0.127820 -0.092546
0.158671 -0.127885 -0.092860
0.158779 -0.127950 -0.093174
0.158885 -0.128014 -0.093488
0.158991 -0.128077 -0.093802
0.159096 -0.128140 -0.094116
0.159200 -0.128202 -0.094430
0.159303 -0.128263 -0.094744
0.159405 -0.128324 -0.095058
0.159507 -0.128384 -0.095372
0.159607 -0.128444 -0.095686
0.159707 -0.128503 -0.096000
0.159806 -0.128562 -0.096314
0.159905 -0.128620 -0.096628
0.160002 -0.128677 -0.096942
0.160099 -0.128733 -0.097256
0.160195 -0.128790 -0.097570
0.160290 -0.128845 -0.097884
0.160385 -0.128900 -0.098197
0.160478 -0.128955 -0.098511
0.160571 -0.129008 -0.098825
0.160664 -0.129062 -0.099139
0.160755 -0.129115 -0.099453
0.160846 -0.129167 -0.099767
0.160936 -0.129218 -0.100081
0.161025 -0.129270 -0.100395
0.161114 -0.129320 -0.100708
0.161202 -0.129370 -0.101022
0.161289 -0.129420 -0.101336
0.161376 -0.129469 -0.101650
0.161462 -0.129518 -0.101964
0.161547 -0.129566 -0.102277
0.161632 -0.129613 -0.102591
0.161716 -0.129660 -0.102905
0.161799 -0.129707 -0.103219
0.161882 -0.129753 -0.103532
0.161964 -0.129799 -0.103846
0.162045 -0.129844 -0.104160
0.162126 -0.129888 -0.104473
0.162206 -0.129933 -0.104787
0.162286 -0.129976 -0.105101
0.162364 -0.130020 -0.105414
0.162443 -0.130062 -0.105728
0.162520 -0.130105 -0.106042
0.162598 -0.130147 -0.106355
0.162674 -0.130188 -0.106669
0.162750 -0.130229 -0.106983
0.162825 -0.130270 -0.107296
0.162900 -0.130310 -0.107610
0.162974 -0.130350 -0.107923
0.163048 -0.130389 -0.108237
0.163121 -0.130428 -0.108551
0.163193 -0.130466 -0.108864
0.163265 -0.130504 -0.109178
0.163337 -0.130542 -0.109491
0.163408 -0.130579 -0.109805
0.163478 -0.130616 -0.110118
0.163548 -0.130653 -0.110432
0.163617 -0.130689 -0.110745
0.163686 -0.130724 -0.111059
0.163754 -0.130760 -0.111372
0.163822 -0.130794 -0.111686
0.163889 -0.130829 -0.111999
0.163955 -0.130863 -0.112313
0.164022 -0.130897 -0.112626
0.164087 -0.130930 -0.112939
0.164153 -0.130963 -0.113253
0.164217 -0.130996 -0.113566
0.164281 -0.131028 -0.113880
0.164345 -0.131060 -0.114193
0.164409 -0.131091 -0.114506
0.164471 -0.131123 -0.114820
0.164534 -0.131153 -0.115133
0.164596 -0.131184 -0.115446
0.164657 -0.131214 -0.115760
0.164718 -0.131244 -0.116073
0.164778 -0.131273 -0.116386
0.164839 -0.131303 -0.116700
0.164898 -0.131331 -0.117013
0.164957 -0.131360 -0.117326
0.165016 -0.131388 -0.117639
0.165074 -0.131416 -0.117953
0.165132 -0.131443 -0.118266
0.165190 -0.131470 -0.118579
0.165247 -0.131497 -0.118892
0.165303 -0.131524 -0.119206
0.165360 -0.131550 -0.119519
0.165415 -0.131576 -0.119832
0.165471 -0.131602 -0.120145
0.165526 -0.131627 -0.120458
0.165580 -0.131652 -0.120771
0.165635 -0.131677 -0.121085
0.165688 -0.131701 -0.121398
0.165742 -0.131725 -0.121711
0.165795 -0.131749 -0.122024
0.165848 -0.131773 -0.122337
0.165900 -0.131796 -0.122650
0.165952 -0.131819 -0.122963
0.166003 -0.131842 -0.123276
0.166055 -0.131864 -0.123589
0.166105 -0.131886 -0.123902
0.166156 -0.131908 -0.124215
0.166206 -0.131930 -0.124528
0.166256 -0.131951 -0.124841
0.166305 -0.131972 -0.125154
0.166354 -0.131993 -0.125467
0.166403 -0.132014 -0.125780
0.166451 -0.132034 -0.126093
0.166499 -0.132054 -0.126406
0.166547 -0.132074 -0.126719
0.166594 -0.132094 -0.127032
0.166641 -0.132113 -0.127345
0.166688 -0.132132 -0.127658
0.166734 -0.132151 -0.127971
0.166780 -0.132169 -0.128284
0.166826 -0.132188 -0.128597
0.166871 -0.132206 -0.128910
0.166916 -0.132224 -0.129222
0.166961 -0.132241 -0.129535
0.167005 -0.132259 -0.129848
0.167049 -0.132276 -0.130161
0.167093 -0.132293 -0.130474
0.167137 -0.132309 -0.130786
0.167180 -0.132326 -0.131099
0.167223 -0.132342 -0.131412
0.167265 -0.132358 -0.131725
0.167308 -0.132374 -0.132038
0.167350 -0.132390 -0.132350
0.167392 -0.132405 -0.132663
0.167433 -0.132420 -0.132976
0.167474 -0.132435 -0.133288
0.167515 -0.132450 -0.133601
0.167556 -0.132464 -0.133914
0.167596 -0.132479 -0.134227
0.167636 -0.132493 -0.134539
0.167676 -0.132507 -0.134852
0.167716 -0.132521 -0.135165
0.167755 -0.132534 -0.135477
0.167794 -0.132547 -0.135790
0.167833 -0.132561 -0.136102
0.167871 -0.132574 -0.136415
0.167909 -0.132586 -0.136728
0.167947 -0.132599 -0.137040
0.167985 -0.132611 -0.137353
0.168023 -0.132623 -0.137665
0.168060 -0.132635 -0.137978
0.168097 -0.132647 -0.138290
0.168134 -0.132659 -0.138603
0.168170 -0.132670 -0.138915
0.168206 -0.132682 -0.139228
0.168242 -0.132693 -0.139540
0.168278 -0.132704 -0.139853
0.168314 -0.132714 -0.140165
0.168349 -0.132725 -0.140478
0.168384 -0.132735 -0.140790
0.168419 -0.132746 -0.141103
0.168454 -0.132756 -0.141415
0.168488 -0.132766 -0.141727
0.168522 -0.132775 -0.142040
0.168556 -0.132785 -0.142352
0.168590 -0.132794 -0.142665
0.168624 -0.132803 -0.142977
0.168657 -0.132813 -0.143289
0.168690 -0.132821 -0.143602
0.168723 -0.132830 -0.143914
0.168756 -0.132839 -0.144226
0.168788 -0.132847 -0.144539
0.168821 -0.132856 -0.144851
0.168853 -0.132864 -0.145163
0.168885 -0.132872 -0.145475
0.168916 -0.132879 -0.145788
0.168948 -0.132887 -0.146100
0.168979 -0.132895 -0.146412
0.169010 -0.132902 -0.146724
0.169041 -0.132909 -0.147037
0.169072 -0.132916 -0.147349
0.169102 -0.132923 -0.147661
0.169133 -0.132930 -0.147973
0.169163 -0.132937 -0.148285
0.169193 -0.132944 -0.148598
0.169223 -0.132950 -0.148910
0.169252 -0.132956 -0.149222
0.169282 -0.132962 -0.149534
0.169311 -0.132968 -0.149846
0.169340 -0.132974 -0.150158
0.169369 -0.132980 -0.150470
0.169398 -0.132986 -0.150782
0.169426 -0.132991 -0.151094
0.169455 -0.132996 -0.151407
0.169483 -0.133002 -0.151719
0.169511 -0.133007 -0.152031
0.169539 -0.133012 -0.152343
0.169566 -0.133017 -0.152655
0.169594 -0.133021 -0.152967
0.169621 -0.133026 -0.153279
0.169649 -0.133030 -0.153591
0.169676 -0.133035 -0.153903
0.169703 -0.133039 -0.154215
0.169729 -0.133043 -0.154526
0.169756 -0.133047 -0.154838
0.169782 -0.133051 -0.155150
0.169809 -0.133055 -0.155462
0.169835 -0.133058 -0.155774
0.169861 -0.133062 -0.156086
0.169887 -0.133065 -0.156398
0.169912 -0.133069 -0.156710
0.169938 -0.133072 -0.157022
0.169963 -0.133075 -0.157333
0.169988 -0.133078 -0.157645
0.170013 -0.133081 -0.157957
0.170038 -0.133084 -0.158269
0.170063 -0.133086 -0.158581
0.170088 -0.133089 -0.158892
0.170112 -0.133091 -0.159204
0.170137 -0.133094 -0.159516
0.170161 -0.133096 -0.159828
0.170185 -0.133098 -0.160140
0.170209 -0.133100 -0.160451
0.170233 -0.133102 -0.160763
0.170257 -0.133104 -0.161075
0.170280 -0.133106 -0.161386
0.170304 -0.133108 -0.161698
0.170327 -0.133109 -0.162010
0.170350 -0.133111 -0.162321
0.170374 -0.133112 -0.162633
0.170397 -0.133113 -0.162945
0.170419 -0.133115 -0.163256
0.170442 -0.133116 -0.163568
0.170465 -0.133117 -0.163879
0.170487 -0.133118 -0.164191
0.170510 -0.133119 -0.164503
0.170532 -0.133119 -0.164814
0.170554 -0.133120 -0.165126
0.170576 -0.133121 -0.165437
0.170598 -0.133121 -0.165749
0.170620 -0.133121 -0.166060
0.170641 -0.133122 -0.166372
0.170663 -0.133122 -0.166683
0.170684 -0.133122 -0.166995
0.170705 -0.133122 -0.167306
0.170727 -0.133122 -0.167618
0.170748 -0.133122 -0.167929
0.170769 -0.133122 -0.168241
0.170790 -0.133122 -0.168552
0.170810 -0.133121 -0.168863
0.170831 -0.133121 -0.169175
0.170852 -0.133120 -0.169486
0.170872 -0.133120 -0.169798
0.170893 -0.133119 -0.170109
0.170913 -0.133119 -0.170420
0.170933 -0.133118 -0.170732
0.170953 -0.133117 -0.171043
0.170973 -0.133116 -0.171354
0.170993 -0.133115 -0.171666
0.171013 -0.133114 -0.171977
0.171032 -0.133113 -0.172288
0.171052 -0.133111 -0.172600
0.171071 -0.133110 -0.172911
0.171091 -0.133109 -0.173222
0.171110 -0.133107 -0.173533
0.171129 -0.133106 -0.173845
0.171148 -0.133104 -0.174156
0.171167 -0.133103 -0.174467
0.171186 -0.133101 -0.174778
0.171205 -0.133099 -0.175089
0.171224 -0.133097 -0.175401
0.171242 -0.133095 -0.175712
0.171261 -0.133093 -0.176023
0.171280 -0.133091 -0.176334
0.171298 -0.133089 -0.176645
0.171316 -0.133087 -0.176956
0.171334 -0.133085 -0.177267
0.171353 -0.133082 -0.177578
0.171371 -0.133080 -0.177889
0.171389 -0.133078 -0.178201
0.171407 -0.133075 -0.178512
0.171424 -0.133073 -0.178823
0.171442 -0.133070 -0.179134
0.171460 -0.133067 -0.179445
0.171477 -0.133065 -0.179756
0.171495 -0.133062 -0.180067
0.171512 -0.133059 -0.180378
0.171530 -0.133056 -0.180689
0.171547 -0.133053 -0.181000
0.171564 -0.133050 -0.181311
0.171581 -0.133047 -0.181622
0.171598 -0.133044 -0.181932
0.171615 -0.133041 -0.182243
0.171632 -0.133037 -0.182554
0.171649 -0.133034 -0.182865
0.171666 -0.133031 -0.183176
0.171682 -0.133027 -0.183487
0.171699 -0.133024 -0.183798
0.171715 -0.133021 -0.184109
0.171732 -0.133017 -0.184419
0.171748 -0.133013 -0.184730
0.171765 -0.133010 -0.185041
0.171781 -0.133006 -0.185352
0.171797 -0.133002 -0.185663
0.171813 -0.132998 -0.185973
0.171829 -0.132995 -0.186284
0.171845 -0.132991 -0.186595
0.171861 -0.132987 -0.186906
0.171877 -0.132983 -0.187216
0.171893 -0.132979 -0.187527
0.171909 -0.132975 -0.187838
0.171924 -0.132970 -0.188149
0.171940 -0.132966 -0.188459
0.171955 -0.132962 -0.188770
0.171971 -0.132958 -0.189081
0.171986 -0.132953 -0.189391
0.172002 -0.132949 -0.189702
0.172017 -0.132945 -0.190013
0.172032 -0.132940 -0.190323
0.172047 -0.132936 -0.190634
0.172063 -0.132931 -0.190944
0.172078 -0.132927 -0.191255
0.172093 -0.132922 -0.191565
0.172108 -0.132917 -0.191876
0.172123 -0.132913 -0.192187
0.172137 -0.132908 -0.192497
0.172152 -0.132903 -0.192808
0.172167 -0.132898 -0.193118
0.172182 -0.132893 -0.193429
0.172196 -0.132888 -0.193739
0.172211 -0.132883 -0.194050
0.172225 -0.132878 -0.194360
0.172240 -0.132873 -0.194671
0.172254 -0.132868 -0.194981
0.172269 -0.132863 -0.195291
0.172283 -0.132858 -0.195602
0.172297 -0.132853 -0.195912
0.172311 -0.132848 -0.196223
0.172326 -0.132842 -0.196533
0.172340 -0.132837 -0.196843
0.172354 -0.132832 -0.197154
0.172368 -0.132826 -0.197464
0.172382 -0.132821 -0.197774
0.172396 -0.132816 -0.198085
0.172409 -0.132810 -0.198395
0.172423 -0.132805 -0.198705
0.172437 -0.132799 -0.199016
0.172451 -0.132793 -0.199326
0.172465 -0.132788 -0.199636
0.172478 -0.132782 -0.199946
0.172492 -0.132777 -0.200257
0.172505 -0.132771 -0.200567
0.172519 -0.132765 -0.200877
0.172532 -0.132759 -0.201187
0.172546 -0.132753 -0.201497
0.172559 -0.132748 -0.201808
0.172572 -0.132742 -0.202118
0.172586 -0.132736 -0.202428
0.172599 -0.132730 -0.202738
0.172612 -0.132724 -0.203048
0.172625 -0.132718 -0.203358
0.172638 -0.132712 -0.203669
0.172651 -0.132706 -0.203979
0.172665 -0.132700 -0.204289
0.172678 -0.132694 -0.204599
0.172690 -0.132687 -0.204909
0.172703 -0.132681 -0.205219
0.172716 -0.132675 -0.205529
0.172729 -0.132669 -0.205839
0.172742 -0.132663 -0.206149
0.172755 -0.132656 -0.206459
0.172767 -0.132650 -0.206769
0.172780 -0.132644 -0.207079
0.172793 -0.132637 -0.207389
0.172805 -0.132631 -0.207699
0.172818 -0.132624 -0.208009
0.172830 -0.132618 -0.208319
0.172843 -0.132611 -0.208629
0.172855 -0.132605 -0.208939
0.172868 -0.132598 -0.209249
0.172880 -0.132592 -0.209558
0.172893 -0.132585 -0.209868
0.172905 -0.132579 -0.210178
0.172917 -0.132572 -0.210488
0.172930 -0.132565 -0.210798
0.172942 -0.132559 -0.211108
0.172954 -0.132552 -0.211418
0.172966 -0.132545 -0.211727
0.172978 -0.132538 -0.212037
0.172990 -0.132532 -0.212347
0.173002 -0.132525 -0.212657
0.173014 -0.132518 -0.212966
0.173026 -0.132511 -0.213276
0.173038 -0.132504 -0.213586
0.173050 -0.132497 -0.213896
0.173062 -0.132490 -0.214205
0.173074 -0.132484 -0.214515
0.173086 -0.132477 -0.214825
0.173098 -0.132470 -0.215134
0.173110 -0.132463 -0.215444
0.173121 -0.132456 -0.215754
0.173133 -0.132448 -0.216063
0.173145 -0.132441 -0.216373
0.173156 -0.132434 -0.216683
0.173168 -0.132427 -0.216992
0.173180 -0.132420 -0.217302
0.173191 -0.132413 -0.217612
0.173203 -0.132406 -0.217921
0.173214 -0.132398 -0.218231
0.173226 -0.132391 -0.218540
0.173237 -0.132384 -0.218850
0.173249 -0.132377 -0.219159
0.173260 -0.132369 -0.219469
0.173272 -0.132362 -0.219778
0.173283 -0.132355 -0.220088
0.173294 -0.132348 -0.220397
0.173306 -0.132340 -0.220707
0.173317 -0.132333 -0.221016
0.173328 -0.132325 -0.221326
0.173339 -0.132318 -0.221635
0.173351 -0.132311 -0.221944
0.173362 -0.132303 -0.222254
0.173373 -0.132296 -0.222563
0.173384 -0.132288 -0.222873
0.173395 -0.132281 -0.223182
0.173406 -0.132273 -0.223491
0.173417 -0.132266 -0.223801
0.173428 -0.132258 -0.224110
0.173439 -0.132250 -0.224419
0.173450 -0.132243 -0.224729
0.173461 -0.132235 -0.225038
0.173472 -0.132228 -0.225347
0.173483 -0.132220 -0.225657
0.173494 -0.132212 -0.225966
0.173505 -0.132205 -0.226275
0.173516 -0.132197 -0.226584
0.173527 -0.132189 -0.226894
0.173538 -0.132182 -0.227203
0.173548 -0.132174 -0.227512
0.173559 -0.132166 -0.227821
0.173570 -0.132158 -0.228130
0.173581 -0.132151 -0.228440
0.173591 -0.132143 -0.228749
0.173602 -0.132135 -0.229058
0.173613 -0.132127 -0.229367
0.173623 -0.132119 -0.229676
0.173634 -0.132111 -0.229985
0.173645 -0.132104 -0.230294
0.173655 -0.132096 -0.230604
0.173666 -0.132088 -0.230913
0.173676 -0.132080 -0.231222
0.173687 -0.132072 -0.231531
0.173697 -0.132064 -0.231840
0.173708 -0.132056 -0.232149
0.173718 -0.132048 -0.232458
0.173729 -0.132040 -0.232767
0.173739 -0.132032 -0.233076
0.173750 -0.132024 -0.233385
0.173760 -0.132016 -0.233694
0.173770 -0.132008 -0.234003
0.173781 -0.132000 -0.234312
0.173791 -0.131992 -0.234621
0.173801 -0.131984 -0.234930
0.173812 -0.131976 -0.235239
0.173822 -0.131968 -0.235548
0.173832 -0.131960 -0.235856
0.173843 -0.131951 -0.236165
0.173853 -0.131943 -0.236474
0.173863 -0.131935 -0.236783
0.173873 -0.131927 -0.237092
0.173883 -0.131919 -0.237401
0.173894 -0.131911 -0.237710
0.173904 -0.131902 -0.238018
0.173914 -0.131894 -0.238327
0.173924 -0.131886 -0.238636
0.173934 -0.131878 -0.238945
0.173944 -0.131870 -0.239254
0.173954 -0.131861 -0.239562
0.173964 -0.131853 -0.239871
0.173974 -0.131845 -0.240180
0.173984 -0.131837 -0.240488
0.173994 -0.131828 -0.240797
0.174004 -0.131820 -0.241106
0.174014 -0.131812 -0.241415
0.174024 -0.131803 -0.241723
0.174034 -0.131795 -0.242032
0.174044 -0.131787 -0.242341
0.174054 -0.131778 -0.242649
0.174064 -0.131770 -0.242958
0.174074 -0.131762 -0.243266
0.174084 -0.131753 -0.243575
0.174094 -0.131745 -0.243884
0.174104 -0.131736 -0.244192
0.174114 -0.131728 -0.244501
0.174123 -0.131720 -0.244809
0.174133 -0.131711 -0.245118
0.174143 -0.131703 -0.245426
0.174153 -0.131694 -0.245735
0.174163 -0.131686 -0.246043
0.174172 -0.131677 -0.246352
0.174182 -0.131669 -0.246660
0.174192 -0.131660 -0.246969
0.174202 -0.131652 -0.247277
0.174211 -0.131643 -0.247586
0.174221 -0.131635 -0.247894
0.174231 -0.131626 -0.248203
0.174240 -0.131618 -0.248511
0.174250 -0.131609 -0.248819
0.174260 -0.131601 -0.249128
0.174269 -0.131592 -0.249436
0.174279 -0.131584 -0.249745
0.174289 -0.131575 -0.250053
0.174298 -0.131566 -0.250361
0.174308 -0.131558 -0.250670
0.174317 -0.131549 -0.250978
0.174327 -0.131541 -0.251286
0.174337 -0.131532 -0.251595
0.174346 -0.131523 -0.251903
0.174356 -0.131515 -0.252211
0.174365 -0.131506 -0.252519
0.174375 -0.131497 -0.252828
0.174384 -0.131489 -0.253136
0.174394 -0.131480 -0.253444
0.174403 -0.131471 -0.253752
0.174413 -0.131463 -0.254061
0.174422 -0.131454 -0.254369
0.174432 -0.131445 -0.254677
0.174441 -0.131437 -0.254985
0.174451 -0.131428 -0.255293
0.174460 -0.131419 -0.255601
0.174469 -0.131411 -0.255910
0.174479 -0.131402 -0.256218
0.174488 -0.131393 -0.256526
0.174498 -0.131384 -0.256834
0.174507 -0.131376 -0.257142
0.174516 -0.131367 -0.257450
0.174526 -0.131358 -0.257758
0.174535 -0.131349 -0.258066
0.174544 -0.131341 -0.258374
0.174554 -0.131332 -0.258682
0.174563 -0.131323 -0.258990
0.174572 -0.131314 -0.259298
0.174582 -0.131306 -0.259606
0.174591 -0.131297 -0.259914
0.174600 -0.131288 -0.260222
0.174610 -0.131279 -0.260530
0.174619 -0.131270 -0.260838
0.174628 -0.131262 -0.261146
0.174637 -0.131253 -0.261454
0.174647 -0.131244 -0.261762
0.174656 -0.131235 -0.262070
0.174665 -0.131226 -0.262378
0.174674 -0.131217 -0.262686
0.174683 -0.131208 -0.262993
0.174693 -0.131200 -0.263301
0.174702 -0.131191 -0.263609
0.174711 -0.131182 -0.263917
0.174720 -0.131173 -0.264225
0.174729 -0.131164 -0.264533
0.174739 -0.131155 -0.264840
0.174748 -0.131146 -0.265148
0.174757 -0.131137 -0.265456
0.174766 -0.131129 -0.265764
0.174775 -0.131120 -0.266072
0.174784 -0.131111 -0.266379
0.174793 -0.131102 -0.266687
0.174803 -0.131093 -0.266995
0.174812 -0.131084 -0.267302
0.174821 -0.131075 -0.267610
0.174830 -0.131066 -0.267918
0.174839 -0.131057 -0.268225
0.174848 -0.131048 -0.268533
0.174857 -0.131039 -0.268841
0.174866 -0.131030 -0.269148
0.174875 -0.131021 -0.269456
0.174884 -0.131012 -0.269764
0.174893 -0.131003 -0.270071
0.174902 -0.130994 -0.270379
0.174911 -0.130985 -0.270686
0.174920 -0.130976 -0.270994
0.174929 -0.130967 -0.271301
0.174938 -0.130958 -0.271609
0.174947 -0.130949 -0.271917
0.174956 -0.130940 -0.272224
0.174965 -0.130931 -0.272532
0.174974 -0.130922 -0.272839
0.174983 -0.130913 -0.273147
0.174992 -0.130904 -0.273454
0.175001 -0.130895 -0.273761
0.175010 -0.130886 -0.274069
0.175019 -0.130877 -0.274376
0.175028 -0.130868 -0.274684
0.175037 -0.130859 -0.274991
0.175046 -0.130850 -0.275299
0.175055 -0.130841 -0.275606
0.175064 -0.130832 -0.275913
0.175073 -0.130823 -0.276221
0.175082 -0.130814 -0.276528
0.175091 -0.130805 -0.276835
0.175099 -0.130796 -0.277143
0.175108 -0.130787 -0.277450
0.175117 -0.130778 -0.277757
0.175126 -0.130769 -0.278065
0.175135 -0.130760 -0.278372
0.175144 -0.130751 -0.278679
0.175153 -0.130741 -0.278986
0.175162 -0.130732 -0.279294
0.175170 -0.130723 -0.279601
0.175179 -0.130714 -0.279908
0.175188 -0.130705 -0.280215
0.175197 -0.130696 -0.280523
0.175206 -0.130687 -0.280830
0.175215 -0.130678 -0.281137
0.175223 -0.130669 -0.281444
0.175232 -0.130660 -0.281751
0.175241 -0.130650 -0.282058
0.175250 -0.130641 -0.282366
0.175259 -0.130632 -0.282673
0.175268 -0.130623 -0.282980
0.175276 -0.130614 -0.283287
0.175285 -0.130605 -0.283594
0.175294 -0.130596 -0.283901
0.175303 -0.130587 -0.284208
0.175311 -0.130577 -0.284515
0.175320 -0.130568 -0.284822
0.175329 -0.130559 -0.285129
0.175338 -0.130550 -0.285436
0.175347 -0.130541 -0.285743
0.175355 -0.130532 -0.286050
0.175364 -0.130523 -0.286357
0.175373 -0.130513 -0.286664
0.175382 -0.130504 -0.286971
0.175390 -0.130495 -0.287278
0.175399 -0.130486 -0.287585
0.175408 -0.130477 -0.287892
0.175416 -0.130468 -0.288199
0.175425 -0.130458 -0.288506
0.175434 -0.130449 -0.288813
0.175443 -0.130440 -0.289119
0.175451 -0.130431 -0.289426
0.175460 -0.130422 -0.289733
0.175469 -0.130413 -0.290040
0.175477 -0.130403 -0.290347
0.175486 -0.130394 -0.290654
0.175495 -0.130385 -0.290960
0.175504 -0.130376 -0.291267
0.175512 -0.130367 -0.291574
0.175521 -0.130357 -0.291881
0.175530 -0.130348 -0.292188
0.175538 -0.130339 -0.292494
0.175547 -0.130330 -0.292801
0.175556 -0.130321 -0.293108
0.175564 -0.130311 -0.293414
0.175573 -0.130302 -0.293721
0.175582 -0.130293 -0.294028
0.175590 -0.130284 -0.294335
0.175599 -0.130274 -0.294641
0.175608 -0.130265 -0.294948
0.175616 -0.130256 -0.295255
0.175625 -0.130247 -0.295561
0.175633 -0.130238 -0.295868
0.175642 -0.130228 -0.296174
0.175651 -0.130219 -0.296481
0.175659 -0.130210 -0.296788
0.175668 -0.130201 -0.297094
0.175677 -0.130191 -0.297401
0.175685 -0.130182 -0.297707
0.175694 -0.130173 -0.298014
0.175702 -0.130164 -0.298320
0.175711 -0.130154 -0.298627
0.175720 -0.130145 -0.298933
0.175728 -0.130136 -0.299240
0.175737 -0.130127 -0.299546
0.175745 -0.130117 -0.299853
0.175754 -0.130108 -0.300159
0.175763 -0.130099 -0.300466
0.175771 -0.130090 -0.300772
0.175780 -0.130080 -0.301078
0.175788 -0.130071 -0.301385
0.175797 -0.130062 -0.301691
0.175805 -0.130053 -0.301998
0.175814 -0.130043 -0.302304
0.175823 -0.130034 -0.302610
0.175831 -0.130025 -0.302917
0.175840 -0.130016 -0.303223
0.175848 -0.130006 -0.303529
0.175857 -0.129997 -0.303836
0.175865 -0.129988 -0.304142
0.175874 -0.129979 -0.304448
0.175882 -0.129969 -0.304755
0.175891 -0.129960 -0.305061
0.175900 -0.129951 -0.305367
0.175908 -0.129941 -0.305673
0.175917 -0.129932 -0.305980
0.175925 -0.129923 -0.306286
0.175934 -0.129914 -0.306592
0.175942 -0.129904 -0.306898
0.175951 -0.129895 -0.307204
0.175959 -0.129886 -0.307511
0.175968 -0.129877 -0.307817
0.175976 -0.129867 -0.308123
0.175985 -0.129858 -0.308429
0.175993 -0.129849 -0.308735
0.176002 -0.129839 -0.309041
0.176010 -0.129830 -0.309347
0.176019 -0.129821 -0.309653
0.176027 -0.129812 -0.309960
0.176036 -0.129802 -0.310266
0.176044 -0.129793 -0.310572
0.176053 -0.129784 -0.310878
0.176061 -0.129774 -0.311184
0.176070 -0.129765 -0.311490
0.176078 -0.129756 -0.311796
0.176087 -0.129746 -0.312102
0.176095 -0.129737 -0.312408
0.176104 -0.129728 -0.312714
0.176112 -0.129719 -0.313020
0.176121 -0.129709 -0.313326
0.176129 -0.129700 -0.313632
0.176138 -0.129691 -0.313938
0.176146 -0.129681 -0.314244
0.176155 -0.129672 -0.314549
0.176163 -0.129663 -0.314855
0.176172 -0.129653 -0.315161
0.176180 -0.129644 -0.315467
0.176189 -0.129635 -0.315773
0.176197 -0.129625 -0.316079
0.176206 -0.129616 -0.316385
0.176214 -0.129607 -0.316690
0.176222 -0.129597 -0.316996
0.176231 -0.129588 -0.317302
0.176239 -0.129579 -0.317608
0.176248 -0.129570 -0.317914
0.176256 -0.129560 -0.318219
0.176265 -0.129551 -0.318525
0.176273 -0.129542 -0.318831
0.176282 -0.129532 -0.319137
0.176290 -0.129523 -0.319442
0.176299 -0.129514 -0.319748
0.176307 -0.129504 -0.320054
0.176315 -0.129495 -0.320359
0.176324 -0.129486 -0.320665
0.176332 -0.129476 -0.320971
0.176341 -0.129467 -0.321276
0.176349 -0.129458 -0.321582
0.176358 -0.129448 -0.321888
0.176366 -0.129439 -0.322193
0.176374 -0.129430 -0.322499
0.176383 -0.129420 -0.322805
0.176391 -0.129411 -0.323110
0.176400 -0.129402 -0.323416
0.176408 -0.129392 -0.323721
0.176417 -0.129383 -0.324027
0.176425 -0.129374 -0.324332
0.176433 -0.129364 -0.324638
0.176442 -0.129355 -0.324943
0.176450 -0.129346 -0.325249
0.176459 -0.129336 -0.325554
0.176467 -0.129327 -0.325860
0.176475 -0.129318 -0.326165
0.176484 -0.129308 -0.326471
0.176492 -0.129299 -0.326776
0.176501 -0.129290 -0.327082
0.176509 -0.129280 -0.327387
0.176517 -0.129271 -0.327692
0.176526 -0.129262 -0.327998
0.176534 -0.129252 -0.328303
0.176543 -0.129243 -0.328609
0.176551 -0.129234 -0.328914
0.176559 -0.129224 -0.329219
0.176568 -0.129215 -0.329525
0.176576 -0.129206 -0.329830
0.176585 -0.129196 -0.330135
0.176593 -0.129187 -0.330441
0.176601 -0.129178 -0.330746
0.176610 -0.129168 -0.331051
0.176618 -0.129159 -0.331356
0.176627 -0.129150 -0.331662
0.176635 -0.129140 -0.331967
0.176643 -0.129131 -0.332272
0.176652 -0.129122 -0.332577
0.176660 -0.129112 -0.332883
0.176668 -0.129103 -0.333188
0.176677 -0.129094 -0.333493
0.176685 -0.129084 -0.333798
0.176694 -0.129075 -0.334103
0.176702 -0.129066 -0.334408
0.176710 -0.129056 -0.334714
0.176719 -0.129047 -0.335019
0.176727 -0.129037 -0.335324
0.176735 -0.129028 -0.335629
0.176744 -0.129019 -0.335934
0.176752 -0.129009 -0.336239
0.176760 -0.129000 -0.336544
0.176769 -0.128991 -0.336849
0.176777 -0.128981 -0.337154
0.176786 -0.128972 -0.337459
0.176794 -0.128963 -0.337764
0.176802 -0.128953 -0.338069
0.176811 -0.128944 -0.338374
0.176819 -0.128935 -0.338679
0.176827 -0.128925 -0.338984
0.176836 -0.128916 -0.339289
0.176844 -0.128907 -0.339594
0.176852 -0.128897 -0.339899
0.176861 -0.128888 -0.340204
0.176869 -0.128879 -0.340509
0.176877 -0.128869 -0.340814
0.176886 -0.128860 -0.341119
0.176894 -0.128851 -0.341424
0.176903 -0.128841 -0.341729
0.176911 -0.128832 -0.342033
0.176919 -0.128822 -0.342338
0.176928 -0.128813 -0.342643
0.176936 -0.128804 -0.342948
0.176944 -0.128794 -0.343253
0.176953 -0.128785 -0.343558
0.176961 -0.128776 -0.343862
0.176969 -0.128766 -0.344167
0.176978 -0.128757 -0.344472
0.176986 -0.128748 -0.344777
0.176994 -0.128738 -0.345081
0.177003 -0.128729 -0.345386
0.177011 -0.128720 -0.345691
0.177019 -0.128710 -0.345996
0.177028 -0.128701 -0.346300
0.177036 -0.128692 -0.346605
0.177044 -0.128682 -0.346910
0.177053 -0.128673 -0.347214
0.177061 -0.128664 -0.347519
0.177069 -0.128654 -0.347824
0.177078 -0.128645 -0.348128
0.177086 -0.128635 -0.348433
0.177094 -0.128626 -0.348738
0.177103 -0.128617 -0.349042
0.177111 -0.128607 -0.349347
0.177119 -0.128598 -0.349651
0.177128 -0.128589 -0.349956
0.177136 -0.128579 -0.350260
0.177144 -0.128570 -0.350565
0.177153 -0.128561 -0.350869
0.177161 -0.128551 -0.351174
0.177169 -0.128542 -0.351478
0.177177 -0.128533 -0.351783
0.177186 -0.128523 -0.352087
0.177194 -0.128514 -0.352392
0.177202 -0.128505 -0.352696
0.177211 -0.128495 -0.353001
0.177219 -0.128486 -0.353305
0.177227 -0.128476 -0.353610
0.177236 -0.128467 -0.353914
0.177244 -0.128458 -0.354218
0.177252 -0.128448 -0.354523
0.177261 -0.128439 -0.354827
0.177269 -0.128430 -0.355132
0.177277 -0.128420 -0.355436
0.177286 -0.128411 -0.355740
0.177294 -0.128402 -0.356045
0.177302 -0.128392 -0.356349
0.177310 -0.128383 -0.356653
0.177319 -0.128374 -0.356958
0.177327 -0.128364 -0.357262
0.177335 -0.128355 -0.357566
0.177344 -0.128346 -0.357870
0.177352 -0.128336 -0.358175
0.177360 -0.128327 -0.358479
0.177369 -0.128318 -0.358783
0.177377 -0.128308 -0.359087
0.177385 -0.128299 -0.359391
0.177394 -0.128289 -0.359696
0.177402 -0.128280 -0.360000
0.177410 -0.128271 -0.360304
0.177418 -0.128261 -0.360608
0.177427 -0.128252 -0.360912
0.177435 -0.128243 -0.361216
0.177443 -0.128233 -0.361521
0.177452 -0.128224 -0.361825
0.177460 -0.128215 -0.362129
0.177468 -0.128205 -0.362433
0.177476 -0.128196 -0.362737
0.177485 -0.128187 -0.363041
0.177493 -0.128177 -0.363345
0.177501 -0.128168 -0.363649
0.177510 -0.128159 -0.363953
0.177518 -0.128149 -0.364257
0.177526 -0.128140 -0.364561
0.177535 -0.128131 -0.364865
0.177543 -0.128121 -0.365169
0.177551 -0.128112 -0.365473
0.177559 -0.128103 -0.365777
0.177568 -0.128093 -0.366081
0.177576 -0.128084 -0.366385
0.177584 -0.128075 -0.366689
0.177593 -0.128065 -0.366993
0.177601 -0.128056 -0.367297
0.177609 -0.128046 -0.367601
0.177617 -0.128037 -0.367904
0.177626 -0.128028 -0.368208
0.177634 -0.128018 -0.368512
0.177642 -0.128009 -0.368816
0.177651 -0.128000 -0.369120
0.177659 -0.127990 -0.369424
0.177667 -0.127981 -0.369727
0.177675 -0.127972 -0.370031
0.177684 -0.127962 -0.370335
0.177692 -0.127953 -0.370639
0.177700 -0.127944 -0.370943
0.177709 -0.127934 -0.371246
0.177717 -0.127925 -0.371550
0.177725 -0.127916 -0.371854
0.177733 -0.127906 -0.372157
0.177742 -0.127897 -0.372461
0.177750 -0.127888 -0.372765
0.177758 -0.127878 -0.373069
0.177767 -0.127869 -0.373372
0.177775 -0.127860 -0.373676
0.177783 -0.127850 -0.373980
0.177791 -0.127841 -0.374283
0.177800 -0.127832 -0.374587
0.177808 -0.127822 -0.374890
0.177816 -0.127813 -0.375194
0.177824 -0.127804 -0.375498
0.177833 -0.127794 -0.375801
0.177841 -0.127785 -0.376105
0.177849 -0.127776 -0.376408
0.177858 -0.127766 -0.376712
0.177866 -0.127757 -0.377015
0.177874 -0.127748 -0.377319
0.177882 -0.127738 -0.377622
0.177891 -0.127729 -0.377926
0.177899 -0.127720 -0.378229
0.177907 -0.127710 -0.378533
0.177915 -0.127701 -0.378836
0.177924 -0.127692 -0.379140
0.177932 -0.127682 -0.379443
0.177940 -0.127673 -0.379747
0.177949 -0.127664 -0.380050
0.177957 -0.127654 -0.380353
0.177965 -0.127645 -0.380657
0.177973 -0.127636 -0.380960
0.177982 -0.127626 -0.381264
0.177990 -0.127617 -0.381567
0.177998 -0.127608 -0.381870
0.178006 -0.127598 -0.382174
0.178015 -0.127589 -0.382477
0.178023 -0.127580 -0.382780
0.178031 -0.127570 -0.383084
0.178039 -0.127561 -0.383387
0.178048 -0.127552 -0.383690
0.178056 -0.127542 -0.383993
0.178064 -0.127533 -0.384297
0.178073 -0.127524 -0.384600
0.178081 -0.127514 -0.384903
0.178089 -0.127505 -0.385206
0.178097 -0.127496 -0.385510
0.178106 -0.127486 -0.385813
0.178114 -0.127477 -0.386116
0.178122 -0.127468 -0.386419
0.178130 -0.127458 -0.386722
0.178139 -0.127449 -0.387025
0.178147 -0.127440 -0.387329
0.178155 -0.127430 -0.387632
0.178163 -0.127421 -0.387935
0.178172 -0.127412 -0.388238
0.178180 -0.127402 -0.388541
0.178188 -0.127393 -0.388844
0.178196 -0.127384 -0.389147
0.178205 -0.127374 -0.389450
0.178213 -0.127365 -0.389753
0.178221 -0.127356 -0.390056
0.178229 -0.127347 -0.390359
0.178238 -0.127337 -0.390662
0.178246 -0.127328 -0.390965
0.178254 -0.127319 -0.391268
0.178262 -0.127309 -0.391571
0.178271 -0.127300 -0.391874
0.178279 -0.127291 -0.392177
0.178287 -0.127281 -0.392480
0.178296 -0.127272 -0.392783
0.178304 -0.127263 -0.393086
0.178312 -0.127253 -0.393389
0.178320 -0.127244 -0.393692
0.178329 -0.127235 -0.393995
0.178337 -0.127225 -0.394298
0.178345 -0.127216 -0.394600
0.178353 -0.127207 -0.394903
0.178362 -0.127197 -0.395206
0.178370 -0.127188 -0.395509
0.178378 -0.127179 -0.395812
0.178386 -0.127170 -0.396115
0.178395 -0.127160 -0.396417
0.178403 -0.127151 -0.396720
0.178411 -0.127142 -0.397023
0.178419 -0.127132 -0.397326
0.178428 -0.127123 -0.397628
0.178436 -0.127114 -0.397931
0.178444 -0.127104 -0.398234
0.178452 -0.127095 -0.398537
0.178461 -0.127086 -0.398839
0.178469 -0.127076 -0.399142
0.178477 -0.127067 -0.399445
0.178485 -0.127058 -0.399747
0.178494 -0.127048 -0.400050
0.178502 -0.127039 -0.400353
0.178510 -0.127030 -0.400655
0.178518 -0.127021 -0.400958
0.178527 -0.127011 -0.401260
0.178535 -0.127002 -0.401563
0.178543 -0.126993 -0.401866
0.178551 -0.126983 -0.402168
0.178560 -0.126974 -0.402471
0.178568 -0.126965 -0.402773
0.178576 -0.126955 -0.403076
0.178584 -0.126946 -0.403378
0.178593 -0.126937 -0.403681
0.178601 -0.126928 -0.403983
0.178609 -0.126918 -0.404286
0.178617 -0.126909 -0.404588
0.178626 -0.126900 -0.404891
0.178634 -0.126890 -0.405193
0.178642 -0.126881 -0.405496
0.178650 -0.126872 -0.405798
0.178659 -0.126862 -0.406101
0.178667 -0.126853 -0.406403
0.178675 -0.126844 -0.406705
0.178683 -0.126835 -0.407008
0.178692 -0.126825 -0.407310
0.178700 -0.126816 -0.407613
0.178708 -0.126807 -0.407915
0.178716 -0.126797 -0.408217
0.178724 -0.126788 -0.408520
0.178733 -0.126779 -0.408822
0.178741 -0.126769 -0.409124
0.178749 -0.126760 -0.409427
0.178757 -0.126751 -0.409729
0.178766 -0.126742 -0.410031
0.178774 -0.126732 -0.410333
0.178782 -0.126723 -0.410636
0.178790 -0.126714 -0.410938
0.178799 -0.126704 -0.411240
0.178807 -0.126695 -0.411542
0.178815 -0.126686 -0.411845
0.178823 -0.126677 -0.412147
0.178832 -0.126667 -0.412449
0.178840 -0.126658 -0.412751
0.178848 -0.126649 -0.413053
0.178856 -0.126639 -0.413355
0.178865 -0.126630 -0.413658
0.178873 -0.126621 -0.413960
0.178881 -0.126612 -0.414262
0.178889 -0.126602 -0.414564
0.178898 -0.126593 -0.414866
0.178906 -0.126584 -0.415168
0.178914 -0.126574 -0.415470
0.178922 -0.126565 -0.415772
0.178931 -0.126556 -0.416074
0.178939 -0.126547 -0.416376
0.178947 -0.126537 -0.416678
0.178955 -0.126528 -0.416980
0.178963 -0.126519 -0.417282
0.178972 -0.126509 -0.417584
0.178980 -0.126500 -0.417886
0.178988 -0.126491 -0.418188
0.178996 -0.126482 -0.418490
0.179005 -0.126472 -0.418792
0.179013 -0.126463 -0.419094
0.179021 -0.126454 -0.419396
0.179029 -0.126444 -0.419698
0.179038 -0.126435 -0.420000
0.179046 -0.126426 -0.420302
0.179054 -0.126417 -0.420604
0.179062 -0.126407 -0.420905
0.179071 -0.126398 -0.421207
0.179079 -0.126389 -0.421509
0.179087 -0.126380 -0.421811
0.179095 -0.126370 -0.422113
0.179104 -0.126361 -0.422415
0.179112 -0.126352 -0.422716
0.179120 -0.126342 -0.423018
0.179128 -0.126333 -0.423320
0.179136 -0.126324 -0.423622
0.179145 -0.126315 -0.423923
0.179153 -0.126305 -0.424225
0.179161 -0.126296 -0.424527
0.179169 -0.126287 -0.424829
0.179178 -0.126278 -0.425130
0.179186 -0.126268 -0.425432
0.179194 -0.126259 -0.425734
0.179202 -0.126250 -0.426035
0.179211 -0.126241 -0.426337
0.179219 -0.126231 -0.426639
0.179227 -0.126222 -0.426940
0.179235 -0.126213 -0.427242
0.179244 -0.126203 -0.427543
0.179252 -0.126194 -0.427845
0.179260 -0.126185 -0.428147
0.179268 -0.126176 -0.428448
0.179276 -0.126166 -0.428750
0.179285 -0.126157 -0.429051
0.179293 -0.126148 -0.429353
0.179301 -0.126139 -0.429654
0.179309 -0.126129 -0.429956
0.179318 -0.126120 -0.430257
0.179326 -0.126111 -0.430559
0.179334 -0.126102 -0.430860
0.179342 -0.126092 -0.431162
0.179351 -0.126083 -0.431463
0.179359 -0.126074 -0.431765
0.179367 -0.126065 -0.432066
0.179375 -0.126055 -0.432368
0.179383 -0.126046 -0.432669
0.179392 -0.126037 -0.432970
0.179400 -0.126028 -0.433272
0.179408 -0.126018 -0.433573
0.179416 -0.126009 -0.433875
0.179425 -0.126000 -0.434176
0.179433 -0.125991 -0.434477
0.179441 -0.125981 -0.434779
0.179449 -0.125972 -0.435080
0.179458 -0.125963 -0.435381
0.179466 -0.125954 -0.435683
0.179474 -0.125944 -0.435984
0.179482 -0.125935 -0.436285
0.179491 -0.125926 -0.436586
0.179499 -0.125917 -0.436888
0.179507 -0.125907 -0.437189
0.179515 -0.125898 -0.437490
0.179523 -0.125889 -0.437791
0.179532 -0.125880 -0.438093
0.179540 -0.125870 -0.438394
0.179548 -0.125861 -0.438695
0.179556 -0.125852 -0.438996
0.179565 -0.125843 -0.439297
0.179573 -0.125833 -0.439598
0.179581 -0.125824 -0.439900
0.179589 -0.125815 -0.440201
0.179597 -0.125806 -0.440502
0.179606 -0.125796 -0.440803
0.179614 -0.125787 -0.441104
0.179622 -0.125778 -0.441405
0.179630 -0.125769 -0.441706
0.179639 -0.125759 -0.442007
0.179647 -0.125750 -0.442308
0.179655 -0.125741 -0.442609
0.179663 -0.125732 -0.442910
0.179672 -0.125722 -0.443211
0.179680 -0.125713 -0.443512
0.179688 -0.125704 -0.443813
0.179696 -0.125695 -0.444114
0.179704 -0.125685 -0.444415
0.179713 -0.125676 -0.444716
0.179721 -0.125667 -0.445017
0.179729 -0.125658 -0.445318
0.179737 -0.125649 -0.445619
0.179746 -0.125639 -0.445920
0.179754 -0.125630 -0.446221
0.179762 -0.125621 -0.446522
0.179770 -0.125612 -0.446823
0.179779 -0.125602 -0.447124
0.179787 -0.125593 -0.447424
0.179795 -0.125584 -0.447725
0.179803 -0.125575 -0.448026
0.179811 -0.125565 -0.448327
0.179820 -0.125556 -0.448628
0.179828 -0.125547 -0.448928
0.179836 -0.125538 -0.449229
0.179844 -0.125529 -0.449530
0.179853 -0.125519 -0.449831
0.179861 -0.125510 -0.450132
0.179869 -0.125501 -0.450432
0.179877 -0.125492 -0.450733
0.179885 -0.125482 -0.451034
0.179894 -0.125473 -0.451334
0.179902 -0.125464 -0.451635
0.179910 -0.125455 -0.451936
0.179918 -0.125446 -0.452236
0.179927 -0.125436 -0.452537
0.179935 -0.125427 -0.452838
0.179943 -0.125418 -0.453138
0.179951 -0.125409 -0.453439
0.179959 -0.125399 -0.453740
0.179968 -0.125390 -0.454040
0.179976 -0.125381 -0.454341
0.179984 -0.125372 -0.454641
0.179992 -0.125363 -0.454942
0.180001 -0.125353 -0.455243
0.180009 -0.125344 -0.455543
0.180017 -0.125335 -0.455844
0.180025 -0.125326 -0.456144
0.180033 -0.125316 -0.456445
0.180042 -0.125307 -0.456745
0.180050 -0.125298 -0.457046
0.180058 -0.125289 -0.457346
0.180066 -0.125280 -0.457647
0.180075 -0.125270 -0.457947
0.180083 -0.125261 -0.458248
0.180091 -0.125252 -0.458548
0.180099 -0.125243 -0.458848
0.180108 -0.125234 -0.459149
0.180116 -0.125224 -0.459449
0.180124 -0.125215 -0.459750
0.180132 -0.125206 -0.460050
0.180140 -0.125197 -0.460350
0.180149 -0.125188 -0.460651
0.180157 -0.125178 -0.460951
0.180165 -0.125169 -0.461251
0.180173 -0.125160 -0.461552
0.180182 -0.125151 -0.461852
0.180190 -0.125141 -0.462152
0.180198 -0.125132 -0.462452
0.180206 -0.125123 -0.462753
0.180214 -0.125114 -0.463053
0.180223 -0.125105 -0.463353
0.180231 -0.125095 -0.463654
0.180239 -0.125086 -0.463954
0.180247 -0.125077 -0.464254
0.180256 -0.125068 -0.464554
0.180264 -0.125059 -0.464854
0.180272 -0.125049 -0.465155
0.180280 -0.125040 -0.465455
0.180288 -0.125031 -0.465755
0.180297 -0.125022 -0.466055
0.180305 -0.125013 -0.466355
0.180313 -0.125003 -0.466655
0.180321 -0.124994 -0.466955
0.180330 -0.124985 -0.467255
0.180338 -0.124976 -0.467556
0.180346 -0.124967 -0.467856
0.180354 -0.124958 -0.468156
0.180362 -0.124948 -0.468456
0.180371 -0.124939 -0.468756
0.180379 -0.124930 -0.469056
0.180387 -0.124921 -0.469356
0.180395 -0.124912 -0.469656
0.180403 -0.124902 -0.469956
0.180412 -0.124893 -0.470256
0.180420 -0.124884 -0.470556
0.180428 -0.124875 -0.470856
0.180436 -0.124866 -0.471156
0.180445 -0.124856 -0.471456
0.180453 -0.124847 -0.471756
0.180461 -0.124838 -0.472056
0.180469 -0.124829 -0.472355
0.180477 -0.124820 -0.472655
0.180486 -0.124810 -0.472955
0.180494 -0.124801 -0.473255
0.180502 -0.124792 -0.473555
0.180510 -0.124783 -0.473855
0.180519 -0.124774 -0.474155
0.180527 -0.124765 -0.474454
0.180535 -0.124755 -0.474754
0.180543 -0.124746 -0.475054
0.180551 -0.124737 -0.475354
0.180560 -0.124728 -0.475654
0.180568 -0.124719 -0.475953
0.180576 -0.124709 -0.476253
0.180584 -0.124700 -0.476553
0.180593 -0.124691 -0.476853
0.180601 -0.124682 -0.477152
0.180609 -0.124673 -0.477452
0.180617 -0.124664 -0.477752
0.180625 -0.124654 -0.478051
0.180634 -0.124645 -0.478351
0.180642 -0.124636 -0.478651
0.180650 -0.124627 -0.478950
0.180658 -0.124618 -0.479250
0.180667 -0.124609 -0.479550
0.180675 -0.124599 -0.479849
0.180683 -0.124590 -0.480149
0.180691 -0.124581 -0.480449
0.180699 -0.124572 -0.480748
0.180708 -0.124563 -0.481048
0.180716 -0.124554 -0.481347
0.180724 -0.124544 -0.481647
0.180732 -0.124535 -0.481946
0.180740 -0.124526 -0.482246
0.180749 -0.124517 -0.482545
0.180757 -0.124508 -0.482845
0.180765 -0.124499 -0.483144
0.180773 -0.124489 -0.483444
0.180782 -0.124480 -0.483743
0.180790 -0.124471 -0.484043
0.180798 -0.124462 -0.484342
0.180806 -0.124453 -0.484642
0.180814 -0.124444 -0.484941
0.180823 -0.124434 -0.485241
0.180831 -0.124425 -0.485540
0.180839 -0.124416 -0.485839
0.180847 -0.124407 -0.486139
0.180856 -0.124398 -0.486438
0.180864 -0.124389 -0.486738
0.180872 -0.124379 -0.487037
0.180880 -0.124370 -0.487336
0.180888 -0.124361 -0.487636
0.180897 -0.124352 -0.487935
0.180905 -0.124343 -0.488234
0.180913 -0.124334 -0.488533
0.180921 -0.124324 -0.488833
0.180929 -0.124315 -0.489132
0.180938 -0.124306 -0.489431
0.180946 -0.124297 -0.489730
0.180954 -0.124288 -0.490030
0.180962 -0.124279 -0.490329
0.180971 -0.124270 -0.490628
0.180979 -0.124260 -0.490927
0.180987 -0.124251 -0.491227
0.180995 -0.124242 -0.491526
0.181003 -0.124233 -0.491825
0.181012 -0.124224 -0.492124
0.181020 -0.124215 -0.492423
0.181028 -0.124205 -0.492722
0.181036 -0.124196 -0.493021
0.181044 -0.124187 -0.493321
0.181053 -0.124178 -0.493620
0.181061 -0.124169 -0.493919
0.181069 -0.124160 -0.494218
0.181077 -0.124151 -0.494517
0.181086 -0.124141 -0.494816
0.181094 -0.124132 -0.495115
0.181102 -0.124123 -0.495414
0.181110 -0.124114 -0.495713
0.181118 -0.124105 -0.496012
0.181127 -0.124096 -0.496311
0.181135 -0.124087 -0.496610
0.181143 -0.124077 -0.496909
0.181151 -0.124068 -0.497208
0.181159 -0.124059 -0.497507
0.181168 -0.124050 -0.497806
0.181176 -0.124041 -0.498105
0.181184 -0.124032 -0.498404
0.181192 -0.124023 -0.498703
0.181201 -0.124013 -0.499001
0.181209 -0.124004 -0.499300
0.181217 -0.123995 -0.499599
0.181225 -0.123986 -0.499898
0.181233 -0.123977 -0.500197
0.181242 -0.123968 -0.500496
0.181250 -0.123959 -0.500795
0.181258 -0.123950 -0.501093
0.181266 -0.123940 -0.501392
0.181274 -0.123931 -0.501691
0.181283 -0.123922 -0.501990
0.181291 -0.123913 -0.502289
0.181299 -0.123904 -0.502587
0.181307 -0.123895 -0.502886
0.181316 -0.123886 -0.503185
0.181324 -0.123876 -0.503483
0.181332 -0.123867 -0.503782
0.181340 -0.123858 -0.504081
0.181348 -0.123849 -0.504380
0.181357 -0.123840 -0.504678
0.181365 -0.123831 -0.504977
0.181373 -0.123822 -0.505276
0.181381 -0.123813 -0.505574
0.181389 -0.123803 -0.505873
0.181398 -0.123794 -0.506171
0.181406 -0.123785 -0.506470
0.181414 -0.123776 -0.506769
0.181422 -0.123767 -0.507067
0.181431 -0.123758 -0.507366
0.181439 -0.123749 -0.507664
0.181447 -0.123740 -0.507963
0.181455 -0.123730 -0.508262
0.181463 -0.123721 -0.508560
0.181472 -0.123712 -0.508859
0.181480 -0.123703 -0.509157
0.181488 -0.123694 -0.509456
0.181496 -0.123685 -0.509754
0.181504 -0.123676 -0.510053
0.181513 -0.123667 -0.510351
0.181521 -0.123658 -0.510649
0.181529 -0.123648 -0.510948
0.181537 -0.123639 -0.511246
0.181546 -0.123630 -0.511545
0.181554 -0.123621 -0.511843
0.181562 -0.123612 -0.512142
0.181570 -0.123603 -0.512440
0.181578 -0.123594 -0.512738
0.181587 -0.123585 -0.513037
0.181595 -0.123575 -0.513335
0.181603 -0.123566 -0.513633
0.181611 -0.123557 -0.513932
0.181619 -0.123548 -0.514230
0.181628 -0.123539 -0.514528
0.181636 -0.123530 -0.514827
0.181644 -0.123521 -0.515125
0.181652 -0.123512 -0.515423
0.181660 -0.123503 -0.515721
0.181669 -0.123494 -0.516020
0.181677 -0.123484 -0.516318
0.181685 -0.123475 -0.516616
0.181693 -0.123466 -0.516914
0.181702 -0.123457 -0.517212
0.181710 -0.123448 -0.517511
0.181718 -0.123439 -0.517809
0.181726 -0.123430 -0.518107
0.181734 -0.123421 -0.518405
0.181743 -0.123412 -0.518703
0.181751 -0.123402 -0.519001
0.181759 -0.123393 -0.519300
0.181767 -0.123384 -0.519598
0.181775 -0.123375 -0.519896
0.181784 -0.123366 -0.520194
0.181792 -0.123357 -0.520492
0.181800 -0.123348 -0.520790
0.181808 -0.123339 -0.521088
0.181816 -0.123330 -0.521386
0.181825 -0.123321 -0.521684
0.181833 -0.123312 -0.521982
0.181841 -0.123302 -0.522280
0.181849 -0.123293 -0.522578
0.181858 -0.123284 -0.522876
0.181866 -0.123275 -0.523174
0.181874 -0.123266 -0.523472
0.181882 -0.123257 -0.523770
0.181890 -0.123248 -0.524068
0.181899 -0.123239 -0.524366
0.181907 -0.123230 -0.524664
0.181915 -0.123221 -0.524962
0.181923 -0.123211 -0.525260
0.181931 -0.123202 -0.525558
0.181940 -0.123193 -0.525855
0.181948 -0.123184 -0.526153
0.181956 -0.123175 -0.526451
0.181964 -0.123166 -0.526749
0.181972 -0.123157 -0.527047
0.181981 -0.123148 -0.527345
0.181989 -0.123139 -0.527642
0.181997 -0.123130 -0.527940
0.182005 -0.123121 -0.528238
0.182013 -0.123112 -0.528536
0.182022 -0.123102 -0.528834
0.182030 -0.123093 -0.529131
0.182038 -0.123084 -0.529429
0.182046 -0.123075 -0.529727
0.182055 -0.123066 -0.530024
0.182063 -0.123057 -0.530322
0.182071 -0.123048 -0.530620
0.182079 -0.123039 -0.530918
0.182087 -0.123030 -0.531215
0.182096 -0.123021 -0.531513
0.182104 -0.123012 -0.531810
0.182112 -0.123003 -0.532108
0.182120 -0.122994 -0.532406
0.182128 -0.122984 -0.532703
0.182137 -0.122975 -0.533001
0.182145 -0.122966 -0.533299
0.182153 -0.122957 -0.533596
0.182161 -0.122948 -0.533894
0.182169 -0.122939 -0.534191
0.182178 -0.122930 -0.534489
0.182186 -0.122921 -0.534786
0.182194 -0.122912 -0.535084
0.182202 -0.122903 -0.535381
0.182210 -0.122894 -0.535679
0.182219 -0.122885 -0.535976
0.182227 -0.122876 -0.536274
0.182235 -0.122866 -0.536571
0.182243 -0.122857 -0.536869
0.182252 -0.122848 -0.537166
0.182260 -0.122839 -0.537464
0.182268 -0.122830 -0.537761
0.182276 -0.122821 -0.538058
0.182284 -0.122812 -0.538356
0.182293 -0.122803 -0.538653
0.182301 -0.122794 -0.538951
0.182309 -0.122785 -0.539248
0.182317 -0.122776 -0.539545
0.182325 -0.122767 -0.539843
0.182334 -0.122758 -0.540140
0.182342 -0.122749 -0.540437
0.182350 -0.122740 -0.540735
0.182358 -0.122731 -0.541032
0.182366 -0.122721 -0.541329
0.182375 -0.122712 -0.541626
0.182383 -0.122703 -0.541924
0.182391 -0.122694 -0.542221
0.182399 -0.122685 -0.542518
0.182407 -0.122676 -0.542815
0.182416 -0.122667 -0.543113
0.182424 -0.122658 -0.543410
0.182432 -0.122649 -0.543707
0.182440 -0.122640 -0.544004
0.182448 -0.122631 -0.544301
0.182457 -0.122622 -0.544599
0.182465 -0.122613 -0.544896
0.182473 -0.122604 -0.545193
0.182481 -0.122595 -0.545490
0.182489 -0.122586 -0.545787
0.182498 -0.122577 -0.546084
0.182506 -0.122568 -0.546381
0.182514 -0.122558 -0.546678
0.182522 -0.122549 -0.546976
0.182531 -0.122540 -0.547273
0.182539 -0.122531 -0.547570
0.182547 -0.122522 -0.547867
0.182555 -0.122513 -0.548164
0.182563 -0.122504 -0.548461
0.182572 -0.122495 -0.548758
0.182580 -0.122486 -0.549055
0.182588 -0.122477 -0.549352
0.182596 -0.122468 -0.549649
0.182604 -0.122459 -0.549946
0.182613 -0.122450 -0.550243
0.182621 -0.122441 -0.550539
0.182629 -0.122432 -0.550836
0.182637 -0.122423 -0.551133
0.182645 -0.122414 -0.551430
0.182654 -0.122405 -0.551727
0.182662 -0.122396 -0.552024
0.182670 -0.122387 -0.552321
0.182678 -0.122378 -0.552618
0.182686 -0.122369 -0.552915
0.182695 -0.122360 -0.553211
0.182703 -0.122350 -0.553508
0.182711 -0.122341 -0.553805
0.182719 -0.122332 -0.554102
0.182727 -0.122323 -0.554399
0.182736 -0.122314 -0.554695
0.182744 -0.122305 -0.554992
0.182752 -0.122296 -0.555289
0.182760 -0.122287 -0.555586
0.182768 -0.122278 -0.555882
0.182777 -0.122269 -0.556179
0.182785 -0.122260 -0.556476
0.182793 -0.122251 -0.556773
0.182801 -0.122242 -0.557069
0.182809 -0.122233 -0.557366
0.182818 -0.122224 -0.557663
0.182826 -0.122215 -0.557959
0.182834 -0.122206 -0.558256
0.182842 -0.122197 -0.558552
0.182850 -0.122188 -0.558849
0.182859 -0.122179 -0.559146
0.182867 -0.122170 -0.559442
0.182875 -0.122161 -0.559739
0.182883 -0.122152 -0.560035
0.182891 -0.122143 -0.560332
0.182900 -0.122134 -0.560629
0.182908 -0.122125 -0.560925
0.182916 -0.122116 -0.561222
0.182924 -0.122107 -0.561518
0.182932 -0.122098 -0.561815
0.182941 -0.122089 -0.562111
0.182949 -0.122080 -0.562408
0.182957 -0.122071 -0.562704
0.182965 -0.122062 -0.563001
0.182973 -0.122053 -0.563297
0.182982 -0.122044 -0.563593
0.182990 -0.122034 -0.563890
0.182998 -0.122025 -0.564186
0.183006 -0.122016 -0.564483
0.183015 -0.122007 -0.564779
0.183023 -0.121998 -0.565076
0.183031 -0.121989 -0.565372
0.183039 -0.121980 -0.565668
0.183047 -0.121971 -0.565965
0.183056 -0.121962 -0.566261
0.183064 -0.121953 -0.566557
0.183072 -0.121944 -0.566854
0.183080 -0.121935 -0.567150
0.183088 -0.121926 -0.567446
0.183097 -0.121917 -0.567742
0.183105 -0.121908 -0.568039
0.183113 -0.121899 -0.568335
0.183121 -0.121890 -0.568631
0.183129 -0.121881 -0.568927
0.183138 -0.121872 -0.569224
0.183146 -0.121863 -0.569520
0.183154 -0.121854 -0.569816
0.183162 -0.121845 -0.570112
0.183170 -0.121836 -0.570408
0.183179 -0.121827 -0.570705
0.183187 -0.121818 -0.571001
0.183195 -0.121809 -0.571297
0.183203 -0.121800 -0.571593
0.183211 -0.121791 -0.571889
0.183220 -0.121782 -0.572185
0.183228 -0.121773 -0.572481
0.183236 -0.121764 -0.572778
0.183244 -0.121755 -0.573074
0.183252 -0.121746 -0.573370
0.183261 -0.121737 -0.573666
0.183269 -0.121728 -0.573962
0.183277 -0.121719 -0.574258
0.183285 -0.121710 -0.574554
0.183293 -0.121701 -0.574850
0.183302 -0.121692 -0.575146
0.183310 -0.121683 -0.575442
0.183318 -0.121674 -0.575738
0.183326 -0.121665 -0.576034
0.183334 -0.121656 -0.576330
0.183343 -0.121647 -0.576626
0.183351 -0.121638 -0.576922
0.183359 -0.121629 -0.577218
0.183367 -0.121620 -0.577513
0.183375 -0.121611 -0.577809
0.183384 -0.121602 -0.578105
0.183392 -0.121593 -0.578401
0.183400 -0.121584 -0.578697
0.183408 -0.121575 -0.578993
0.183416 -0.121566 -0.579289
0.183425 -0.121557 -0.579585
0.183433 -0.121548 -0.579880
0.183441 -0.121539 -0.580176
0.183449 -0.121530 -0.580472
0.183457 -0.121521 -0.580768
0.183466 -0.121512 -0.581064
0.183474 -0.121503 -0.581359
0.183482 -0.121494 -0.581655
0.183490 -0.121485 -0.581951
0.183498 -0.121476 -0.582247
0.183507 -0.121467 -0.582542
0.183515 -0.121458 -0.582838
0.183523 -0.121449 -0.583134
0.183531 -0.121440 -0.583429
0.183539 -0.121431 -0.583725
0.183548 -0.121423 -0.584021
0.183556 -0.121414 -0.584316
0.183564 -0.121405 -0.584612
0.183572 -0.121396 -0.584908
0.183580 -0.121387 -0.585203
0.183588 -0.121378 -0.585499
0.183597 -0.121369 -0.585794
0.183605 -0.121360 -0.586090
0.183613 -0.121351 -0.586386
0.183621 -0.121342 -0.586681
0.183629 -0.121333 -0.586977
0.183638 -0.121324 -0.587272
0.183646 -0.121315 -0.587568
0.183654 -0.121306 -0.587863
0.183662 -0.121297 -0.588159
0.183670 -0.121288 -0.588454
0.183679 -0.121279 -0.588750
0.183687 -0.121270 -0.589045
0.183695 -0.121261 -0.589341
0.183703 -0.121252 -0.589636
0.183711 -0.121243 -0.589932
0.183720 -0.121234 -0.590227
0.183728 -0.121225 -0.590522
0.183736 -0.121216 -0.590818
0.183744 -0.121207 -0.591113
0.183752 -0.121198 -0.591409
0.183761 -0.121189 -0.591704
0.183769 -0.121180 -0.591999
0.183777 -0.121171 -0.592295
0.183785 -0.121162 -0.592590
0.183793 -0.121153 -0.592885
0.183802 -0.121144 -0.593181
0.183810 -0.121135 -0.593476
0.183818 -0.121126 -0.593771
0.183826 -0.121117 -0.594067
0.183834 -0.121108 -0.594362
0.183843 -0.121100 -0.594657
0.183851 -0.121091 -0.594952
0.183859 -0.121082 -0.595248
0.183867 -0.121073 -0.595543
0.183875 -0.121064 -0.595838
0.183884 -0.121055 -0.596133
0.183892 -0.121046 -0.596428
0.183900 -0.121037 -0.596724
0.183908 -0.121028 -0.597019
0.183916 -0.121019 -0.597314
0.183925 -0.121010 -0.597609
0.183933 -0.121001 -0.597904
0.183941 -0.120992 -0.598199
0.183949 -0.120983 -0.598495
0.183957 -0.120974 -0.598790
0.183966 -0.120965 -0.599085
0.183974 -0.120956 -0.599380
0.183982 -0.120947 -0.599675
0.183990 -0.120938 -0.599970
0.183998 -0.120929 -0.600265
0.184007 -0.120920 -0.600560
0.184015 -0.120911 -0.600855
0.184023 -0.120902 -0.601150
0.184031 -0.120894 -0.601445
0.184039 -0.120885 -0.601740
0.184047 -0.120876 -0.602035
0.184056 -0.120867 -0.602330
0.184064 -0.120858 -0.602625
0.184072 -0.120849 -0.602920
0.184080 -0.120840 -0.603215
0.184088 -0.120831 -0.603510
0.184097 -0.120822 -0.603805
0.184105 -0.120813 -0.604100
0.184113 -0.120804 -0.604394
0.184121 -0.120795 -0.604689
0.184129 -0.120786 -0.604984
0.184138 -0.120777 -0.605279
0.184146 -0.120768 -0.605574
0.184154 -0.120759 -0.605869
0.184162 -0.120750 -0.606164
0.184170 -0.120741 -0.606458
0.184179 -0.120733 -0.606753
0.184187 -0.120724 -0.607048
0.184195 -0.120715 -0.607343
0.184203 -0.120706 -0.607638
0.184211 -0.120697 -0.607932
0.184220 -0.120688 -0.608227
0.184228 -0.120679 -0.608522
0.184236 -0.120670 -0.608817
0.184244 -0.120661 -0.609111
0.184252 -0.120652 -0.609406
0.184261 -0.120643 -0.609701
0.184269 -0.120634 -0.609995
0.184277 -0.120625 -0.610290
0.184285 -0.120616 -0.610585
0.184293 -0.120607 -0.610879
0.184302 -0.120599 -0.611174
0.184310 -0.120590 -0.611469
0.184318 -0.120581 -0.611763
0.184326 -0.120572 -0.612058
0.184334 -0.120563 -0.612352
0.184342 -0.120554 -0.612647
0.184351 -0.120545 -0.612941
0.184359 -0.120536 -0.613236
0.184367 -0.120527 -0.613531
0.184375 -0.120518 -0.613825
0.184383 -0.120509 -0.614120
0.184392 -0.120500 -0.614414
0.184400 -0.120491 -0.614709
0.184408 -0.120482 -0.615003
0.184416 -0.120474 -0.615298
0.184424 -0.120465 -0.615592
0.184433 -0.120456 -0.615887
0.184441 -0.120447 -0.616181
0.184449 -0.120438 -0.616475
0.184457 -0.120429 -0.616770
0.184465 -0.120420 -0.617064
0.184474 -0.120411 -0.617359
0.184482 -0.120402 -0.617653
0.184490 -0.120393 -0.617947
0.184498 -0.120384 -0.618242
0.184506 -0.120375 -0.618536
0.184515 -0.120366 -0.618830
0.184523 -0.120358 -0.619125
0.184531 -0.120349 -0.619419
0.184539 -0.120340 -0.619713
0.184547 -0.120331 -0.620008
0.184555 -0.120322 -0.620302
0.184564 -0.120313 -0.620596
0.184572 -0.120304 -0.620891
0.184580 -0.120295 -0.621185
0.184588 -0.120286 -0.621479
0.184596 -0.120277 -0.621773
0.184605 -0.120268 -0.622067
0.184613 -0.120259 -0.622362
0.184621 -0.120251 -0.622656
0.184629 -0.120242 -0.622950
0.184637 -0.120233 -0.623244
0.184646 -0.120224 -0.623538
0.184654 -0.120215 -0.623833
0.184662 -0.120206 -0.624127
0.184670 -0.120197 -0.624421
0.184678 -0.120188 -0.624715
0.184687 -0.120179 -0.625009
0.184695 -0.120170 -0.625303
0.184703 -0.120162 -0.625597
0.184711 -0.120153 -0.625891
0.184719 -0.120144 -0.626185
0.184727 -0.120135 -0.626479
0.184736 -0.120126 -0.626774
0.184744 -0.120117 -0.627068
0.184752 -0.120108 -0.627362
0.184760 -0.120099 -0.627656
0.184768 -0.120090 -0.627950
0.184777 -0.120081 -0.628244
0.184785 -0.120072 -0.628538
0.184793 -0.120064 -0.628832
0.184801 -0.120055 -0.629125
0.184809 -0.120046 -0.629419
0.184818 -0.120037 -0.629713
0.184826 -0.120028 -0.630007
0.184834 -0.120019 -0.630301
0.184842 -0.120010 -0.630595
0.184850 -0.120001 -0.630889
0.184859 -0.119992 -0.631183
0.184867 -0.119984 -0.631477
0.184875 -0.119975 -0.631771
0.184883 -0.119966 -0.632064
0.184891 -0.119957 -0.632358
0.184899 -0.119948 -0.632652
0.184908 -0.119939 -0.632946
0.184916 -0.119930 -0.633240
0.184924 -0.119921 -0.633533
0.184932 -0.119912 -0.633827
0.184940 -0.119903 -0.634121
0.184949 -0.119895 -0.634415
0.184957 -0.119886 -0.634708
0.184965 -0.119877 -0.635002
0.184973 -0.119868 -0.635296
0.184981 -0.119859 -0.635590
0.184990 -0.119850 -0.635883
0.184998 -0.119841 -0.636177
0.185006 -0.119832 -0.636471
0.185014 -0.119823 -0.636764
0.185022 -0.119815 -0.637058
0.185030 -0.119806 -0.637352
0.185039 -0.119797 -0.637645
0.185047 -0.119788 -0.637939
0.185055 -0.119779 -0.638232
0.185063 -0.119770 -0.638526
0.185071 -0.119761 -0.638820
0.185080 -0.119752 -0.639113
0.185088 -0.119744 -0.639407
0.185096 -0.119735 -0.639700
0.185104 -0.119726 -0.639994
0.185112 -0.119717 -0.640287
0.185121 -0.119708 -0.640581
0.185129 -0.119699 -0.640874
0.185137 -0.119690 -0.641168
0.185145 -0.119681 -0.641461
0.185153 -0.119673 -0.641755
0.185161 -0.119664 -0.642048
0.185170 -0.119655 -0.642342
0.185178 -0.119646 -0.642635
0.185186 -0.119637 -0.642929
0.185194 -0.119628 -0.643222
0.185202 -0.119619 -0.643516
0.185211 -0.119610 -0.643809
0.185219 -0.119602 -0.644102
0.185227 -0.119593 -0.644396
0.185235 -0.119584 -0.644689
0.185243 -0.119575 -0.644982
0.185252 -0.119566 -0.645276
0.185260 -0.119557 -0.645569
0.185268 -0.119548 -0.645862
0.185276 -0.119539 -0.646156
0.185284 -0.119531 -0.646449
0.185292 -0.119522 -0.646742
0.185301 -0.119513 -0.647036
0.185309 -0.119504 -0.647329
0.185317 -0.119495 -0.647622
0.185325 -0.119486 -0.647915
0.185333 -0.119477 -0.648209
0.185342 -0.119469 -0.648502
0.185350 -0.119460 -0.648795
0.185358 -0.119451 -0.649088
0.185366 -0.119442 -0.649381
0.185374 -0.119433 -0.649675
0.185383 -0.119424 -0.649968
0.185391 -0.119415 -0.650261
0.185399 -0.119407 -0.650554
0.185407 -0.119398 -0.650847
0.185415 -0.119389 -0.651140
0.185423 -0.119380 -0.651433
0.185432 -0.119371 -0.651726
0.185440 -0.119362 -0.652019
0.185448 -0.119353 -0.652313
0.185456 -0.119345 -0.652606
0.185464 -0.119336 -0.652899
0.185473 -0.119327 -0.653192
0.185481 -0.119318 -0.653485
0.185489 -0.119309 -0.653778
0.185497 -0.119300 -0.654071
0.185505 -0.119291 -0.654364
0.185513 -0.119283 -0.654657
0.185522 -0.119274 -0.654950
0.185530 -0.119265 -0.655243
0.185538 -0.119256 -0.655536
0.185546 -0.119247 -0.655829
0.185554 -0.119238 -0.656122
0.185563 -0.119229 -0.656414
0.185571 -0.119221 -0.656707
0.185579 -0.119212 -0.657000
0.185587 -0.119203 -0.657293
0.185595 -0.119194 -0.657586
0.185604 -0.119185 -0.657879
0.185612 -0.119176 -0.658172
0.185620 -0.119167 -0.658465
0.185628 -0.119159 -0.658757
0.185636 -0.119150 -0.659050
0.185644 -0.119141 -0.659343
0.185653 -0.119132 -0.659636
0.185661 -0.119123 -0.659929
0.185669 -0.119114 -0.660221
0.185677 -0.119106 -0.660514
0.185685 -0.119097 -0.660807
0.185694 -0.119088 -0.661100
0.185702 -0.119079 -0.661392
0.185710 -0.119070 -0.661685
0.185718 -0.119061 -0.661978
0.185726 -0.119053 -0.662270
0.185734 -0.119044 -0.662563
0.185743 -0.119035 -0.662856
0.185751 -0.119026 -0.663149
0.185759 -0.119017 -0.663441
0.185767 -0.119008 -0.663734
0.185775 -0.119000 -0.664026
0.185784 -0.118991 -0.664319
0.185792 -0.118982 -0.664612
0.185800 -0.118973 -0.664904
0.185808 -0.118964 -0.665197
0.185816 -0.118955 -0.665489
0.185824 -0.118947 -0.665782
0.185833 -0.118938 -0.666075
0.185841 -0.118929 -0.666367
0.185849 -0.118920 -0.666660
0.185857 -0.118911 -0.666952
0.185865 -0.118902 -0.667245
0.185874 -0.118894 -0.667537
0.185882 -0.118885 -0.667830
0.185890 -0.118876 -0.668122
0.185898 -0.118867 -0.668415
0.185906 -0.118858 -0.668707
0.185914 -0.118849 -0.668999
0.185923 -0.118841 -0.669292
0.185931 -0.118832 -0.669584
0.185939 -0.118823 -0.669877
0.185947 -0.118814 -0.670169
0.185955 -0.118805 -0.670461
0.185964 -0.118796 -0.670754
0.185972 -0.118788 -0.671046
0.185980 -0.118779 -0.671339
0.185988 -0.118770 -0.671631
0.185996 -0.118761 -0.671923
0.186004 -0.118752 -0.672216
0.186013 -0.118744 -0.672508
0.186021 -0.118735 -0.672800
0.186029 -0.118726 -0.673092
0.186037 -0.118717 -0.673385
0.186045 -0.118708 -0.673677
0.186054 -0.118699 -0.673969
0.186062 -0.118691 -0.674261
0.186070 -0.118682 -0.674554
0.186078 -0.118673 -0.674846
0.186086 -0.118664 -0.675138
0.186094 -0.118655 -0.675430
0.186103 -0.118647 -0.675723
0.186111 -0.118638 -0.676015
0.186119 -0.118629 -0.676307
0.186127 -0.118620 -0.676599
0.186135 -0.118611 -0.676891
0.186144 -0.118602 -0.677183
0.186152 -0.118594 -0.677475
0.186160 -0.118585 -0.677768
0.186168 -0.118576 -0.678060
0.186176 -0.118567 -0.678352
0.186184 -0.118558 -0.678644
0.186193 -0.118550 -0.678936
0.186201 -0.118541 -0.679228
0.186209 -0.118532 -0.679520
0.186217 -0.118523 -0.679812
0.186225 -0.118514 -0.680104
0.186234 -0.118506 -0.680396
0.186242 -0.118497 -0.680688
0.186250 -0.118488 -0.680980
0.186258 -0.118479 -0.681272
0.186266 -0.118470 -0.681564
0.186274 -0.118462 -0.681856
0.186283 -0.118453 -0.682148
0.186291 -0.118444 -0.682440
0.186299 -0.118435 -0.682732
0.186307 -0.118426 -0.683024
0.186315 -0.118418 -0.683316
0.186323 -0.118409 -0.683607
0.186332 -0.118400 -0.683899
0.186340 -0.118391 -0.684191
0.186348 -0.118382 -0.684483
0.186356 -0.118374 -0.684775
0.186364 -0.118365 -0.685067
0.186373 -0.118356 -0.685358
0.186381 -0.118347 -0.685650
0.186389 -0.118338 -0.685942
0.186397 -0.118330 -0.686234
0.186405 -0.118321 -0.686526
0.186413 -0.118312 -0.686817
0.186422 -0.118303 -0.687109
0.186430 -0.118294 -0.687401
0.186438 -0.118286 -0.687693
0.186446 -0.118277 -0.687984
0.186454 -0.118268 -0.688276
0.186463 -0.118259 -0.688568
0.186471 -0.118250 -0.688859
0.186479 -0.118242 -0.689151
0.186487 -0.118233 -0.689443
0.186495 -0.118224 -0.689734
0.186503 -0.118215 -0.690026
0.186512 -0.118207 -0.690318
0.186520 -0.118198 -0.690609
0.186528 -0.118189 -0.690901
0.186536 -0.118180 -0.691193
0.186544 -0.118171 -0.691484
0.186552 -0.118163 -0.691776
0.186561 -0.118154 -0.692067
0.186569 -0.118145 -0.692359
0.186577 -0.118136 -0.692650
0.186585 -0.118127 -0.692942
0.186593 -0.118119 -0.693233
0.186602 -0.118110 -0.693525
0.186610 -0.118101 -0.693817
0.186618 -0.118092 -0.694108
0.186626 -0.118084 -0.694399
0.186634 -0.118075 -0.694691
0.186642 -0.118066 -0.694982
0.186651 -0.118057 -0.695274
0.186659 -0.118048 -0.695565
0.186667 -0.118040 -0.695857
0.186675 -0.118031 -0.696148
0.186683 -0.118022 -0.696440
0.186691 -0.118013 -0.696731
0.186700 -0.118005 -0.697022
0.186708 -0.117996 -0.697314
0.186716 -0.117987 -0.697605
0.186724 -0.117978 -0.697896
0.186732 -0.117969 -0.698188
0.186741 -0.117961 -0.698479
0.186749 -0.117952 -0.698770
0.186757 -0.117943 -0.699062
0.186765 -0.117934 -0.699353
0.186773 -0.117926 -0.699644
0.186781 -0.117917 -0.699935
0.186790 -0.117908 -0.700227
0.186798 -0.117899 -0.700518
0.186806 -0.117891 -0.700809
0.186814 -0.117882 -0.701100
0.186822 -0.117873 -0.701392
0.186830 -0.117864 -0.701683
0.186839 -0.117855 -0.701974
0.186847 -0.117847 -0.702265
0.186855 -0.117838 -0.702556
0.186863 -0.117829 -0.702848
0.186871 -0.117820 -0.703139
0.186879 -0.117812 -0.703430
0.186888 -0.117803 -0.703721
0.186896 -0.117794 -0.704012
0.186904 -0.117785 -0.704303
0.186912 -0.117777 -0.704594
0.186920 -0.117768 -0.704885
0.186929 -0.117759 -0.705176
0.186937 -0.117750 -0.705468
0.186945 -0.117742 -0.705759
0.186953 -0.117733 -0.706050
0.186961 -0.117724 -0.706341
0.186969 -0.117715 -0.706632
0.186978 -0.117706 -0.706923
0.186986 -0.117698 -0.707214
0.186994 -0.117689 -0.707505
0.187002 -0.117680 -0.707796
0.187010 -0.117671 -0.708087
0.187018 -0.117663 -0.708377
0.187027 -0.117654 -0.708668
0.187035 -0.117645 -0.708959
0.187043 -0.117636 -0.709250
0.187051 -0.117628 -0.709541
0.187059 -0.117619 -0.709832
0.187067 -0.117610 -0.710123
0.187076 -0.117601 -0.710414
0.187084 -0.117593 -0.710705
0.187092 -0.117584 -0.710996
0.187100 -0.117575 -0.711286
0.187108 -0.117566 -0.711577
0.187117 -0.117558 -0.711868
0.187125 -0.117549 -0.712159
0.187133 -0.117540 -0.712450
0.187141 -0.117531 -0.712740
0.187149 -0.117523 -0.713031
0.187157 -0.117514 -0.713322
0.187166 -0.117505 -0.713613
0.187174 -0.117496 -0.713903
0.187182 -0.117488 -0.714194
0.187190 -0.117479 -0.714485
0.187198 -0.117470 -0.714776
0.187206 -0.117462 -0.715066
0.187215 -0.117453 -0.715357
0.187223 -0.117444 -0.715648
0.187231 -0.117435 -0.715938
0.187239 -0.117427 -0.716229
0.187247 -0.117418 -0.716520
0.187255 -0.117409 -0.716810
0.187264 -0.117400 -0.717101
0.187272 -0.117392 -0.717391
0.187280 -0.117383 -0.717682
0.187288 -0.117374 -0.717973
0.187296 -0.117365 -0.718263
0.187305 -0.117357 -0.718554
0.187313 -0.117348 -0.718844
0.187321 -0.117339 -0.719135
0.187329 -0.117330 -0.719425
0.187337 -0.117322 -0.719716
0.187345 -0.117313 -0.720006
0.187354 -0.117304 -0.720297
0.187362 -0.117295 -0.720587
0.187370 -0.117287 -0.720878
0.187378 -0.117278 -0.721168
0.187386 -0.117269 -0.721459
0.187394 -0.117261 -0.721749
0.187403 -0.117252 -0.722040
0.187411 -0.117243 -0.722330
0.187419 -0.117234 -0.722621
0.187427 -0.117226 -0.722911
0.187435 -0.117217 -0.723201
0.187443 -0.117208 -0.723492
0.187452 -0.117199 -0.723782
0.187460 -0.117191 -0.724072
0.187468 -0.117182 -0.724363
0.187476 -0.117173 -0.724653
0.187484 -0.117165 -0.724943
0.187492 -0.117156 -0.725234
0.187501 -0.117147 -0.725524
0.187509 -0.117138 -0.725814
0.187517 -0.117130 -0.726105
0.187525 -0.117121 -0.726395
0.187533 -0.117112 -0.726685
0.187541 -0.117104 -0.726975
0.187550 -0.117095 -0.727266
0.187558 -0.117086 -0.727556
0.187566 -0.117077 -0.727846
0.187574 -0.117069 -0.728136
0.187582 -0.117060 -0.728426
0.187590 -0.117051 -0.728717
0.187599 -0.117042 -0.729007
0.187607 -0.117034 -0.729297
0.187615 -0.117025 -0.729587
0.187623 -0.117016 -0.729877
0.187631 -0.117008 -0.730167
0.187639 -0.116999 -0.730457
0.187648 -0.116990 -0.730748
0.187656 -0.116981 -0.731038
0.187664 -0.116973 -0.731328
0.187672 -0.116964 -0.731618
0.187680 -0.116955 -0.731908
0.187688 -0.116947 -0.732198
0.187697 -0.116938 -0.732488
0.187705 -0.116929 -0.732778
0.187713 -0.116920 -0.733068
0.187721 -0.116912 -0.733358
0.187729 -0.116903 -0.733648
0.187738 -0.116894 -0.733938
0.187746 -0.116886 -0.734228
0.187754 -0.116877 -0.734518
0.187762 -0.116868 -0.734808
0.187770 -0.116860 -0.735098
0.187778 -0.116851 -0.735388
0.187787 -0.116842 -0.735678
0.187795 -0.116833 -0.735968
0.187803 -0.116825 -0.736257
0.187811 -0.116816 -0.736547
0.187819 -0.116807 -0.736837
0.187827 -0.116799 -0.737127
0.187836 -0.116790 -0.737417
0.187844 -0.116781 -0.737707
0.187852 -0.116772 -0.737997
0.187860 -0.116764 -0.738286
0.187868 -0.116755 -0.738576
0.187876 -0.116746 -0.738866
0.187885 -0.116738 -0.739156
0.187893 -0.116729 -0.739446
0.187901 -0.116720 -0.739735
0.187909 -0.116712 -0.740025
0.187917 -0.116703 -0.740315
0.187925 -0.116694 -0.740605
0.187934 -0.116685 -0.740894
0.187942 -0.116677 -0.741184
0.187950 -0.116668 -0.741474
0.187958 -0.116659 -0.741763
0.187966 -0.116651 -0.742053
0.187974 -0.116642 -0.742343
0.187983 -0.116633 -0.742632
0.187991 -0.116625 -0.742922
0.187999 -0.116616 -0.743212
0.188007 -0.116607 -0.743501
0.188015 -0.116599 -0.743791
0.188023 -0.116590 -0.744080
0.188032 -0.116581 -0.744370
0.188040 -0.116572 -0.744660
0.188048 -0.116564 -0.744949
0.188056 -0.116555 -0.745239
0.188064 -0.116546 -0.745528
0.188072 -0.116538 -0.745818
0.188081 -0.116529 -0.746107
0.188089 -0.116520 -0.746397
0.188097 -0.116512 -0.746686
0.188105 -0.116503 -0.746976
0.188113 -0.116494 -0.747265
0.188121 -0.116486 -0.747555
0.188130 -0.116477 -0.747844
0.188138 -0.116468 -0.748134
0.188146 -0.116460 -0.748423
0.188154 -0.116451 -0.748712
0.188162 -0.116442 -0.749002
0.188170 -0.116434 -0.749291
0.188179 -0.116425 -0.749581
0.188187 -0.116416 -0.749870
0.188195 -0.116407 -0.750159
0.188203 -0.116399 -0.750449
0.188211 -0.116390 -0.750738
0.188219 -0.116381 -0.751027
0.188227 -0.116373 -0.751317
0.188236 -0.116364 -0.751606
0.188244 -0.116355 -0.751895
0.188252 -0.116347 -0.752185
0.188260 -0.116338 -0.752474
0.188268 -0.116329 -0.752763
0.188276 -0.116321 -0.753053
0.188285 -0.116312 -0.753342
0.188293 -0.116303 -0.753631
0.188301 -0.116295 -0.753920
0.188309 -0.116286 -0.754209
0.188317 -0.116277 -0.754499
0.188325 -0.116269 -0.754788
0.188334 -0.116260 -0.755077
0.188342 -0.116251 -0.755366
0.188350 -0.116243 -0.755655
0.188358 -0.116234 -0.755945
0.188366 -0.116225 -0.756234
0.188374 -0.116217 -0.756523
0.188383 -0.116208 -0.756812
0.188391 -0.116199 -0.757101
0.188399 -0.116191 -0.757390
0.188407 -0.116182 -0.757679
0.188415 -0.116173 -0.757968
0.188423 -0.116165 -0.758257
0.188432 -0.116156 -0.758546
0.188440 -0.116147 -0.758835
0.188448 -0.116139 -0.759124
0.188456 -0.116130 -0.759413
0.188464 -0.116121 -0.759702
0.188472 -0.116113 -0.759991
0.188481 -0.116104 -0.760280
0.188489 -0.116095 -0.760569
0.188497 -0.116087 -0.760858
0.188505 -0.116078 -0.761147
0.188513 -0.116069 -0.761436
0.188521 -0.116061 -0.761725
0.188530 -0.116052 -0.762014
0.188538 -0.116043 -0.762303
0.188546 -0.116035 -0.762592
0.188554 -0.116026 -0.762881
0.188562 -0.116017 -0.763170
0.188570 -0.116009 -0.763459
0.188579 -0.116000 -0.763747
0.188587 -0.115991 -0.764036
0.188595 -0.115983 -0.764325
0.188603 -0.115974 -0.764614
0.188611 -0.115966 -0.764903
0.188619 -0.115957 -0.765192
0.188627 -0.115948 -0.765480
0.188636 -0.115940 -0.765769
0.188644 -0.115931 -0.766058
0.188652 -0.115922 -0.766347
0.188660 -0.115914 -0.766635
0.188668 -0.115905 -0.766924
0.188676 -0.115896 -0.767213
0.188685 -0.115888 -0.767502
0.188693 -0.115879 -0.767790
0.188701 -0.115870 -0.768079
0.188709 -0.115862 -0.768368
0.188717 -0.115853 -0.768656
0.188725 -0.115844 -0.768945
0.188734 -0.115836 -0.769234
0.188742 -0.115827 -0.769522
0.188750 -0.115819 -0.769811
0.188758 -0.115810 -0.770099
0.188766 -0.115801 -0.770388
0.188774 -0.115793 -0.770677
0.188783 -0.115784 -0.770965
0.188791 -0.115775 -0.771254
0.188799 -0.115767 -0.771542
0.188807 -0.115758 -0.771831
0.188815 -0.115749 -0.772119
0.188823 -0.115741 -0.772408
0.188831 -0.115732 -0.772696
0.188840 -0.115723 -0.772985
0.188848 -0.115715 -0.773273
0.188856 -0.115706 -0.773562
0.188864 -0.115698 -0.773850
0.188872 -0.115689 -0.774139
0.188880 -0.115680 -0.774427
0.188889 -0.115672 -0.774716
0.188897 -0.115663 -0.775004
0.188905 -0.115654 -0.775293
0.188913 -0.115646 -0.775581
0.188921 -0.115637 -0.775869
0.188929 -0.115628 -0.776158
0.188938 -0.115620 -0.776446
0.188946 -0.115611 -0.776735
0.188954 -0.115603 -0.777023
0.188962 -0.115594 -0.777311
0.188970 -0.115585 -0.777600
0.188978 -0.115577 -0.777888
0.188987 -0.115568 -0.778176
0.188995 -0.115559 -0.778464
0.189003 -0.115551 -0.778753
0.189011 -0.115542 -0.779041
0.189019 -0.115534 -0.779329
0.189027 -0.115525 -0.779618
0.189035 -0.115516 -0.779906
0.189044 -0.115508 -0.780194
0.189052 -0.115499 -0.780482
0.189060 -0.115490 -0.780770
0.189068 -0.115482 -0.781059
0.189076 -0.115473 -0.781347
0.189084 -0.115465 -0.781635
0.189093 -0.115456 -0.781923
0.189101 -0.115447 -0.782211
0.189109 -0.115439 -0.782499
0.189117 -0.115430 -0.782788
0.189125 -0.115421 -0.783076
0.189133 -0.115413 -0.783364
0.189142 -0.115404 -0.783652
0.189150 -0.115396 -0.783940
0.189158 -0.115387 -0.784228
0.189166 -0.115378 -0.784516
0.189174 -0.115370 -0.784804
0.189182 -0.115361 -0.785092
0.189190 -0.115352 -0.785380
0.189199 -0.115344 -0.785668
0.189207 -0.115335 -0.785956
0.189215 -0.115327 -0.786244
0.189223 -0.115318 -0.786532
0.189231 -0.115309 -0.786820
0.189239 -0.115301 -0.787108
0.189248 -0.115292 -0.787396
0.189256 -0.115284 -0.787684
0.189264 -0.115275 -0.787972
0.189272 -0.115266 -0.788260
0.189280 -0.115258 -0.788548
0.189288 -0.115249 -0.788836
0.189296 -0.115241 -0.789124
0.189305 -0.115232 -0.789412
0.189313 -0.115223 -0.789700
0.189321 -0.115215 -0.789987
0.189329 -0.115206 -0.790275
0.189337 -0.115197 -0.790563
0.189345 -0.115189 -0.790851
0.189354 -0.115180 -0.791139
0.189362 -0.115172 -0.791427
0.189370 -0.115163 -0.791714
0.189378 -0.115154 -0.792002
0.189386 -0.115146 -0.792290
0.189394 -0.115137 -0.792578
0.189403 -0.115129 -0.792865
0.189411 -0.115120 -0.793153
0.189419 -0.115111 -0.793441
0.189427 -0.115103 -0.793729
0.189435 -0.115094 -0.794016
0.189443 -0.115086 -0.794304
0.189451 -0.115077 -0.794592
0.189460 -0.115068 -0.794879
0.189468 -0.115060 -0.795167
0.189476 -0.115051 -0.795455
0.189484 -0.115043 -0.795742
0.189492 -0.115034 -0.796030
0.189500 -0.115025 -0.796318
0.189509 -0.115017 -0.796605
0.189517 -0.115008 -0.796893
0.189525 -0.115000 -0.797180
0.189533 -0.114991 -0.797468
0.189541 -0.114982 -0.797756
0.189549 -0.114974 -0.798043
0.189557 -0.114965 -0.798331
0.189566 -0.114957 -0.798618
0.189574 -0.114948 -0.798906
0.189582 -0.114940 -0.799193
0.189590 -0.114931 -0.799481
0.189598 -0.114922 -0.799768
0.189606 -0.114914 -0.800056
0.189615 -0.114905 -0.800343
0.189623 -0.114897 -0.800631
0.189631 -0.114888 -0.800918
0.189639 -0.114879 -0.801206
0.189647 -0.114871 -0.801493
0.189655 -0.114862 -0.801780
0.189663 -0.114854 -0.802068
0.189672 -0.114845 -0.802355
0.189680 -0.114836 -0.802643
0.189688 -0.114828 -0.802930
0.189696 -0.114819 -0.803217
0.189704 -0.114811 -0.803505
0.189712 -0.114802 -0.803792
0.189721 -0.114794 -0.804079
0.189729 -0.114785 -0.804367
0.189737 -0.114776 -0.804654
0.189745 -0.114768 -0.804941
0.189753 -0.114759 -0.805229
0.189761 -0.114751 -0.805516
0.189769 -0.114742 -0.805803
0.189778 -0.114733 -0.806090
0.189786 -0.114725 -0.806378
0.189794 -0.114716 -0.806665
0.189802 -0.114708 -0.806952
0.189810 -0.114699 -0.807239
0.189818 -0.114691 -0.807526
0.189826 -0.114682 -0.807814
0.189835 -0.114673 -0.808101
0.189843 -0.114665 -0.808388
0.189851 -0.114656 -0.808675
0.189859 -0.114648 -0.808962
0.189867 -0.114639 -0.809249
0.189875 -0.114631 -0.809537
0.189884 -0.114622 -0.809824
0.189892 -0.114613 -0.810111
0.189900 -0.114605 -0.810398
0.189908 -0.114596 -0.810685
0.189916 -0.114588 -0.810972
0.189924 -0.114579 -0.811259
0.189932 -0.114571 -0.811546
0.189941 -0.114562 -0.811833
0.189949 -0.114553 -0.812120
0.189957 -0.114545 -0.812407
0.189965 -0.114536 -0.812694
0.189973 -0.114528 -0.812981
0.189981 -0.114519 -0.813268
0.189990 -0.114511 -0.813555
0.189998 -0.114502 -0.813842
0.190006 -0.114493 -0.814129
0.190014 -0.114485 -0.814416
0.190022 -0.114476 -0.814703
0.190030 -0.114468 -0.814990
0.190038 -0.114459 -0.815277
0.190047 -0.114451 -0.815564
0.190055 -0.114442 -0.815850
0.190063 -0.114434 -0.816137
0.190071 -0.114425 -0.816424
0.190079 -0.114416 -0.816711
0.190087 -0.114408 -0.816998
0.190095 -0.114399 -0.817285
0.190104 -0.114391 -0.817572
0.190112 -0.114382 -0.817858
0.190120 -0.114374 -0.818145
0.190128 -0.114365 -0.818432
0.190136 -0.114357 -0.818719
0.190144 -0.114348 -0.819005
0.190153 -0.114339 -0.819292
0.190161 -0.114331 -0.819579
0.190169 -0.114322 -0.819866
0.190177 -0.114314 -0.820152
0.190185 -0.114305 -0.820439
0.190193 -0.114297 -0.820726
0.190201 -0.114288 -0.821013
0.190210 -0.114280 -0.821299
0.190218 -0.114271 -0.821586
0.190226 -0.114262 -0.821873
0.190234 -0.114254 -0.822159
0.190242 -0.114245 -0.822446
0.190250 -0.114237 -0.822732
0.190258 -0.114228 -0.823019
0.190267 -0.114220 -0.823306
0.190275 -0.114211 -0.823592
0.190283 -0.114203 -0.823879
0.190291 -0.114194 -0.824165
0.190299 -0.114185 -0.824452
0.190307 -0.114177 -0.824739
0.190315 -0.114168 -0.825025
0.190324 -0.114160 -0.825312
0.190332 -0.114151 -0.825598
0.190340 -0.114143 -0.825885
0.190348 -0.114134 -0.826171
0.190356 -0.114126 -0.826458
0.190364 -0.114117 -0.826744
0.190373 -0.114109 -0.827031
0.190381 -0.114100 -0.827317
0.190389 -0.114091 -0.827603
0.190397 -0.114083 -0.827890
0.190405 -0.114074 -0.828176
0.190413 -0.114066 -0.828463
0.190421 -0.114057 -0.828749
0.190430 -0.114049 -0.829035
0.190438 -0.114040 -0.829322
0.190446 -0.114032 -0.829608
0.190454 -0.114023 -0.829895
0.190462 -0.114015 -0.830181
0.190470 -0.114006 -0.830467
0.190478 -0.113998 -0.830754
0.190487 -0.113989 -0.831040
0.190495 -0.113981 -0.831326
0.190503 -0.113972 -0.831612
0.190511 -0.113963 -0.831899
0.190519 -0.113955 -0.832185
0.190527 -0.113946 -0.832471
0.190535 -0.113938 -0.832757
0.190544 -0.113929 -0.833044
0.190552 -0.113921 -0.833330
0.190560 -0.113912 -0.833616
0.190568 -0.113904 -0.833902
0.190576 -0.113895 -0.834189
0.190584 -0.113887 -0.834475
0.190592 -0.113878 -0.834761
0.190601 -0.113870 -0.835047
0.190609 -0.113861 -0.835333
0.190617 -0.113853 -0.835619
0.190625 -0.113844 -0.835905
0.190633 -0.113836 -0.836192
0.190641 -0.113827 -0.836478
0.190649 -0.113818 -0.836764
0.190658 -0.113810 -0.837050
0.190666 -0.113801 -0.837336
0.190674 -0.113793 -0.837622
0.190682 -0.113784 -0.837908
0.190690 -0.113776 -0.838194
0.190698 -0.113767 -0.838480
0.190706 -0.113759 -0.838766
0.190715 -0.113750 -0.839052
0.190723 -0.113742 -0.839338
0.190731 -0.113733 -0.839624
0.190739 -0.113725 -0.839910
0.190747 -0.113716 -0.840196
0.190755 -0.113708 -0.840482
0.190763 -0.113699 -0.840768
0.190772 -0.113691 -0.841054
0.190780 -0.113682 -0.841340
0.190788 -0.113674 -0.841626
0.190796 -0.113665 -0.841912
0.190804 -0.113657 -0.842198
0.190812 -0.113648 -0.842483
0.190820 -0.113640 -0.842769
0.190829 -0.113631 -0.843055
0.190837 -0.113623 -0.843341
0.190845 -0.113614 -0.843627
0.190853 -0.113606 -0.843913
0.190861 -0.113597 -0.844198
0.190869 -0.113588 -0.844484
0.190878 -0.113580 -0.844770
0.190886 -0.113571 -0.845056
0.190894 -0.113563 -0.845342
0.190902 -0.113554 -0.845627
0.190910 -0.113546 -0.845913
0.190918 -0.113537 -0.846199
0.190926 -0.113529 -0.846485
0.190934 -0.113520 -0.846770
0.190943 -0.113512 -0.847056
0.190951 -0.113503 -0.847342
0.190959 -0.113495 -0.847627
0.190967 -0.113486 -0.847913
0.190975 -0.113478 -0.848199
0.190983 -0.113469 -0.848484
0.190991 -0.113461 -0.848770
0.191000 -0.113452 -0.849056
0.191008 -0.113444 -0.849341
0.191016 -0.113435 -0.849627
0.191024 -0.113427 -0.849912
0.191032 -0.113418 -0.850198
0.191040 -0.113410 -0.850484
0.191048 -0.113401 -0.850769
0.191057 -0.113393 -0.851055
0.191065 -0.113384 -0.851340
0.191073 -0.113376 -0.851626
0.191081 -0.113367 -0.851911
0.191089 -0.113359 -0.852197
0.191097 -0.113350 -0.852482
0.191105 -0.113342 -0.852768
0.191114 -0.113333 -0.853053
0.191122 -0.113325 -0.853339
0.191130 -0.113316 -0.853624
0.191138 -0.113308 -0.853910
0.191146 -0.113299 -0.854195
0.191154 -0.113291 -0.854481
0.191162 -0.113282 -0.854766
0.191171 -0.113274 -0.855051
0.191179 -0.113265 -0.855337
0.191187 -0.113257 -0.855622
0.191195 -0.113248 -0.855907
0.191203 -0.113240 -0.856193
0.191211 -0.113231 -0.856478
0.191219 -0.113223 -0.856764
0.191228 -0.113215 -0.857049
0.191236 -0.113206 -0.857334
0.191244 -0.113198 -0.857620
0.191252 -0.113189 -0.857905
0.191260 -0.113181 -0.858190
0.191268 -0.113172 -0.858475
0.191276 -0.113164 -0.858761
0.191285 -0.113155 -0.859046
0.191293 -0.113147 -0.859331
0.191301 -0.113138 -0.859616
0.191309 -0.113130 -0.859902
0.191317 -0.113121 -0.860187
0.191325 -0.113113 -0.860472
0.191333 -0.113104 -0.860757
0.191342 -0.113096 -0.861042
0.191350 -0.113087 -0.861328
0.191358 -0.113079 -0.861613
0.191366 -0.113070 -0.861898
0.191374 -0.113062 -0.862183
0.191382 -0.113053 -0.862468
0.191390 -0.113045 -0.862753
0.191399 -0.113036 -0.863038
0.191407 -0.113028 -0.863323
0.191415 -0.113019 -0.863608
0.191423 -0.113011 -0.863894
0.191431 -0.113002 -0.864179
0.191439 -0.112994 -0.864464
0.191447 -0.112986 -0.864749
0.191455 -0.112977 -0.865034
0.191464 -0.112969 -0.865319
0.191472 -0.112960 -0.865604
0.191480 -0.112952 -0.865889
0.191488 -0.112943 -0.866174
0.191496 -0.112935 -0.866459
0.191504 -0.112926 -0.866744
0.191512 -0.112918 -0.867029
0.191521 -0.112909 -0.867314
0.191529 -0.112901 -0.867598
0.191537 -0.112892 -0.867883
0.191545 -0.112884 -0.868168
0.191553 -0.112875 -0.868453
0.191561 -0.112867 -0.868738
0.191569 -0.112858 -0.869023
0.191578 -0.112850 -0.869308
0.191586 -0.112842 -0.869593
0.191594 -0.112833 -0.869878
0.191602 -0.112825 -0.870162
0.191610 -0.112816 -0.870447
0.191618 -0.112808 -0.870732
0.191626 -0.112799 -0.871017
0.191634 -0.112791 -0.871302
0.191643 -0.112782 -0.871586
0.191651 -0.112774 -0.871871
0.191659 -0.112765 -0.872156
0.191667 -0.112757 -0.872441
0.191675 -0.112748 -0.872725
0.191683 -0.112740 -0.873010
0.191691 -0.112732 -0.873295
0.191700 -0.112723 -0.873580
0.191708 -0.112715 -0.873864
0.191716 -0.112706 -0.874149
0.191724 -0.112698 -0.874434
0.191732 -0.112689 -0.874718
0.191740 -0.112681 -0.875003
0.191748 -0.112672 -0.875288
0.191757 -0.112664 -0.875572
0.191765 -0.112655 -0.875857
0.191773 -0.112647 -0.876141
0.191781 -0.112638 -0.876426
0.191789 -0.112630 -0.876711
0.191797 -0.112622 -0.876995
0.191805 -0.112613 -0.877280
0.191813 -0.112605 -0.877564
0.191822 -0.112596 -0.877849
0.191830 -0.112588 -0.878133
0.191838 -0.112579 -0.878418
0.191846 -0.112571 -0.878702
0.191854 -0.112562 -0.878987
0.191862 -0.112554 -0.879271
0.191870 -0.112546 -0.879556
0.191879 -0.112537 -0.879840
0.191887 -0.112529 -0.880125
0.191895 -0.112520 -0.880409
0.191903 -0.112512 -0.880694
0.191911 -0.112503 -0.880978
0.191919 -0.112495 -0.881262
0.191927 -0.112486 -0.881547
0.191936 -0.112478 -0.881831
0.191944 -0.112470 -0.882116
0.191952 -0.112461 -0.882400
0.191960 -0.112453 -0.882684
0.191968 -0.112444 -0.882969
0.191976 -0.112436 -0.883253
0.191984 -0.112427 -0.883537
0.191992 -0.112419 -0.883822
0.192001 -0.112410 -0.884106
0.192009 -0.112402 -0.884390
0.192017 -0.112394 -0.884675
0.192025 -0.112385 -0.884959
0.192033 -0.112377 -0.885243
0.192041 -0.112368 -0.885527
0.192049 -0.112360 -0.885812
0.192058 -0.112351 -0.886096
0.192066 -0.112343 -0.886380
0.192074 -0.112334 -0.886664
0.192082 -0.112326 -0.886949
0.192090 -0.112318 -0.887233
0.192098 -0.112309 -0.887517
0.192106 -0.112301 -0.887801
0.192114 -0.112292 -0.888085
0.192123 -0.112284 -0.888369
0.192131 -0.112275 -0.888654
0.192139 -0.112267 -0.888938
0.192147 -0.112259 -0.889222
0.192155 -0.112250 -0.889506
0.192163 -0.112242 -0.889790
0.192171 -0.112233 -0.890074
0.192179 -0.112225 -0.890358
0.192188 -0.112216 -0.890642
0.192196 -0.112208 -0.890926
0.192204 -0.112200 -0.891210
0.192212 -0.112191 -0.891494
0.192220 -0.112183 -0.891778
0.192228 -0.112174 -0.892062
0.192236 -0.112166 -0.892346
0.192245 -0.112157 -0.892630
0.192253 -0.112149 -0.892914
0.192261 -0.112141 -0.893198
0.192269 -0.112132 -0.893482
0.192277 -0.112124 -0.893766
0.192285 -0.112115 -0.894050
0.192293 -0.112107 -0.894334
0.192301 -0.112098 -0.894618
0.192310 -0.112090 -0.894902
0.192318 -0.112082 -0.895186
0.192326 -0.112073 -0.895470
0.192334 -0.112065 -0.895753
0.192342 -0.112056 -0.896037
0.192350 -0.112048 -0.896321
0.192358 -0.112040 -0.896605
0.192366 -0.112031 -0.896889
0.192375 -0.112023 -0.897173
0.192383 -0.112014 -0.897456
0.192391 -0.112006 -0.897740
0.192399 -0.111997 -0.898024
0.192407 -0.111989 -0.898308
0.192415 -0.111981 -0.898592
0.192423 -0.111972 -0.898875
0.192432 -0.111964 -0.899159
0.192440 -0.111955 -0.899443
0.192448 -0.111947 -0.899726
0.192456 -0.111939 -0.900010
0.192464 -0.111930 -0.900294
0.192472 -0.111922 -0.900578
0.192480 -0.111913 -0.900861
0.192488 -0.111905 -0.901145
0.192497 -0.111896 -0.901429
0.192505 -0.111888 -0.901712
0.192513 -0.111880 -0.901996
0.192521 -0.111871 -0.902279
0.192529 -0.111863 -0.902563
0.192537 -0.111854 -0.902847
0.192545 -0.111846 -0.903130
0.192553 -0.111838 -0.903414
0.192562 -0.111829 -0.903697
0.192570 -0.111821 -0.903981
0.192578 -0.111812 -0.904265
0.192586 -0.111804 -0.904548
0.192594 -0.111796 -0.904832
0.192602 -0.111787 -0.905115
0.192610 -0.111779 -0.905399
0.192618 -0.111770 -0.905682
0.192627 -0.111762 -0.905966
0.192635 -0.111754 -0.906249
0.192643 -0.111745 -0.906532
0.192651 -0.111737 -0.906816
0.192659 -0.111728 -0.907099
0.192667 -0.111720 -0.907383
0.192675 -0.111712 -0.907666
0.192684 -0.111703 -0.907950
0.192692 -0.111695 -0.908233
0.192700 -0.111686 -0.908516
0.192708 -0.111678 -0.908800
0.192716 -0.111670 -0.909083
0.192724 -0.111661 -0.909367
0.192732 -0.111653 -0.909650
0.192740 -0.111644 -0.909933
0.192749 -0.111636 -0.910217
0.192757 -0.111628 -0.910500
0.192765 -0.111619 -0.910783
0.192773 -0.111611 -0.911066
0.192781 -0.111602 -0.911350
0.192789 -0.111594 -0.911633
0.192797 -0.111586 -0.911916
0.192805 -0.111577 -0.912199
0.192814 -0.111569 -0.912483
0.192822 -0.111561 -0.912766
0.192830 -0.111552 -0.913049
0.192838 -0.111544 -0.913332
0.192846 -0.111535 -0.913616
0.192854 -0.111527 -0.913899
0.192862 -0.111519 -0.914182
0.192870 -0.111510 -0.914465
0.192879 -0.111502 -0.914748
0.192887 -0.111493 -0.915031
0.192895 -0.111485 -0.915315
0.192903 -0.111477 -0.915598
0.192911 -0.111468 -0.915881
0.192919 -0.111460 -0.916164
0.192927 -0.111451 -0.916447
0.192935 -0.111443 -0.916730
0.192944 -0.111435 -0.917013
0.192952 -0.111426 -0.917296
0.192960 -0.111418 -0.917579
0.192968 -0.111410 -0.917862
0.192976 -0.111401 -0.918145
0.192984 -0.111393 -0.918428
0.192992 -0.111384 -0.918711
0.193000 -0.111376 -0.918994
0.193009 -0.111368 -0.919277
0.193017 -0.111359 -0.919560
0.193025 -0.111351 -0.919843
0.193033 -0.111343 -0.920126
0.193041 -0.111334 -0.920409
0.193049 -0.111326 -0.920692
0.193057 -0.111317 -0.920975
0.193065 -0.111309 -0.921258
0.193074 -0.111301 -0.921541
0.193082 -0.111292 -0.921824
0.193090 -0.111284 -0.922106
0.193098 -0.111276 -0.922389
0.193106 -0.111267 -0.922672
0.193114 -0.111259 -0.922955
0.193122 -0.111250 -0.923238
0.193130 -0.111242 -0.923521
0.193139 -0.111234 -0.923803
0.193147 -0.111225 -0.924086
0.193155 -0.111217 -0.924369
0.193163 -0.111209 -0.924652
0.193171 -0.111200 -0.924935
0.193179 -0.111192 -0.925217
0.193187 -0.111183 -0.925500
0.193195 -0.111175 -0.925783
0.193204 -0.111167 -0.926066
0.193212 -0.111158 -0.926348
0.193220 -0.111150 -0.926631
0.193228 -0.111142 -0.926914
0.193236 -0.111133 -0.927196
0.193244 -0.111125 -0.927479
0.193252 -0.111117 -0.927762
0.193260 -0.111108 -0.928044
0.193268 -0.111100 -0.928327
0.193277 -0.111091 -0.928610
0.193285 -0.111083 -0.928892
0.193293 -0.111075 -0.929175
0.193301 -0.111066 -0.929457
0.193309 -0.111058 -0.929740
0.193317 -0.111050 -0.930023
0.193325 -0.111041 -0.930305
0.193333 -0.111033 -0.930588
0.193342 -0.111025 -0.930870
0.193350 -0.111016 -0.931153
0.193358 -0.111008 -0.931435
0.193366 -0.111000 -0.931718
0.193374 -0.110991 -0.932000
0.193382 -0.110983 -0.932283
0.193390 -0.110974 -0.932565
0.193398 -0.110966 -0.932848
0.193407 -0.110958 -0.933130
0.193415 -0.110949 -0.933413
0.193423 -0.110941 -0.933695
0.193431 -0.110933 -0.933978
0.193439 -0.110924 -0.934260
0.193447 -0.110916 -0.934542
0.193455 -0.110908 -0.934825
0.193463 -0.110899 -0.935107
0.193472 -0.110891 -0.935390
0.193480 -0.110883 -0.935672
0.193488 -0.110874 -0.935954
0.193496 -0.110866 -0.936237
0.193504 -0.110858 -0.936519
0.193512 -0.110849 -0.936801
0.193520 -0.110841 -0.937084
0.193528 -0.110832 -0.937366
0.193536 -0.110824 -0.937648
0.193545 -0.110816 -0.937930
0.193553 -0.110807 -0.938213
0.193561 -0.110799 -0.938495
0.193569 -0.110791 -0.938777
0.193577 -0.110782 -0.939059
0.193585 -0.110774 -0.939342
0.193593 -0.110766 -0.939624
0.193601 -0.110757 -0.939906
0.193610 -0.110749 -0.940188
0.193618 -0.110741 -0.940471
0.193626 -0.110732 -0.940753
0.193634 -0.110724 -0.941035
0.193642 -0.110716 -0.941317
0.193650 -0.110707 -0.941599
0.193658 -0.110699 -0.941881
0.193666 -0.110691 -0.942163
0.193675 -0.110682 -0.942446
0.193683 -0.110674 -0.942728
0.193691 -0.110666 -0.943010
0.193699 -0.110657 -0.943292
0.193707 -0.110649 -0.943574
0.193715 -0.110641 -0.943856
0.193723 -0.110632 -0.944138
0.193731 -0.110624 -0.944420
0.193739 -0.110616 -0.944702
0.193748 -0.110607 -0.944984
0.193756 -0.110599 -0.945266
0.193764 -0.110591 -0.945548
0.193772 -0.110582 -0.945830
0.193780 -0.110574 -0.946112
0.193788 -0.110566 -0.946394
0.193796 -0.110557 -0.946676
0.193804 -0.110549 -0.946958
0.193813 -0.110541 -0.947240
0.193821 -0.110532 -0.947522
0.193829 -0.110524 -0.947804
0.193837 -0.110516 -0.948085
0.193845 -0.110507 -0.948367
0.193853 -0.110499 -0.948649
0.193861 -0.110491 -0.948931
0.193869 -0.110482 -0.949213
0.193877 -0.110474 -0.949495
0.193886 -0.110466 -0.949777
0.193894 -0.110457 -0.950058
0.193902 -0.110449 -0.950340
0.193910 -0.110441 -0.950622
0.193918 -0.110432 -0.950904
0.193926 -0.110424 -0.951186
0.193934 -0.110416 -0.951467
0.193942 -0.110407 -0.951749
0.193950 -0.110399 -0.952031
0.193959 -0.110391 -0.952313
0.193967 -0.110382 -0.952594
0.193975 -0.110374 -0.952876
0.193983 -0.110366 -0.953158
0.193991 -0.110358 -0.953439
0.193999 -0.110349 -0.953721
0.194007 -0.110341 -0.954003
0.194015 -0.110333 -0.954284
0.194024 -0.110324 -0.954566
0.194032 -0.110316 -0.954848
0.194040 -0.110308 -0.955129
0.194048 -0.110299 -0.955411
0.194056 -0.110291 -0.955693
0.194064 -0.110283 -0.955974
0.194072 -0.110274 -0.956256
0.194080 -0.110266 -0.956537
0.194088 -0.110258 -0.956819
0.194097 -0.110249 -0.957101
0.194105 -0.110241 -0.957382
0.194113 -0.110233 -0.957664
0.194121 -0.110225 -0.957945
0.194129 -0.110216 -0.958227
0.194137 -0.110208 -0.958508
0.194145 -0.110200 -0.958790
0.194153 -0.110191 -0.959071
0.194161 -0.110183 -0.959353
0.194170 -0.110175 -0.959634
0.194178 -0.110166 -0.959916
0.194186 -0.110158 -0.960197
0.194194 -0.110150 -0.960478
0.194202 -0.110141 -0.960760
0.194210 -0.110133 -0.961041
0.194218 -0.110125 -0.961323
0.194226 -0.110117 -0.961604
0.194235 -0.110108 -0.961885
0.194243 -0.110100 -0.962167
0.194251 -0.110092 -0.962448
0.194259 -0.110083 -0.962729
0.194267 -0.110075 -0.963011
0.194275 -0.110067 -0.963292
0.194283 -0.110058 -0.963573
0.194291 -0.110050 -0.963855
0.194299 -0.110042 -0.964136
0.194308 -0.110033 -0.964417
0.194316 -0.110025 -0.964699
0.194324 -0.110017 -0.964980
0.194332 -0.110009 -0.965261
0.194340 -0.110000 -0.965542
0.194348 -0.109992 -0.965824
0.194356 -0.109984 -0.966105
0.194364 -0.109975 -0.966386
0.194372 -0.109967 -0.966667
0.194381 -0.109959 -0.966948
0.194389 -0.109951 -0.967230
0.194397 -0.109942 -0.967511
0.194405 -0.109934 -0.967792
0.194413 -0.109926 -0.968073
0.194421 -0.109917 -0.968354
0.194429 -0.109909 -0.968635
0.194437 -0.109901 -0.968916
0.194445 -0.109892 -0.969197
0.194454 -0.109884 -0.969479
0.194462 -0.109876 -0.969760
0.194470 -0.109868 -0.970041
0.194478 -0.109859 -0.970322
0.194486 -0.109851 -0.970603
0.194494 -0.109843 -0.970884
0.194502 -0.109834 -0.971165
0.194510 -0.109826 -0.971446
0.194518 -0.109818 -0.971727
0.194527 -0.109810 -0.972008
0.194535 -0.109801 -0.972289
0.194543 -0.109793 -0.972570
0.194551 -0.109785 -0.972851
0.194559 -0.109776 -0.973132
0.194567 -0.109768 -0.973413
0.194575 -0.109760 -0.973694
0.194583 -0.109752 -0.973975
0.194591 -0.109743 -0.974256
0.194600 -0.109735 -0.974536
0.194608 -0.109727 -0.974817
0.194616 -0.109718 -0.975098
0.194624 -0.109710 -0.975379
0.194632 -0.109702 -0.975660
0.194640 -0.109694 -0.975941
0.194648 -0.109685 -0.976222
0.194656 -0.109677 -0.976502
0.194664 -0.109669 -0.976783
0.194673 -0.109661 -0.977064
0.194681 -0.109652 -0.977345
0.194689 -0.109644 -0.977626
0.194697 -0.109636 -0.977906
0.194705 -0.109627 -0.978187
0.194713 -0.109619 -0.978468
0.194721 -0.109611 -0.978749
0.194729 -0.109603 -0.979029
0.194737 -0.109594 -0.979310
0.194745 -0.109586 -0.979591
0.194754 -0.109578 -0.979872
0.194762 -0.109570 -0.980152
0.194770 -0.109561 -0.980433
0.194778 -0.109553 -0.980714
0.194786 -0.109545 -0.980994
0.194794 -0.109536 -0.981275
0.194802 -0.109528 -0.981556
0.194810 -0.109520 -0.981836
0.194818 -0.109512 -0.982117
0.194827 -0.109503 -0.982397
0.194835 -0.109495 -0.982678
0.194843 -0.109487 -0.982959
0.194851 -0.109479 -0.983239
0.194859 -0.109470 -0.983520
0.194867 -0.109462 -0.983800
0.194875 -0.109454 -0.984081
0.194883 -0.109445 -0.984361
0.194891 -0.109437 -0.984642
0.194900 -0.109429 -0.984922
0.194908 -0.109421 -0.985203
0.194916 -0.109412 -0.985483
0.194924 -0.109404 -0.985764
0.194932 -0.109396 -0.986044
0.194940 -0.109388 -0.986325
0.194948 -0.109379 -0.986605
0.194956 -0.109371 -0.986886
0.194964 -0.109363 -0.987166
0.194972 -0.109355 -0.987446
0.194981 -0.109346 -0.987727
0.194989 -0.109338 -0.988007
0.194997 -0.109330 -0.988288
0.195005 -0.109322 -0.988568
0.195013 -0.109313 -0.988848
0.195021 -0.109305 -0.989129
0.195029 -0.109297 -0.989409
0.195037 -0.109289 -0.989689
0.195045 -0.109280 -0.989970
0.195054 -0.109272 -0.990250
0.195062 -0.109264 -0.990530
0.195070 -0.109256 -0.990811
0.195078 -0.109247 -0.991091
0.195086 -0.109239 -0.991371
0.195094 -0.109231 -0.991651
0.195102 -0.109223 -0.991932
0.195110 -0.109214 -0.992212
0.195118 -0.109206 -0.992492
0.195127 -0.109198 -0.992772
0.195135 -0.109190 -0.993053
0.195143 -0.109181 -0.993333
0.195151 -0.109173 -0.993613
0.195159 -0.109165 -0.993893
0.195167 -0.109157 -0.994173
0.195175 -0.109148 -0.994453
0.195183 -0.109140 -0.994734
0.195191 -0.109132 -0.995014
0.195199 -0.109124 -0.995294
0.195208 -0.109115 -0.995574
0.195216 -0.109107 -0.995854
0.195224 -0.109099 -0.996134
0.195232 -0.109091 -0.996414
0.195240 -0.109082 -0.996694
0.195248 -0.109074 -0.996974
0.195256 -0.109066 -0.997254
0.195264 -0.109058 -0.997534
0.195272 -0.109049 -0.997814
0.195280 -0.109041 -0.998094
0.195289 -0.109033 -0.998374
0.195297 -0.109025 -0.998654
0.195305 -0.109016 -0.998934
0.195313 -0.109008 -0.999214
0.195321 -0.109000 -0.999494
0.195329 -0.108992 -0.999774
0.195337 -0.108983 -1.000054
0.195345 -0.108975 -1.000334
0.195353 -0.108967 -1.000614
0.195362 -0.108959 -1.000894
0.195370 -0.108951 -1.001174
0.195378 -0.108942 -1.001454
0.195386 -0.108934 -1.001734
0.195394 -0.108926 -1.002014
0.195402 -0.108918 -1.002293
0.195410 -0.108909 -1.002573
0.195418 -0.108901 -1.002853
0.195426 -0.108893 -1.003133
0.195434 -0.108885 -1.003413
0.195443 -0.108876 -1.003693
0.195451 -0.108868 -1.003972
0.195459 -0.108860 -1.004252
0.195467 -0.108852 -1.004532
0.195475 -0.108843 -1.004812
0.195483 -0.108835 -1.005091
0.195491 -0.108827 -1.005371
0.195499 -0.108819 -1.005651
0.195507 -0.108811 -1.005931
0.195515 -0.108802 -1.006210
0.195524 -0.108794 -1.006490
0.195532 -0.108786 -1.006770
0.195540 -0.108778 -1.007049
0.195548 -0.108769 -1.007329
0.195556 -0.108761 -1.007609
0.195564 -0.108753 -1.007888
0.195572 -0.108745 -1.008168
0.195580 -0.108737 -1.008448
0.195588 -0.108728 -1.008727
0.195596 -0.108720 -1.009007
0.195605 -0.108712 -1.009286
0.195613 -0.108704 -1.009566
0.195621 -0.108695 -1.009846
0.195629 -0.108687 -1.010125
0.195637 -0.108679 -1.010405
0.195645 -0.108671 -1.010684
0.195653 -0.108663 -1.010964
0.195661 -0.108654 -1.011243
0.195669 -0.108646 -1.011523
0.195677 -0.108638 -1.011802
0.195686 -0.108630 -1.012082
0.195694 -0.108621 -1.012361
0.195702 -0.108613 -1.012641
0.195710 -0.108605 -1.012920
0.195718 -0.108597 -1.013200
0.195726 -0.108589 -1.013479
0.195734 -0.108580 -1.013759
0.195742 -0.108572 -1.014038
0.195750 -0.108564 -1.014317
0.195758 -0.108556 -1.014597
0.195767 -0.108548 -1.014876
0.195775 -0.108539 -1.015156
0.195783 -0.108531 -1.015435
0.195791 -0.108523 -1.015714
0.195799 -0.108515 -1.015994
0.195807 -0.108507 -1.016273
0.195815 -0.108498 -1.016552
0.195823 -0.108490 -1.016832
0.195831 -0.108482 -1.017111
0.195839 -0.108474 -1.017390
0.195848 -0.108465 -1.017669
0.195856 -0.108457 -1.017949
0.195864 -0.108449 -1.018228
0.195872 -0.108441 -1.018507
0.195880 -0.108433 -1.018786
0.195888 -0.108424 -1.019066
0.195896 -0.108416 -1.019345
0.195904 -0.108408 -1.019624
0.195912 -0.108400 -1.019903
0.195920 -0.108392 -1.020182
0.195929 -0.108383 -1.020462
0.195937 -0.108375 -1.020741
0.195945 -0.108367 -1.021020
0.195953 -0.108359 -1.021299
0.195961 -0.108351 -1.021578
0.195969 -0.108342 -1.021857
0.195977 -0.108334 -1.022136
0.195985 -0.108326 -1.022416
0.195993 -0.108318 -1.022695
0.196001 -0.108310 -1.022974
0.196009 -0.108301 -1.023253
0.196018 -0.108293 -1.023532
0.196026 -0.108285 -1.023811
0.196034 -0.108277 -1.024090
0.196042 -0.108269 -1.024369
0.196050 -0.108260 -1.024648
0.196058 -0.108252 -1.024927
0.196066 -0.108244 -1.025206
0.196074 -0.108236 -1.025485
0.196082 -0.108228 -1.025764
0.196090 -0.108220 -1.026043
0.196099 -0.108211 -1.026322
0.196107 -0.108203 -1.026601
0.196115 -0.108195 -1.026880
0.196123 -0.108187 -1.027159
