-0.006278 -0.015862 -0.000187
-0.009119 -0.027075 -0.000332
-0.009924 -0.035520 -0.000450
-0.009520 -0.042310 -0.000554
-0.008399 -0.048105 -0.000648
-0.006852 -0.053298 -0.000736
-0.005052 -0.058121 -0.000821
-0.003105 -0.062717 -0.000904
-0.001073 -0.067168 -0.000986
0.001006 -0.071526 -0.001067
0.003111 -0.075820 -0.001148
0.005227 -0.080070 -0.001228
0.007346 -0.084286 -0.001308
0.009464 -0.088475 -0.001388
0.011578 -0.092640 -0.001467
0.013686 -0.096785 -0.001547
0.015786 -0.100911 -0.001626
0.017879 -0.105018 -0.001705
0.019963 -0.109108 -0.001784
0.022039 -0.113181 -0.001864
0.024107 -0.117236 -0.001943
0.026166 -0.121275 -0.002021
0.028217 -0.125297 -0.002100
0.030259 -0.129303 -0.002179
0.032293 -0.133292 -0.002258
0.034319 -0.137264 -0.002336
0.036336 -0.141221 -0.002415
0.038345 -0.145161 -0.002493
0.040345 -0.149085 -0.002571
0.042338 -0.152992 -0.002650
0.044322 -0.156884 -0.002728
0.046297 -0.160760 -0.002806
0.048265 -0.164620 -0.002884
0.050224 -0.168464 -0.002962
0.052176 -0.172292 -0.003040
0.054119 -0.176104 -0.003117
0.056054 -0.179901 -0.003195
0.057981 -0.183683 -0.003273
0.059901 -0.187449 -0.003350
0.061812 -0.191199 -0.003428
0.063716 -0.194934 -0.003505
0.065611 -0.198654 -0.003582
0.067499 -0.202359 -0.003659
0.069379 -0.206048 -0.003737
0.071251 -0.209723 -0.003814
0.073116 -0.213382 -0.003891
0.074973 -0.217026 -0.003967
0.076822 -0.220656 -0.004044
0.078664 -0.224271 -0.004121
0.080498 -0.227871 -0.004198
0.082324 -0.231456 -0.004274
0.084143 -0.235026 -0.004351
0.085955 -0.238582 -0.004427
0.087759 -0.242124 -0.004503
0.089556 -0.245651 -0.004580
0.091345 -0.249164 -0.004656
0.093127 -0.252662 -0.004732
0.094902 -0.256146 -0.004808
0.096669 -0.259616 -0.004884
0.098429 -0.263072 -0.004960
0.100182 -0.266514 -0.005036
0.101928 -0.269942 -0.005112
0.103667 -0.273355 -0.005187
0.105398 -0.276755 -0.005263
0.107123 -0.280142 -0.005338
0.108840 -0.283514 -0.005414
0.110551 -0.286873 -0.005489
0.112254 -0.290218 -0.005565
0.113950 -0.293549 -0.005640
0.115640 -0.296867 -0.005715
0.117323 -0.300172 -0.005790
0.118999 -0.303463 -0.005865
0.120668 -0.306741 -0.005940
0.122330 -0.310006 -0.006015
0.123985 -0.313257 -0.006090
0.125634 -0.316495 -0.006165
0.127276 -0.319721 -0.006240
0.128912 -0.322933 -0.006314
0.130540 -0.326132 -0.006389
0.132163 -0.329318 -0.006463
0.133778 -0.332492 -0.006538
0.135387 -0.335652 -0.006612
0.136990 -0.338800 -0.006686
0.138586 -0.341935 -0.006761
0.140175 -0.345058 -0.006835
0.141758 -0.348168 -0.006909
0.143335 -0.351265 -0.006983
0.144906 -0.354350 -0.007057
0.146470 -0.357423 -0.007131
0.148027 -0.360483 -0.007205
0.149579 -0.363531 -0.007278
0.151124 -0.366567 -0.007352
0.152663 -0.369591 -0.007426
0.154196 -0.372602 -0.007499
0.155723 -0.375602 -0.007573
0.157243 -0.378589 -0.007646
0.158758 -0.381565 -0.007720
0.160266 -0.384528 -0.007793
0.161768 -0.387480 -0.007866
0.163265 -0.390420 -0.007940
0.164755 -0.393348 -0.008013
0.166239 -0.396265 -0.008086
0.167717 -0.399169 -0.008159
0.169190 -0.402063 -0.008232
0.170656 -0.404944 -0.008305
0.172117 -0.407815 -0.008378
0.173572 -0.410673 -0.008450
0.175021 -0.413521 -0.008523
0.176464 -0.416357 -0.008596
0.177902 -0.419182 -0.008668
0.179334 -0.421996 -0.008741
0.180760 -0.424798 -0.008813
0.182180 -0.427589 -0.008886
0.183595 -0.430370 -0.008958
0.185004 -0.433139 -0.009031
0.186408 -0.435897 -0.009103
0.187806 -0.438645 -0.009175
0.189198 -0.441381 -0.009247
0.190585 -0.444107 -0.009319
0.191967 -0.446822 -0.009391
0.193343 -0.449526 -0.009463
0.194713 -0.452219 -0.009535
0.196078 -0.454902 -0.009607
0.197438 -0.457574 -0.009679
0.198792 -0.460236 -0.009751
0.200141 -0.462887 -0.009822
0.201485 -0.465528 -0.009894
0.202824 -0.468159 -0.009965
0.204157 -0.470779 -0.010037
0.205485 -0.473389 -0.010108
0.206807 -0.475988 -0.010180
0.208125 -0.478578 -0.010251
0.209437 -0.481157 -0.010323
0.210744 -0.483726 -0.010394
0.212046 -0.486285 -0.010465
0.213343 -0.488834 -0.010536
0.214635 -0.491373 -0.010607
0.215922 -0.493902 -0.010678
0.217203 -0.496421 -0.010749
0.218480 -0.498930 -0.010820
0.219752 -0.501430 -0.010891
0.221018 -0.503920 -0.010962
0.222280 -0.506400 -0.011033
0.223537 -0.508870 -0.011104
0.224789 -0.511331 -0.011174
0.226036 -0.513782 -0.011245
0.227278 -0.516224 -0.011315
0.228516 -0.518656 -0.011386
0.229749 -0.521079 -0.011457
0.230976 -0.523492 -0.011527
0.232199 -0.525896 -0.011597
0.233418 -0.528291 -0.011668
0.234631 -0.530676 -0.011738
0.235840 -0.533052 -0.011808
0.237044 -0.535419 -0.011878
0.238244 -0.537777 -0.011949
0.239439 -0.540125 -0.012019
0.240629 -0.542465 -0.012089
0.241815 -0.544795 -0.012159
0.242996 -0.547117 -0.012229
0.244172 -0.549430 -0.012299
0.245344 -0.551733 -0.012368
0.246512 -0.554028 -0.012438
0.247675 -0.556314 -0.012508
0.248833 -0.558591 -0.012578
0.249987 -0.560859 -0.012647
0.251137 -0.563119 -0.012717
0.252282 -0.565370 -0.012786
0.253423 -0.567612 -0.012856
0.254559 -0.569846 -0.012926
0.255691 -0.572071 -0.012995
0.256819 -0.574288 -0.013064
0.257943 -0.576496 -0.013134
0.259062 -0.578695 -0.013203
0.260177 -0.580887 -0.013272
0.261287 -0.583069 -0.013341
0.262393 -0.585244 -0.013411
0.263496 -0.587410 -0.013480
0.264594 -0.589568 -0.013549
0.265687 -0.591718 -0.013618
0.266777 -0.593859 -0.013687
0.267862 -0.595993 -0.013756
0.268944 -0.598118 -0.013825
0.270021 -0.600235 -0.013894
0.271094 -0.602344 -0.013962
0.272163 -0.604445 -0.014031
0.273228 -0.606538 -0.014100
0.274289 -0.608623 -0.014169
0.275346 -0.610701 -0.014237
0.276398 -0.612770 -0.014306
0.277447 -0.614832 -0.014374
0.278492 -0.616885 -0.014443
0.279533 -0.618931 -0.014511
0.280570 -0.620969 -0.014580
0.281603 -0.623000 -0.014648
0.282633 -0.625023 -0.014717
0.283658 -0.627038 -0.014785
0.284680 -0.629045 -0.014853
0.285697 -0.631045 -0.014921
0.286711 -0.633038 -0.014990
0.287721 -0.635023 -0.015058
0.288727 -0.637000 -0.015126
0.289730 -0.638970 -0.015194
0.290728 -0.640933 -0.015262
0.291723 -0.642888 -0.015330
0.292714 -0.644836 -0.015398
0.293702 -0.646777 -0.015466
0.294686 -0.648710 -0.015534
0.295666 -0.650636 -0.015602
0.296642 -0.652555 -0.015669
0.297615 -0.654466 -0.015737
0.298584 -0.656371 -0.015805
0.299550 -0.658268 -0.015873
0.300512 -0.660159 -0.015940
0.301470 -0.662042 -0.016008
0.302425 -0.663918 -0.016075
0.303376 -0.665787 -0.016143
0.304324 -0.667649 -0.016210
0.305268 -0.669505 -0.016278
0.306208 -0.671353 -0.016345
0.307145 -0.673194 -0.016413
0.308079 -0.675029 -0.016480
0.309009 -0.676857 -0.016547
0.309936 -0.678678 -0.016615
0.310859 -0.680492 -0.016682
0.311779 -0.682300 -0.016749
0.312696 -0.684100 -0.016816
0.313609 -0.685894 -0.016883
0.314519 -0.687682 -0.016950
0.315425 -0.689463 -0.017017
0.316328 -0.691237 -0.017084
0.317228 -0.693005 -0.017151
0.318124 -0.694766 -0.017218
0.319017 -0.696520 -0.017285
0.319907 -0.698268 -0.017352
0.320793 -0.700010 -0.017419
0.321677 -0.701745 -0.017486
0.322557 -0.703474 -0.017553
0.323433 -0.705197 -0.017619
0.324307 -0.706913 -0.017686
0.325177 -0.708623 -0.017753
0.326044 -0.710326 -0.017819
0.326908 -0.712023 -0.017886
0.327769 -0.713714 -0.017953
0.328627 -0.715399 -0.018019
0.329481 -0.717078 -0.018086
0.330333 -0.718750 -0.018152
0.331181 -0.720417 -0.018219
0.332026 -0.722077 -0.018285
0.332868 -0.723731 -0.018351
0.333707 -0.725379 -0.018418
0.334543 -0.727021 -0.018484
0.335376 -0.728657 -0.018550
0.336206 -0.730287 -0.018617
0.337033 -0.731911 -0.018683
0.337857 -0.733530 -0.018749
0.338678 -0.735142 -0.018815
0.339495 -0.736748 -0.018881
0.340310 -0.738349 -0.018947
0.341122 -0.739943 -0.019013
0.341931 -0.741532 -0.019079
0.342737 -0.743115 -0.019145
0.343540 -0.744693 -0.019211
0.344341 -0.746264 -0.019277
0.345138 -0.747830 -0.019343
0.345932 -0.749390 -0.019409
0.346724 -0.750945 -0.019475
0.347513 -0.752494 -0.019541
0.348299 -0.754037 -0.019606
0.349082 -0.755575 -0.019672
0.349862 -0.757107 -0.019738
0.350639 -0.758634 -0.019804
0.351414 -0.760155 -0.019869
0.352185 -0.761670 -0.019935
0.352955 -0.763180 -0.020001
0.353721 -0.764685 -0.020066
0.354484 -0.766184 -0.020132
0.355245 -0.767678 -0.020197
0.356003 -0.769166 -0.020263
0.356758 -0.770649 -0.020328
0.357511 -0.772127 -0.020393
0.358261 -0.773599 -0.020459
0.359008 -0.775066 -0.020524
0.359753 -0.776528 -0.020590
0.360494 -0.777985 -0.020655
0.361234 -0.779436 -0.020720
0.361970 -0.780882 -0.020785
0.362704 -0.782323 -0.020851
0.363435 -0.783758 -0.020916
0.364164 -0.785189 -0.020981
0.364890 -0.786614 -0.021046
0.365614 -0.788035 -0.021111
0.366335 -0.789450 -0.021176
0.367053 -0.790860 -0.021241
0.367769 -0.792265 -0.021306
0.368482 -0.793665 -0.021371
0.369193 -0.795060 -0.021436
0.369901 -0.796450 -0.021501
0.370607 -0.797836 -0.021566
0.371310 -0.799216 -0.021631
0.372011 -0.800591 -0.021696
0.372709 -0.801961 -0.021761
0.373404 -0.803327 -0.021826
0.374098 -0.804687 -0.021890
0.374788 -0.806043 -0.021955
0.375477 -0.807394 -0.022020
0.376163 -0.808740 -0.022085
0.376846 -0.810082 -0.022149
0.377527 -0.811418 -0.022214
0.378206 -0.812750 -0.022279
0.378882 -0.814077 -0.022343
0.379556 -0.815399 -0.022408
0.380228 -0.816717 -0.022472
0.380897 -0.818030 -0.022537
0.381564 -0.819339 -0.022601
0.382228 -0.820642 -0.022666
0.382890 -0.821941 -0.022730
0.383550 -0.823236 -0.022795
0.384207 -0.824526 -0.022859
0.384862 -0.825811 -0.022924
0.385515 -0.827092 -0.022988
0.386166 -0.828368 -0.023052
0.386814 -0.829640 -0.023117
0.387460 -0.830908 -0.023181
0.388104 -0.832170 -0.023245
0.388745 -0.833429 -0.023309
0.389384 -0.834683 -0.023374
0.390021 -0.835932 -0.023438
0.390656 -0.837177 -0.023502
0.391289 -0.838418 -0.023566
0.391919 -0.839655 -0.023630
0.392547 -0.840887 -0.023694
0.393173 -0.842114 -0.023758
0.393797 -0.843338 -0.023822
0.394418 -0.844557 -0.023886
0.395038 -0.845772 -0.023950
0.395655 -0.846982 -0.024014
0.396270 -0.848189 -0.024078
0.396883 -0.849391 -0.024142
0.397494 -0.850589 -0.024206
0.398102 -0.851782 -0.024270
0.398709 -0.852972 -0.024334
0.399313 -0.854157 -0.024398
0.399916 -0.855338 -0.024461
0.400516 -0.856515 -0.024525
0.401114 -0.857688 -0.024589
0.401710 -0.858857 -0.024653
0.402304 -0.860022 -0.024716
0.402896 -0.861183 -0.024780
0.403486 -0.862339 -0.024844
0.404074 -0.863492 -0.024907
0.404660 -0.864641 -0.024971
0.405244 -0.865785 -0.025035
0.405826 -0.866926 -0.025098
0.406405 -0.868063 -0.025162
0.406983 -0.869195 -0.025225
0.407559 -0.870324 -0.025289
0.408133 -0.871449 -0.025352
0.408705 -0.872570 -0.025416
0.409274 -0.873687 -0.025479
0.409842 -0.874800 -0.025543
0.410408 -0.875909 -0.025606
0.410972 -0.877015 -0.025670
0.411534 -0.878117 -0.025733
0.412094 -0.879214 -0.025796
0.412653 -0.880308 -0.025860
0.413209 -0.881399 -0.025923
0.413763 -0.882485 -0.025986
0.414316 -0.883568 -0.026050
0.414866 -0.884647 -0.026113
0.415415 -0.885722 -0.026176
0.415962 -0.886793 -0.026239
0.416507 -0.887861 -0.026302
0.417050 -0.888925 -0.026366
0.417591 -0.889986 -0.026429
0.418130 -0.891042 -0.026492
0.418668 -0.892095 -0.026555
0.419203 -0.893145 -0.026618
0.419737 -0.894191 -0.026681
0.420269 -0.895233 -0.026744
0.420799 -0.896272 -0.026807
0.421328 -0.897307 -0.026870
0.421854 -0.898338 -0.026933
0.422379 -0.899366 -0.026996
0.422902 -0.900391 -0.027059
0.423423 -0.901412 -0.027122
0.423942 -0.902429 -0.027185
0.424460 -0.903443 -0.027248
0.424976 -0.904454 -0.027311
0.425490 -0.905461 -0.027374
0.426002 -0.906464 -0.027436
0.426513 -0.907464 -0.027499
0.427022 -0.908461 -0.027562
0.427529 -0.909454 -0.027625
0.428035 -0.910444 -0.027688
0.428538 -0.911430 -0.027750
0.429040 -0.912414 -0.027813
0.429541 -0.913393 -0.027876
0.430039 -0.914370 -0.027938
0.430536 -0.915343 -0.028001
0.431031 -0.916312 -0.028064
0.431525 -0.917279 -0.028126
0.432017 -0.918242 -0.028189
0.432507 -0.919202 -0.028252
0.432996 -0.920158 -0.028314
0.433483 -0.921111 -0.028377
0.433968 -0.922061 -0.028439
0.434451 -0.923008 -0.028502
0.434933 -0.923952 -0.028564
0.435414 -0.924892 -0.028627
0.435893 -0.925829 -0.028689
0.436370 -0.926763 -0.028752
0.436845 -0.927694 -0.028814
0.437319 -0.928622 -0.028877
0.437791 -0.929546 -0.028939
0.438262 -0.930467 -0.029001
0.438731 -0.931386 -0.029064
0.439199 -0.932301 -0.029126
0.439665 -0.933213 -0.029188
0.440129 -0.934121 -0.029251
0.440592 -0.935027 -0.029313
0.441054 -0.935930 -0.029375
0.441513 -0.936830 -0.029438
0.441972 -0.937726 -0.029500
0.442428 -0.938620 -0.029562
0.442883 -0.939510 -0.029624
0.443337 -0.940398 -0.029686
0.443789 -0.941282 -0.029749
0.444240 -0.942164 -0.029811
0.444689 -0.943042 -0.029873
0.445136 -0.943918 -0.029935
0.445583 -0.944790 -0.029997
0.446027 -0.945660 -0.030059
0.446470 -0.946527 -0.030121
0.446912 -0.947391 -0.030183
0.447352 -0.948251 -0.030246
0.447791 -0.949109 -0.030308
0.448228 -0.949965 -0.030370
0.448664 -0.950817 -0.030432
0.449098 -0.951666 -0.030494
0.449531 -0.952512 -0.030556
0.449962 -0.953356 -0.030617
0.450392 -0.954197 -0.030679
0.450821 -0.955035 -0.030741
0.451248 -0.955870 -0.030803
0.451673 -0.956702 -0.030865
0.452098 -0.957532 -0.030927
0.452521 -0.958358 -0.030989
0.452942 -0.959182 -0.031051
0.453362 -0.960004 -0.031113
0.453781 -0.960822 -0.031174
0.454198 -0.961638 -0.031236
0.454614 -0.962451 -0.031298
0.455028 -0.963261 -0.031360
0.455442 -0.964068 -0.031421
0.455853 -0.964873 -0.031483
0.456264 -0.965675 -0.031545
0.456673 -0.966474 -0.031607
0.457080 -0.967271 -0.031668
0.457487 -0.968065 -0.031730
0.457892 -0.968857 -0.031792
0.458295 -0.969645 -0.031853
0.458698 -0.970431 -0.031915
0.459099 -0.971215 -0.031977
0.459498 -0.971996 -0.032038
0.459896 -0.972774 -0.032100
0.460293 -0.973550 -0.032161
0.460689 -0.974323 -0.032223
0.461084 -0.975093 -0.032285
0.461477 -0.975861 -0.032346
0.461868 -0.976626 -0.032408
0.462259 -0.977389 -0.032469
0.462648 -0.978149 -0.032531
0.463036 -0.978907 -0.032592
0.463423 -0.979662 -0.032654
0.463808 -0.980415 -0.032715
0.464192 -0.981165 -0.032776
0.464575 -0.981913 -0.032838
0.464956 -0.982658 -0.032899
0.465337 -0.983400 -0.032961
0.465716 -0.984141 -0.033022
0.466094 -0.984878 -0.033083
0.466470 -0.985614 -0.033145
0.466846 -0.986346 -0.033206
0.467220 -0.987077 -0.033267
0.467593 -0.987805 -0.033329
0.467964 -0.988530 -0.033390
0.468335 -0.989253 -0.033451
0.468704 -0.989974 -0.033513
0.469072 -0.990692 -0.033574
0.469439 -0.991408 -0.033635
0.469804 -0.992122 -0.033696
0.470169 -0.992833 -0.033758
0.470532 -0.993542 -0.033819
0.470894 -0.994249 -0.033880
0.471255 -0.994953 -0.033941
0.471614 -0.995655 -0.034002
0.471973 -0.996354 -0.034063
0.472330 -0.997051 -0.034125
0.472686 -0.997746 -0.034186
0.473041 -0.998439 -0.034247
0.473395 -0.999129 -0.034308
0.473748 -0.999817 -0.034369
0.474099 -1.000503 -0.034430
0.474450 -1.001186 -0.034491
0.474799 -1.001867 -0.034552
0.475147 -1.002546 -0.034613
0.475494 -1.003223 -0.034674
0.475840 -1.003898 -0.034735
0.476184 -1.004570 -0.034796
0.476528 -1.005240 -0.034857
0.476870 -1.005908 -0.034918
0.477212 -1.006573 -0.034979
0.477552 -1.007237 -0.035040
0.477891 -1.007898 -0.035101
0.478229 -1.008557 -0.035162
0.478566 -1.009214 -0.035223
0.478902 -1.009869 -0.035284
0.479236 -1.010521 -0.035345
0.479570 -1.011171 -0.035406
0.479903 -1.011820 -0.035467
0.480234 -1.012466 -0.035527
0.480564 -1.013110 -0.035588
0.480894 -1.013752 -0.035649
0.481222 -1.014392 -0.035710
0.481549 -1.015029 -0.035771
0.481875 -1.015665 -0.035832
0.482200 -1.016298 -0.035892
0.482524 -1.016930 -0.035953
0.482847 -1.017559 -0.036014
0.483169 -1.018186 -0.036075
0.483490 -1.018811 -0.036135
0.483810 -1.019435 -0.036196
0.484129 -1.020056 -0.036257
0.484447 -1.020675 -0.036318
0.484763 -1.021292 -0.036378
0.485079 -1.021907 -0.036439
0.485394 -1.022520 -0.036500
0.485707 -1.023131 -0.036560
0.486020 -1.023740 -0.036621
0.486332 -1.024347 -0.036682
0.486642 -1.024952 -0.036742
0.486952 -1.025555 -0.036803
0.487261 -1.026156 -0.036863
0.487568 -1.026755 -0.036924
0.487875 -1.027352 -0.036985
0.488181 -1.027947 -0.037045
0.488485 -1.028540 -0.037106
0.488789 -1.029132 -0.037166
0.489092 -1.029721 -0.037227
0.489393 -1.030308 -0.037287
0.489694 -1.030894 -0.037348
0.489994 -1.031477 -0.037408
0.490293 -1.032059 -0.037469
0.490591 -1.032639 -0.037529
0.490888 -1.033217 -0.037590
0.491184 -1.033793 -0.037650
0.491479 -1.034367 -0.037711
0.491773 -1.034939 -0.037771
0.492066 -1.035509 -0.037832
0.492358 -1.036078 -0.037892
0.492649 -1.036645 -0.037952
0.492940 -1.037209 -0.038013
0.493229 -1.037772 -0.038073
0.493518 -1.038333 -0.038134
0.493805 -1.038893 -0.038194
0.494092 -1.039450 -0.038254
0.494377 -1.040006 -0.038315
0.494662 -1.040560 -0.038375
0.494946 -1.041112 -0.038435
0.495229 -1.041662 -0.038496
0.495511 -1.042210 -0.038556
0.495792 -1.042757 -0.038616
0.496072 -1.043302 -0.038677
0.496352 -1.043845 -0.038737
0.496630 -1.044387 -0.038797
0.496908 -1.044926 -0.038857
0.497184 -1.045464 -0.038918
0.497460 -1.046000 -0.038978
0.497735 -1.046534 -0.039038
0.498009 -1.047067 -0.039098
0.498282 -1.047598 -0.039159
0.498555 -1.048127 -0.039219
0.498826 -1.048655 -0.039279
0.499097 -1.049180 -0.039339
0.499366 -1.049704 -0.039399
0.499635 -1.050227 -0.039459
0.499903 -1.050747 -0.039520
0.500170 -1.051266 -0.039580
0.500436 -1.051783 -0.039640
0.500702 -1.052299 -0.039700
0.500966 -1.052813 -0.039760
0.501230 -1.053325 -0.039820
0.501493 -1.053836 -0.039880
0.501755 -1.054345 -0.039940
0.502016 -1.054852 -0.040001
0.502277 -1.055358 -0.040061
0.502536 -1.055862 -0.040121
0.502795 -1.056364 -0.040181
0.503053 -1.056865 -0.040241
0.503310 -1.057364 -0.040301
0.503566 -1.057861 -0.040361
0.503822 -1.058357 -0.040421
0.504076 -1.058852 -0.040481
0.504330 -1.059344 -0.040541
0.504583 -1.059835 -0.040601
0.504835 -1.060325 -0.040661
0.505087 -1.060813 -0.040721
0.505338 -1.061299 -0.040781
0.505587 -1.061784 -0.040841
0.505836 -1.062267 -0.040901
0.506085 -1.062749 -0.040961
0.506332 -1.063229 -0.041020
0.506579 -1.063708 -0.041080
0.506825 -1.064185 -0.041140
0.507070 -1.064660 -0.041200
0.507314 -1.065134 -0.041260
0.507558 -1.065606 -0.041320
0.507801 -1.066077 -0.041380
0.508043 -1.066547 -0.041440
0.508284 -1.067014 -0.041500
0.508524 -1.067481 -0.041559
0.508764 -1.067946 -0.041619
0.509003 -1.068409 -0.041679
0.509241 -1.068871 -0.041739
0.509479 -1.069331 -0.041799
0.509716 -1.069790 -0.041859
0.509951 -1.070247 -0.041918
0.510187 -1.070703 -0.041978
0.510421 -1.071158 -0.042038
0.510655 -1.071611 -0.042098
0.510888 -1.072062 -0.042157
0.511120 -1.072512 -0.042217
0.511352 -1.072961 -0.042277
0.511583 -1.073408 -0.042337
0.511813 -1.073854 -0.042396
0.512042 -1.074298 -0.042456
0.512271 -1.074741 -0.042516
0.512499 -1.075183 -0.042576
0.512726 -1.075623 -0.042635
0.512952 -1.076061 -0.042695
0.513178 -1.076499 -0.042755
0.513403 -1.076934 -0.042814
0.513628 -1.077369 -0.042874
0.513851 -1.077802 -0.042934
0.514074 -1.078233 -0.042993
0.514296 -1.078664 -0.043053
0.514518 -1.079093 -0.043113
0.514739 -1.079520 -0.043172
0.514959 -1.079946 -0.043232
0.515178 -1.080371 -0.043291
0.515397 -1.080794 -0.043351
0.515615 -1.081216 -0.043411
0.515833 -1.081637 -0.043470
0.516049 -1.082056 -0.043530
0.516265 -1.082474 -0.043589
0.516481 -1.082891 -0.043649
0.516695 -1.083306 -0.043708
0.516909 -1.083720 -0.043768
0.517123 -1.084133 -0.043828
0.517335 -1.084544 -0.043887
0.517547 -1.084954 -0.043947
0.517759 -1.085363 -0.044006
0.517969 -1.085770 -0.044066
0.518179 -1.086176 -0.044125
0.518389 -1.086581 -0.044185
0.518598 -1.086985 -0.044244
0.518806 -1.087387 -0.044304
0.519013 -1.087788 -0.044363
0.519220 -1.088187 -0.044423
0.519426 -1.088586 -0.044482
0.519631 -1.088983 -0.044542
0.519836 -1.089378 -0.044601
0.520040 -1.089773 -0.044660
0.520244 -1.090166 -0.044720
0.520447 -1.090558 -0.044779
0.520649 -1.090949 -0.044839
0.520851 -1.091339 -0.044898
0.521052 -1.091727 -0.044958
0.521252 -1.092114 -0.045017
0.521452 -1.092500 -0.045076
0.521651 -1.092884 -0.045136
0.521849 -1.093267 -0.045195
0.522047 -1.093650 -0.045254
0.522245 -1.094030 -0.045314
0.522441 -1.094410 -0.045373
0.522637 -1.094789 -0.045432
0.522833 -1.095166 -0.045492
0.523028 -1.095542 -0.045551
0.523222 -1.095917 -0.045611
0.523415 -1.096290 -0.045670
0.523608 -1.096663 -0.045729
0.523801 -1.097034 -0.045788
0.523993 -1.097404 -0.045848
0.524184 -1.097773 -0.045907
0.524374 -1.098141 -0.045966
0.524564 -1.098507 -0.046026
0.524754 -1.098873 -0.046085
0.524943 -1.099237 -0.046144
0.525131 -1.099600 -0.046203
0.525319 -1.099962 -0.046263
0.525506 -1.100322 -0.046322
0.525692 -1.100682 -0.046381
0.525878 -1.101040 -0.046440
0.526063 -1.101398 -0.046500
0.526248 -1.101754 -0.046559
0.526432 -1.102109 -0.046618
0.526616 -1.102463 -0.046677
0.526799 -1.102815 -0.046736
0.526982 -1.103167 -0.046796
0.527163 -1.103518 -0.046855
0.527345 -1.103867 -0.046914
0.527526 -1.104215 -0.046973
0.527706 -1.104563 -0.047032
0.527885 -1.104909 -0.047092
0.528065 -1.105254 -0.047151
0.528243 -1.105597 -0.047210
0.528421 -1.105940 -0.047269
0.528599 -1.106282 -0.047328
0.528775 -1.106622 -0.047387
0.528952 -1.106962 -0.047446
0.529128 -1.107300 -0.047505
0.529303 -1.107638 -0.047565
0.529478 -1.107974 -0.047624
0.529652 -1.108309 -0.047683
0.529825 -1.108643 -0.047742
0.529999 -1.108977 -0.047801
0.530171 -1.109309 -0.047860
0.530343 -1.109640 -0.047919
0.530515 -1.109969 -0.047978
0.530686 -1.110298 -0.048037
0.530856 -1.110626 -0.048096
0.531026 -1.110953 -0.048155
0.531195 -1.111279 -0.048214
0.531364 -1.111603 -0.048273
0.531533 -1.111927 -0.048333
0.531700 -1.112250 -0.048392
0.531868 -1.112571 -0.048451
0.532034 -1.112892 -0.048510
0.532201 -1.113212 -0.048569
0.532367 -1.113530 -0.048628
0.532532 -1.113848 -0.048687
0.532696 -1.114164 -0.048746
0.532861 -1.114480 -0.048805
0.533024 -1.114794 -0.048864
0.533188 -1.115108 -0.048923
0.533350 -1.115421 -0.048982
0.533513 -1.115732 -0.049040
0.533674 -1.116043 -0.049099
0.533836 -1.116352 -0.049158
0.533996 -1.116661 -0.049217
0.534156 -1.116968 -0.049276
0.534316 -1.117275 -0.049335
0.534475 -1.117581 -0.049394
0.534634 -1.117886 -0.049453
0.534792 -1.118189 -0.049512
0.534950 -1.118492 -0.049571
0.535107 -1.118794 -0.049630
0.535264 -1.119095 -0.049689
0.535421 -1.119395 -0.049748
0.535576 -1.119694 -0.049807
0.535732 -1.119992 -0.049865
0.535887 -1.120289 -0.049924
0.536041 -1.120585 -0.049983
0.536195 -1.120880 -0.050042
0.536348 -1.121174 -0.050101
0.536501 -1.121468 -0.050160
0.536654 -1.121760 -0.050219
0.536806 -1.122051 -0.050277
0.536958 -1.122342 -0.050336
0.537109 -1.122632 -0.050395
0.537259 -1.122920 -0.050454
0.537410 -1.123208 -0.050513
0.537559 -1.123495 -0.050572
0.537709 -1.123781 -0.050630
0.537857 -1.124066 -0.050689
0.538006 -1.124350 -0.050748
0.538154 -1.124633 -0.050807
0.538301 -1.124916 -0.050866
0.538448 -1.125197 -0.050924
0.538595 -1.125478 -0.050983
0.538741 -1.125758 -0.051042
0.538886 -1.126036 -0.051101
0.539032 -1.126314 -0.051160
0.539176 -1.126591 -0.051218
0.539321 -1.126867 -0.051277
0.539464 -1.127143 -0.051336
0.539608 -1.127417 -0.051395
0.539751 -1.127691 -0.051453
0.539893 -1.127963 -0.051512
0.540036 -1.128235 -0.051571
0.540177 -1.128506 -0.051630
0.540318 -1.128776 -0.051688
0.540459 -1.129046 -0.051747
0.540600 -1.129314 -0.051806
0.540740 -1.129582 -0.051864
0.540879 -1.129848 -0.051923
0.541018 -1.130114 -0.051982
0.541157 -1.130379 -0.052040
0.541295 -1.130643 -0.052099
0.541433 -1.130907 -0.052158
0.541570 -1.131169 -0.052217
0.541707 -1.131431 -0.052275
0.541844 -1.131692 -0.052334
0.541980 -1.131952 -0.052393
0.542116 -1.132211 -0.052451
0.542251 -1.132469 -0.052510
0.542386 -1.132727 -0.052569
0.542521 -1.132984 -0.052627
0.542655 -1.133240 -0.052686
0.542788 -1.133495 -0.052744
0.542922 -1.133749 -0.052803
0.543054 -1.134003 -0.052862
0.543187 -1.134255 -0.052920
0.543319 -1.134507 -0.052979
0.543451 -1.134758 -0.053038
0.543582 -1.135009 -0.053096
0.543713 -1.135258 -0.053155
0.543843 -1.135507 -0.053213
0.543973 -1.135755 -0.053272
0.544103 -1.136002 -0.053331
0.544232 -1.136249 -0.053389
0.544361 -1.136494 -0.053448
0.544489 -1.136739 -0.053506
0.544618 -1.136983 -0.053565
0.544745 -1.137227 -0.053623
0.544873 -1.137469 -0.053682
0.545000 -1.137711 -0.053741
0.545126 -1.137952 -0.053799
0.545252 -1.138192 -0.053858
0.545378 -1.138432 -0.053916
0.545503 -1.138670 -0.053975
0.545628 -1.138908 -0.054033
0.545753 -1.139146 -0.054092
0.545877 -1.139382 -0.054150
0.546001 -1.139618 -0.054209
0.546125 -1.139853 -0.054267
0.546248 -1.140087 -0.054326
0.546370 -1.140321 -0.054384
0.546493 -1.140553 -0.054443
0.546615 -1.140786 -0.054501
0.546736 -1.141017 -0.054560
0.546858 -1.141247 -0.054618
0.546979 -1.141477 -0.054677
0.547099 -1.141706 -0.054735
0.547219 -1.141935 -0.054794
0.547339 -1.142163 -0.054852
0.547458 -1.142389 -0.054911
0.547578 -1.142616 -0.054969
0.547696 -1.142841 -0.055028
0.547815 -1.143066 -0.055086
0.547933 -1.143290 -0.055145
0.548050 -1.143514 -0.055203
0.548167 -1.143736 -0.055262
0.548284 -1.143958 -0.055320
0.548401 -1.144180 -0.055378
0.548517 -1.144400 -0.055437
0.548633 -1.144620 -0.055495
0.548748 -1.144839 -0.055554
0.548864 -1.145058 -0.055612
0.548978 -1.145276 -0.055671
0.549093 -1.145493 -0.055729
0.549207 -1.145709 -0.055787
0.549321 -1.145925 -0.055846
0.549434 -1.146140 -0.055904
0.549547 -1.146355 -0.055963
0.549660 -1.146568 -0.056021
0.549772 -1.146781 -0.056079
0.549885 -1.146994 -0.056138
0.549996 -1.147206 -0.056196
0.550108 -1.147417 -0.056255
0.550219 -1.147627 -0.056313
0.550329 -1.147837 -0.056371
0.550440 -1.148046 -0.056430
0.550550 -1.148254 -0.056488
0.550659 -1.148462 -0.056546
0.550769 -1.148669 -0.056605
0.550878 -1.148876 -0.056663
0.550987 -1.149081 -0.056721
0.551095 -1.149286 -0.056780
0.551203 -1.149491 -0.056838
0.551311 -1.149695 -0.056896
0.551418 -1.149898 -0.056955
0.551525 -1.150101 -0.057013
0.551632 -1.150303 -0.057071
0.551739 -1.150504 -0.057130
0.551845 -1.150704 -0.057188
0.551950 -1.150905 -0.057246
0.552056 -1.151104 -0.057305
0.552161 -1.151303 -0.057363
0.552266 -1.151501 -0.057421
0.552370 -1.151698 -0.057480
0.552475 -1.151895 -0.057538
0.552579 -1.152091 -0.057596
0.552682 -1.152287 -0.057654
0.552785 -1.152482 -0.057713
0.552888 -1.152677 -0.057771
0.552991 -1.152870 -0.057829
0.553093 -1.153064 -0.057888
0.553195 -1.153256 -0.057946
0.553297 -1.153448 -0.058004
0.553399 -1.153640 -0.058062
0.553500 -1.153830 -0.058121
0.553601 -1.154020 -0.058179
0.553701 -1.154210 -0.058237
0.553801 -1.154399 -0.058295
0.553901 -1.154587 -0.058354
0.554001 -1.154775 -0.058412
0.554100 -1.154962 -0.058470
0.554199 -1.155149 -0.058528
0.554298 -1.155335 -0.058587
0.554396 -1.155520 -0.058645
0.554494 -1.155705 -0.058703
0.554592 -1.155890 -0.058761
0.554690 -1.156073 -0.058819
0.554787 -1.156256 -0.058878
0.554884 -1.156439 -0.058936
0.554981 -1.156621 -0.058994
0.555077 -1.156802 -0.059052
0.555173 -1.156983 -0.059110
0.555269 -1.157163 -0.059169
0.555364 -1.157343 -0.059227
0.555460 -1.157522 -0.059285
0.555554 -1.157700 -0.059343
0.555649 -1.157878 -0.059401
0.555743 -1.158056 -0.059460
0.555838 -1.158233 -0.059518
0.555931 -1.158409 -0.059576
0.556025 -1.158585 -0.059634
0.556118 -1.158760 -0.059692
0.556211 -1.158934 -0.059750
0.556304 -1.159109 -0.059809
0.556396 -1.159282 -0.059867
0.556488 -1.159455 -0.059925
0.556580 -1.159627 -0.059983
0.556672 -1.159799 -0.060041
0.556763 -1.159971 -0.060099
0.556854 -1.160141 -0.060157
0.556945 -1.160312 -0.060216
0.557035 -1.160481 -0.060274
0.557125 -1.160651 -0.060332
0.557215 -1.160819 -0.060390
0.557305 -1.160987 -0.060448
0.557394 -1.161155 -0.060506
0.557484 -1.161322 -0.060564
0.557572 -1.161489 -0.060622
0.557661 -1.161655 -0.060681
0.557749 -1.161820 -0.060739
0.557837 -1.161985 -0.060797
0.557925 -1.162150 -0.060855
0.558013 -1.162314 -0.060913
0.558100 -1.162477 -0.060971
0.558187 -1.162640 -0.061029
0.558274 -1.162802 -0.061087
0.558360 -1.162964 -0.061145
0.558447 -1.163125 -0.061203
0.558533 -1.163286 -0.061262
0.558618 -1.163447 -0.061320
0.558704 -1.163606 -0.061378
0.558789 -1.163766 -0.061436
0.558874 -1.163925 -0.061494
0.558959 -1.164083 -0.061552
0.559043 -1.164241 -0.061610
0.559127 -1.164398 -0.061668
0.559211 -1.164555 -0.061726
0.559295 -1.164711 -0.061784
0.559379 -1.164867 -0.061842
0.559462 -1.165022 -0.061900
0.559545 -1.165177 -0.061958
0.559627 -1.165332 -0.062016
0.559710 -1.165486 -0.062074
0.559792 -1.165639 -0.062132
0.559874 -1.165792 -0.062190
0.559956 -1.165944 -0.062248
0.560037 -1.166096 -0.062306
0.560119 -1.166248 -0.062364
0.560200 -1.166399 -0.062422
0.560280 -1.166549 -0.062480
0.560361 -1.166699 -0.062538
0.560441 -1.166849 -0.062596
0.560521 -1.166998 -0.062654
0.560601 -1.167147 -0.062712
0.560680 -1.167295 -0.062770
0.560760 -1.167442 -0.062828
0.560839 -1.167590 -0.062886
0.560918 -1.167736 -0.062944
0.560996 -1.167883 -0.063002
0.561075 -1.168029 -0.063060
0.561153 -1.168174 -0.063118
0.561231 -1.168319 -0.063176
0.561309 -1.168463 -0.063234
0.561386 -1.168607 -0.063292
0.561463 -1.168751 -0.063350
0.561540 -1.168894 -0.063408
0.561617 -1.169036 -0.063466
0.561694 -1.169179 -0.063524
0.561770 -1.169320 -0.063582
0.561846 -1.169462 -0.063640
0.561922 -1.169603 -0.063698
0.561998 -1.169743 -0.063756
0.562073 -1.169883 -0.063814
0.562148 -1.170022 -0.063872
0.562223 -1.170161 -0.063930
0.562298 -1.170300 -0.063988
0.562372 -1.170438 -0.064046
0.562447 -1.170576 -0.064104
0.562521 -1.170713 -0.064162
0.562595 -1.170850 -0.064220
0.562668 -1.170987 -0.064278
0.562742 -1.171123 -0.064335
0.562815 -1.171258 -0.064393
0.562888 -1.171393 -0.064451
0.562961 -1.171528 -0.064509
0.563033 -1.171662 -0.064567
0.563106 -1.171796 -0.064625
0.563178 -1.171930 -0.064683
0.563250 -1.172063 -0.064741
0.563321 -1.172195 -0.064799
0.563393 -1.172328 -0.064857
0.563464 -1.172459 -0.064915
0.563535 -1.172591 -0.064972
0.563606 -1.172722 -0.065030
0.563677 -1.172852 -0.065088
0.563747 -1.172982 -0.065146
0.563817 -1.173112 -0.065204
0.563887 -1.173241 -0.065262
0.563957 -1.173370 -0.065320
0.564027 -1.173499 -0.065378
0.564096 -1.173627 -0.065436
0.564165 -1.173754 -0.065493
0.564234 -1.173881 -0.065551
0.564303 -1.174008 -0.065609
0.564372 -1.174135 -0.065667
0.564440 -1.174261 -0.065725
0.564508 -1.174386 -0.065783
0.564576 -1.174512 -0.065841
0.564644 -1.174637 -0.065898
0.564712 -1.174761 -0.065956
0.564779 -1.174885 -0.066014
0.564846 -1.175009 -0.066072
0.564913 -1.175132 -0.066130
0.564980 -1.175255 -0.066188
0.565047 -1.175377 -0.066246
0.565113 -1.175499 -0.066303
0.565179 -1.175621 -0.066361
0.565245 -1.175743 -0.066419
0.565311 -1.175863 -0.066477
0.565377 -1.175984 -0.066535
0.565442 -1.176104 -0.066593
0.565507 -1.176224 -0.066650
0.565572 -1.176343 -0.066708
0.565637 -1.176462 -0.066766
0.565702 -1.176581 -0.066824
0.565766 -1.176699 -0.066882
0.565831 -1.176817 -0.066940
0.565895 -1.176935 -0.066997
0.565959 -1.177052 -0.067055
0.566022 -1.177169 -0.067113
0.566086 -1.177285 -0.067171
0.566149 -1.177401 -0.067229
0.566212 -1.177517 -0.067286
0.566275 -1.177632 -0.067344
0.566338 -1.177747 -0.067402
0.566401 -1.177862 -0.067460
0.566463 -1.177976 -0.067518
0.566525 -1.178090 -0.067575
0.566587 -1.178203 -0.067633
0.566649 -1.178316 -0.067691
0.566711 -1.178429 -0.067749
0.566772 -1.178542 -0.067806
0.566834 -1.178654 -0.067864
0.566895 -1.178765 -0.067922
0.566956 -1.178877 -0.067980
0.567016 -1.178988 -0.068038
0.567077 -1.179098 -0.068095
0.567137 -1.179209 -0.068153
0.567198 -1.179319 -0.068211
0.567258 -1.179428 -0.068269
0.567318 -1.179537 -0.068326
0.567377 -1.179646 -0.068384
0.567437 -1.179755 -0.068442
0.567496 -1.179863 -0.068500
0.567555 -1.179971 -0.068557
0.567614 -1.180078 -0.068615
0.567673 -1.180186 -0.068673
0.567732 -1.180292 -0.068731
0.567790 -1.180399 -0.068788
0.567849 -1.180505 -0.068846
0.567907 -1.180611 -0.068904
0.567965 -1.180716 -0.068962
0.568023 -1.180821 -0.069019
0.568080 -1.180926 -0.069077
0.568138 -1.181031 -0.069135
0.568195 -1.181135 -0.069193
0.568252 -1.181239 -0.069250
0.568309 -1.181342 -0.069308
0.568366 -1.181445 -0.069366
0.568423 -1.181548 -0.069423
0.568479 -1.181650 -0.069481
0.568535 -1.181753 -0.069539
0.568592 -1.181854 -0.069597
0.568648 -1.181956 -0.069654
0.568703 -1.182057 -0.069712
0.568759 -1.182158 -0.069770
0.568814 -1.182259 -0.069827
0.568870 -1.182359 -0.069885
0.568925 -1.182459 -0.069943
0.568980 -1.182558 -0.070000
0.569035 -1.182657 -0.070058
0.569089 -1.182756 -0.070116
0.569144 -1.182855 -0.070174
0.569198 -1.182953 -0.070231
0.569253 -1.183051 -0.070289
0.569307 -1.183149 -0.070347
0.569360 -1.183246 -0.070404
0.569414 -1.183343 -0.070462
0.569468 -1.183440 -0.070520
0.569521 -1.183537 -0.070577
0.569574 -1.183633 -0.070635
0.569628 -1.183729 -0.070693
0.569680 -1.183824 -0.070750
0.569733 -1.183919 -0.070808
0.569786 -1.184014 -0.070866
0.569838 -1.184109 -0.070923
0.569891 -1.184203 -0.070981
0.569943 -1.184297 -0.071039
0.569995 -1.184391 -0.071096
0.570047 -1.184484 -0.071154
0.570099 -1.184577 -0.071212
0.570150 -1.184670 -0.071269
0.570202 -1.184763 -0.071327
0.570253 -1.184855 -0.071385
0.570304 -1.184947 -0.071442
0.570355 -1.185038 -0.071500
0.570406 -1.185130 -0.071558
0.570456 -1.185221 -0.071615
0.570507 -1.185311 -0.071673
0.570557 -1.185402 -0.071731
0.570608 -1.185492 -0.071788
0.570658 -1.185582 -0.071846
0.570708 -1.185671 -0.071903
0.570757 -1.185761 -0.071961
0.570807 -1.185850 -0.072019
0.570857 -1.185938 -0.072076
0.570906 -1.186027 -0.072134
0.570955 -1.186115 -0.072192
0.571004 -1.186203 -0.072249
0.571053 -1.186291 -0.072307
0.571102 -1.186378 -0.072364
0.571151 -1.186465 -0.072422
0.571199 -1.186552 -0.072480
0.571248 -1.186638 -0.072537
0.571296 -1.186724 -0.072595
0.571344 -1.186810 -0.072652
0.571392 -1.186896 -0.072710
0.571440 -1.186981 -0.072768
0.571487 -1.187066 -0.072825
0.571535 -1.187151 -0.072883
0.571582 -1.187236 -0.072941
0.571629 -1.187320 -0.072998
0.571677 -1.187404 -0.073056
0.571724 -1.187488 -0.073113
0.571770 -1.187571 -0.073171
0.571817 -1.187654 -0.073229
0.571864 -1.187737 -0.073286
0.571910 -1.187820 -0.073344
0.571956 -1.187902 -0.073401
0.572003 -1.187984 -0.073459
0.572049 -1.188066 -0.073516
0.572095 -1.188148 -0.073574
0.572140 -1.188229 -0.073632
0.572186 -1.188310 -0.073689
0.572232 -1.188391 -0.073747
0.572277 -1.188472 -0.073804
0.572322 -1.188552 -0.073862
0.572367 -1.188632 -0.073919
0.572412 -1.188712 -0.073977
0.572457 -1.188791 -0.074035
0.572502 -1.188870 -0.074092
0.572546 -1.188949 -0.074150
0.572591 -1.189028 -0.074207
0.572635 -1.189107 -0.074265
0.572679 -1.189185 -0.074322
0.572723 -1.189263 -0.074380
0.572767 -1.189341 -0.074438
0.572811 -1.189418 -0.074495
0.572855 -1.189495 -0.074553
0.572899 -1.189572 -0.074610
0.572942 -1.189649 -0.074668
0.572985 -1.189725 -0.074725
0.573029 -1.189802 -0.074783
0.573072 -1.189878 -0.074840
0.573115 -1.189953 -0.074898
0.573157 -1.190029 -0.074955
0.573200 -1.190104 -0.075013
0.573243 -1.190179 -0.075071
0.573285 -1.190254 -0.075128
0.573327 -1.190328 -0.075186
0.573370 -1.190403 -0.075243
0.573412 -1.190477 -0.075301
0.573454 -1.190551 -0.075358
0.573496 -1.190624 -0.075416
0.573537 -1.190698 -0.075473
0.573579 -1.190771 -0.075531
0.573620 -1.190843 -0.075588
0.573662 -1.190916 -0.075646
0.573703 -1.190988 -0.075703
0.573744 -1.191061 -0.075761
0.573785 -1.191133 -0.075818
0.573826 -1.191204 -0.075876
0.573867 -1.191276 -0.075933
0.573907 -1.191347 -0.075991
0.573948 -1.191418 -0.076048
0.573988 -1.191489 -0.076106
0.574029 -1.191559 -0.076163
0.574069 -1.191629 -0.076221
0.574109 -1.191699 -0.076279
0.574149 -1.191769 -0.076336
0.574189 -1.191839 -0.076394
0.574228 -1.191908 -0.076451
0.574268 -1.191977 -0.076509
0.574308 -1.192046 -0.076566
0.574347 -1.192115 -0.076624
0.574386 -1.192184 -0.076681
0.574425 -1.192252 -0.076739
0.574464 -1.192320 -0.076796
0.574503 -1.192388 -0.076853
0.574542 -1.192455 -0.076911
0.574581 -1.192523 -0.076968
0.574620 -1.192590 -0.077026
0.574658 -1.192657 -0.077083
0.574696 -1.192723 -0.077141
0.574735 -1.192790 -0.077198
0.574773 -1.192856 -0.077256
0.574811 -1.192922 -0.077313
0.574849 -1.192988 -0.077371
0.574887 -1.193054 -0.077428
0.574924 -1.193119 -0.077486
0.574962 -1.193184 -0.077543
0.575000 -1.193249 -0.077601
0.575037 -1.193314 -0.077658
0.575074 -1.193379 -0.077716
0.575111 -1.193443 -0.077773
0.575149 -1.193507 -0.077831
0.575186 -1.193571 -0.077888
0.575222 -1.193635 -0.077946
0.575259 -1.193698 -0.078003
0.575296 -1.193762 -0.078060
0.575332 -1.193825 -0.078118
0.575369 -1.193888 -0.078175
0.575405 -1.193950 -0.078233
0.575441 -1.194013 -0.078290
0.575478 -1.194075 -0.078348
0.575514 -1.194137 -0.078405
0.575550 -1.194199 -0.078463
0.575585 -1.194261 -0.078520
0.575621 -1.194322 -0.078578
0.575657 -1.194384 -0.078635
0.575692 -1.194445 -0.078692
0.575728 -1.194505 -0.078750
0.575763 -1.194566 -0.078807
0.575798 -1.194627 -0.078865
0.575833 -1.194687 -0.078922
0.575868 -1.194747 -0.078980
0.575903 -1.194807 -0.079037
0.575938 -1.194866 -0.079094
0.575973 -1.194926 -0.079152
0.576007 -1.194985 -0.079209
0.576042 -1.195044 -0.079267
0.576076 -1.195103 -0.079324
0.576111 -1.195162 -0.079382
0.576145 -1.195220 -0.079439
0.576179 -1.195279 -0.079496
0.576213 -1.195337 -0.079554
0.576247 -1.195395 -0.079611
0.576281 -1.195453 -0.079669
0.576315 -1.195510 -0.079726
0.576348 -1.195567 -0.079784
0.576382 -1.195625 -0.079841
0.576415 -1.195682 -0.079898
0.576449 -1.195738 -0.079956
0.576482 -1.195795 -0.080013
0.576515 -1.195851 -0.080071
0.576548 -1.195908 -0.080128
0.576581 -1.195964 -0.080185
0.576614 -1.196020 -0.080243
0.576647 -1.196075 -0.080300
0.576680 -1.196131 -0.080358
0.576712 -1.196186 -0.080415
0.576745 -1.196241 -0.080473
0.576777 -1.196296 -0.080530
0.576809 -1.196351 -0.080587
0.576842 -1.196405 -0.080645
0.576874 -1.196460 -0.080702
0.576906 -1.196514 -0.080760
0.576938 -1.196568 -0.080817
0.576970 -1.196622 -0.080874
0.577002 -1.196676 -0.080932
0.577033 -1.196729 -0.080989
0.577065 -1.196782 -0.081046
0.577096 -1.196836 -0.081104
0.577128 -1.196889 -0.081161
0.577159 -1.196941 -0.081219
0.577190 -1.196994 -0.081276
0.577222 -1.197046 -0.081333
0.577253 -1.197099 -0.081391
0.577284 -1.197151 -0.081448
0.577314 -1.197203 -0.081506
0.577345 -1.197254 -0.081563
0.577376 -1.197306 -0.081620
0.577407 -1.197357 -0.081678
0.577437 -1.197409 -0.081735
0.577468 -1.197460 -0.081792
0.577498 -1.197511 -0.081850
0.577528 -1.197561 -0.081907
0.577559 -1.197612 -0.081965
0.577589 -1.197662 -0.082022
0.577619 -1.197713 -0.082079
0.577649 -1.197763 -0.082137
0.577679 -1.197812 -0.082194
0.577708 -1.197862 -0.082251
0.577738 -1.197912 -0.082309
0.577768 -1.197961 -0.082366
0.577797 -1.198010 -0.082423
0.577827 -1.198059 -0.082481
0.577856 -1.198108 -0.082538
0.577885 -1.198157 -0.082596
0.577914 -1.198206 -0.082653
0.577944 -1.198254 -0.082710
0.577973 -1.198302 -0.082768
0.578002 -1.198350 -0.082825
0.578030 -1.198398 -0.082882
0.578059 -1.198446 -0.082940
0.578088 -1.198494 -0.082997
0.578117 -1.198541 -0.083054
0.578145 -1.198588 -0.083112
0.578174 -1.198635 -0.083169
0.578202 -1.198682 -0.083226
0.578230 -1.198729 -0.083284
0.578259 -1.198776 -0.083341
0.578287 -1.198822 -0.083398
0.578315 -1.198869 -0.083456
0.578343 -1.198915 -0.083513
0.578371 -1.198961 -0.083570
0.578399 -1.199007 -0.083628
0.578426 -1.199052 -0.083685
0.578454 -1.199098 -0.083742
0.578482 -1.199143 -0.083800
0.578509 -1.199189 -0.083857
0.578537 -1.199234 -0.083914
0.578564 -1.199279 -0.083972
0.578591 -1.199323 -0.084029
0.578618 -1.199368 -0.084086
0.578646 -1.199412 -0.084144
0.578673 -1.199457 -0.084201
0.578700 -1.199501 -0.084258
0.578727 -1.199545 -0.084316
0.578753 -1.199589 -0.084373
0.578780 -1.199633 -0.084430
0.578807 -1.199676 -0.084488
0.578833 -1.199720 -0.084545
0.578860 -1.199763 -0.084602
0.578886 -1.199806 -0.084660
0.578913 -1.199849 -0.084717
0.578939 -1.199892 -0.084774
0.578965 -1.199935 -0.084832
0.578992 -1.199977 -0.084889
0.579018 -1.200020 -0.084946
0.579044 -1.200062 -0.085004
0.579070 -1.200104 -0.085061
0.579095 -1.200146 -0.085118
0.579121 -1.200188 -0.085175
0.579147 -1.200230 -0.085233
0.579173 -1.200271 -0.085290
0.579198 -1.200313 -0.085347
0.579224 -1.200354 -0.085405
0.579249 -1.200395 -0.085462
0.579275 -1.200436 -0.085519
0.579300 -1.200477 -0.085577
0.579325 -1.200518 -0.085634
0.579350 -1.200558 -0.085691
0.579375 -1.200599 -0.085748
0.579400 -1.200639 -0.085806
0.579425 -1.200679 -0.085863
0.579450 -1.200719 -0.085920
0.579475 -1.200759 -0.085978
0.579500 -1.200799 -0.086035
0.579525 -1.200839 -0.086092
0.579549 -1.200878 -0.086150
0.579574 -1.200917 -0.086207
0.579598 -1.200957 -0.086264
0.579623 -1.200996 -0.086321
0.579647 -1.201035 -0.086379
0.579671 -1.201073 -0.086436
0.579695 -1.201112 -0.086493
0.579720 -1.201151 -0.086551
0.579744 -1.201189 -0.086608
0.579768 -1.201227 -0.086665
0.579792 -1.201266 -0.086722
0.579815 -1.201304 -0.086780
0.579839 -1.201341 -0.086837
0.579863 -1.201379 -0.086894
0.579887 -1.201417 -0.086951
0.579910 -1.201454 -0.087009
0.579934 -1.201492 -0.087066
0.579957 -1.201529 -0.087123
0.579981 -1.201566 -0.087181
0.580004 -1.201603 -0.087238
0.580027 -1.201640 -0.087295
0.580050 -1.201677 -0.087352
0.580074 -1.201713 -0.087410
0.580097 -1.201750 -0.087467
0.580120 -1.201786 -0.087524
0.580143 -1.201822 -0.087581
0.580166 -1.201858 -0.087639
0.580188 -1.201894 -0.087696
0.580211 -1.201930 -0.087753
0.580234 -1.201966 -0.087810
0.580257 -1.202002 -0.087868
0.580279 -1.202037 -0.087925
0.580302 -1.202072 -0.087982
0.580324 -1.202108 -0.088040
0.580347 -1.202143 -0.088097
0.580369 -1.202178 -0.088154
0.580391 -1.202213 -0.088211
0.580413 -1.202247 -0.088269
0.580435 -1.202282 -0.088326
0.580458 -1.202316 -0.088383
0.580480 -1.202351 -0.088440
0.580502 -1.202385 -0.088498
0.580523 -1.202419 -0.088555
0.580545 -1.202453 -0.088612
0.580567 -1.202487 -0.088669
0.580589 -1.202521 -0.088727
0.580610 -1.202555 -0.088784
0.580632 -1.202588 -0.088841
0.580654 -1.202622 -0.088898
0.580675 -1.202655 -0.088955
0.580697 -1.202688 -0.089013
0.580718 -1.202721 -0.089070
0.580739 -1.202754 -0.089127
0.580761 -1.202787 -0.089184
0.580782 -1.202820 -0.089242
0.580803 -1.202852 -0.089299
0.580824 -1.202885 -0.089356
0.580845 -1.202917 -0.089413
0.580866 -1.202950 -0.089471
0.580887 -1.202982 -0.089528
0.580908 -1.203014 -0.089585
0.580928 -1.203046 -0.089642
0.580949 -1.203077 -0.089700
0.580970 -1.203109 -0.089757
0.580990 -1.203141 -0.089814
0.581011 -1.203172 -0.089871
0.581032 -1.203204 -0.089928
0.581052 -1.203235 -0.089986
0.581072 -1.203266 -0.090043
0.581093 -1.203297 -0.090100
0.581113 -1.203328 -0.090157
0.581133 -1.203359 -0.090215
0.581153 -1.203390 -0.090272
0.581174 -1.203420 -0.090329
0.581194 -1.203451 -0.090386
0.581214 -1.203481 -0.090443
0.581234 -1.203511 -0.090501
0.581253 -1.203542 -0.090558
0.581273 -1.203572 -0.090615
0.581293 -1.203602 -0.090672
0.581313 -1.203631 -0.090730
0.581333 -1.203661 -0.090787
0.581352 -1.203691 -0.090844
0.581372 -1.203720 -0.090901
0.581391 -1.203750 -0.090958
0.581411 -1.203779 -0.091016
0.581430 -1.203808 -0.091073
0.581450 -1.203838 -0.091130
0.581469 -1.203867 -0.091187
0.581488 -1.203895 -0.091244
0.581507 -1.203924 -0.091302
0.581526 -1.203953 -0.091359
0.581546 -1.203982 -0.091416
0.581565 -1.204010 -0.091473
0.581584 -1.204038 -0.091530
0.581603 -1.204067 -0.091588
0.581621 -1.204095 -0.091645
0.581640 -1.204123 -0.091702
0.581659 -1.204151 -0.091759
0.581678 -1.204179 -0.091816
0.581697 -1.204207 -0.091874
0.581715 -1.204234 -0.091931
0.581734 -1.204262 -0.091988
0.581752 -1.204289 -0.092045
0.581771 -1.204317 -0.092102
0.581789 -1.204344 -0.092160
0.581808 -1.204371 -0.092217
0.581826 -1.204398 -0.092274
0.581844 -1.204425 -0.092331
0.581863 -1.204452 -0.092388
0.581881 -1.204479 -0.092446
0.581899 -1.204506 -0.092503
0.581917 -1.204532 -0.092560
0.581935 -1.204559 -0.092617
0.581953 -1.204585 -0.092674
0.581971 -1.204612 -0.092731
0.581989 -1.204638 -0.092789
0.582007 -1.204664 -0.092846
0.582025 -1.204690 -0.092903
0.582042 -1.204716 -0.092960
0.582060 -1.204742 -0.093017
0.582078 -1.204768 -0.093075
0.582095 -1.204793 -0.093132
0.582113 -1.204819 -0.093189
0.582130 -1.204844 -0.093246
0.582148 -1.204870 -0.093303
0.582165 -1.204895 -0.093360
0.582183 -1.204920 -0.093418
0.582200 -1.204945 -0.093475
0.582217 -1.204970 -0.093532
0.582234 -1.204995 -0.093589
0.582252 -1.205020 -0.093646
0.582269 -1.205045 -0.093704
0.582286 -1.205069 -0.093761
0.582303 -1.205094 -0.093818
0.582320 -1.205118 -0.093875
0.582337 -1.205143 -0.093932
0.582354 -1.205167 -0.093989
0.582371 -1.205191 -0.094047
0.582388 -1.205215 -0.094104
0.582404 -1.205239 -0.094161
0.582421 -1.205263 -0.094218
0.582438 -1.205287 -0.094275
0.582454 -1.205311 -0.094332
0.582471 -1.205334 -0.094389
0.582488 -1.205358 -0.094447
0.582504 -1.205381 -0.094504
0.582521 -1.205405 -0.094561
0.582537 -1.205428 -0.094618
0.582553 -1.205451 -0.094675
0.582570 -1.205475 -0.094732
0.582586 -1.205498 -0.094790
0.582602 -1.205521 -0.094847
0.582618 -1.205543 -0.094904
0.582635 -1.205566 -0.094961
0.582651 -1.205589 -0.095018
0.582667 -1.205612 -0.095075
0.582683 -1.205634 -0.095133
0.582699 -1.205656 -0.095190
0.582715 -1.205679 -0.095247
0.582731 -1.205701 -0.095304
0.582747 -1.205723 -0.095361
0.582762 -1.205745 -0.095418
0.582778 -1.205767 -0.095475
0.582794 -1.205789 -0.095533
0.582810 -1.205811 -0.095590
0.582825 -1.205833 -0.095647
0.582841 -1.205855 -0.095704
0.582856 -1.205876 -0.095761
0.582872 -1.205898 -0.095818
0.582887 -1.205919 -0.095875
0.582903 -1.205941 -0.095933
0.582918 -1.205962 -0.095990
0.582934 -1.205983 -0.096047
0.582949 -1.206004 -0.096104
0.582964 -1.206026 -0.096161
0.582980 -1.206046 -0.096218
0.582995 -1.206067 -0.096275
0.583010 -1.206088 -0.096333
0.583025 -1.206109 -0.096390
0.583040 -1.206130 -0.096447
0.583055 -1.206150 -0.096504
0.583070 -1.206171 -0.096561
0.583085 -1.206191 -0.096618
0.583100 -1.206211 -0.096675
0.583115 -1.206232 -0.096733
0.583130 -1.206252 -0.096790
0.583145 -1.206272 -0.096847
0.583159 -1.206292 -0.096904
0.583174 -1.206312 -0.096961
0.583189 -1.206332 -0.097018
0.583203 -1.206352 -0.097075
0.583218 -1.206371 -0.097132
0.583233 -1.206391 -0.097190
0.583247 -1.206411 -0.097247
0.583262 -1.206430 -0.097304
0.583276 -1.206450 -0.097361
0.583291 -1.206469 -0.097418
0.583305 -1.206488 -0.097475
0.583319 -1.206507 -0.097532
0.583334 -1.206527 -0.097589
0.583348 -1.206546 -0.097647
0.583362 -1.206565 -0.097704
0.583376 -1.206583 -0.097761
0.583391 -1.206602 -0.097818
0.583405 -1.206621 -0.097875
0.583419 -1.206640 -0.097932
0.583433 -1.206658 -0.097989
0.583447 -1.206677 -0.098046
0.583461 -1.206695 -0.098103
0.583475 -1.206714 -0.098161
0.583489 -1.206732 -0.098218
0.583502 -1.206750 -0.098275
0.583516 -1.206769 -0.098332
0.583530 -1.206787 -0.098389
0.583544 -1.206805 -0.098446
0.583558 -1.206823 -0.098503
0.583571 -1.206841 -0.098560
0.583585 -1.206858 -0.098617
0.583599 -1.206876 -0.098675
0.583612 -1.206894 -0.098732
0.583626 -1.206911 -0.098789
0.583639 -1.206929 -0.098846
0.583653 -1.206946 -0.098903
0.583666 -1.206964 -0.098960
0.583680 -1.206981 -0.099017
0.583693 -1.206998 -0.099074
0.583706 -1.207016 -0.099131
0.583720 -1.207033 -0.099189
0.583733 -1.207050 -0.099246
0.583746 -1.207067 -0.099303
0.583759 -1.207084 -0.099360
0.583772 -1.207101 -0.099417
0.583786 -1.207117 -0.099474
0.583799 -1.207134 -0.099531
0.583812 -1.207151 -0.099588
0.583825 -1.207167 -0.099645
0.583838 -1.207184 -0.099702
0.583851 -1.207200 -0.099760
0.583864 -1.207217 -0.099817
0.583877 -1.207233 -0.099874
0.583889 -1.207249 -0.099931
0.583902 -1.207266 -0.099988
0.583915 -1.207282 -0.100045
0.583928 -1.207298 -0.100102
0.583940 -1.207314 -0.100159
0.583953 -1.207330 -0.100216
0.583966 -1.207346 -0.100273
0.583978 -1.207361 -0.100330
0.583991 -1.207377 -0.100388
0.584004 -1.207393 -0.100445
0.584016 -1.207408 -0.100502
0.584029 -1.207424 -0.100559
0.584041 -1.207440 -0.100616
0.584054 -1.207455 -0.100673
0.584066 -1.207470 -0.100730
0.584078 -1.207486 -0.100787
0.584091 -1.207501 -0.100844
0.584103 -1.207516 -0.100901
0.584115 -1.207531 -0.100958
0.584128 -1.207546 -0.101015
0.584140 -1.207561 -0.101073
0.584152 -1.207576 -0.101130
0.584164 -1.207591 -0.101187
0.584176 -1.207606 -0.101244
0.584188 -1.207621 -0.101301
0.584200 -1.207635 -0.101358
0.584212 -1.207650 -0.101415
0.584224 -1.207664 -0.101472
0.584236 -1.207679 -0.101529
0.584248 -1.207693 -0.101586
0.584260 -1.207708 -0.101643
0.584272 -1.207722 -0.101700
0.584284 -1.207736 -0.101758
0.584296 -1.207750 -0.101815
0.584308 -1.207765 -0.101872
0.584319 -1.207779 -0.101929
0.584331 -1.207793 -0.101986
0.584343 -1.207807 -0.102043
0.584354 -1.207821 -0.102100
0.584366 -1.207834 -0.102157
0.584378 -1.207848 -0.102214
0.584389 -1.207862 -0.102271
0.584401 -1.207876 -0.102328
0.584412 -1.207889 -0.102385
0.584424 -1.207903 -0.102442
0.584435 -1.207916 -0.102499
0.584447 -1.207930 -0.102556
0.584458 -1.207943 -0.102614
0.584469 -1.207956 -0.102671
0.584481 -1.207970 -0.102728
0.584492 -1.207983 -0.102785
0.584503 -1.207996 -0.102842
0.584515 -1.208009 -0.102899
0.584526 -1.208022 -0.102956
0.584537 -1.208035 -0.103013
0.584548 -1.208048 -0.103070
0.584559 -1.208061 -0.103127
0.584571 -1.208074 -0.103184
0.584582 -1.208087 -0.103241
0.584593 -1.208099 -0.103298
0.584604 -1.208112 -0.103355
0.584615 -1.208125 -0.103412
0.584626 -1.208137 -0.103469
0.584637 -1.208150 -0.103527
0.584648 -1.208162 -0.103584
0.584659 -1.208174 -0.103641
0.584669 -1.208187 -0.103698
0.584680 -1.208199 -0.103755
0.584691 -1.208211 -0.103812
0.584702 -1.208223 -0.103869
0.584713 -1.208236 -0.103926
0.584723 -1.208248 -0.103983
0.584734 -1.208260 -0.104040
0.584745 -1.208272 -0.104097
0.584755 -1.208283 -0.104154
0.584766 -1.208295 -0.104211
0.584777 -1.208307 -0.104268
0.584787 -1.208319 -0.104325
0.584798 -1.208331 -0.104382
0.584808 -1.208342 -0.104439
0.584819 -1.208354 -0.104496
0.584829 -1.208365 -0.104553
0.584840 -1.208377 -0.104610
0.584850 -1.208388 -0.104668
0.584861 -1.208400 -0.104725
0.584871 -1.208411 -0.104782
0.584881 -1.208422 -0.104839
0.584892 -1.208434 -0.104896
0.584902 -1.208445 -0.104953
0.584912 -1.208456 -0.105010
0.584922 -1.208467 -0.105067
0.584933 -1.208478 -0.105124
0.584943 -1.208489 -0.105181
0.584953 -1.208500 -0.105238
0.584963 -1.208511 -0.105295
0.584973 -1.208522 -0.105352
0.584983 -1.208532 -0.105409
0.584993 -1.208543 -0.105466
0.585003 -1.208554 -0.105523
0.585013 -1.208564 -0.105580
0.585023 -1.208575 -0.105637
0.585033 -1.208586 -0.105694
0.585043 -1.208596 -0.105751
0.585053 -1.208606 -0.105808
0.585063 -1.208617 -0.105865
0.585073 -1.208627 -0.105922
0.585083 -1.208638 -0.105979
0.585093 -1.208648 -0.106036
0.585102 -1.208658 -0.106093
0.585112 -1.208668 -0.106150
0.585122 -1.208678 -0.106208
0.585132 -1.208688 -0.106265
0.585141 -1.208698 -0.106322
0.585151 -1.208708 -0.106379
0.585161 -1.208718 -0.106436
0.585170 -1.208728 -0.106493
0.585180 -1.208738 -0.106550
0.585190 -1.208748 -0.106607
0.585199 -1.208757 -0.106664
0.585209 -1.208767 -0.106721
0.585218 -1.208777 -0.106778
0.585228 -1.208786 -0.106835
0.585237 -1.208796 -0.106892
0.585247 -1.208805 -0.106949
0.585256 -1.208815 -0.107006
0.585265 -1.208824 -0.107063
0.585275 -1.208834 -0.107120
0.585284 -1.208843 -0.107177
0.585293 -1.208852 -0.107234
0.585303 -1.208861 -0.107291
0.585312 -1.208871 -0.107348
0.585321 -1.208880 -0.107405
0.585330 -1.208889 -0.107462
0.585340 -1.208898 -0.107519
0.585349 -1.208907 -0.107576
0.585358 -1.208916 -0.107633
0.585367 -1.208925 -0.107690
0.585376 -1.208934 -0.107747
0.585385 -1.208943 -0.107804
0.585395 -1.208951 -0.107861
0.585404 -1.208960 -0.107918
0.585413 -1.208969 -0.107975
0.585422 -1.208978 -0.108032
0.585431 -1.208986 -0.108089
0.585440 -1.208995 -0.108146
0.585449 -1.209003 -0.108203
0.585458 -1.209012 -0.108260
0.585466 -1.209020 -0.108317
0.585475 -1.209029 -0.108374
0.585484 -1.209037 -0.108431
0.585493 -1.209045 -0.108488
0.585502 -1.209054 -0.108545
0.585511 -1.209062 -0.108602
0.585519 -1.209070 -0.108659
0.585528 -1.209078 -0.108716
0.585537 -1.209086 -0.108773
0.585546 -1.209094 -0.108830
0.585554 -1.209102 -0.108887
0.585563 -1.209110 -0.108944
0.585572 -1.209118 -0.109001
0.585580 -1.209126 -0.109058
0.585589 -1.209134 -0.109115
0.585598 -1.209142 -0.109172
0.585606 -1.209150 -0.109229
0.585615 -1.209158 -0.109286
0.585623 -1.209165 -0.109343
0.585632 -1.209173 -0.109400
0.585640 -1.209181 -0.109457
0.585649 -1.209188 -0.109514
0.585657 -1.209196 -0.109571
0.585666 -1.209203 -0.109628
0.585674 -1.209211 -0.109685
0.585682 -1.209218 -0.109742
0.585691 -1.209226 -0.109799
0.585699 -1.209233 -0.109856
0.585707 -1.209240 -0.109913
0.585716 -1.209248 -0.109970
0.585724 -1.209255 -0.110027
0.585732 -1.209262 -0.110084
0.585741 -1.209269 -0.110141
0.585749 -1.209276 -0.110198
0.585757 -1.209283 -0.110255
0.585765 -1.209290 -0.110312
0.585773 -1.209297 -0.110369
0.585782 -1.209304 -0.110426
0.585790 -1.209311 -0.110483
0.585798 -1.209318 -0.110540
0.585806 -1.209325 -0.110597
0.585814 -1.209332 -0.110654
0.585822 -1.209339 -0.110711
0.585830 -1.209345 -0.110768
0.585838 -1.209352 -0.110825
0.585846 -1.209359 -0.110882
0.585854 -1.209365 -0.110939
0.585862 -1.209372 -0.110996
0.585870 -1.209379 -0.111053
0.585878 -1.209385 -0.111110
0.585886 -1.209392 -0.111167
0.585894 -1.209398 -0.111224
0.585902 -1.209404 -0.111281
0.585910 -1.209411 -0.111338
0.585917 -1.209417 -0.111395
0.585925 -1.209423 -0.111452
0.585933 -1.209430 -0.111509
0.585941 -1.209436 -0.111566
0.585949 -1.209442 -0.111623
0.585956 -1.209448 -0.111680
0.585964 -1.209454 -0.111737
0.585972 -1.209461 -0.111794
0.585979 -1.209467 -0.111851
0.585987 -1.209473 -0.111908
0.585995 -1.209479 -0.111965
0.586002 -1.209485 -0.112022
0.586010 -1.209491 -0.112079
0.586018 -1.209496 -0.112136
0.586025 -1.209502 -0.112193
0.586033 -1.209508 -0.112250
0.586040 -1.209514 -0.112307
0.586048 -1.209520 -0.112364
0.586055 -1.209525 -0.112421
0.586063 -1.209531 -0.112478
0.586070 -1.209537 -0.112535
0.586078 -1.209542 -0.112592
0.586085 -1.209548 -0.112649
0.586093 -1.209553 -0.112706
0.586100 -1.209559 -0.112763
0.586108 -1.209564 -0.112820
0.586115 -1.209570 -0.112877
0.586122 -1.209575 -0.112933
0.586130 -1.209581 -0.112990
0.586137 -1.209586 -0.113047
0.586144 -1.209591 -0.113104
0.586152 -1.209597 -0.113161
0.586159 -1.209602 -0.113218
0.586166 -1.209607 -0.113275
0.586174 -1.209612 -0.113332
0.586181 -1.209617 -0.113389
0.586188 -1.209622 -0.113446
0.586195 -1.209628 -0.113503
0.586202 -1.209633 -0.113560
0.586210 -1.209638 -0.113617
0.586217 -1.209643 -0.113674
0.586224 -1.209648 -0.113731
0.586231 -1.209652 -0.113788
0.586238 -1.209657 -0.113845
0.586245 -1.209662 -0.113902
0.586252 -1.209667 -0.113959
0.586259 -1.209672 -0.114016
0.586266 -1.209677 -0.114073
0.586273 -1.209681 -0.114130
0.586280 -1.209686 -0.114187
0.586287 -1.209691 -0.114244
0.586294 -1.209695 -0.114301
0.586301 -1.209700 -0.114358
0.586308 -1.209705 -0.114415
0.586315 -1.209709 -0.114472
0.586322 -1.209714 -0.114529
0.586329 -1.209718 -0.114585
0.586336 -1.209723 -0.114642
0.586343 -1.209727 -0.114699
0.586350 -1.209731 -0.114756
0.586356 -1.209736 -0.114813
0.586363 -1.209740 -0.114870
0.586370 -1.209744 -0.114927
0.586377 -1.209749 -0.114984
0.586384 -1.209753 -0.115041
0.586390 -1.209757 -0.115098
0.586397 -1.209761 -0.115155
0.586404 -1.209765 -0.115212
0.586411 -1.209770 -0.115269
0.586417 -1.209774 -0.115326
0.586424 -1.209778 -0.115383
0.586431 -1.209782 -0.115440
0.586437 -1.209786 -0.115497
0.586444 -1.209790 -0.115554
0.586451 -1.209794 -0.115611
0.586457 -1.209798 -0.115668
0.586464 -1.209802 -0.115725
0.586470 -1.209805 -0.115781
0.586477 -1.209809 -0.115838
0.586484 -1.209813 -0.115895
0.586490 -1.209817 -0.115952
0.586497 -1.209821 -0.116009
0.586503 -1.209824 -0.116066
0.586510 -1.209828 -0.116123
0.586516 -1.209832 -0.116180
0.586523 -1.209835 -0.116237
0.586529 -1.209839 -0.116294
0.586536 -1.209843 -0.116351
0.586542 -1.209846 -0.116408
0.586548 -1.209850 -0.116465
0.586555 -1.209853 -0.116522
0.586561 -1.209857 -0.116579
0.586568 -1.209860 -0.116636
0.586574 -1.209863 -0.116693
0.586580 -1.209867 -0.116750
0.586587 -1.209870 -0.116807
0.586593 -1.209874 -0.116863
0.586599 -1.209877 -0.116920
0.586606 -1.209880 -0.116977
0.586612 -1.209883 -0.117034
0.586618 -1.209887 -0.117091
0.586624 -1.209890 -0.117148
0.586631 -1.209893 -0.117205
0.586637 -1.209896 -0.117262
0.586643 -1.209899 -0.117319
0.586649 -1.209902 -0.117376
0.586655 -1.209906 -0.117433
0.586662 -1.209909 -0.117490
0.586668 -1.209912 -0.117547
0.586674 -1.209915 -0.117604
0.586680 -1.209918 -0.117661
0.586686 -1.209920 -0.117718
0.586692 -1.209923 -0.117774
0.586698 -1.209926 -0.117831
0.586704 -1.209929 -0.117888
0.586711 -1.209932 -0.117945
0.586717 -1.209935 -0.118002
0.586723 -1.209938 -0.118059
0.586729 -1.209940 -0.118116
0.586735 -1.209943 -0.118173
0.586741 -1.209946 -0.118230
0.586747 -1.209949 -0.118287
0.586753 -1.209951 -0.118344
0.586759 -1.209954 -0.118401
0.586765 -1.209956 -0.118458
0.586770 -1.209959 -0.118515
0.586776 -1.209962 -0.118571
0.586782 -1.209964 -0.118628
0.586788 -1.209967 -0.118685
0.586794 -1.209969 -0.118742
0.586800 -1.209972 -0.118799
0.586806 -1.209974 -0.118856
0.586812 -1.209976 -0.118913
0.586818 -1.209979 -0.118970
0.586823 -1.209981 -0.119027
0.586829 -1.209984 -0.119084
0.586835 -1.209986 -0.119141
0.586841 -1.209988 -0.119198
0.586847 -1.209990 -0.119255
0.586852 -1.209993 -0.119312
0.586858 -1.209995 -0.119368
0.586864 -1.209997 -0.119425
0.586870 -1.209999 -0.119482
0.586875 -1.210001 -0.119539
0.586881 -1.210004 -0.119596
0.586887 -1.210006 -0.119653
0.586892 -1.210008 -0.119710
0.586898 -1.210010 -0.119767
0.586904 -1.210012 -0.119824
0.586909 -1.210014 -0.119881
0.586915 -1.210016 -0.119938
0.586921 -1.210018 -0.119995
0.586926 -1.210020 -0.120051
0.586932 -1.210022 -0.120108
0.586937 -1.210024 -0.120165
0.586943 -1.210026 -0.120222
0.586949 -1.210027 -0.120279
0.586954 -1.210029 -0.120336
0.586960 -1.210031 -0.120393
0.586965 -1.210033 -0.120450
0.586971 -1.210035 -0.120507
0.586976 -1.210036 -0.120564
0.586982 -1.210038 -0.120621
0.586987 -1.210040 -0.120678
0.586993 -1.210041 -0.120734
0.586998 -1.210043 -0.120791
0.587004 -1.210045 -0.120848
0.587009 -1.210046 -0.120905
0.587015 -1.210048 -0.120962
0.587020 -1.210049 -0.121019
0.587025 -1.210051 -0.121076
0.587031 -1.210053 -0.121133
0.587036 -1.210054 -0.121190
0.587042 -1.210056 -0.121247
0.587047 -1.210057 -0.121304
0.587052 -1.210058 -0.121360
0.587058 -1.210060 -0.121417
0.587063 -1.210061 -0.121474
0.587068 -1.210063 -0.121531
0.587074 -1.210064 -0.121588
0.587079 -1.210065 -0.121645
0.587084 -1.210067 -0.121702
0.587089 -1.210068 -0.121759
0.587095 -1.210069 -0.121816
0.587100 -1.210070 -0.121873
0.587105 -1.210072 -0.121930
0.587111 -1.210073 -0.121986
0.587116 -1.210074 -0.122043
0.587121 -1.210075 -0.122100
0.587126 -1.210076 -0.122157
0.587131 -1.210077 -0.122214
0.587137 -1.210079 -0.122271
0.587142 -1.210080 -0.122328
0.587147 -1.210081 -0.122385
0.587152 -1.210082 -0.122442
0.587157 -1.210083 -0.122499
0.587162 -1.210084 -0.122555
0.587167 -1.210085 -0.122612
0.587173 -1.210086 -0.122669
0.587178 -1.210087 -0.122726
0.587183 -1.210088 -0.122783
0.587188 -1.210088 -0.122840
0.587193 -1.210089 -0.122897
0.587198 -1.210090 -0.122954
0.587203 -1.210091 -0.123011
0.587208 -1.210092 -0.123068
0.587213 -1.210093 -0.123124
0.587218 -1.210094 -0.123181
0.587223 -1.210094 -0.123238
0.587228 -1.210095 -0.123295
0.587233 -1.210096 -0.123352
0.587238 -1.210096 -0.123409
0.587243 -1.210097 -0.123466
0.587248 -1.210098 -0.123523
0.587253 -1.210098 -0.123580
0.587258 -1.210099 -0.123636
0.587263 -1.210100 -0.123693
0.587268 -1.210100 -0.123750
0.587273 -1.210101 -0.123807
0.587278 -1.210101 -0.123864
0.587283 -1.210102 -0.123921
0.587288 -1.210103 -0.123978
0.587292 -1.210103 -0.124035
0.587297 -1.210103 -0.124092
0.587302 -1.210104 -0.124149
0.587307 -1.210104 -0.124205
0.587312 -1.210105 -0.124262
0.587317 -1.210105 -0.124319
0.587322 -1.210106 -0.124376
0.587326 -1.210106 -0.124433
0.587331 -1.210106 -0.124490
0.587336 -1.210107 -0.124547
0.587341 -1.210107 -0.124604
0.587346 -1.210107 -0.124661
0.587350 -1.210108 -0.124717
0.587355 -1.210108 -0.124774
0.587360 -1.210108 -0.124831
0.587365 -1.210108 -0.124888
0.587369 -1.210109 -0.124945
0.587374 -1.210109 -0.125002
0.587379 -1.210109 -0.125059
0.587383 -1.210109 -0.125116
0.587388 -1.210109 -0.125172
0.587393 -1.210109 -0.125229
0.587398 -1.210109 -0.125286
0.587402 -1.210110 -0.125343
0.587407 -1.210110 -0.125400
0.587412 -1.210110 -0.125457
0.587416 -1.210110 -0.125514
0.587421 -1.210110 -0.125571
0.587425 -1.210110 -0.125628
0.587430 -1.210110 -0.125684
0.587435 -1.210110 -0.125741
0.587439 -1.210110 -0.125798
0.587444 -1.210110 -0.125855
0.587448 -1.210110 -0.125912
0.587453 -1.210109 -0.125969
0.587458 -1.210109 -0.126026
0.587462 -1.210109 -0.126083
0.587467 -1.210109 -0.126139
0.587471 -1.210109 -0.126196
0.587476 -1.210109 -0.126253
0.587480 -1.210108 -0.126310
0.587485 -1.210108 -0.126367
0.587489 -1.210108 -0.126424
0.587494 -1.210108 -0.126481
0.587498 -1.210108 -0.126538
0.587503 -1.210107 -0.126594
0.587507 -1.210107 -0.126651
0.587512 -1.210107 -0.126708
0.587516 -1.210106 -0.126765
0.587521 -1.210106 -0.126822
0.587525 -1.210106 -0.126879
0.587530 -1.210105 -0.126936
0.587534 -1.210105 -0.126993
0.587538 -1.210104 -0.127049
0.587543 -1.210104 -0.127106
0.587547 -1.210104 -0.127163
0.587552 -1.210103 -0.127220
0.587556 -1.210103 -0.127277
0.587560 -1.210102 -0.127334
0.587565 -1.210102 -0.127391
0.587569 -1.210101 -0.127447
0.587574 -1.210101 -0.127504
0.587578 -1.210100 -0.127561
0.587582 -1.210099 -0.127618
0.587587 -1.210099 -0.127675
0.587591 -1.210098 -0.127732
0.587595 -1.210098 -0.127789
0.587600 -1.210097 -0.127846
0.587604 -1.210096 -0.127902
0.587608 -1.210096 -0.127959
0.587612 -1.210095 -0.128016
0.587617 -1.210094 -0.128073
0.587621 -1.210094 -0.128130
0.587625 -1.210093 -0.128187
0.587630 -1.210092 -0.128244
0.587634 -1.210092 -0.128300
0.587638 -1.210091 -0.128357
0.587642 -1.210090 -0.128414
0.587646 -1.210089 -0.128471
0.587651 -1.210088 -0.128528
0.587655 -1.210088 -0.128585
0.587659 -1.210087 -0.128642
0.587663 -1.210086 -0.128698
0.587668 -1.210085 -0.128755
0.587672 -1.210084 -0.128812
0.587676 -1.210083 -0.128869
0.587680 -1.210082 -0.128926
0.587684 -1.210081 -0.128983
0.587688 -1.210081 -0.129040
0.587693 -1.210080 -0.129097
0.587697 -1.210079 -0.129153
0.587701 -1.210078 -0.129210
0.587705 -1.210077 -0.129267
0.587709 -1.210076 -0.129324
0.587713 -1.210075 -0.129381
0.587717 -1.210074 -0.129438
0.587721 -1.210073 -0.129494
0.587725 -1.210071 -0.129551
0.587730 -1.210070 -0.129608
0.587734 -1.210069 -0.129665
0.587738 -1.210068 -0.129722
0.587742 -1.210067 -0.129779
0.587746 -1.210066 -0.129836
0.587750 -1.210065 -0.129892
0.587754 -1.210064 -0.129949
0.587758 -1.210063 -0.130006
0.587762 -1.210061 -0.130063
0.587766 -1.210060 -0.130120
0.587770 -1.210059 -0.130177
0.587774 -1.210058 -0.130234
0.587778 -1.210056 -0.130290
0.587782 -1.210055 -0.130347
0.587786 -1.210054 -0.130404
0.587790 -1.210053 -0.130461
0.587794 -1.210051 -0.130518
0.587798 -1.210050 -0.130575
0.587802 -1.210049 -0.130632
0.587806 -1.210047 -0.130688
0.587810 -1.210046 -0.130745
0.587814 -1.210045 -0.130802
0.587818 -1.210043 -0.130859
0.587822 -1.210042 -0.130916
0.587825 -1.210041 -0.130973
0.587829 -1.210039 -0.131029
0.587833 -1.210038 -0.131086
0.587837 -1.210036 -0.131143
0.587841 -1.210035 -0.131200
0.587845 -1.210033 -0.131257
0.587849 -1.210032 -0.131314
0.587853 -1.210030 -0.131371
0.587857 -1.210029 -0.131427
0.587860 -1.210027 -0.131484
0.587864 -1.210026 -0.131541
0.587868 -1.210024 -0.131598
0.587872 -1.210023 -0.131655
0.587876 -1.210021 -0.131712
0.587880 -1.210020 -0.131768
0.587884 -1.210018 -0.131825
0.587887 -1.210017 -0.131882
0.587891 -1.210015 -0.131939
0.587895 -1.210013 -0.131996
0.587899 -1.210012 -0.132053
0.587903 -1.210010 -0.132109
0.587906 -1.210008 -0.132166
0.587910 -1.210007 -0.132223
0.587914 -1.210005 -0.132280
0.587918 -1.210003 -0.132337
0.587921 -1.210002 -0.132394
0.587925 -1.210000 -0.132450
0.587929 -1.209998 -0.132507
0.587933 -1.209996 -0.132564
0.587936 -1.209995 -0.132621
0.587940 -1.209993 -0.132678
0.587944 -1.209991 -0.132735
0.587948 -1.209989 -0.132792
0.587951 -1.209988 -0.132848
0.587955 -1.209986 -0.132905
0.587959 -1.209984 -0.132962
0.587962 -1.209982 -0.133019
0.587966 -1.209980 -0.133076
0.587970 -1.209978 -0.133133
0.587973 -1.209976 -0.133189
0.587977 -1.209975 -0.133246
0.587981 -1.209973 -0.133303
0.587984 -1.209971 -0.133360
0.587988 -1.209969 -0.133417
0.587992 -1.209967 -0.133474
0.587995 -1.209965 -0.133530
0.587999 -1.209963 -0.133587
0.588003 -1.209961 -0.133644
0.588006 -1.209959 -0.133701
0.588010 -1.209957 -0.133758
0.588014 -1.209955 -0.133814
0.588017 -1.209953 -0.133871
0.588021 -1.209951 -0.133928
0.588024 -1.209949 -0.133985
0.588028 -1.209947 -0.134042
0.588032 -1.209945 -0.134099
0.588035 -1.209943 -0.134155
0.588039 -1.209941 -0.134212
0.588042 -1.209939 -0.134269
0.588046 -1.209937 -0.134326
0.588049 -1.209935 -0.134383
0.588053 -1.209933 -0.134440
0.588057 -1.209930 -0.134496
0.588060 -1.209928 -0.134553
0.588064 -1.209926 -0.134610
0.588067 -1.209924 -0.134667
0.588071 -1.209922 -0.134724
0.588074 -1.209920 -0.134781
0.588078 -1.209917 -0.134837
0.588081 -1.209915 -0.134894
0.588085 -1.209913 -0.134951
0.588088 -1.209911 -0.135008
0.588092 -1.209909 -0.135065
0.588095 -1.209906 -0.135121
0.588099 -1.209904 -0.135178
0.588102 -1.209902 -0.135235
0.588106 -1.209900 -0.135292
0.588109 -1.209897 -0.135349
0.588113 -1.209895 -0.135406
0.588116 -1.209893 -0.135462
0.588120 -1.209890 -0.135519
0.588123 -1.209888 -0.135576
0.588126 -1.209886 -0.135633
0.588130 -1.209883 -0.135690
0.588133 -1.209881 -0.135746
0.588137 -1.209879 -0.135803
0.588140 -1.209876 -0.135860
0.588144 -1.209874 -0.135917
0.588147 -1.209871 -0.135974
0.588150 -1.209869 -0.136031
0.588154 -1.209867 -0.136087
0.588157 -1.209864 -0.136144
0.588161 -1.209862 -0.136201
0.588164 -1.209859 -0.136258
0.588167 -1.209857 -0.136315
0.588171 -1.209854 -0.136371
0.588174 -1.209852 -0.136428
0.588178 -1.209850 -0.136485
0.588181 -1.209847 -0.136542
0.588184 -1.209845 -0.136599
0.588188 -1.209842 -0.136656
0.588191 -1.209840 -0.136712
0.588194 -1.209837 -0.136769
0.588198 -1.209834 -0.136826
0.588201 -1.209832 -0.136883
0.588204 -1.209829 -0.136940
0.588208 -1.209827 -0.136996
0.588211 -1.209824 -0.137053
0.588214 -1.209822 -0.137110
0.588218 -1.209819 -0.137167
0.588221 -1.209816 -0.137224
0.588224 -1.209814 -0.137280
0.588228 -1.209811 -0.137337
0.588231 -1.209809 -0.137394
0.588234 -1.209806 -0.137451
0.588237 -1.209803 -0.137508
0.588241 -1.209801 -0.137564
0.588244 -1.209798 -0.137621
0.588247 -1.209795 -0.137678
0.588250 -1.209793 -0.137735
0.588254 -1.209790 -0.137792
0.588257 -1.209787 -0.137849
0.588260 -1.209784 -0.137905
0.588263 -1.209782 -0.137962
0.588267 -1.209779 -0.138019
0.588270 -1.209776 -0.138076
0.588273 -1.209774 -0.138133
0.588276 -1.209771 -0.138189
0.588280 -1.209768 -0.138246
0.588283 -1.209765 -0.138303
0.588286 -1.209762 -0.138360
0.588289 -1.209760 -0.138417
0.588293 -1.209757 -0.138473
0.588296 -1.209754 -0.138530
0.588299 -1.209751 -0.138587
0.588302 -1.209748 -0.138644
0.588305 -1.209746 -0.138701
0.588308 -1.209743 -0.138757
0.588312 -1.209740 -0.138814
0.588315 -1.209737 -0.138871
0.588318 -1.209734 -0.138928
0.588321 -1.209731 -0.138985
0.588324 -1.209728 -0.139041
0.588328 -1.209725 -0.139098
0.588331 -1.209723 -0.139155
0.588334 -1.209720 -0.139212
0.588337 -1.209717 -0.139269
0.588340 -1.209714 -0.139325
0.588343 -1.209711 -0.139382
0.588346 -1.209708 -0.139439
0.588349 -1.209705 -0.139496
0.588353 -1.209702 -0.139553
0.588356 -1.209699 -0.139609
0.588359 -1.209696 -0.139666
0.588362 -1.209693 -0.139723
0.588365 -1.209690 -0.139780
0.588368 -1.209687 -0.139837
0.588371 -1.209684 -0.139893
0.588374 -1.209681 -0.139950
0.588377 -1.209678 -0.140007
0.588381 -1.209675 -0.140064
0.588384 -1.209672 -0.140120
0.588387 -1.209669 -0.140177
0.588390 -1.209666 -0.140234
0.588393 -1.209663 -0.140291
0.588396 -1.209660 -0.140348
0.588399 -1.209657 -0.140404
0.588402 -1.209654 -0.140461
0.588405 -1.209650 -0.140518
0.588408 -1.209647 -0.140575
0.588411 -1.209644 -0.140632
0.588414 -1.209641 -0.140688
0.588417 -1.209638 -0.140745
0.588420 -1.209635 -0.140802
0.588423 -1.209632 -0.140859
0.588426 -1.209629 -0.140916
0.588429 -1.209625 -0.140972
0.588432 -1.209622 -0.141029
0.588435 -1.209619 -0.141086
0.588438 -1.209616 -0.141143
0.588442 -1.209613 -0.141199
0.588445 -1.209609 -0.141256
0.588448 -1.209606 -0.141313
0.588451 -1.209603 -0.141370
0.588454 -1.209600 -0.141427
0.588456 -1.209597 -0.141483
0.588459 -1.209593 -0.141540
0.588462 -1.209590 -0.141597
0.588465 -1.209587 -0.141654
0.588468 -1.209584 -0.141711
0.588471 -1.209580 -0.141767
0.588474 -1.209577 -0.141824
0.588477 -1.209574 -0.141881
0.588480 -1.209570 -0.141938
0.588483 -1.209567 -0.141994
0.588486 -1.209564 -0.142051
0.588489 -1.209561 -0.142108
0.588492 -1.209557 -0.142165
0.588495 -1.209554 -0.142222
0.588498 -1.209551 -0.142278
0.588501 -1.209547 -0.142335
0.588504 -1.209544 -0.142392
0.588507 -1.209541 -0.142449
0.588510 -1.209537 -0.142505
0.588513 -1.209534 -0.142562
0.588516 -1.209531 -0.142619
0.588518 -1.209527 -0.142676
0.588521 -1.209524 -0.142733
0.588524 -1.209520 -0.142789
0.588527 -1.209517 -0.142846
0.588530 -1.209514 -0.142903
0.588533 -1.209510 -0.142960
0.588536 -1.209507 -0.143016
0.588539 -1.209503 -0.143073
0.588542 -1.209500 -0.143130
0.588545 -1.209496 -0.143187
0.588547 -1.209493 -0.143244
0.588550 -1.209490 -0.143300
0.588553 -1.209486 -0.143357
0.588556 -1.209483 -0.143414
0.588559 -1.209479 -0.143471
0.588562 -1.209476 -0.143527
0.588565 -1.209472 -0.143584
0.588567 -1.209469 -0.143641
0.588570 -1.209465 -0.143698
0.588573 -1.209462 -0.143755
0.588576 -1.209458 -0.143811
0.588579 -1.209455 -0.143868
0.588582 -1.209451 -0.143925
0.588585 -1.209448 -0.143982
0.588587 -1.209444 -0.144038
0.588590 -1.209440 -0.144095
0.588593 -1.209437 -0.144152
0.588596 -1.209433 -0.144209
0.588599 -1.209430 -0.144265
0.588601 -1.209426 -0.144322
0.588604 -1.209423 -0.144379
0.588607 -1.209419 -0.144436
0.588610 -1.209415 -0.144493
0.588613 -1.209412 -0.144549
0.588615 -1.209408 -0.144606
0.588618 -1.209405 -0.144663
0.588621 -1.209401 -0.144720
0.588624 -1.209397 -0.144776
0.588627 -1.209394 -0.144833
0.588629 -1.209390 -0.144890
0.588632 -1.209387 -0.144947
0.588635 -1.209383 -0.145003
0.588638 -1.209379 -0.145060
0.588641 -1.209376 -0.145117
0.588643 -1.209372 -0.145174
0.588646 -1.209368 -0.145231
0.588649 -1.209365 -0.145287
0.588652 -1.209361 -0.145344
0.588654 -1.209357 -0.145401
0.588657 -1.209353 -0.145458
0.588660 -1.209350 -0.145514
0.588663 -1.209346 -0.145571
0.588665 -1.209342 -0.145628
0.588668 -1.209339 -0.145685
0.588671 -1.209335 -0.145741
0.588674 -1.209331 -0.145798
0.588676 -1.209327 -0.145855
0.588679 -1.209324 -0.145912
0.588682 -1.209320 -0.145968
0.588684 -1.209316 -0.146025
0.588687 -1.209312 -0.146082
0.588690 -1.209309 -0.146139
0.588693 -1.209305 -0.146195
0.588695 -1.209301 -0.146252
0.588698 -1.209297 -0.146309
0.588701 -1.209294 -0.146366
0.588703 -1.209290 -0.146423
0.588706 -1.209286 -0.146479
0.588709 -1.209282 -0.146536
0.588711 -1.209278 -0.146593
0.588714 -1.209275 -0.146650
0.588717 -1.209271 -0.146706
0.588720 -1.209267 -0.146763
0.588722 -1.209263 -0.146820
0.588725 -1.209259 -0.146877
0.588728 -1.209255 -0.146933
0.588730 -1.209251 -0.146990
0.588733 -1.209248 -0.147047
0.588736 -1.209244 -0.147104
0.588738 -1.209240 -0.147160
0.588741 -1.209236 -0.147217
0.588744 -1.209232 -0.147274
0.588746 -1.209228 -0.147331
0.588749 -1.209224 -0.147387
0.588752 -1.209220 -0.147444
0.588754 -1.209217 -0.147501
0.588757 -1.209213 -0.147558
0.588759 -1.209209 -0.147614
0.588762 -1.209205 -0.147671
0.588765 -1.209201 -0.147728
0.588767 -1.209197 -0.147785
0.588770 -1.209193 -0.147841
0.588773 -1.209189 -0.147898
0.588775 -1.209185 -0.147955
0.588778 -1.209181 -0.148012
0.588781 -1.209177 -0.148068
0.588783 -1.209173 -0.148125
0.588786 -1.209169 -0.148182
0.588788 -1.209165 -0.148239
0.588791 -1.209161 -0.148295
0.588794 -1.209157 -0.148352
0.588796 -1.209153 -0.148409
0.588799 -1.209149 -0.148466
0.588801 -1.209145 -0.148522
0.588804 -1.209141 -0.148579
0.588807 -1.209137 -0.148636
0.588809 -1.209133 -0.148693
0.588812 -1.209129 -0.148749
0.588814 -1.209125 -0.148806
0.588817 -1.209121 -0.148863
0.588820 -1.209117 -0.148920
0.588822 -1.209113 -0.148976
0.588825 -1.209109 -0.149033
0.588827 -1.209105 -0.149090
0.588830 -1.209101 -0.149147
0.588832 -1.209097 -0.149203
0.588835 -1.209093 -0.149260
0.588837 -1.209089 -0.149317
0.588840 -1.209085 -0.149374
0.588843 -1.209081 -0.149430
0.588845 -1.209077 -0.149487
0.588848 -1.209073 -0.149544
0.588850 -1.209069 -0.149600
0.588853 -1.209064 -0.149657
0.588855 -1.209060 -0.149714
0.588858 -1.209056 -0.149771
0.588860 -1.209052 -0.149827
0.588863 -1.209048 -0.149884
0.588866 -1.209044 -0.149941
0.588868 -1.209040 -0.149998
0.588871 -1.209036 -0.150054
0.588873 -1.209032 -0.150111
0.588876 -1.209027 -0.150168
0.588878 -1.209023 -0.150225
0.588881 -1.209019 -0.150281
0.588883 -1.209015 -0.150338
0.588886 -1.209011 -0.150395
0.588888 -1.209007 -0.150452
0.588891 -1.209002 -0.150508
0.588893 -1.208998 -0.150565
0.588896 -1.208994 -0.150622
0.588898 -1.208990 -0.150678
0.588901 -1.208986 -0.150735
0.588903 -1.208982 -0.150792
0.588906 -1.208977 -0.150849
0.588908 -1.208973 -0.150905
0.588911 -1.208969 -0.150962
0.588913 -1.208965 -0.151019
0.588916 -1.208961 -0.151076
0.588918 -1.208956 -0.151132
0.588921 -1.208952 -0.151189
0.588923 -1.208948 -0.151246
0.588926 -1.208944 -0.151303
0.588928 -1.208939 -0.151359
0.588931 -1.208935 -0.151416
0.588933 -1.208931 -0.151473
0.588936 -1.208927 -0.151529
0.588938 -1.208922 -0.151586
0.588941 -1.208918 -0.151643
0.588943 -1.208914 -0.151700
0.588945 -1.208910 -0.151756
0.588948 -1.208905 -0.151813
0.588950 -1.208901 -0.151870
0.588953 -1.208897 -0.151927
0.588955 -1.208893 -0.151983
0.588958 -1.208888 -0.152040
0.588960 -1.208884 -0.152097
0.588963 -1.208880 -0.152154
0.588965 -1.208875 -0.152210
0.588968 -1.208871 -0.152267
0.588970 -1.208867 -0.152324
0.588972 -1.208863 -0.152380
0.588975 -1.208858 -0.152437
0.588977 -1.208854 -0.152494
0.588980 -1.208850 -0.152551
0.588982 -1.208845 -0.152607
0.588985 -1.208841 -0.152664
0.588987 -1.208837 -0.152721
0.588989 -1.208832 -0.152777
0.588992 -1.208828 -0.152834
0.588994 -1.208824 -0.152891
0.588997 -1.208819 -0.152948
0.588999 -1.208815 -0.153004
0.589001 -1.208810 -0.153061
0.589004 -1.208806 -0.153118
0.589006 -1.208802 -0.153175
0.589009 -1.208797 -0.153231
0.589011 -1.208793 -0.153288
0.589014 -1.208789 -0.153345
0.589016 -1.208784 -0.153401
0.589018 -1.208780 -0.153458
0.589021 -1.208775 -0.153515
0.589023 -1.208771 -0.153572
0.589026 -1.208767 -0.153628
0.589028 -1.208762 -0.153685
0.589030 -1.208758 -0.153742
0.589033 -1.208753 -0.153798
0.589035 -1.208749 -0.153855
0.589037 -1.208745 -0.153912
0.589040 -1.208740 -0.153969
0.589042 -1.208736 -0.154025
0.589045 -1.208731 -0.154082
0.589047 -1.208727 -0.154139
0.589049 -1.208722 -0.154195
0.589052 -1.208718 -0.154252
0.589054 -1.208714 -0.154309
0.589056 -1.208709 -0.154366
0.589059 -1.208705 -0.154422
0.589061 -1.208700 -0.154479
0.589064 -1.208696 -0.154536
0.589066 -1.208691 -0.154592
0.589068 -1.208687 -0.154649
0.589071 -1.208682 -0.154706
0.589073 -1.208678 -0.154763
0.589075 -1.208673 -0.154819
0.589078 -1.208669 -0.154876
0.589080 -1.208664 -0.154933
0.589082 -1.208660 -0.154989
0.589085 -1.208655 -0.155046
0.589087 -1.208651 -0.155103
0.589089 -1.208646 -0.155160
0.589092 -1.208642 -0.155216
0.589094 -1.208637 -0.155273
0.589096 -1.208633 -0.155330
0.589099 -1.208628 -0.155386
0.589101 -1.208624 -0.155443
0.589103 -1.208619 -0.155500
0.589106 -1.208615 -0.155557
0.589108 -1.208610 -0.155613
0.589110 -1.208606 -0.155670
0.589113 -1.208601 -0.155727
0.589115 -1.208597 -0.155783
0.589117 -1.208592 -0.155840
0.589120 -1.208588 -0.155897
0.589122 -1.208583 -0.155954
0.589124 -1.208579 -0.156010
0.589127 -1.208574 -0.156067
0.589129 -1.208569 -0.156124
0.589131 -1.208565 -0.156180
0.589134 -1.208560 -0.156237
0.589136 -1.208556 -0.156294
0.589138 -1.208551 -0.156351
0.589140 -1.208547 -0.156407
0.589143 -1.208542 -0.156464
0.589145 -1.208537 -0.156521
0.589147 -1.208533 -0.156577
0.589150 -1.208528 -0.156634
0.589152 -1.208524 -0.156691
0.589154 -1.208519 -0.156747
0.589157 -1.208514 -0.156804
0.589159 -1.208510 -0.156861
0.589161 -1.208505 -0.156918
0.589163 -1.208501 -0.156974
0.589166 -1.208496 -0.157031
0.589168 -1.208491 -0.157088
0.589170 -1.208487 -0.157144
0.589172 -1.208482 -0.157201
0.589175 -1.208477 -0.157258
0.589177 -1.208473 -0.157314
0.589179 -1.208468 -0.157371
0.589182 -1.208464 -0.157428
0.589184 -1.208459 -0.157485
0.589186 -1.208454 -0.157541
0.589188 -1.208450 -0.157598
0.589191 -1.208445 -0.157655
0.589193 -1.208440 -0.157711
0.589195 -1.208436 -0.157768
0.589197 -1.208431 -0.157825
0.589200 -1.208426 -0.157881
0.589202 -1.208422 -0.157938
0.589204 -1.208417 -0.157995
0.589206 -1.208412 -0.158052
0.589209 -1.208408 -0.158108
0.589211 -1.208403 -0.158165
0.589213 -1.208398 -0.158222
0.589215 -1.208394 -0.158278
0.589218 -1.208389 -0.158335
0.589220 -1.208384 -0.158392
0.589222 -1.208380 -0.158448
0.589224 -1.208375 -0.158505
0.589227 -1.208370 -0.158562
0.589229 -1.208365 -0.158618
0.589231 -1.208361 -0.158675
0.589233 -1.208356 -0.158732
0.589236 -1.208351 -0.158789
0.589238 -1.208347 -0.158845
0.589240 -1.208342 -0.158902
0.589242 -1.208337 -0.158959
0.589245 -1.208332 -0.159015
0.589247 -1.208328 -0.159072
0.589249 -1.208323 -0.159129
0.589251 -1.208318 -0.159185
0.589253 -1.208314 -0.159242
0.589256 -1.208309 -0.159299
0.589258 -1.208304 -0.159355
0.589260 -1.208299 -0.159412
0.589262 -1.208295 -0.159469
0.589265 -1.208290 -0.159526
0.589267 -1.208285 -0.159582
0.589269 -1.208280 -0.159639
0.589271 -1.208276 -0.159696
0.589273 -1.208271 -0.159752
0.589276 -1.208266 -0.159809
0.589278 -1.208261 -0.159866
0.589280 -1.208257 -0.159922
0.589282 -1.208252 -0.159979
0.589284 -1.208247 -0.160036
0.589287 -1.208242 -0.160092
0.589289 -1.208237 -0.160149
0.589291 -1.208233 -0.160206
0.589293 -1.208228 -0.160262
0.589295 -1.208223 -0.160319
0.589298 -1.208218 -0.160376
0.589300 -1.208214 -0.160433
0.589302 -1.208209 -0.160489
0.589304 -1.208204 -0.160546
0.589306 -1.208199 -0.160603
0.589309 -1.208194 -0.160659
0.589311 -1.208190 -0.160716
0.589313 -1.208185 -0.160773
0.589315 -1.208180 -0.160829
0.589317 -1.208175 -0.160886
0.589319 -1.208170 -0.160943
0.589322 -1.208165 -0.160999
0.589324 -1.208161 -0.161056
0.589326 -1.208156 -0.161113
0.589328 -1.208151 -0.161169
0.589330 -1.208146 -0.161226
0.589332 -1.208141 -0.161283
0.589335 -1.208136 -0.161339
0.589337 -1.208132 -0.161396
0.589339 -1.208127 -0.161453
0.589341 -1.208122 -0.161509
0.589343 -1.208117 -0.161566
0.589345 -1.208112 -0.161623
0.589348 -1.208107 -0.161680
0.589350 -1.208103 -0.161736
0.589352 -1.208098 -0.161793
0.589354 -1.208093 -0.161850
0.589356 -1.208088 -0.161906
0.589358 -1.208083 -0.161963
0.589361 -1.208078 -0.162020
0.589363 -1.208073 -0.162076
0.589365 -1.208068 -0.162133
0.589367 -1.208064 -0.162190
0.589369 -1.208059 -0.162246
0.589371 -1.208054 -0.162303
0.589373 -1.208049 -0.162360
0.589376 -1.208044 -0.162416
0.589378 -1.208039 -0.162473
0.589380 -1.208034 -0.162530
0.589382 -1.208029 -0.162586
0.589384 -1.208025 -0.162643
0.589386 -1.208020 -0.162700
0.589388 -1.208015 -0.162756
0.589391 -1.208010 -0.162813
0.589393 -1.208005 -0.162870
0.589395 -1.208000 -0.162926
0.589397 -1.207995 -0.162983
0.589399 -1.207990 -0.163040
0.589401 -1.207985 -0.163096
0.589403 -1.207980 -0.163153
0.589405 -1.207975 -0.163210
0.589408 -1.207971 -0.163266
0.589410 -1.207966 -0.163323
0.589412 -1.207961 -0.163380
0.589414 -1.207956 -0.163436
0.589416 -1.207951 -0.163493
0.589418 -1.207946 -0.163550
0.589420 -1.207941 -0.163606
0.589422 -1.207936 -0.163663
0.589425 -1.207931 -0.163720
0.589427 -1.207926 -0.163776
0.589429 -1.207921 -0.163833
0.589431 -1.207916 -0.163890
0.589433 -1.207911 -0.163946
0.589435 -1.207906 -0.164003
0.589437 -1.207901 -0.164060
0.589439 -1.207896 -0.164116
0.589441 -1.207892 -0.164173
0.589444 -1.207887 -0.164230
0.589446 -1.207882 -0.164286
0.589448 -1.207877 -0.164343
0.589450 -1.207872 -0.164400
0.589452 -1.207867 -0.164456
0.589454 -1.207862 -0.164513
0.589456 -1.207857 -0.164570
0.589458 -1.207852 -0.164626
0.589460 -1.207847 -0.164683
0.589462 -1.207842 -0.164740
0.589465 -1.207837 -0.164796
0.589467 -1.207832 -0.164853
0.589469 -1.207827 -0.164910
0.589471 -1.207822 -0.164966
0.589473 -1.207817 -0.165023
0.589475 -1.207812 -0.165080
0.589477 -1.207807 -0.165136
0.589479 -1.207802 -0.165193
0.589481 -1.207797 -0.165250
0.589483 -1.207792 -0.165306
0.589485 -1.207787 -0.165363
0.589488 -1.207782 -0.165420
0.589490 -1.207777 -0.165476
0.589492 -1.207772 -0.165533
0.589494 -1.207767 -0.165590
0.589496 -1.207762 -0.165646
0.589498 -1.207757 -0.165703
0.589500 -1.207752 -0.165760
0.589502 -1.207747 -0.165816
0.589504 -1.207742 -0.165873
0.589506 -1.207737 -0.165930
0.589508 -1.207732 -0.165986
0.589510 -1.207727 -0.166043
0.589512 -1.207722 -0.166100
0.589515 -1.207717 -0.166156
0.589517 -1.207712 -0.166213
0.589519 -1.207707 -0.166269
0.589521 -1.207702 -0.166326
0.589523 -1.207697 -0.166383
0.589525 -1.207692 -0.166439
0.589527 -1.207686 -0.166496
0.589529 -1.207681 -0.166553
0.589531 -1.207676 -0.166609
0.589533 -1.207671 -0.166666
0.589535 -1.207666 -0.166723
0.589537 -1.207661 -0.166779
0.589539 -1.207656 -0.166836
0.589541 -1.207651 -0.166893
0.589543 -1.207646 -0.166949
0.589545 -1.207641 -0.167006
0.589547 -1.207636 -0.167063
0.589550 -1.207631 -0.167119
0.589552 -1.207626 -0.167176
0.589554 -1.207621 -0.167233
0.589556 -1.207616 -0.167289
0.589558 -1.207611 -0.167346
0.589560 -1.207606 -0.167403
0.589562 -1.207600 -0.167459
0.589564 -1.207595 -0.167516
0.589566 -1.207590 -0.167572
0.589568 -1.207585 -0.167629
0.589570 -1.207580 -0.167686
0.589572 -1.207575 -0.167742
0.589574 -1.207570 -0.167799
0.589576 -1.207565 -0.167856
0.589578 -1.207560 -0.167912
0.589580 -1.207555 -0.167969
0.589582 -1.207550 -0.168026
0.589584 -1.207545 -0.168082
0.589586 -1.207539 -0.168139
0.589588 -1.207534 -0.168196
0.589590 -1.207529 -0.168252
0.589592 -1.207524 -0.168309
0.589594 -1.207519 -0.168365
0.589596 -1.207514 -0.168422
0.589599 -1.207509 -0.168479
0.589601 -1.207504 -0.168535
0.589603 -1.207499 -0.168592
0.589605 -1.207493 -0.168649
0.589607 -1.207488 -0.168705
0.589609 -1.207483 -0.168762
0.589611 -1.207478 -0.168819
0.589613 -1.207473 -0.168875
0.589615 -1.207468 -0.168932
0.589617 -1.207463 -0.168989
0.589619 -1.207458 -0.169045
0.589621 -1.207452 -0.169102
0.589623 -1.207447 -0.169158
0.589625 -1.207442 -0.169215
0.589627 -1.207437 -0.169272
0.589629 -1.207432 -0.169328
0.589631 -1.207427 -0.169385
0.589633 -1.207422 -0.169442
0.589635 -1.207417 -0.169498
0.589637 -1.207411 -0.169555
0.589639 -1.207406 -0.169612
0.589641 -1.207401 -0.169668
0.589643 -1.207396 -0.169725
0.589645 -1.207391 -0.169782
0.589647 -1.207386 -0.169838
0.589649 -1.207381 -0.169895
0.589651 -1.207375 -0.169951
0.589653 -1.207370 -0.170008
0.589655 -1.207365 -0.170065
0.589657 -1.207360 -0.170121
0.589659 -1.207355 -0.170178
0.589661 -1.207350 -0.170235
0.589663 -1.207344 -0.170291
0.589665 -1.207339 -0.170348
0.589667 -1.207334 -0.170404
0.589669 -1.207329 -0.170461
0.589671 -1.207324 -0.170518
0.589673 -1.207319 -0.170574
0.589675 -1.207313 -0.170631
0.589677 -1.207308 -0.170688
0.589679 -1.207303 -0.170744
0.589681 -1.207298 -0.170801
0.589683 -1.207293 -0.170858
0.589685 -1.207288 -0.170914
0.589687 -1.207282 -0.170971
0.589689 -1.207277 -0.171027
0.589691 -1.207272 -0.171084
0.589693 -1.207267 -0.171141
0.589695 -1.207262 -0.171197
0.589697 -1.207256 -0.171254
0.589699 -1.207251 -0.171311
0.589701 -1.207246 -0.171367
0.589703 -1.207241 -0.171424
0.589705 -1.207236 -0.171480
0.589707 -1.207230 -0.171537
0.589709 -1.207225 -0.171594
0.589711 -1.207220 -0.171650
0.589713 -1.207215 -0.171707
0.589715 -1.207210 -0.171764
0.589717 -1.207204 -0.171820
0.589719 -1.207199 -0.171877
0.589721 -1.207194 -0.171933
0.589723 -1.207189 -0.171990
0.589725 -1.207184 -0.172047
0.589727 -1.207178 -0.172103
0.589729 -1.207173 -0.172160
0.589731 -1.207168 -0.172217
0.589732 -1.207163 -0.172273
0.589734 -1.207158 -0.172330
0.589736 -1.207152 -0.172386
0.589738 -1.207147 -0.172443
0.589740 -1.207142 -0.172500
0.589742 -1.207137 -0.172556
0.589744 -1.207131 -0.172613
0.589746 -1.207126 -0.172670
0.589748 -1.207121 -0.172726
0.589750 -1.207116 -0.172783
0.589752 -1.207111 -0.172839
0.589754 -1.207105 -0.172896
0.589756 -1.207100 -0.172953
0.589758 -1.207095 -0.173009
0.589760 -1.207090 -0.173066
0.589762 -1.207084 -0.173123
0.589764 -1.207079 -0.173179
0.589766 -1.207074 -0.173236
0.589768 -1.207069 -0.173292
0.589770 -1.207063 -0.173349
0.589772 -1.207058 -0.173406
0.589774 -1.207053 -0.173462
0.589776 -1.207048 -0.173519
0.589778 -1.207042 -0.173576
0.589780 -1.207037 -0.173632
0.589782 -1.207032 -0.173689
0.589784 -1.207027 -0.173745
0.589785 -1.207021 -0.173802
0.589787 -1.207016 -0.173859
0.589789 -1.207011 -0.173915
0.589791 -1.207006 -0.173972
0.589793 -1.207000 -0.174028
0.589795 -1.206995 -0.174085
0.589797 -1.206990 -0.174142
0.589799 -1.206985 -0.174198
0.589801 -1.206979 -0.174255
0.589803 -1.206974 -0.174312
0.589805 -1.206969 -0.174368
0.589807 -1.206964 -0.174425
0.589809 -1.206958 -0.174481
0.589811 -1.206953 -0.174538
0.589813 -1.206948 -0.174595
0.589815 -1.206942 -0.174651
0.589817 -1.206937 -0.174708
0.589819 -1.206932 -0.174764
0.589821 -1.206927 -0.174821
0.589822 -1.206921 -0.174878
0.589824 -1.206916 -0.174934
0.589826 -1.206911 -0.174991
0.589828 -1.206906 -0.175048
0.589830 -1.206900 -0.175104
0.589832 -1.206895 -0.175161
0.589834 -1.206890 -0.175217
0.589836 -1.206884 -0.175274
0.589838 -1.206879 -0.175331
0.589840 -1.206874 -0.175387
0.589842 -1.206869 -0.175444
0.589844 -1.206863 -0.175500
0.589846 -1.206858 -0.175557
0.589848 -1.206853 -0.175614
0.589850 -1.206847 -0.175670
0.589851 -1.206842 -0.175727
0.589853 -1.206837 -0.175783
0.589855 -1.206831 -0.175840
0.589857 -1.206826 -0.175897
0.589859 -1.206821 -0.175953
0.589861 -1.206816 -0.176010
0.589863 -1.206810 -0.176066
0.589865 -1.206805 -0.176123
0.589867 -1.206800 -0.176180
0.589869 -1.206794 -0.176236
0.589871 -1.206789 -0.176293
0.589873 -1.206784 -0.176349
0.589875 -1.206778 -0.176406
0.589877 -1.206773 -0.176463
0.589878 -1.206768 -0.176519
0.589880 -1.206763 -0.176576
0.589882 -1.206757 -0.176632
0.589884 -1.206752 -0.176689
0.589886 -1.206747 -0.176746
0.589888 -1.206741 -0.176802
0.589890 -1.206736 -0.176859
0.589892 -1.206731 -0.176915
0.589894 -1.206725 -0.176972
0.589896 -1.206720 -0.177029
0.589898 -1.206715 -0.177085
0.589900 -1.206709 -0.177142
0.589901 -1.206704 -0.177198
0.589903 -1.206699 -0.177255
0.589905 -1.206693 -0.177312
0.589907 -1.206688 -0.177368
0.589909 -1.206683 -0.177425
0.589911 -1.206677 -0.177481
0.589913 -1.206672 -0.177538
0.589915 -1.206667 -0.177595
0.589917 -1.206661 -0.177651
0.589919 -1.206656 -0.177708
0.589921 -1.206651 -0.177764
0.589922 -1.206645 -0.177821
0.589924 -1.206640 -0.177878
0.589926 -1.206635 -0.177934
0.589928 -1.206629 -0.177991
0.589930 -1.206624 -0.178047
0.589932 -1.206619 -0.178104
0.589934 -1.206613 -0.178161
0.589936 -1.206608 -0.178217
0.589938 -1.206603 -0.178274
0.589940 -1.206597 -0.178330
0.589942 -1.206592 -0.178387
0.589943 -1.206587 -0.178444
0.589945 -1.206581 -0.178500
0.589947 -1.206576 -0.178557
0.589949 -1.206570 -0.178613
0.589951 -1.206565 -0.178670
0.589953 -1.206560 -0.178727
0.589955 -1.206554 -0.178783
0.589957 -1.206549 -0.178840
0.589959 -1.206544 -0.178896
0.589961 -1.206538 -0.178953
0.589962 -1.206533 -0.179010
0.589964 -1.206528 -0.179066
0.589966 -1.206522 -0.179123
0.589968 -1.206517 -0.179179
0.589970 -1.206512 -0.179236
0.589972 -1.206506 -0.179292
0.589974 -1.206501 -0.179349
0.589976 -1.206495 -0.179406
0.589978 -1.206490 -0.179462
0.589980 -1.206485 -0.179519
0.589981 -1.206479 -0.179575
0.589983 -1.206474 -0.179632
0.589985 -1.206469 -0.179689
0.589987 -1.206463 -0.179745
0.589989 -1.206458 -0.179802
0.589991 -1.206452 -0.179858
0.589993 -1.206447 -0.179915
0.589995 -1.206442 -0.179972
0.589997 -1.206436 -0.180028
0.589998 -1.206431 -0.180085
0.590000 -1.206426 -0.180141
0.590002 -1.206420 -0.180198
0.590004 -1.206415 -0.180254
0.590006 -1.206409 -0.180311
0.590008 -1.206404 -0.180368
0.590010 -1.206399 -0.180424
0.590012 -1.206393 -0.180481
0.590013 -1.206388 -0.180537
0.590015 -1.206383 -0.180594
0.590017 -1.206377 -0.180651
0.590019 -1.206372 -0.180707
0.590021 -1.206366 -0.180764
0.590023 -1.206361 -0.180820
0.590025 -1.206356 -0.180877
0.590027 -1.206350 -0.180933
0.590029 -1.206345 -0.180990
0.590030 -1.206339 -0.181047
0.590032 -1.206334 -0.181103
0.590034 -1.206329 -0.181160
0.590036 -1.206323 -0.181216
0.590038 -1.206318 -0.181273
0.590040 -1.206312 -0.181330
0.590042 -1.206307 -0.181386
0.590044 -1.206302 -0.181443
0.590045 -1.206296 -0.181499
0.590047 -1.206291 -0.181556
0.590049 -1.206285 -0.181612
0.590051 -1.206280 -0.181669
0.590053 -1.206275 -0.181726
0.590055 -1.206269 -0.181782
0.590057 -1.206264 -0.181839
0.590059 -1.206258 -0.181895
0.590060 -1.206253 -0.181952
0.590062 -1.206248 -0.182008
0.590064 -1.206242 -0.182065
0.590066 -1.206237 -0.182122
0.590068 -1.206231 -0.182178
0.590070 -1.206226 -0.182235
0.590072 -1.206220 -0.182291
0.590074 -1.206215 -0.182348
0.590075 -1.206210 -0.182404
0.590077 -1.206204 -0.182461
0.590079 -1.206199 -0.182518
0.590081 -1.206193 -0.182574
0.590083 -1.206188 -0.182631
0.590085 -1.206183 -0.182687
0.590087 -1.206177 -0.182744
0.590088 -1.206172 -0.182801
0.590090 -1.206166 -0.182857
0.590092 -1.206161 -0.182914
0.590094 -1.206155 -0.182970
0.590096 -1.206150 -0.183027
0.590098 -1.206145 -0.183083
0.590100 -1.206139 -0.183140
0.590101 -1.206134 -0.183197
0.590103 -1.206128 -0.183253
0.590105 -1.206123 -0.183310
0.590107 -1.206117 -0.183366
0.590109 -1.206112 -0.183423
0.590111 -1.206107 -0.183479
0.590113 -1.206101 -0.183536
0.590115 -1.206096 -0.183592
0.590116 -1.206090 -0.183649
0.590118 -1.206085 -0.183706
0.590120 -1.206079 -0.183762
0.590122 -1.206074 -0.183819
0.590124 -1.206069 -0.183875
0.590126 -1.206063 -0.183932
0.590128 -1.206058 -0.183988
0.590129 -1.206052 -0.184045
0.590131 -1.206047 -0.184102
0.590133 -1.206041 -0.184158
0.590135 -1.206036 -0.184215
0.590137 -1.206031 -0.184271
0.590139 -1.206025 -0.184328
0.590140 -1.206020 -0.184384
0.590142 -1.206014 -0.184441
0.590144 -1.206009 -0.184498
0.590146 -1.206003 -0.184554
0.590148 -1.205998 -0.184611
0.590150 -1.205992 -0.184667
0.590152 -1.205987 -0.184724
0.590153 -1.205982 -0.184780
0.590155 -1.205976 -0.184837
0.590157 -1.205971 -0.184893
0.590159 -1.205965 -0.184950
0.590161 -1.205960 -0.185007
0.590163 -1.205954 -0.185063
0.590165 -1.205949 -0.185120
0.590166 -1.205943 -0.185176
0.590168 -1.205938 -0.185233
0.590170 -1.205932 -0.185289
0.590172 -1.205927 -0.185346
0.590174 -1.205922 -0.185403
0.590176 -1.205916 -0.185459
0.590177 -1.205911 -0.185516
0.590179 -1.205905 -0.185572
0.590181 -1.205900 -0.185629
0.590183 -1.205894 -0.185685
0.590185 -1.205889 -0.185742
0.590187 -1.205883 -0.185798
0.590189 -1.205878 -0.185855
0.590190 -1.205872 -0.185912
0.590192 -1.205867 -0.185968
0.590194 -1.205861 -0.186025
0.590196 -1.205856 -0.186081
0.590198 -1.205851 -0.186138
0.590200 -1.205845 -0.186194
0.590201 -1.205840 -0.186251
0.590203 -1.205834 -0.186307
0.590205 -1.205829 -0.186364
0.590207 -1.205823 -0.186421
0.590209 -1.205818 -0.186477
0.590211 -1.205812 -0.186534
0.590212 -1.205807 -0.186590
0.590214 -1.205801 -0.186647
0.590216 -1.205796 -0.186703
0.590218 -1.205790 -0.186760
0.590220 -1.205785 -0.186816
0.590222 -1.205779 -0.186873
0.590223 -1.205774 -0.186930
0.590225 -1.205768 -0.186986
0.590227 -1.205763 -0.187043
0.590229 -1.205758 -0.187099
0.590231 -1.205752 -0.187156
0.590233 -1.205747 -0.187212
0.590234 -1.205741 -0.187269
0.590236 -1.205736 -0.187325
0.590238 -1.205730 -0.187382
0.590240 -1.205725 -0.187438
0.590242 -1.205719 -0.187495
0.590244 -1.205714 -0.187552
0.590245 -1.205708 -0.187608
0.590247 -1.205703 -0.187665
0.590249 -1.205697 -0.187721
0.590251 -1.205692 -0.187778
0.590253 -1.205686 -0.187834
0.590255 -1.205681 -0.187891
0.590256 -1.205675 -0.187947
0.590258 -1.205670 -0.188004
0.590260 -1.205664 -0.188060
0.590262 -1.205659 -0.188117
0.590264 -1.205653 -0.188174
0.590266 -1.205648 -0.188230
0.590267 -1.205642 -0.188287
0.590269 -1.205637 -0.188343
0.590271 -1.205631 -0.188400
0.590273 -1.205626 -0.188456
0.590275 -1.205620 -0.188513
0.590277 -1.205615 -0.188569
0.590278 -1.205609 -0.188626
0.590280 -1.205604 -0.188682
0.590282 -1.205598 -0.188739
0.590284 -1.205593 -0.188796
0.590286 -1.205587 -0.188852
0.590288 -1.205582 -0.188909
0.590289 -1.205576 -0.188965
0.590291 -1.205571 -0.189022
0.590293 -1.205565 -0.189078
0.590295 -1.205560 -0.189135
0.590297 -1.205554 -0.189191
0.590298 -1.205549 -0.189248
0.590300 -1.205543 -0.189304
0.590302 -1.205538 -0.189361
0.590304 -1.205532 -0.189418
0.590306 -1.205527 -0.189474
0.590308 -1.205521 -0.189531
0.590309 -1.205516 -0.189587
0.590311 -1.205510 -0.189644
0.590313 -1.205505 -0.189700
0.590315 -1.205499 -0.189757
0.590317 -1.205494 -0.189813
0.590319 -1.205488 -0.189870
0.590320 -1.205483 -0.189926
0.590322 -1.205477 -0.189983
0.590324 -1.205472 -0.190039
0.590326 -1.205466 -0.190096
0.590328 -1.205461 -0.190153
0.590329 -1.205455 -0.190209
0.590331 -1.205450 -0.190266
0.590333 -1.205444 -0.190322
0.590335 -1.205439 -0.190379
0.590337 -1.205433 -0.190435
0.590339 -1.205428 -0.190492
0.590340 -1.205422 -0.190548
0.590342 -1.205417 -0.190605
0.590344 -1.205411 -0.190661
0.590346 -1.205406 -0.190718
0.590348 -1.205400 -0.190774
0.590349 -1.205395 -0.190831
0.590351 -1.205389 -0.190887
0.590353 -1.205384 -0.190944
0.590355 -1.205378 -0.191001
0.590357 -1.205373 -0.191057
0.590358 -1.205367 -0.191114
0.590360 -1.205362 -0.191170
0.590362 -1.205356 -0.191227
0.590364 -1.205351 -0.191283
0.590366 -1.205345 -0.191340
0.590368 -1.205340 -0.191396
0.590369 -1.205334 -0.191453
0.590371 -1.205329 -0.191509
0.590373 -1.205323 -0.191566
0.590375 -1.205318 -0.191622
0.590377 -1.205312 -0.191679
0.590378 -1.205306 -0.191735
0.590380 -1.205301 -0.191792
0.590382 -1.205295 -0.191848
0.590384 -1.205290 -0.191905
0.590386 -1.205284 -0.191962
0.590387 -1.205279 -0.192018
0.590389 -1.205273 -0.192075
0.590391 -1.205268 -0.192131
0.590393 -1.205262 -0.192188
0.590395 -1.205257 -0.192244
0.590396 -1.205251 -0.192301
0.590398 -1.205246 -0.192357
0.590400 -1.205240 -0.192414
0.590402 -1.205235 -0.192470
0.590404 -1.205229 -0.192527
0.590406 -1.205224 -0.192583
0.590407 -1.205218 -0.192640
0.590409 -1.205213 -0.192696
0.590411 -1.205207 -0.192753
0.590413 -1.205201 -0.192809
0.590415 -1.205196 -0.192866
0.590416 -1.205190 -0.192922
0.590418 -1.205185 -0.192979
0.590420 -1.205179 -0.193035
0.590422 -1.205174 -0.193092
0.590424 -1.205168 -0.193149
0.590425 -1.205163 -0.193205
0.590427 -1.205157 -0.193262
0.590429 -1.205152 -0.193318
0.590431 -1.205146 -0.193375
0.590433 -1.205141 -0.193431
0.590434 -1.205135 -0.193488
0.590436 -1.205129 -0.193544
0.590438 -1.205124 -0.193601
0.590440 -1.205118 -0.193657
0.590442 -1.205113 -0.193714
0.590443 -1.205107 -0.193770
0.590445 -1.205102 -0.193827
0.590447 -1.205096 -0.193883
0.590449 -1.205091 -0.193940
0.590451 -1.205085 -0.193996
0.590452 -1.205080 -0.194053
0.590454 -1.205074 -0.194109
0.590456 -1.205069 -0.194166
0.590458 -1.205063 -0.194222
0.590460 -1.205057 -0.194279
0.590461 -1.205052 -0.194335
0.590463 -1.205046 -0.194392
0.590465 -1.205041 -0.194448
0.590467 -1.205035 -0.194505
0.590469 -1.205030 -0.194561
0.590470 -1.205024 -0.194618
0.590472 -1.205019 -0.194674
0.590474 -1.205013 -0.194731
0.590476 -1.205008 -0.194788
0.590478 -1.205002 -0.194844
0.590479 -1.204996 -0.194901
0.590481 -1.204991 -0.194957
0.590483 -1.204985 -0.195014
0.590485 -1.204980 -0.195070
0.590487 -1.204974 -0.195127
0.590488 -1.204969 -0.195183
0.590490 -1.204963 -0.195240
0.590492 -1.204958 -0.195296
0.590494 -1.204952 -0.195353
0.590495 -1.204947 -0.195409
0.590497 -1.204941 -0.195466
0.590499 -1.204935 -0.195522
0.590501 -1.204930 -0.195579
0.590503 -1.204924 -0.195635
0.590504 -1.204919 -0.195692
0.590506 -1.204913 -0.195748
0.590508 -1.204908 -0.195805
0.590510 -1.204902 -0.195861
0.590512 -1.204897 -0.195918
0.590513 -1.204891 -0.195974
0.590515 -1.204885 -0.196031
0.590517 -1.204880 -0.196087
0.590519 -1.204874 -0.196144
0.590521 -1.204869 -0.196200
0.590522 -1.204863 -0.196257
0.590524 -1.204858 -0.196313
0.590526 -1.204852 -0.196370
0.590528 -1.204846 -0.196426
0.590530 -1.204841 -0.196483
0.590531 -1.204835 -0.196539
0.590533 -1.204830 -0.196596
0.590535 -1.204824 -0.196652
0.590537 -1.204819 -0.196709
0.590538 -1.204813 -0.196765
0.590540 -1.204808 -0.196822
0.590542 -1.204802 -0.196878
0.590544 -1.204796 -0.196935
0.590546 -1.204791 -0.196991
0.590547 -1.204785 -0.197048
0.590549 -1.204780 -0.197104
0.590551 -1.204774 -0.197161
0.590553 -1.204769 -0.197217
0.590555 -1.204763 -0.197274
0.590556 -1.204758 -0.197330
0.590558 -1.204752 -0.197387
0.590560 -1.204746 -0.197443
0.590562 -1.204741 -0.197500
0.590563 -1.204735 -0.197556
0.590565 -1.204730 -0.197613
0.590567 -1.204724 -0.197669
0.590569 -1.204719 -0.197726
0.590571 -1.204713 -0.197782
0.590572 -1.204707 -0.197839
0.590574 -1.204702 -0.197895
0.590576 -1.204696 -0.197952
0.590578 -1.204691 -0.198008
0.590580 -1.204685 -0.198065
0.590581 -1.204680 -0.198121
0.590583 -1.204674 -0.198178
0.590585 -1.204668 -0.198234
0.590587 -1.204663 -0.198291
0.590588 -1.204657 -0.198347
0.590590 -1.204652 -0.198404
0.590592 -1.204646 -0.198460
0.590594 -1.204641 -0.198517
0.590596 -1.204635 -0.198573
0.590597 -1.204629 -0.198630
0.590599 -1.204624 -0.198686
0.590601 -1.204618 -0.198743
0.590603 -1.204613 -0.198799
0.590604 -1.204607 -0.198856
0.590606 -1.204602 -0.198912
0.590608 -1.204596 -0.198969
0.590610 -1.204590 -0.199025
0.590612 -1.204585 -0.199082
0.590613 -1.204579 -0.199138
0.590615 -1.204574 -0.199195
0.590617 -1.204568 -0.199251
0.590619 -1.204563 -0.199308
0.590620 -1.204557 -0.199364
0.590622 -1.204551 -0.199421
0.590624 -1.204546 -0.199477
0.590626 -1.204540 -0.199534
0.590628 -1.204535 -0.199590
0.590629 -1.204529 -0.199647
0.590631 -1.204523 -0.199703
0.590633 -1.204518 -0.199760
0.590635 -1.204512 -0.199816
0.590636 -1.204507 -0.199873
0.590638 -1.204501 -0.199929
0.590640 -1.204496 -0.199986
0.590642 -1.204490 -0.200042
0.590644 -1.204484 -0.200099
0.590645 -1.204479 -0.200155
0.590647 -1.204473 -0.200212
0.590649 -1.204468 -0.200268
0.590651 -1.204462 -0.200324
0.590652 -1.204456 -0.200381
0.590654 -1.204451 -0.200437
0.590656 -1.204445 -0.200494
0.590658 -1.204440 -0.200550
0.590660 -1.204434 -0.200607
0.590661 -1.204429 -0.200663
0.590663 -1.204423 -0.200720
0.590665 -1.204417 -0.200776
0.590667 -1.204412 -0.200833
0.590668 -1.204406 -0.200889
0.590670 -1.204401 -0.200946
0.590672 -1.204395 -0.201002
0.590674 -1.204389 -0.201059
0.590676 -1.204384 -0.201115
0.590677 -1.204378 -0.201172
0.590679 -1.204373 -0.201228
0.590681 -1.204367 -0.201285
0.590683 -1.204362 -0.201341
0.590684 -1.204356 -0.201398
0.590686 -1.204350 -0.201454
0.590688 -1.204345 -0.201511
0.590690 -1.204339 -0.201567
0.590692 -1.204334 -0.201624
0.590693 -1.204328 -0.201680
0.590695 -1.204322 -0.201737
0.590697 -1.204317 -0.201793
0.590699 -1.204311 -0.201850
0.590700 -1.204306 -0.201906
0.590702 -1.204300 -0.201962
0.590704 -1.204294 -0.202019
0.590706 -1.204289 -0.202075
0.590707 -1.204283 -0.202132
0.590709 -1.204278 -0.202188
0.590711 -1.204272 -0.202245
0.590713 -1.204266 -0.202301
0.590715 -1.204261 -0.202358
0.590716 -1.204255 -0.202414
0.590718 -1.204250 -0.202471
0.590720 -1.204244 -0.202527
0.590722 -1.204239 -0.202584
0.590723 -1.204233 -0.202640
0.590725 -1.204227 -0.202697
0.590727 -1.204222 -0.202753
0.590729 -1.204216 -0.202810
0.590730 -1.204211 -0.202866
0.590732 -1.204205 -0.202923
0.590734 -1.204199 -0.202979
0.590736 -1.204194 -0.203035
