-0.010502 -0.059536 -0.000765
0.029843 -0.050355 -0.000892
0.010952 -0.118928 -0.001746
0.059553 -0.096748 -0.001756
0.030041 -0.177436 -0.002726
0.089336 -0.139154 -0.002589
0.046754 -0.235346 -0.003708
0.119253 -0.177781 -0.003395
0.061318 -0.292667 -0.004692
0.149080 -0.213263 -0.004176
0.074353 -0.348940 -0.005671
0.178218 -0.246768 -0.004945
0.086872 -0.403194 -0.006636
0.205812 -0.279789 -0.005714
0.099988 -0.454265 -0.007576
0.231123 -0.313569 -0.006493
0.114425 -0.501378 -0.008482
0.253882 -0.348586 -0.007288
0.130269 -0.544473 -0.009355
0.274290 -0.384575 -0.008096
0.147145 -0.584017 -0.010199
0.292763 -0.420937 -0.008912
0.164558 -0.620620 -0.011020
0.309700 -0.457096 -0.009730
0.182097 -0.654799 -0.011822
0.325400 -0.492634 -0.010547
0.199484 -0.686918 -0.012609
0.340060 -0.527291 -0.011360
0.216547 -0.717221 -0.013384
0.353811 -0.560920 -0.012168
0.233192 -0.745868 -0.014147
0.366739 -0.593446 -0.012969
0.249366 -0.772974 -0.014901
0.378905 -0.624837 -0.013764
0.265044 -0.798624 -0.015644
0.390357 -0.655087 -0.014553
0.280216 -0.822890 -0.016379
0.401131 -0.684204 -0.015334
0.294882 -0.845834 -0.017105
0.411264 -0.712208 -0.016109
0.309047 -0.867514 -0.017822
0.420786 -0.739121 -0.016878
0.322719 -0.887986 -0.018532
0.429727 -0.764973 -0.017639
0.335908 -0.907305 -0.019235
0.438117 -0.789793 -0.018395
0.348625 -0.925525 -0.019930
0.445987 -0.813612 -0.019144
0.360884 -0.942700 -0.020618
0.453364 -0.836462 -0.019887
0.372696 -0.958885 -0.021300
0.460279 -0.858376 -0.020623
0.384074 -0.974135 -0.021976
0.466760 -0.879386 -0.021355
0.395031 -0.988503 -0.022646
0.472838 -0.899524 -0.022080
0.405577 -1.002045 -0.023311
0.478542 -0.918821 -0.022800
0.415726 -1.014816 -0.023971
0.483903 -0.937308 -0.023514
0.425487 -1.026870 -0.024626
0.488948 -0.955013 -0.024223
0.434870 -1.038261 -0.025277
0.493709 -0.971965 -0.024927
0.443886 -1.049043 -0.025924
0.498214 -0.988191 -0.025626
0.452543 -1.059268 -0.026568
0.502492 -1.003717 -0.026321
0.460850 -1.068986 -0.027208
0.506569 -1.018566 -0.027010
0.468813 -1.078246 -0.027846
0.510472 -1.032762 -0.027694
0.476442 -1.087095 -0.028481
0.514225 -1.046328 -0.028374
0.483744 -1.095575 -0.029114
0.517851 -1.059286 -0.029050
0.490725 -1.103727 -0.029745
0.521370 -1.071656 -0.029721
0.497395 -1.111585 -0.030374
0.524801 -1.083460 -0.030388
0.503762 -1.119183 -0.031002
0.528159 -1.094719 -0.031051
0.509834 -1.126548 -0.031628
0.531456 -1.105454 -0.031709
0.515621 -1.133703 -0.032254
0.534703 -1.115686 -0.032364
0.521135 -1.140667 -0.032878
0.537907 -1.125436 -0.033015
0.526385 -1.147457 -0.033502
0.541074 -1.134728 -0.033663
0.531384 -1.154083 -0.034125
0.544206 -1.143581 -0.034307
0.536143 -1.160554 -0.034747
0.547305 -1.152019 -0.034947
0.540676 -1.166876 -0.035368
0.550372 -1.160062 -0.035585
0.544995 -1.173053 -0.035988
0.553404 -1.167733 -0.036219
0.549113 -1.179087 -0.036608
0.556399 -1.175052 -0.036851
0.553042 -1.184978 -0.037226
0.559354 -1.182039 -0.037480
0.556795 -1.190727 -0.037844
0.562268 -1.188714 -0.038107
0.560382 -1.196332 -0.038461
0.565136 -1.195094 -0.038732
0.563815 -1.201794 -0.039077
0.567955 -1.201198 -0.039354
0.567105 -1.207111 -0.039692
0.570723 -1.207042 -0.039974
0.570261 -1.212282 -0.040306
0.573437 -1.212641 -0.040592
0.573293 -1.217308 -0.040919
0.576096 -1.218008 -0.041208
0.576208 -1.222189 -0.041531
0.578697 -1.223157 -0.041823
0.579014 -1.226924 -0.042142
0.581239 -1.228101 -0.042436
0.581718 -1.231515 -0.042751
0.583721 -1.232849 -0.043047
0.584326 -1.235964 -0.043360
0.586143 -1.237412 -0.043657
0.586844 -1.240271 -0.043968
0.588505 -1.241800 -0.044266
0.589278 -1.244440 -0.044574
0.590806 -1.246020 -0.044873
0.591631 -1.248472 -0.045180
0.593048 -1.250081 -0.045479
0.593908 -1.252370 -0.045785
0.595230 -1.253990 -0.046084
0.596112 -1.256136 -0.046388
0.597354 -1.257754 -0.046687
0.598248 -1.259775 -0.046990
0.599420 -1.261377 -0.047290
0.600319 -1.263288 -0.047592
0.601430 -1.264868 -0.047891
0.602326 -1.266680 -0.048192
0.603384 -1.268229 -0.048491
0.604274 -1.269952 -0.048792
0.605285 -1.271467 -0.049091
0.606164 -1.273110 -0.049390
0.607133 -1.274586 -0.049689
0.607998 -1.276155 -0.049988
0.608930 -1.277590 -0.050286
0.609779 -1.279091 -0.050585
0.610677 -1.280484 -0.050882
0.611509 -1.281922 -0.051181
0.612376 -1.283271 -0.051478
0.613190 -1.284650 -0.051775
0.614027 -1.285956 -0.052072
0.614822 -1.287278 -0.052370
0.615633 -1.288540 -0.052666
0.616409 -1.289810 -0.052963
0.617195 -1.291029 -0.053259
0.617952 -1.292248 -0.053555
0.618713 -1.293425 -0.053851
0.619451 -1.294596 -0.054147
0.620190 -1.295731 -0.054442
0.620909 -1.296856 -0.054738
0.621626 -1.297949 -0.055033
0.622326 -1.299031 -0.055328
0.623023 -1.300084 -0.055623
0.623705 -1.301124 -0.055917
0.624382 -1.302138 -0.056212
0.625046 -1.303137 -0.056506
0.625705 -1.304112 -0.056800
0.626351 -1.305072 -0.057094
0.626991 -1.306010 -0.057388
0.627620 -1.306933 -0.057681
0.628243 -1.307834 -0.057974
0.628856 -1.308720 -0.058268
0.629462 -1.309587 -0.058561
0.630058 -1.310438 -0.058854
0.630648 -1.311270 -0.059146
0.631228 -1.312087 -0.059439
0.631802 -1.312887 -0.059731
0.632367 -1.313670 -0.060023
0.632926 -1.314438 -0.060316
0.633477 -1.315190 -0.060607
0.634020 -1.315926 -0.060899
0.634557 -1.316647 -0.061191
0.635086 -1.317353 -0.061482
0.635608 -1.318044 -0.061774
0.636124 -1.318720 -0.062065
0.636633 -1.319383 -0.062356
0.637135 -1.320031 -0.062647
0.637631 -1.320665 -0.062937
0.638120 -1.321286 -0.063228
0.638603 -1.321893 -0.063519
0.639080 -1.322487 -0.063809
0.639550 -1.323067 -0.064099
0.640015 -1.323635 -0.064389
0.640473 -1.324191 -0.064679
0.640926 -1.324733 -0.064969
0.641373 -1.325264 -0.065259
0.641814 -1.325782 -0.065548
0.642250 -1.326289 -0.065838
0.642680 -1.326784 -0.066127
0.643105 -1.327267 -0.066416
0.643524 -1.327739 -0.066705
0.643939 -1.328200 -0.066994
0.644348 -1.328650 -0.067283
0.644752 -1.329089 -0.067571
0.645151 -1.329517 -0.067860
0.645544 -1.329935 -0.068148
0.645934 -1.330342 -0.068437
0.646318 -1.330739 -0.068725
0.646697 -1.331126 -0.069013
0.647072 -1.331504 -0.069301
0.647443 -1.331871 -0.069589
0.647809 -1.332229 -0.069876
0.648170 -1.332578 -0.070164
0.648527 -1.332917 -0.070452
0.648880 -1.333247 -0.070739
0.649228 -1.333568 -0.071026
0.649573 -1.333880 -0.071314
0.649913 -1.334184 -0.071601
0.650249 -1.334479 -0.071888
0.650581 -1.334765 -0.072174
0.650909 -1.335043 -0.072461
0.651234 -1.335313 -0.072748
0.651554 -1.335574 -0.073034
0.651871 -1.335828 -0.073321
0.652184 -1.336074 -0.073607
0.652493 -1.336312 -0.073893
0.652799 -1.336543 -0.074180
0.653101 -1.336766 -0.074466
0.653400 -1.336981 -0.074752
0.653696 -1.337189 -0.075037
0.653988 -1.337391 -0.075323
0.654276 -1.337585 -0.075609
0.654562 -1.337772 -0.075894
0.654844 -1.337952 -0.076180
0.655123 -1.338125 -0.076465
0.655399 -1.338292 -0.076751
0.655671 -1.338453 -0.077036
0.655941 -1.338607 -0.077321
0.656208 -1.338754 -0.077606
0.656472 -1.338895 -0.077891
0.656733 -1.339030 -0.078176
0.656991 -1.339159 -0.078460
0.657246 -1.339282 -0.078745
0.657498 -1.339400 -0.079030
0.657748 -1.339511 -0.079314
0.657995 -1.339617 -0.079598
0.658239 -1.339717 -0.079883
0.658481 -1.339811 -0.080167
0.658720 -1.339900 -0.080451
0.658956 -1.339984 -0.080735
0.659190 -1.340062 -0.081019
0.659422 -1.340135 -0.081303
0.659651 -1.340203 -0.081587
0.659878 -1.340266 -0.081870
0.660102 -1.340324 -0.082154
0.660324 -1.340377 -0.082438
0.660544 -1.340425 -0.082721
0.660762 -1.340468 -0.083004
0.660977 -1.340507 -0.083288
0.661190 -1.340541 -0.083571
0.661401 -1.340571 -0.083854
0.661610 -1.340596 -0.084137
0.661817 -1.340616 -0.084420
0.662022 -1.340633 -0.084703
0.662224 -1.340645 -0.084986
0.662425 -1.340652 -0.085269
0.662624 -1.340656 -0.085551
0.662820 -1.340655 -0.085834
0.663015 -1.340651 -0.086116
0.663208 -1.340642 -0.086399
0.663399 -1.340630 -0.086681
0.663588 -1.340613 -0.086964
0.663776 -1.340593 -0.087246
0.663962 -1.340569 -0.087528
0.664145 -1.340542 -0.087810
0.664328 -1.340510 -0.088092
0.664508 -1.340475 -0.088374
0.664687 -1.340437 -0.088656
0.664864 -1.340395 -0.088938
0.665040 -1.340350 -0.089219
0.665214 -1.340301 -0.089501
0.665386 -1.340249 -0.089783
0.665557 -1.340194 -0.090064
0.665726 -1.340136 -0.090345
0.665894 -1.340074 -0.090627
0.666060 -1.340009 -0.090908
0.666225 -1.339941 -0.091189
0.666388 -1.339871 -0.091470
0.666550 -1.339797 -0.091752
0.666711 -1.339720 -0.092033
0.666870 -1.339640 -0.092313
0.667028 -1.339558 -0.092594
0.667184 -1.339472 -0.092875
0.667339 -1.339384 -0.093156
0.667493 -1.339293 -0.093437
0.667645 -1.339199 -0.093717
0.667797 -1.339103 -0.093998
0.667947 -1.339004 -0.094278
0.668095 -1.338903 -0.094559
0.668243 -1.338799 -0.094839
0.668389 -1.338692 -0.095119
0.668535 -1.338583 -0.095399
0.668679 -1.338472 -0.095680
0.668822 -1.338358 -0.095960
0.668963 -1.338242 -0.096240
0.669104 -1.338123 -0.096520
0.669244 -1.338003 -0.096799
0.669382 -1.337880 -0.097079
0.669519 -1.337754 -0.097359
0.669656 -1.337627 -0.097639
0.669791 -1.337497 -0.097918
0.669926 -1.337366 -0.098198
0.670059 -1.337232 -0.098477
0.670191 -1.337096 -0.098757
0.670323 -1.336958 -0.099036
0.670453 -1.336818 -0.099316
0.670583 -1.336677 -0.099595
0.670711 -1.336533 -0.099874
0.670839 -1.336387 -0.100153
0.670965 -1.336240 -0.100432
0.671091 -1.336090 -0.100711
0.671216 -1.335939 -0.100990
0.671340 -1.335786 -0.101269
0.671464 -1.335631 -0.101548
0.671586 -1.335475 -0.101827
0.671708 -1.335317 -0.102105
0.671828 -1.335157 -0.102384
0.671948 -1.334995 -0.102663
0.672067 -1.334832 -0.102941
0.672186 -1.334667 -0.103220
0.672303 -1.334500 -0.103498
0.672420 -1.334332 -0.103776
0.672536 -1.334163 -0.104055
0.672652 -1.333992 -0.104333
0.672766 -1.333819 -0.104611
0.672880 -1.333645 -0.104889
0.672994 -1.333470 -0.105167
0.673106 -1.333293 -0.105445
0.673218 -1.333114 -0.105723
0.673329 -1.332935 -0.106001
0.673440 -1.332753 -0.106279
0.673550 -1.332571 -0.106557
0.673659 -1.332387 -0.106834
0.673767 -1.332202 -0.107112
0.673875 -1.332016 -0.107389
0.673983 -1.331828 -0.107667
0.674089 -1.331639 -0.107944
0.674195 -1.331449 -0.108222
0.674301 -1.331257 -0.108499
0.674406 -1.331065 -0.108777
0.674510 -1.330871 -0.109054
0.674614 -1.330676 -0.109331
0.674717 -1.330480 -0.109608
0.674820 -1.330283 -0.109885
0.674922 -1.330085 -0.110162
0.675024 -1.329885 -0.110439
0.675125 -1.329685 -0.110716
0.675226 -1.329483 -0.110993
0.675326 -1.329281 -0.111270
0.675425 -1.329077 -0.111546
0.675524 -1.328873 -0.111823
0.675623 -1.328667 -0.112100
0.675721 -1.328461 -0.112376
0.675819 -1.328253 -0.112653
0.675916 -1.328045 -0.112929
0.676012 -1.327835 -0.113206
0.676109 -1.327625 -0.113482
0.676204 -1.327414 -0.113758
0.676300 -1.327202 -0.114035
0.676395 -1.326988 -0.114311
0.676489 -1.326775 -0.114587
0.676583 -1.326560 -0.114863
0.676677 -1.326344 -0.115139
0.676770 -1.326128 -0.115415
0.676863 -1.325911 -0.115691
0.676955 -1.325693 -0.115967
0.677047 -1.325474 -0.116243
0.677139 -1.325254 -0.116518
0.677230 -1.325034 -0.116794
0.677321 -1.324813 -0.117070
0.677412 -1.324591 -0.117345
0.677502 -1.324368 -0.117621
0.677592 -1.324145 -0.117896
0.677681 -1.323921 -0.118172
0.677770 -1.323696 -0.118447
0.677859 -1.323471 -0.118723
0.677947 -1.323245 -0.118998
0.678035 -1.323018 -0.119273
0.678123 -1.322790 -0.119548
0.678210 -1.322562 -0.119823
0.678297 -1.322334 -0.120098
0.678384 -1.322104 -0.120373
0.678471 -1.321874 -0.120648
0.678557 -1.321644 -0.120923
0.678643 -1.321413 -0.121198
0.678728 -1.321181 -0.121473
0.678813 -1.320949 -0.121748
0.678898 -1.320716 -0.122022
0.678983 -1.320482 -0.122297
0.679067 -1.320248 -0.122572
0.679151 -1.320014 -0.122846
0.679235 -1.319779 -0.123121
0.679319 -1.319543 -0.123395
0.679402 -1.319307 -0.123670
0.679485 -1.319070 -0.123944
0.679568 -1.318833 -0.124218
0.679650 -1.318595 -0.124492
0.679733 -1.318357 -0.124767
0.679815 -1.318119 -0.125041
0.679897 -1.317879 -0.125315
0.679978 -1.317640 -0.125589
0.680059 -1.317400 -0.125863
0.680140 -1.317159 -0.126137
0.680221 -1.316919 -0.126411
0.680302 -1.316677 -0.126684
0.680382 -1.316435 -0.126958
0.680462 -1.316193 -0.127232
0.680542 -1.315951 -0.127506
0.680622 -1.315708 -0.127779
0.680702 -1.315464 -0.128053
0.680781 -1.315220 -0.128326
0.680860 -1.314976 -0.128600
0.680939 -1.314732 -0.128873
0.681018 -1.314487 -0.129146
0.681096 -1.314241 -0.129420
0.681174 -1.313996 -0.129693
0.681252 -1.313749 -0.129966
0.681330 -1.313503 -0.130239
0.681408 -1.313256 -0.130513
0.681486 -1.313009 -0.130786
0.681563 -1.312762 -0.131059
0.681640 -1.312514 -0.131332
0.681717 -1.312266 -0.131604
0.681794 -1.312017 -0.131877
0.681871 -1.311769 -0.132150
0.681947 -1.311520 -0.132423
0.682024 -1.311270 -0.132696
0.682100 -1.311021 -0.132968
0.682176 -1.310771 -0.133241
0.682252 -1.310520 -0.133513
0.682327 -1.310270 -0.133786
0.682403 -1.310019 -0.134058
0.682478 -1.309768 -0.134331
0.682554 -1.309517 -0.134603
0.682629 -1.309265 -0.134875
0.682704 -1.309013 -0.135148
0.682779 -1.308761 -0.135420
0.682853 -1.308509 -0.135692
0.682928 -1.308256 -0.135964
0.683002 -1.308003 -0.136236
0.683076 -1.307750 -0.136508
0.683151 -1.307497 -0.136780
0.683225 -1.307243 -0.137052
0.683298 -1.306989 -0.137324
0.683372 -1.306735 -0.137596
0.683446 -1.306481 -0.137867
0.683519 -1.306227 -0.138139
0.683593 -1.305972 -0.138411
0.683666 -1.305717 -0.138682
0.683739 -1.305462 -0.138954
0.683812 -1.305207 -0.139225
0.683885 -1.304951 -0.139497
0.683958 -1.304695 -0.139768
0.684030 -1.304440 -0.140040
0.684103 -1.304183 -0.140311
0.684175 -1.303927 -0.140582
0.684248 -1.303671 -0.140853
0.684320 -1.303414 -0.141125
0.684392 -1.303157 -0.141396
0.684464 -1.302900 -0.141667
0.684536 -1.302643 -0.141938
0.684608 -1.302386 -0.142209
0.684679 -1.302128 -0.142480
0.684751 -1.301871 -0.142751
0.684823 -1.301613 -0.143021
0.684894 -1.301355 -0.143292
0.684965 -1.301097 -0.143563
0.685037 -1.300839 -0.143834
0.685108 -1.300580 -0.144104
0.685179 -1.300322 -0.144375
0.685250 -1.300063 -0.144645
0.685321 -1.299804 -0.144916
0.685392 -1.299545 -0.145186
0.685462 -1.299286 -0.145456
0.685533 -1.299027 -0.145727
0.685603 -1.298768 -0.145997
0.685674 -1.298508 -0.146267
0.685744 -1.298249 -0.146538
0.685815 -1.297989 -0.146808
0.685885 -1.297729 -0.147078
0.685955 -1.297469 -0.147348
0.686025 -1.297209 -0.147618
0.686095 -1.296949 -0.147888
0.686165 -1.296689 -0.148158
0.686235 -1.296429 -0.148427
0.686305 -1.296168 -0.148697
0.686374 -1.295908 -0.148967
0.686444 -1.295647 -0.149237
0.686514 -1.295386 -0.149506
0.686583 -1.295125 -0.149776
0.686653 -1.294864 -0.150045
0.686722 -1.294603 -0.150315
0.686791 -1.294342 -0.150584
0.686860 -1.294081 -0.150854
0.686930 -1.293820 -0.151123
0.686999 -1.293558 -0.151393
0.687068 -1.293297 -0.151662
0.687137 -1.293035 -0.151931
0.687206 -1.292773 -0.152200
0.687275 -1.292512 -0.152469
0.687343 -1.292250 -0.152738
0.687412 -1.291988 -0.153007
0.687481 -1.291726 -0.153276
0.687550 -1.291464 -0.153545
0.687618 -1.291202 -0.153814
0.687687 -1.290940 -0.154083
0.687755 -1.290678 -0.154352
0.687824 -1.290415 -0.154620
0.687892 -1.290153 -0.154889
0.687960 -1.289891 -0.155158
0.688029 -1.289628 -0.155426
0.688097 -1.289366 -0.155695
0.688165 -1.289103 -0.155963
0.688233 -1.288840 -0.156232
0.688301 -1.288578 -0.156500
0.688369 -1.288315 -0.156769
0.688437 -1.288052 -0.157037
0.688505 -1.287789 -0.157305
0.688573 -1.287527 -0.157573
0.688641 -1.287264 -0.157841
0.688709 -1.287001 -0.158110
0.688777 -1.286738 -0.158378
0.688844 -1.286475 -0.158646
0.688912 -1.286212 -0.158914
0.688980 -1.285948 -0.159182
0.689047 -1.285685 -0.159449
0.689115 -1.285422 -0.159717
0.689182 -1.285159 -0.159985
0.689250 -1.284895 -0.160253
0.689317 -1.284632 -0.160520
0.689385 -1.284369 -0.160788
0.689452 -1.284105 -0.161056
0.689520 -1.283842 -0.161323
0.689587 -1.283579 -0.161591
0.689654 -1.283315 -0.161858
0.689721 -1.283052 -0.162125
0.689788 -1.282788 -0.162393
0.689856 -1.282524 -0.162660
0.689923 -1.282261 -0.162927
0.689990 -1.281997 -0.163195
0.690057 -1.281734 -0.163462
0.690124 -1.281470 -0.163729
0.690191 -1.281206 -0.163996
0.690258 -1.280943 -0.164263
0.690325 -1.280679 -0.164530
0.690392 -1.280415 -0.164797
0.690459 -1.280151 -0.165064
0.690525 -1.279888 -0.165330
0.690592 -1.279624 -0.165597
0.690659 -1.279360 -0.165864
0.690726 -1.279096 -0.166131
0.690792 -1.278832 -0.166397
0.690859 -1.278569 -0.166664
0.690926 -1.278305 -0.166930
0.690992 -1.278041 -0.167197
0.691059 -1.277777 -0.167463
0.691126 -1.277513 -0.167730
0.691192 -1.277249 -0.167996
0.691259 -1.276985 -0.168262
0.691325 -1.276721 -0.168529
0.691392 -1.276457 -0.168795
0.691458 -1.276194 -0.169061
0.691524 -1.275930 -0.169327
0.691591 -1.275666 -0.169593
0.691657 -1.275402 -0.169859
0.691724 -1.275138 -0.170125
0.691790 -1.274874 -0.170391
0.691856 -1.274610 -0.170657
0.691922 -1.274346 -0.170923
0.691989 -1.274082 -0.171188
0.692055 -1.273818 -0.171454
0.692121 -1.273554 -0.171720
0.692187 -1.273290 -0.171986
0.692254 -1.273026 -0.172251
0.692320 -1.272762 -0.172517
0.692386 -1.272498 -0.172782
0.692452 -1.272235 -0.173048
0.692518 -1.271971 -0.173313
0.692584 -1.271707 -0.173578
0.692650 -1.271443 -0.173844
0.692716 -1.271179 -0.174109
0.692782 -1.270915 -0.174374
0.692848 -1.270651 -0.174639
0.692914 -1.270387 -0.174904
0.692980 -1.270123 -0.175169
0.693046 -1.269860 -0.175435
0.693112 -1.269596 -0.175700
0.693178 -1.269332 -0.175964
0.693244 -1.269068 -0.176229
0.693309 -1.268804 -0.176494
0.693375 -1.268540 -0.176759
0.693441 -1.268277 -0.177024
0.693507 -1.268013 -0.177288
0.693573 -1.267749 -0.177553
0.693638 -1.267485 -0.177818
0.693704 -1.267221 -0.178082
0.693770 -1.266958 -0.178347
0.693836 -1.266694 -0.178611
0.693901 -1.266430 -0.178876
0.693967 -1.266167 -0.179140
0.694033 -1.265903 -0.179404
0.694098 -1.265639 -0.179669
0.694164 -1.265376 -0.179933
0.694230 -1.265112 -0.180197
0.694295 -1.264848 -0.180461
0.694361 -1.264585 -0.180725
0.694426 -1.264321 -0.180989
0.694492 -1.264058 -0.181253
0.694558 -1.263794 -0.181517
0.694623 -1.263530 -0.181781
0.694689 -1.263267 -0.182045
0.694754 -1.263003 -0.182309
0.694820 -1.262740 -0.182572
0.694885 -1.262477 -0.182836
0.694951 -1.262213 -0.183100
0.695016 -1.261950 -0.183363
0.695082 -1.261686 -0.183627
0.695147 -1.261423 -0.183891
0.695213 -1.261160 -0.184154
0.695278 -1.260896 -0.184417
0.695343 -1.260633 -0.184681
0.695409 -1.260370 -0.184944
0.695474 -1.260106 -0.185207
0.695539 -1.259843 -0.185471
0.695605 -1.259580 -0.185734
0.695670 -1.259317 -0.185997
0.695736 -1.259054 -0.186260
0.695801 -1.258791 -0.186523
0.695866 -1.258527 -0.186786
0.695931 -1.258264 -0.187049
0.695997 -1.258001 -0.187312
0.696062 -1.257738 -0.187575
0.696127 -1.257475 -0.187838
0.696193 -1.257212 -0.188101
0.696258 -1.256949 -0.188363
0.696323 -1.256686 -0.188626
0.696388 -1.256423 -0.188889
0.696454 -1.256161 -0.189151
0.696519 -1.255898 -0.189414
0.696584 -1.255635 -0.189676
0.696649 -1.255372 -0.189939
0.696714 -1.255109 -0.190201
0.696779 -1.254847 -0.190463
0.696845 -1.254584 -0.190726
0.696910 -1.254321 -0.190988
0.696975 -1.254058 -0.191250
0.697040 -1.253796 -0.191512
0.697105 -1.253533 -0.191775
0.697170 -1.253271 -0.192037
0.697235 -1.253008 -0.192299
0.697301 -1.252746 -0.192561
0.697366 -1.252483 -0.192823
0.697431 -1.252221 -0.193085
0.697496 -1.251958 -0.193346
0.697561 -1.251696 -0.193608
0.697626 -1.251433 -0.193870
0.697691 -1.251171 -0.194132
0.697756 -1.250909 -0.194393
0.697821 -1.250647 -0.194655
0.697886 -1.250384 -0.194916
0.697951 -1.250122 -0.195178
0.698016 -1.249860 -0.195439
0.698081 -1.249598 -0.195701
0.698146 -1.249336 -0.195962
0.698211 -1.249074 -0.196224
0.698276 -1.248811 -0.196485
0.698341 -1.248549 -0.196746
0.698406 -1.248287 -0.197007
0.698471 -1.248025 -0.197269
0.698536 -1.247764 -0.197530
0.698601 -1.247502 -0.197791
0.698666 -1.247240 -0.198052
0.698731 -1.246978 -0.198313
0.698796 -1.246716 -0.198574
0.698861 -1.246454 -0.198834
0.698926 -1.246193 -0.199095
0.698990 -1.245931 -0.199356
0.699055 -1.245669 -0.199617
0.699120 -1.245408 -0.199878
0.699185 -1.245146 -0.200138
0.699250 -1.244885 -0.200399
0.699315 -1.244623 -0.200659
0.699380 -1.244361 -0.200920
0.699445 -1.244100 -0.201180
0.699510 -1.243839 -0.201441
0.699574 -1.243577 -0.201701
0.699639 -1.243316 -0.201961
0.699704 -1.243055 -0.202222
0.699769 -1.242793 -0.202482
0.699834 -1.242532 -0.202742
0.699899 -1.242271 -0.203002
0.699963 -1.242010 -0.203262
0.700028 -1.241748 -0.203522
0.700093 -1.241487 -0.203782
0.700158 -1.241226 -0.204042
0.700223 -1.240965 -0.204302
0.700287 -1.240704 -0.204562
0.700352 -1.240443 -0.204822
0.700417 -1.240182 -0.205082
0.700482 -1.239921 -0.205341
0.700546 -1.239661 -0.205601
0.700611 -1.239400 -0.205861
0.700676 -1.239139 -0.206120
0.700741 -1.238878 -0.206380
0.700805 -1.238617 -0.206639
0.700870 -1.238357 -0.206899
0.700935 -1.238096 -0.207158
0.701000 -1.237835 -0.207418
0.701064 -1.237575 -0.207677
0.701129 -1.237314 -0.207936
0.701194 -1.237054 -0.208195
0.701259 -1.236793 -0.208454
0.701323 -1.236533 -0.208714
0.701388 -1.236273 -0.208973
0.701453 -1.236012 -0.209232
0.701517 -1.235752 -0.209491
0.701582 -1.235492 -0.209750
0.701647 -1.235231 -0.210009
0.701711 -1.234971 -0.210267
0.701776 -1.234711 -0.210526
0.701841 -1.234451 -0.210785
0.701905 -1.234191 -0.211044
0.701970 -1.233931 -0.211302
0.702035 -1.233671 -0.211561
0.702099 -1.233411 -0.211820
0.702164 -1.233151 -0.212078
0.702229 -1.232891 -0.212337
0.702293 -1.232631 -0.212595
0.702358 -1.232371 -0.212853
0.702423 -1.232111 -0.213112
0.702487 -1.231852 -0.213370
0.702552 -1.231592 -0.213628
0.702616 -1.231332 -0.213887
0.702681 -1.231073 -0.214145
0.702746 -1.230813 -0.214403
0.702810 -1.230553 -0.214661
0.702875 -1.230294 -0.214919
0.702939 -1.230034 -0.215177
0.703004 -1.229775 -0.215435
0.703069 -1.229516 -0.215693
0.703133 -1.229256 -0.215951
0.703198 -1.228997 -0.216208
0.703262 -1.228738 -0.216466
0.703327 -1.228478 -0.216724
0.703391 -1.228219 -0.216981
0.703456 -1.227960 -0.217239
0.703521 -1.227701 -0.217497
0.703585 -1.227442 -0.217754
0.703650 -1.227183 -0.218012
0.703714 -1.226924 -0.218269
0.703779 -1.226665 -0.218526
0.703843 -1.226406 -0.218784
0.703908 -1.226147 -0.219041
0.703972 -1.225888 -0.219298
0.704037 -1.225629 -0.219556
0.704101 -1.225370 -0.219813
0.704166 -1.225111 -0.220070
0.704230 -1.224853 -0.220327
0.704295 -1.224594 -0.220584
0.704360 -1.224335 -0.220841
0.704424 -1.224077 -0.221098
0.704489 -1.223818 -0.221355
0.704553 -1.223560 -0.221612
0.704618 -1.223301 -0.221868
0.704682 -1.223043 -0.222125
0.704747 -1.222784 -0.222382
0.704811 -1.222526 -0.222639
0.704875 -1.222268 -0.222895
0.704940 -1.222009 -0.223152
0.705004 -1.221751 -0.223408
0.705069 -1.221493 -0.223665
0.705133 -1.221235 -0.223921
0.705198 -1.220977 -0.224178
0.705262 -1.220719 -0.224434
0.705327 -1.220461 -0.224690
0.705391 -1.220203 -0.224946
0.705456 -1.219945 -0.225203
0.705520 -1.219687 -0.225459
0.705585 -1.219429 -0.225715
0.705649 -1.219171 -0.225971
0.705713 -1.218913 -0.226227
0.705778 -1.218655 -0.226483
0.705842 -1.218398 -0.226739
0.705907 -1.218140 -0.226995
0.705971 -1.217882 -0.227251
0.706036 -1.217625 -0.227506
0.706100 -1.217367 -0.227762
0.706164 -1.217110 -0.228018
0.706229 -1.216852 -0.228274
0.706293 -1.216595 -0.228529
0.706358 -1.216337 -0.228785
0.706422 -1.216080 -0.229040
0.706487 -1.215823 -0.229296
0.706551 -1.215565 -0.229551
0.706615 -1.215308 -0.229807
0.706680 -1.215051 -0.230062
0.706744 -1.214794 -0.230317
0.706808 -1.214537 -0.230572
0.706873 -1.214279 -0.230828
0.706937 -1.214022 -0.231083
0.707002 -1.213765 -0.231338
0.707066 -1.213508 -0.231593
0.707130 -1.213251 -0.231848
0.707195 -1.212995 -0.232103
0.707259 -1.212738 -0.232358
0.707323 -1.212481 -0.232613
0.707388 -1.212224 -0.232868
0.707452 -1.211967 -0.233123
0.707517 -1.211711 -0.233377
0.707581 -1.211454 -0.233632
0.707645 -1.211197 -0.233887
0.707710 -1.210941 -0.234141
0.707774 -1.210684 -0.234396
0.707838 -1.210428 -0.234650
0.707903 -1.210171 -0.234905
0.707967 -1.209915 -0.235159
0.708031 -1.209659 -0.235414
0.708096 -1.209402 -0.235668
0.708160 -1.209146 -0.235922
0.708224 -1.208890 -0.236177
0.708289 -1.208634 -0.236431
0.708353 -1.208377 -0.236685
0.708417 -1.208121 -0.236939
0.708481 -1.207865 -0.237193
0.708546 -1.207609 -0.237447
0.708610 -1.207353 -0.237701
0.708674 -1.207097 -0.237955
0.708739 -1.206841 -0.238209
0.708803 -1.206585 -0.238463
0.708867 -1.206330 -0.238717
0.708932 -1.206074 -0.238970
0.708996 -1.205818 -0.239224
0.709060 -1.205562 -0.239478
0.709124 -1.205307 -0.239732
0.709189 -1.205051 -0.239985
0.709253 -1.204795 -0.240239
0.709317 -1.204540 -0.240492
0.709382 -1.204284 -0.240746
0.709446 -1.204029 -0.240999
0.709510 -1.203773 -0.241252
0.709574 -1.203518 -0.241506
0.709639 -1.203263 -0.241759
0.709703 -1.203007 -0.242012
0.709767 -1.202752 -0.242265
0.709831 -1.202497 -0.242518
0.709896 -1.202241 -0.242772
0.709960 -1.201986 -0.243025
0.710024 -1.201731 -0.243278
0.710088 -1.201476 -0.243531
0.710153 -1.201221 -0.243783
0.710217 -1.200966 -0.244036
0.710281 -1.200711 -0.244289
0.710345 -1.200456 -0.244542
0.710410 -1.200201 -0.244795
0.710474 -1.199946 -0.245047
0.710538 -1.199692 -0.245300
0.710602 -1.199437 -0.245553
0.710666 -1.199182 -0.245805
0.710731 -1.198928 -0.246058
0.710795 -1.198673 -0.246310
0.710859 -1.198418 -0.246563
0.710923 -1.198164 -0.246815
0.710987 -1.197909 -0.247067
0.711052 -1.197655 -0.247320
0.711116 -1.197400 -0.247572
0.711180 -1.197146 -0.247824
0.711244 -1.196892 -0.248076
0.711308 -1.196637 -0.248328
0.711373 -1.196383 -0.248580
0.711437 -1.196129 -0.248832
0.711501 -1.195875 -0.249084
0.711565 -1.195620 -0.249336
0.711629 -1.195366 -0.249588
0.711694 -1.195112 -0.249840
0.711758 -1.194858 -0.250092
0.711822 -1.194604 -0.250343
0.711886 -1.194350 -0.250595
0.711950 -1.194096 -0.250847
0.712014 -1.193843 -0.251098
0.712079 -1.193589 -0.251350
0.712143 -1.193335 -0.251602
0.712207 -1.193081 -0.251853
0.712271 -1.192827 -0.252104
0.712335 -1.192574 -0.252356
0.712399 -1.192320 -0.252607
0.712463 -1.192067 -0.252859
0.712528 -1.191813 -0.253110
0.712592 -1.191560 -0.253361
0.712656 -1.191306 -0.253612
0.712720 -1.191053 -0.253863
0.712784 -1.190799 -0.254114
0.712848 -1.190546 -0.254365
0.712912 -1.190293 -0.254616
0.712977 -1.190039 -0.254867
0.713041 -1.189786 -0.255118
0.713105 -1.189533 -0.255369
0.713169 -1.189280 -0.255620
0.713233 -1.189027 -0.255871
0.713297 -1.188774 -0.256121
0.713361 -1.188521 -0.256372
0.713425 -1.188268 -0.256623
0.713489 -1.188015 -0.256873
0.713554 -1.187762 -0.257124
0.713618 -1.187509 -0.257374
0.713682 -1.187256 -0.257625
0.713746 -1.187003 -0.257875
0.713810 -1.186751 -0.258126
0.713874 -1.186498 -0.258376
0.713938 -1.186245 -0.258626
0.714002 -1.185993 -0.258876
0.714066 -1.185740 -0.259127
0.714130 -1.185488 -0.259377
0.714194 -1.185235 -0.259627
0.714258 -1.184983 -0.259877
0.714323 -1.184730 -0.260127
0.714387 -1.184478 -0.260377
0.714451 -1.184225 -0.260627
0.714515 -1.183973 -0.260877
0.714579 -1.183721 -0.261127
0.714643 -1.183469 -0.261376
0.714707 -1.183217 -0.261626
0.714771 -1.182964 -0.261876
0.714835 -1.182712 -0.262125
0.714899 -1.182460 -0.262375
0.714963 -1.182208 -0.262625
0.715027 -1.181956 -0.262874
0.715091 -1.181704 -0.263124
0.715155 -1.181452 -0.263373
0.715219 -1.181201 -0.263622
0.715283 -1.180949 -0.263872
0.715347 -1.180697 -0.264121
0.715411 -1.180445 -0.264370
0.715475 -1.180194 -0.264620
0.715539 -1.179942 -0.264869
0.715603 -1.179690 -0.265118
0.715667 -1.179439 -0.265367
0.715731 -1.179187 -0.265616
0.715795 -1.178936 -0.265865
0.715859 -1.178684 -0.266114
0.715923 -1.178433 -0.266363
0.715987 -1.178181 -0.266612
0.716051 -1.177930 -0.266861
0.716115 -1.177679 -0.267109
0.716179 -1.177428 -0.267358
0.716243 -1.177176 -0.267607
0.716307 -1.176925 -0.267855
0.716371 -1.176674 -0.268104
0.716435 -1.176423 -0.268353
0.716499 -1.176172 -0.268601
0.716563 -1.175921 -0.268849
0.716627 -1.175670 -0.269098
0.716691 -1.175419 -0.269346
0.716755 -1.175168 -0.269595
0.716819 -1.174917 -0.269843
0.716883 -1.174666 -0.270091
0.716947 -1.174416 -0.270339
0.717011 -1.174165 -0.270587
0.717075 -1.173914 -0.270836
0.717139 -1.173664 -0.271084
0.717203 -1.173413 -0.271332
0.717267 -1.173162 -0.271580
0.717331 -1.172912 -0.271828
0.717395 -1.172661 -0.272076
0.717459 -1.172411 -0.272323
0.717523 -1.172161 -0.272571
0.717587 -1.171910 -0.272819
0.717651 -1.171660 -0.273067
0.717715 -1.171410 -0.273314
0.717779 -1.171159 -0.273562
0.717843 -1.170909 -0.273810
0.717907 -1.170659 -0.274057
0.717970 -1.170409 -0.274305
0.718034 -1.170159 -0.274552
0.718098 -1.169909 -0.274799
0.718162 -1.169659 -0.275047
0.718226 -1.169409 -0.275294
0.718290 -1.169159 -0.275541
0.718354 -1.168909 -0.275789
0.718418 -1.168659 -0.276036
0.718482 -1.168409 -0.276283
0.718546 -1.168159 -0.276530
0.718610 -1.167910 -0.276777
0.718673 -1.167660 -0.277024
0.718737 -1.167410 -0.277271
0.718801 -1.167161 -0.277518
0.718865 -1.166911 -0.277765
0.718929 -1.166662 -0.278012
0.718993 -1.166412 -0.278259
0.719057 -1.166163 -0.278505
0.719121 -1.165913 -0.278752
0.719185 -1.165664 -0.278999
0.719248 -1.165415 -0.279245
0.719312 -1.165165 -0.279492
0.719376 -1.164916 -0.279738
0.719440 -1.164667 -0.279985
0.719504 -1.164418 -0.280231
0.719568 -1.164168 -0.280478
0.719632 -1.163919 -0.280724
0.719696 -1.163670 -0.280970
0.719759 -1.163421 -0.281217
0.719823 -1.163172 -0.281463
0.719887 -1.162923 -0.281709
0.719951 -1.162675 -0.281955
0.720015 -1.162426 -0.282201
0.720079 -1.162177 -0.282447
0.720143 -1.161928 -0.282693
0.720206 -1.161679 -0.282939
0.720270 -1.161431 -0.283185
0.720334 -1.161182 -0.283431
0.720398 -1.160933 -0.283677
0.720462 -1.160685 -0.283923
0.720526 -1.160436 -0.284168
0.720589 -1.160188 -0.284414
0.720653 -1.159939 -0.284660
0.720717 -1.159691 -0.284905
0.720781 -1.159442 -0.285151
0.720845 -1.159194 -0.285397
0.720908 -1.158946 -0.285642
0.720972 -1.158698 -0.285887
0.721036 -1.158449 -0.286133
0.721100 -1.158201 -0.286378
0.721164 -1.157953 -0.286624
0.721228 -1.157705 -0.286869
0.721291 -1.157457 -0.287114
0.721355 -1.157209 -0.287359
0.721419 -1.156961 -0.287604
0.721483 -1.156713 -0.287849
0.721546 -1.156465 -0.288094
0.721610 -1.156217 -0.288339
0.721674 -1.155969 -0.288584
0.721738 -1.155721 -0.288829
0.721802 -1.155474 -0.289074
0.721865 -1.155226 -0.289319
0.721929 -1.154978 -0.289564
0.721993 -1.154731 -0.289809
0.722057 -1.154483 -0.290053
0.722120 -1.154236 -0.290298
0.722184 -1.153988 -0.290543
0.722248 -1.153741 -0.290787
0.722312 -1.153493 -0.291032
0.722376 -1.153246 -0.291276
0.722439 -1.152998 -0.291521
0.722503 -1.152751 -0.291765
0.722567 -1.152504 -0.292009
0.722631 -1.152257 -0.292254
0.722694 -1.152009 -0.292498
0.722758 -1.151762 -0.292742
0.722822 -1.151515 -0.292986
0.722885 -1.151268 -0.293230
0.722949 -1.151021 -0.293474
0.723013 -1.150774 -0.293719
0.723077 -1.150527 -0.293963
0.723140 -1.150280 -0.294206
0.723204 -1.150033 -0.294450
0.723268 -1.149786 -0.294694
0.723332 -1.149540 -0.294938
0.723395 -1.149293 -0.295182
0.723459 -1.149046 -0.295426
0.723523 -1.148799 -0.295669
0.723586 -1.148553 -0.295913
0.723650 -1.148306 -0.296157
0.723714 -1.148060 -0.296400
0.723778 -1.147813 -0.296644
0.723841 -1.147566 -0.296887
0.723905 -1.147320 -0.297131
0.723969 -1.147074 -0.297374
0.724032 -1.146827 -0.297617
0.724096 -1.146581 -0.297861
0.724160 -1.146335 -0.298104
0.724223 -1.146088 -0.298347
0.724287 -1.145842 -0.298590
0.724351 -1.145596 -0.298834
0.724414 -1.145350 -0.299077
0.724478 -1.145104 -0.299320
0.724542 -1.144858 -0.299563
0.724605 -1.144612 -0.299806
0.724669 -1.144366 -0.300049
0.724733 -1.144120 -0.300291
0.724796 -1.143874 -0.300534
0.724860 -1.143628 -0.300777
0.724924 -1.143382 -0.301020
0.724987 -1.143136 -0.301263
0.725051 -1.142891 -0.301505
0.725115 -1.142645 -0.301748
0.725178 -1.142399 -0.301990
0.725242 -1.142154 -0.302233
0.725306 -1.141908 -0.302475
0.725369 -1.141662 -0.302718
0.725433 -1.141417 -0.302960
0.725497 -1.141171 -0.303203
0.725560 -1.140926 -0.303445
0.725624 -1.140681 -0.303687
0.725687 -1.140435 -0.303929
0.725751 -1.140190 -0.304172
0.725815 -1.139945 -0.304414
0.725878 -1.139699 -0.304656
0.725942 -1.139454 -0.304898
0.726005 -1.139209 -0.305140
0.726069 -1.138964 -0.305382
0.726133 -1.138719 -0.305624
0.726196 -1.138474 -0.305866
0.726260 -1.138229 -0.306108
0.726324 -1.137984 -0.306349
0.726387 -1.137739 -0.306591
0.726451 -1.137494 -0.306833
0.726514 -1.137249 -0.307075
0.726578 -1.137004 -0.307316
0.726641 -1.136760 -0.307558
0.726705 -1.136515 -0.307799
0.726769 -1.136270 -0.308041
0.726832 -1.136025 -0.308282
0.726896 -1.135781 -0.308524
0.726959 -1.135536 -0.308765
0.727023 -1.135292 -0.309006
0.727087 -1.135047 -0.309248
0.727150 -1.134803 -0.309489
0.727214 -1.134558 -0.309730
0.727277 -1.134314 -0.309971
0.727341 -1.134070 -0.310212
0.727404 -1.133825 -0.310453
0.727468 -1.133581 -0.310695
0.727531 -1.133337 -0.310935
0.727595 -1.133093 -0.311176
0.727659 -1.132848 -0.311417
0.727722 -1.132604 -0.311658
0.727786 -1.132360 -0.311899
0.727849 -1.132116 -0.312140
0.727913 -1.131872 -0.312381
0.727976 -1.131628 -0.312621
0.728040 -1.131384 -0.312862
0.728103 -1.131140 -0.313102
0.728167 -1.130897 -0.313343
0.728230 -1.130653 -0.313584
0.728294 -1.130409 -0.313824
0.728357 -1.130165 -0.314064
0.728421 -1.129922 -0.314305
0.728484 -1.129678 -0.314545
0.728548 -1.129434 -0.314785
0.728611 -1.129191 -0.315026
0.728675 -1.128947 -0.315266
0.728738 -1.128704 -0.315506
0.728802 -1.128460 -0.315746
0.728865 -1.128217 -0.315986
0.728929 -1.127973 -0.316226
0.728992 -1.127730 -0.316466
0.729056 -1.127487 -0.316706
0.729119 -1.127243 -0.316946
0.729183 -1.127000 -0.317186
0.729246 -1.126757 -0.317426
0.729310 -1.126514 -0.317666
0.729373 -1.126271 -0.317905
0.729437 -1.126028 -0.318145
0.729500 -1.125785 -0.318385
0.729564 -1.125542 -0.318624
0.729627 -1.125299 -0.318864
0.729691 -1.125056 -0.319104
0.729754 -1.124813 -0.319343
0.729818 -1.124570 -0.319583
0.729881 -1.124327 -0.319822
0.729945 -1.124084 -0.320061
0.730008 -1.123842 -0.320301
0.730071 -1.123599 -0.320540
0.730135 -1.123356 -0.320779
0.730198 -1.123114 -0.321018
0.730262 -1.122871 -0.321257
0.730325 -1.122629 -0.321497
0.730389 -1.122386 -0.321736
0.730452 -1.122144 -0.321975
0.730516 -1.121901 -0.322214
0.730579 -1.121659 -0.322453
0.730642 -1.121417 -0.322691
0.730706 -1.121174 -0.322930
0.730769 -1.120932 -0.323169
0.730833 -1.120690 -0.323408
0.730896 -1.120448 -0.323647
0.730960 -1.120205 -0.323885
0.731023 -1.119963 -0.324124
0.731086 -1.119721 -0.324363
0.731150 -1.119479 -0.324601
0.731213 -1.119237 -0.324840
0.731277 -1.118995 -0.325078
0.731340 -1.118753 -0.325317
0.731403 -1.118511 -0.325555
0.731467 -1.118270 -0.325793
0.731530 -1.118028 -0.326032
0.731594 -1.117786 -0.326270
0.731657 -1.117544 -0.326508
0.731720 -1.117303 -0.326746
0.731784 -1.117061 -0.326984
0.731847 -1.116819 -0.327222
0.731910 -1.116578 -0.327460
0.731974 -1.116336 -0.327698
0.732037 -1.116095 -0.327936
0.732101 -1.115853 -0.328174
0.732164 -1.115612 -0.328412
0.732227 -1.115370 -0.328650
0.732291 -1.115129 -0.328888
0.732354 -1.114888 -0.329126
0.732417 -1.114646 -0.329363
0.732481 -1.114405 -0.329601
0.732544 -1.114164 -0.329839
0.732607 -1.113923 -0.330076
0.732671 -1.113682 -0.330314
0.732734 -1.113441 -0.330551
0.732797 -1.113199 -0.330789
0.732861 -1.112958 -0.331026
0.732924 -1.112717 -0.331263
0.732987 -1.112477 -0.331501
0.733051 -1.112236 -0.331738
0.733114 -1.111995 -0.331975
0.733177 -1.111754 -0.332213
0.733241 -1.111513 -0.332450
0.733304 -1.111272 -0.332687
0.733367 -1.111032 -0.332924
0.733431 -1.110791 -0.333161
0.733494 -1.110550 -0.333398
0.733557 -1.110310 -0.333635
0.733621 -1.110069 -0.333872
0.733684 -1.109829 -0.334109
0.733747 -1.109588 -0.334345
0.733810 -1.109348 -0.334582
0.733874 -1.109107 -0.334819
0.733937 -1.108867 -0.335056
0.734000 -1.108627 -0.335292
0.734064 -1.108386 -0.335529
0.734127 -1.108146 -0.335766
0.734190 -1.107906 -0.336002
0.734253 -1.107666 -0.336239
0.734317 -1.107426 -0.336475
0.734380 -1.107186 -0.336711
0.734443 -1.106945 -0.336948
0.734507 -1.106705 -0.337184
0.734570 -1.106465 -0.337420
0.734633 -1.106226 -0.337657
0.734696 -1.105986 -0.337893
0.734760 -1.105746 -0.338129
0.734823 -1.105506 -0.338365
0.734886 -1.105266 -0.338601
0.734949 -1.105026 -0.338837
0.735013 -1.104787 -0.339073
0.735076 -1.104547 -0.339309
0.735139 -1.104307 -0.339545
0.735202 -1.104068 -0.339781
0.735266 -1.103828 -0.340017
0.735329 -1.103589 -0.340252
0.735392 -1.103349 -0.340488
0.735455 -1.103110 -0.340724
0.735519 -1.102870 -0.340959
0.735582 -1.102631 -0.341195
0.735645 -1.102391 -0.341431
0.735708 -1.102152 -0.341666
0.735771 -1.101913 -0.341902
0.735835 -1.101674 -0.342137
0.735898 -1.101434 -0.342372
0.735961 -1.101195 -0.342608
0.736024 -1.100956 -0.342843
0.736087 -1.100717 -0.343078
0.736151 -1.100478 -0.343314
0.736214 -1.100239 -0.343549
0.736277 -1.100000 -0.343784
0.736340 -1.099761 -0.344019
0.736403 -1.099522 -0.344254
0.736467 -1.099283 -0.344489
0.736530 -1.099044 -0.344724
0.736593 -1.098806 -0.344959
0.736656 -1.098567 -0.345194
0.736719 -1.098328 -0.345429
0.736783 -1.098090 -0.345663
0.736846 -1.097851 -0.345898
0.736909 -1.097612 -0.346133
0.736972 -1.097374 -0.346368
0.737035 -1.097135 -0.346602
0.737098 -1.096897 -0.346837
0.737162 -1.096658 -0.347071
0.737225 -1.096420 -0.347306
0.737288 -1.096181 -0.347540
0.737351 -1.095943 -0.347775
0.737414 -1.095705 -0.348009
0.737477 -1.095467 -0.348244
0.737540 -1.095228 -0.348478
0.737604 -1.094990 -0.348712
0.737667 -1.094752 -0.348946
0.737730 -1.094514 -0.349181
0.737793 -1.094276 -0.349415
0.737856 -1.094038 -0.349649
0.737919 -1.093800 -0.349883
0.737982 -1.093562 -0.350117
0.738045 -1.093324 -0.350351
0.738109 -1.093086 -0.350585
0.738172 -1.092848 -0.350819
0.738235 -1.092610 -0.351052
0.738298 -1.092373 -0.351286
0.738361 -1.092135 -0.351520
0.738424 -1.091897 -0.351754
0.738487 -1.091659 -0.351987
0.738550 -1.091422 -0.352221
0.738613 -1.091184 -0.352455
0.738677 -1.090947 -0.352688
0.738740 -1.090709 -0.352922
0.738803 -1.090472 -0.353155
0.738866 -1.090234 -0.353389
0.738929 -1.089997 -0.353622
0.738992 -1.089759 -0.353855
0.739055 -1.089522 -0.354089
0.739118 -1.089285 -0.354322
0.739181 -1.089048 -0.354555
0.739244 -1.088810 -0.354788
0.739307 -1.088573 -0.355021
0.739370 -1.088336 -0.355255
0.739433 -1.088099 -0.355488
0.739497 -1.087862 -0.355721
0.739560 -1.087625 -0.355954
0.739623 -1.087388 -0.356187
0.739686 -1.087151 -0.356419
0.739749 -1.086914 -0.356652
0.739812 -1.086677 -0.356885
0.739875 -1.086440 -0.357118
0.739938 -1.086203 -0.357351
0.740001 -1.085967 -0.357583
0.740064 -1.085730 -0.357816
0.740127 -1.085493 -0.358049
0.740190 -1.085257 -0.358281
0.740253 -1.085020 -0.358514
0.740316 -1.084783 -0.358746
0.740379 -1.084547 -0.358979
0.740442 -1.084310 -0.359211
0.740505 -1.084074 -0.359443
0.740568 -1.083837 -0.359676
0.740631 -1.083601 -0.359908
0.740694 -1.083365 -0.360140
0.740757 -1.083128 -0.360372
0.740820 -1.082892 -0.360604
0.740883 -1.082656 -0.360836
0.740946 -1.082419 -0.361069
0.741009 -1.082183 -0.361301
0.741072 -1.081947 -0.361533
0.741135 -1.081711 -0.361764
0.741198 -1.081475 -0.361996
0.741261 -1.081239 -0.362228
0.741324 -1.081003 -0.362460
0.741387 -1.080767 -0.362692
0.741450 -1.080531 -0.362924
0.741513 -1.080295 -0.363155
0.741576 -1.080059 -0.363387
0.741639 -1.079823 -0.363619
0.741702 -1.079588 -0.363850
0.741765 -1.079352 -0.364082
0.741828 -1.079116 -0.364313
0.741891 -1.078881 -0.364545
0.741954 -1.078645 -0.364776
0.742017 -1.078409 -0.365007
0.742080 -1.078174 -0.365239
0.742143 -1.077938 -0.365470
0.742206 -1.077703 -0.365701
0.742269 -1.077467 -0.365932
0.742331 -1.077232 -0.366163
0.742394 -1.076997 -0.366395
0.742457 -1.076761 -0.366626
0.742520 -1.076526 -0.366857
0.742583 -1.076291 -0.367088
0.742646 -1.076055 -0.367319
0.742709 -1.075820 -0.367550
0.742772 -1.075585 -0.367780
0.742835 -1.075350 -0.368011
0.742898 -1.075115 -0.368242
0.742961 -1.074880 -0.368473
0.743024 -1.074645 -0.368703
0.743087 -1.074410 -0.368934
0.743149 -1.074175 -0.369165
0.743212 -1.073940 -0.369395
0.743275 -1.073705 -0.369626
0.743338 -1.073470 -0.369856
0.743401 -1.073236 -0.370087
0.743464 -1.073001 -0.370317
0.743527 -1.072766 -0.370548
0.743590 -1.072531 -0.370778
0.743653 -1.072297 -0.371008
0.743715 -1.072062 -0.371238
0.743778 -1.071828 -0.371469
0.743841 -1.071593 -0.371699
0.743904 -1.071359 -0.371929
0.743967 -1.071124 -0.372159
0.744030 -1.070890 -0.372389
0.744093 -1.070655 -0.372619
0.744156 -1.070421 -0.372849
0.744218 -1.070187 -0.373079
0.744281 -1.069952 -0.373309
0.744344 -1.069718 -0.373539
0.744407 -1.069484 -0.373768
0.744470 -1.069250 -0.373998
0.744533 -1.069016 -0.374228
0.744595 -1.068782 -0.374458
0.744658 -1.068548 -0.374687
0.744721 -1.068314 -0.374917
0.744784 -1.068080 -0.375146
0.744847 -1.067846 -0.375376
0.744910 -1.067612 -0.375605
0.744972 -1.067378 -0.375835
0.745035 -1.067144 -0.376064
0.745098 -1.066910 -0.376294
0.745161 -1.066676 -0.376523
0.745224 -1.066443 -0.376752
0.745287 -1.066209 -0.376981
0.745349 -1.065975 -0.377211
0.745412 -1.065742 -0.377440
0.745475 -1.065508 -0.377669
0.745538 -1.065275 -0.377898
0.745601 -1.065041 -0.378127
0.745663 -1.064808 -0.378356
0.745726 -1.064574 -0.378585
0.745789 -1.064341 -0.378814
0.745852 -1.064107 -0.379043
0.745915 -1.063874 -0.379271
0.745977 -1.063641 -0.379500
0.746040 -1.063407 -0.379729
0.746103 -1.063174 -0.379958
0.746166 -1.062941 -0.380186
0.746228 -1.062708 -0.380415
0.746291 -1.062475 -0.380643
0.746354 -1.062242 -0.380872
0.746417 -1.062009 -0.381100
0.746479 -1.061776 -0.381329
0.746542 -1.061543 -0.381557
0.746605 -1.061310 -0.381786
0.746668 -1.061077 -0.382014
0.746730 -1.060844 -0.382242
0.746793 -1.060611 -0.382471
0.746856 -1.060378 -0.382699
0.746919 -1.060146 -0.382927
0.746981 -1.059913 -0.383155
0.747044 -1.059680 -0.383383
0.747107 -1.059448 -0.383611
0.747170 -1.059215 -0.383839
0.747232 -1.058982 -0.384067
0.747295 -1.058750 -0.384295
0.747358 -1.058517 -0.384523
0.747421 -1.058285 -0.384751
0.747483 -1.058053 -0.384979
0.747546 -1.057820 -0.385206
0.747609 -1.057588 -0.385434
0.747671 -1.057355 -0.385662
0.747734 -1.057123 -0.385889
0.747797 -1.056891 -0.386117
0.747860 -1.056659 -0.386344
0.747922 -1.056427 -0.386572
0.747985 -1.056194 -0.386799
0.748048 -1.055962 -0.387027
0.748110 -1.055730 -0.387254
0.748173 -1.055498 -0.387482
0.748236 -1.055266 -0.387709
0.748298 -1.055034 -0.387936
0.748361 -1.054802 -0.388163
0.748424 -1.054570 -0.388391
0.748486 -1.054339 -0.388618
0.748549 -1.054107 -0.388845
0.748612 -1.053875 -0.389072
0.748674 -1.053643 -0.389299
0.748737 -1.053412 -0.389526
0.748800 -1.053180 -0.389753
0.748862 -1.052948 -0.389980
0.748925 -1.052717 -0.390207
0.748988 -1.052485 -0.390434
0.749050 -1.052254 -0.390660
0.749113 -1.052022 -0.390887
0.749176 -1.051791 -0.391114
0.749238 -1.051559 -0.391340
0.749301 -1.051328 -0.391567
0.749363 -1.051097 -0.391794
0.749426 -1.050865 -0.392020
0.749489 -1.050634 -0.392247
0.749551 -1.050403 -0.392473
0.749614 -1.050171 -0.392700
0.749677 -1.049940 -0.392926
0.749739 -1.049709 -0.393152
0.749802 -1.049478 -0.393379
0.749864 -1.049247 -0.393605
0.749927 -1.049016 -0.393831
0.749990 -1.048785 -0.394057
0.750052 -1.048554 -0.394283
0.750115 -1.048323 -0.394510
0.750177 -1.048092 -0.394736
0.750240 -1.047861 -0.394962
0.750303 -1.047631 -0.395188
0.750365 -1.047400 -0.395413
0.750428 -1.047169 -0.395639
0.750490 -1.046938 -0.395865
0.750553 -1.046708 -0.396091
0.750616 -1.046477 -0.396317
0.750678 -1.046246 -0.396543
0.750741 -1.046016 -0.396768
0.750803 -1.045785 -0.396994
0.750866 -1.045555 -0.397220
0.750928 -1.045324 -0.397445
0.750991 -1.045094 -0.397671
0.751054 -1.044864 -0.397896
0.751116 -1.044633 -0.398122
0.751179 -1.044403 -0.398347
0.751241 -1.044173 -0.398572
0.751304 -1.043942 -0.398798
0.751366 -1.043712 -0.399023
0.751429 -1.043482 -0.399248
0.751491 -1.043252 -0.399473
0.751554 -1.043022 -0.399699
0.751616 -1.042792 -0.399924
0.751679 -1.042562 -0.400149
0.751742 -1.042332 -0.400374
0.751804 -1.042102 -0.400599
0.751867 -1.041872 -0.400824
0.751929 -1.041642 -0.401049
0.751992 -1.041412 -0.401274
0.752054 -1.041182 -0.401499
0.752117 -1.040953 -0.401723
0.752179 -1.040723 -0.401948
0.752242 -1.040493 -0.402173
0.752304 -1.040263 -0.402398
0.752367 -1.040034 -0.402622
0.752429 -1.039804 -0.402847
0.752492 -1.039575 -0.403071
0.752554 -1.039345 -0.403296
0.752617 -1.039116 -0.403520
0.752679 -1.038886 -0.403745
0.752742 -1.038657 -0.403969
0.752804 -1.038427 -0.404194
0.752867 -1.038198 -0.404418
0.752929 -1.037969 -0.404642
0.752992 -1.037739 -0.404867
0.753054 -1.037510 -0.405091
0.753116 -1.037281 -0.405315
0.753179 -1.037052 -0.405539
0.753241 -1.036823 -0.405763
0.753304 -1.036593 -0.405987
0.753366 -1.036364 -0.406211
0.753429 -1.036135 -0.406435
0.753491 -1.035906 -0.406659
0.753554 -1.035677 -0.406883
0.753616 -1.035448 -0.407107
0.753679 -1.035219 -0.407331
0.753741 -1.034991 -0.407554
0.753803 -1.034762 -0.407778
0.753866 -1.034533 -0.408002
0.753928 -1.034304 -0.408226
0.753991 -1.034076 -0.408449
0.754053 -1.033847 -0.408673
0.754116 -1.033618 -0.408896
0.754178 -1.033390 -0.409120
0.754240 -1.033161 -0.409343
0.754303 -1.032932 -0.409567
0.754365 -1.032704 -0.409790
0.754428 -1.032475 -0.410013
0.754490 -1.032247 -0.410237
0.754552 -1.032019 -0.410460
0.754615 -1.031790 -0.410683
0.754677 -1.031562 -0.410906
0.754740 -1.031334 -0.411129
0.754802 -1.031105 -0.411352
0.754864 -1.030877 -0.411575
0.754927 -1.030649 -0.411798
0.754989 -1.030421 -0.412021
0.755052 -1.030193 -0.412244
0.755114 -1.029965 -0.412467
0.755176 -1.029737 -0.412690
0.755239 -1.029509 -0.412913
0.755301 -1.029281 -0.413136
0.755363 -1.029053 -0.413358
0.755426 -1.028825 -0.413581
0.755488 -1.028597 -0.413804
0.755550 -1.028369 -0.414026
0.755613 -1.028141 -0.414249
0.755675 -1.027913 -0.414472
0.755738 -1.027686 -0.414694
0.755800 -1.027458 -0.414916
0.755862 -1.027230 -0.415139
0.755925 -1.027003 -0.415361
0.755987 -1.026775 -0.415584
0.756049 -1.026547 -0.415806
0.756112 -1.026320 -0.416028
0.756174 -1.026092 -0.416250
0.756236 -1.025865 -0.416473
0.756299 -1.025638 -0.416695
0.756361 -1.025410 -0.416917
0.756423 -1.025183 -0.417139
0.756486 -1.024955 -0.417361
0.756548 -1.024728 -0.417583
0.756610 -1.024501 -0.417805
0.756672 -1.024274 -0.418027
0.756735 -1.024047 -0.418249
0.756797 -1.023819 -0.418470
0.756859 -1.023592 -0.418692
0.756922 -1.023365 -0.418914
0.756984 -1.023138 -0.419136
0.757046 -1.022911 -0.419357
0.757109 -1.022684 -0.419579
0.757171 -1.022457 -0.419800
0.757233 -1.022230 -0.420022
0.757295 -1.022004 -0.420244
0.757358 -1.021777 -0.420465
0.757420 -1.021550 -0.420686
0.757482 -1.021323 -0.420908
0.757544 -1.021096 -0.421129
0.757607 -1.020870 -0.421350
0.757669 -1.020643 -0.421572
0.757731 -1.020416 -0.421793
0.757793 -1.020190 -0.422014
0.757856 -1.019963 -0.422235
0.757918 -1.019737 -0.422456
0.757980 -1.019510 -0.422677
0.758042 -1.019284 -0.422899
0.758105 -1.019057 -0.423120
0.758167 -1.018831 -0.423340
0.758229 -1.018605 -0.423561
0.758291 -1.018378 -0.423782
0.758354 -1.018152 -0.424003
0.758416 -1.017926 -0.424224
0.758478 -1.017700 -0.424445
0.758540 -1.017474 -0.424665
0.758603 -1.017247 -0.424886
0.758665 -1.017021 -0.425107
0.758727 -1.016795 -0.425327
0.758789 -1.016569 -0.425548
0.758851 -1.016343 -0.425768
0.758914 -1.016117 -0.425989
0.758976 -1.015891 -0.426209
0.759038 -1.015665 -0.426430
0.759100 -1.015440 -0.426650
0.759162 -1.015214 -0.426870
0.759225 -1.014988 -0.427091
0.759287 -1.014762 -0.427311
0.759349 -1.014536 -0.427531
0.759411 -1.014311 -0.427751
0.759473 -1.014085 -0.427971
0.759536 -1.013859 -0.428191
0.759598 -1.013634 -0.428411
0.759660 -1.013408 -0.428631
0.759722 -1.013183 -0.428851
0.759784 -1.012957 -0.429071
0.759846 -1.012732 -0.429291
0.759909 -1.012506 -0.429511
0.759971 -1.012281 -0.429731
0.760033 -1.012056 -0.429951
0.760095 -1.011830 -0.430170
0.760157 -1.011605 -0.430390
0.760219 -1.011380 -0.430610
0.760281 -1.011155 -0.430829
0.760344 -1.010930 -0.431049
0.760406 -1.010704 -0.431268
0.760468 -1.010479 -0.431488
0.760530 -1.010254 -0.431707
0.760592 -1.010029 -0.431927
0.760654 -1.009804 -0.432146
0.760716 -1.009579 -0.432366
0.760778 -1.009354 -0.432585
0.760841 -1.009129 -0.432804
0.760903 -1.008905 -0.433023
0.760965 -1.008680 -0.433243
0.761027 -1.008455 -0.433462
0.761089 -1.008230 -0.433681
0.761151 -1.008005 -0.433900
0.761213 -1.007781 -0.434119
0.761275 -1.007556 -0.434338
0.761337 -1.007332 -0.434557
0.761399 -1.007107 -0.434776
0.761462 -1.006882 -0.434995
0.761524 -1.006658 -0.435213
0.761586 -1.006433 -0.435432
0.761648 -1.006209 -0.435651
0.761710 -1.005985 -0.435870
0.761772 -1.005760 -0.436088
0.761834 -1.005536 -0.436307
0.761896 -1.005311 -0.436526
0.761958 -1.005087 -0.436744
0.762020 -1.004863 -0.436963
0.762082 -1.004639 -0.437181
0.762144 -1.004415 -0.437400
0.762206 -1.004190 -0.437618
0.762268 -1.003966 -0.437836
0.762330 -1.003742 -0.438055
0.762393 -1.003518 -0.438273
0.762455 -1.003294 -0.438491
0.762517 -1.003070 -0.438709
0.762579 -1.002846 -0.438928
0.762641 -1.002622 -0.439146
0.762703 -1.002399 -0.439364
0.762765 -1.002175 -0.439582
0.762827 -1.001951 -0.439800
0.762889 -1.001727 -0.440018
0.762951 -1.001503 -0.440236
0.763013 -1.001280 -0.440454
0.763075 -1.001056 -0.440671
0.763137 -1.000832 -0.440889
0.763199 -1.000609 -0.441107
0.763261 -1.000385 -0.441325
0.763323 -1.000162 -0.441543
0.763385 -0.999938 -0.441760
0.763447 -0.999715 -0.441978
0.763509 -0.999491 -0.442195
0.763571 -0.999268 -0.442413
0.763633 -0.999045 -0.442630
0.763695 -0.998821 -0.442848
0.763757 -0.998598 -0.443065
0.763819 -0.998375 -0.443283
0.763881 -0.998152 -0.443500
0.763943 -0.997928 -0.443717
0.764005 -0.997705 -0.443935
0.764067 -0.997482 -0.444152
0.764129 -0.997259 -0.444369
0.764191 -0.997036 -0.444586
0.764253 -0.996813 -0.444803
0.764314 -0.996590 -0.445020
0.764376 -0.996367 -0.445237
0.764438 -0.996144 -0.445454
0.764500 -0.995921 -0.445671
0.764562 -0.995698 -0.445888
0.764624 -0.995476 -0.446105
0.764686 -0.995253 -0.446322
0.764748 -0.995030 -0.446539
0.764810 -0.994807 -0.446756
0.764872 -0.994585 -0.446972
0.764934 -0.994362 -0.447189
0.764996 -0.994139 -0.447406
0.765058 -0.993917 -0.447622
0.765120 -0.993694 -0.447839
0.765182 -0.993472 -0.448055
0.765243 -0.993249 -0.448272
0.765305 -0.993027 -0.448488
0.765367 -0.992804 -0.448705
0.765429 -0.992582 -0.448921
0.765491 -0.992360 -0.449138
0.765553 -0.992137 -0.449354
0.765615 -0.991915 -0.449570
0.765677 -0.991693 -0.449786
0.765739 -0.991471 -0.450003
0.765801 -0.991248 -0.450219
0.765862 -0.991026 -0.450435
0.765924 -0.990804 -0.450651
0.765986 -0.990582 -0.450867
0.766048 -0.990360 -0.451083
0.766110 -0.990138 -0.451299
0.766172 -0.989916 -0.451515
0.766234 -0.989694 -0.451731
0.766296 -0.989472 -0.451946
0.766357 -0.989250 -0.452162
0.766419 -0.989029 -0.452378
0.766481 -0.988807 -0.452594
0.766543 -0.988585 -0.452809
0.766605 -0.988363 -0.453025
0.766667 -0.988142 -0.453241
0.766728 -0.987920 -0.453456
0.766790 -0.987698 -0.453672
0.766852 -0.987477 -0.453887
0.766914 -0.987255 -0.454103
0.766976 -0.987034 -0.454318
0.767038 -0.986812 -0.454534
0.767099 -0.986591 -0.454749
0.767161 -0.986369 -0.454964
0.767223 -0.986148 -0.455179
0.767285 -0.985926 -0.455395
0.767347 -0.985705 -0.455610
0.767409 -0.985484 -0.455825
0.767470 -0.985263 -0.456040
0.767532 -0.985041 -0.456255
0.767594 -0.984820 -0.456470
0.767656 -0.984599 -0.456685
0.767718 -0.984378 -0.456900
0.767779 -0.984157 -0.457115
0.767841 -0.983936 -0.457330
0.767903 -0.983715 -0.457545
0.767965 -0.983494 -0.457760
0.768026 -0.983273 -0.457974
0.768088 -0.983052 -0.458189
0.768150 -0.982831 -0.458404
0.768212 -0.982610 -0.458618
0.768274 -0.982389 -0.458833
0.768335 -0.982168 -0.459048
0.768397 -0.981948 -0.459262
0.768459 -0.981727 -0.459477
0.768521 -0.981506 -0.459691
0.768582 -0.981286 -0.459905
0.768644 -0.981065 -0.460120
0.768706 -0.980844 -0.460334
0.768768 -0.980624 -0.460548
0.768829 -0.980403 -0.460763
0.768891 -0.980183 -0.460977
0.768953 -0.979962 -0.461191
0.769015 -0.979742 -0.461405
0.769076 -0.979521 -0.461619
0.769138 -0.979301 -0.461833
0.769200 -0.979081 -0.462047
0.769262 -0.978860 -0.462261
0.769323 -0.978640 -0.462475
0.769385 -0.978420 -0.462689
0.769447 -0.978200 -0.462903
0.769508 -0.977980 -0.463117
0.769570 -0.977759 -0.463331
0.769632 -0.977539 -0.463545
0.769693 -0.977319 -0.463758
0.769755 -0.977099 -0.463972
0.769817 -0.976879 -0.464186
0.769879 -0.976659 -0.464399
0.769940 -0.976439 -0.464613
0.770002 -0.976220 -0.464826
0.770064 -0.976000 -0.465040
0.770125 -0.975780 -0.465253
0.770187 -0.975560 -0.465467
0.770249 -0.975340 -0.465680
0.770310 -0.975121 -0.465894
0.770372 -0.974901 -0.466107
0.770434 -0.974681 -0.466320
0.770495 -0.974462 -0.466533
0.770557 -0.974242 -0.466747
0.770619 -0.974022 -0.466960
0.770680 -0.973803 -0.467173
0.770742 -0.973583 -0.467386
0.770804 -0.973364 -0.467599
0.770865 -0.973144 -0.467812
0.770927 -0.972925 -0.468025
0.770989 -0.972706 -0.468238
0.771050 -0.972486 -0.468451
0.771112 -0.972267 -0.468664
0.771173 -0.972048 -0.468876
0.771235 -0.971829 -0.469089
0.771297 -0.971609 -0.469302
0.771358 -0.971390 -0.469515
0.771420 -0.971171 -0.469727
0.771482 -0.970952 -0.469940
0.771543 -0.970733 -0.470152
0.771605 -0.970514 -0.470365
0.771666 -0.970295 -0.470577
0.771728 -0.970076 -0.470790
0.771790 -0.969857 -0.471002
0.771851 -0.969638 -0.471215
0.771913 -0.969419 -0.471427
0.771974 -0.969200 -0.471639
0.772036 -0.968982 -0.471852
0.772098 -0.968763 -0.472064
0.772159 -0.968544 -0.472276
0.772221 -0.968325 -0.472488
0.772282 -0.968107 -0.472700
0.772344 -0.967888 -0.472913
0.772405 -0.967669 -0.473125
0.772467 -0.967451 -0.473337
0.772529 -0.967232 -0.473549
0.772590 -0.967014 -0.473761
0.772652 -0.966795 -0.473972
0.772713 -0.966577 -0.474184
0.772775 -0.966358 -0.474396
0.772836 -0.966140 -0.474608
0.772898 -0.965922 -0.474820
0.772959 -0.965703 -0.475031
0.773021 -0.965485 -0.475243
0.773083 -0.965267 -0.475455
0.773144 -0.965049 -0.475666
0.773206 -0.964831 -0.475878
0.773267 -0.964612 -0.476089
0.773329 -0.964394 -0.476301
0.773390 -0.964176 -0.476512
0.773452 -0.963958 -0.476724
0.773513 -0.963740 -0.476935
0.773575 -0.963522 -0.477146
0.773636 -0.963304 -0.477358
0.773698 -0.963086 -0.477569
0.773759 -0.962868 -0.477780
0.773821 -0.962651 -0.477991
0.773882 -0.962433 -0.478202
0.773944 -0.962215 -0.478414
0.774005 -0.961997 -0.478625
0.774067 -0.961779 -0.478836
0.774128 -0.961562 -0.479047
0.774190 -0.961344 -0.479258
0.774251 -0.961127 -0.479469
0.774313 -0.960909 -0.479679
0.774374 -0.960691 -0.479890
0.774436 -0.960474 -0.480101
0.774497 -0.960256 -0.480312
0.774559 -0.960039 -0.480523
0.774620 -0.959821 -0.480733
0.774682 -0.959604 -0.480944
0.774743 -0.959387 -0.481154
0.774804 -0.959169 -0.481365
0.774866 -0.958952 -0.481576
0.774927 -0.958735 -0.481786
0.774989 -0.958518 -0.481997
0.775050 -0.958300 -0.482207
0.775112 -0.958083 -0.482417
0.775173 -0.957866 -0.482628
0.775235 -0.957649 -0.482838
0.775296 -0.957432 -0.483048
0.775357 -0.957215 -0.483259
0.775419 -0.956998 -0.483469
0.775480 -0.956781 -0.483679
0.775542 -0.956564 -0.483889
0.775603 -0.956347 -0.484099
0.775665 -0.956130 -0.484309
0.775726 -0.955913 -0.484519
0.775787 -0.955697 -0.484729
0.775849 -0.955480 -0.484939
0.775910 -0.955263 -0.485149
0.775972 -0.955046 -0.485359
0.776033 -0.954830 -0.485569
0.776094 -0.954613 -0.485778
0.776156 -0.954396 -0.485988
0.776217 -0.954180 -0.486198
0.776279 -0.953963 -0.486408
0.776340 -0.953747 -0.486617
0.776401 -0.953530 -0.486827
0.776463 -0.953314 -0.487036
0.776524 -0.953097 -0.487246
0.776585 -0.952881 -0.487455
0.776647 -0.952665 -0.487665
0.776708 -0.952448 -0.487874
0.776770 -0.952232 -0.488084
0.776831 -0.952016 -0.488293
0.776892 -0.951800 -0.488502
0.776954 -0.951583 -0.488712
0.777015 -0.951367 -0.488921
0.777076 -0.951151 -0.489130
0.777138 -0.950935 -0.489339
0.777199 -0.950719 -0.489548
0.777260 -0.950503 -0.489757
0.777322 -0.950287 -0.489966
0.777383 -0.950071 -0.490175
0.777444 -0.949855 -0.490384
0.777506 -0.949639 -0.490593
0.777567 -0.949423 -0.490802
0.777628 -0.949208 -0.491011
0.777690 -0.948992 -0.491220
0.777751 -0.948776 -0.491429
0.777812 -0.948560 -0.491637
0.777874 -0.948345 -0.491846
0.777935 -0.948129 -0.492055
0.777996 -0.947913 -0.492263
0.778057 -0.947698 -0.492472
0.778119 -0.947482 -0.492680
0.778180 -0.947266 -0.492889
0.778241 -0.947051 -0.493097
0.778303 -0.946835 -0.493306
0.778364 -0.946620 -0.493514
0.778425 -0.946405 -0.493723
0.778486 -0.946189 -0.493931
0.778548 -0.945974 -0.494139
0.778609 -0.945759 -0.494347
0.778670 -0.945543 -0.494556
0.778732 -0.945328 -0.494764
0.778793 -0.945113 -0.494972
0.778854 -0.944898 -0.495180
0.778915 -0.944682 -0.495388
0.778977 -0.944467 -0.495596
0.779038 -0.944252 -0.495804
0.779099 -0.944037 -0.496012
0.779160 -0.943822 -0.496220
0.779222 -0.943607 -0.496428
0.779283 -0.943392 -0.496636
0.779344 -0.943177 -0.496844
0.779405 -0.942962 -0.497051
0.779467 -0.942748 -0.497259
0.779528 -0.942533 -0.497467
0.779589 -0.942318 -0.497674
0.779650 -0.942103 -0.497882
0.779711 -0.941888 -0.498090
0.779773 -0.941674 -0.498297
0.779834 -0.941459 -0.498505
0.779895 -0.941244 -0.498712
0.779956 -0.941030 -0.498920
0.780017 -0.940815 -0.499127
0.780079 -0.940601 -0.499334
0.780140 -0.940386 -0.499542
0.780201 -0.940172 -0.499749
0.780262 -0.939957 -0.499956
0.780323 -0.939743 -0.500163
0.780385 -0.939528 -0.500371
0.780446 -0.939314 -0.500578
0.780507 -0.939100 -0.500785
0.780568 -0.938885 -0.500992
0.780629 -0.938671 -0.501199
0.780691 -0.938457 -0.501406
0.780752 -0.938243 -0.501613
0.780813 -0.938029 -0.501820
0.780874 -0.937814 -0.502027
0.780935 -0.937600 -0.502233
0.780996 -0.937386 -0.502440
0.781057 -0.937172 -0.502647
0.781119 -0.936958 -0.502854
0.781180 -0.936744 -0.503060
0.781241 -0.936530 -0.503267
0.781302 -0.936316 -0.503474
0.781363 -0.936102 -0.503680
0.781424 -0.935889 -0.503887
0.781485 -0.935675 -0.504093
0.781547 -0.935461 -0.504300
0.781608 -0.935247 -0.504506
0.781669 -0.935034 -0.504713
0.781730 -0.934820 -0.504919
0.781791 -0.934606 -0.505125
0.781852 -0.934393 -0.505332
0.781913 -0.934179 -0.505538
0.781974 -0.933965 -0.505744
0.782036 -0.933752 -0.505950
0.782097 -0.933538 -0.506156
0.782158 -0.933325 -0.506362
0.782219 -0.933112 -0.506569
0.782280 -0.932898 -0.506775
0.782341 -0.932685 -0.506981
0.782402 -0.932471 -0.507187
0.782463 -0.932258 -0.507392
0.782524 -0.932045 -0.507598
0.782585 -0.931832 -0.507804
0.782646 -0.931618 -0.508010
0.782707 -0.931405 -0.508216
0.782769 -0.931192 -0.508421
0.782830 -0.930979 -0.508627
0.782891 -0.930766 -0.508833
0.782952 -0.930553 -0.509038
0.783013 -0.930340 -0.509244
0.783074 -0.930127 -0.509450
0.783135 -0.929914 -0.509655
0.783196 -0.929701 -0.509861
0.783257 -0.929488 -0.510066
0.783318 -0.929275 -0.510271
0.783379 -0.929062 -0.510477
0.783440 -0.928850 -0.510682
0.783501 -0.928637 -0.510887
0.783562 -0.928424 -0.511093
0.783623 -0.928211 -0.511298
0.783684 -0.927999 -0.511503
0.783745 -0.927786 -0.511708
0.783806 -0.927573 -0.511913
0.783867 -0.927361 -0.512118
0.783928 -0.927148 -0.512323
0.783989 -0.926936 -0.512528
0.784050 -0.926723 -0.512733
0.784111 -0.926511 -0.512938
0.784172 -0.926298 -0.513143
0.784233 -0.926086 -0.513348
0.784294 -0.925874 -0.513553
0.784355 -0.925661 -0.513758
0.784416 -0.925449 -0.513962
0.784477 -0.925237 -0.514167
0.784538 -0.925025 -0.514372
0.784599 -0.924812 -0.514576
0.784660 -0.924600 -0.514781
0.784721 -0.924388 -0.514985
0.784782 -0.924176 -0.515190
0.784843 -0.923964 -0.515394
0.784904 -0.923752 -0.515599
0.784965 -0.923540 -0.515803
0.785026 -0.923328 -0.516008
0.785087 -0.923116 -0.516212
0.785148 -0.922904 -0.516416
0.785209 -0.922692 -0.516621
0.785270 -0.922480 -0.516825
0.785331 -0.922269 -0.517029
0.785392 -0.922057 -0.517233
0.785453 -0.921845 -0.517437
0.785514 -0.921633 -0.517641
0.785574 -0.921422 -0.517845
0.785635 -0.921210 -0.518049
0.785696 -0.920998 -0.518253
0.785757 -0.920787 -0.518457
0.785818 -0.920575 -0.518661
0.785879 -0.920364 -0.518865
0.785940 -0.920152 -0.519069
0.786001 -0.919941 -0.519273
0.786062 -0.919729 -0.519476
0.786123 -0.919518 -0.519680
0.786184 -0.919306 -0.519884
0.786244 -0.919095 -0.520087
0.786305 -0.918884 -0.520291
0.786366 -0.918672 -0.520495
0.786427 -0.918461 -0.520698
0.786488 -0.918250 -0.520902
0.786549 -0.918039 -0.521105
0.786610 -0.917828 -0.521308
0.786671 -0.917616 -0.521512
0.786732 -0.917405 -0.521715
0.786792 -0.917194 -0.521919
0.786853 -0.916983 -0.522122
0.786914 -0.916772 -0.522325
0.786975 -0.916561 -0.522528
0.787036 -0.916350 -0.522731
0.787097 -0.916139 -0.522935
0.787158 -0.915928 -0.523138
0.787218 -0.915718 -0.523341
0.787279 -0.915507 -0.523544
0.787340 -0.915296 -0.523747
0.787401 -0.915085 -0.523950
0.787462 -0.914875 -0.524153
0.787523 -0.914664 -0.524355
0.787583 -0.914453 -0.524558
0.787644 -0.914243 -0.524761
0.787705 -0.914032 -0.524964
0.787766 -0.913821 -0.525167
0.787827 -0.913611 -0.525369
0.787887 -0.913400 -0.525572
0.787948 -0.913190 -0.525775
0.788009 -0.912979 -0.525977
0.788070 -0.912769 -0.526180
0.788131 -0.912559 -0.526382
0.788192 -0.912348 -0.526585
0.788252 -0.912138 -0.526787
0.788313 -0.911928 -0.526990
0.788374 -0.911717 -0.527192
0.788435 -0.911507 -0.527394
0.788495 -0.911297 -0.527597
0.788556 -0.911087 -0.527799
0.788617 -0.910877 -0.528001
0.788678 -0.910667 -0.528203
0.788739 -0.910456 -0.528405
0.788799 -0.910246 -0.528607
0.788860 -0.910036 -0.528810
0.788921 -0.909826 -0.529012
0.788982 -0.909616 -0.529214
0.789042 -0.909407 -0.529416
0.789103 -0.909197 -0.529617
0.789164 -0.908987 -0.529819
0.789225 -0.908777 -0.530021
0.789285 -0.908567 -0.530223
0.789346 -0.908357 -0.530425
0.789407 -0.908148 -0.530627
0.789468 -0.907938 -0.530828
0.789528 -0.907728 -0.531030
0.789589 -0.907519 -0.531232
0.789650 -0.907309 -0.531433
0.789710 -0.907100 -0.531635
0.789771 -0.906890 -0.531836
0.789832 -0.906680 -0.532038
0.789893 -0.906471 -0.532239
0.789953 -0.906262 -0.532441
0.790014 -0.906052 -0.532642
0.790075 -0.905843 -0.532843
0.790135 -0.905633 -0.533045
0.790196 -0.905424 -0.533246
0.790257 -0.905215 -0.533447
0.790318 -0.905005 -0.533649
0.790378 -0.904796 -0.533850
0.790439 -0.904587 -0.534051
0.790500 -0.904378 -0.534252
0.790560 -0.904169 -0.534453
0.790621 -0.903960 -0.534654
0.790682 -0.903750 -0.534855
0.790742 -0.903541 -0.535056
0.790803 -0.903332 -0.535257
0.790864 -0.903123 -0.535458
0.790924 -0.902914 -0.535659
0.790985 -0.902706 -0.535859
0.791046 -0.902497 -0.536060
0.791106 -0.902288 -0.536261
0.791167 -0.902079 -0.536462
0.791228 -0.901870 -0.536662
0.791288 -0.901661 -0.536863
0.791349 -0.901453 -0.537064
0.791409 -0.901244 -0.537264
0.791470 -0.901035 -0.537465
0.791531 -0.900827 -0.537665
0.791591 -0.900618 -0.537866
0.791652 -0.900409 -0.538066
0.791713 -0.900201 -0.538266
0.791773 -0.899992 -0.538467
0.791834 -0.899784 -0.538667
0.791894 -0.899575 -0.538867
0.791955 -0.899367 -0.539068
0.792016 -0.899158 -0.539268
0.792076 -0.898950 -0.539468
0.792137 -0.898742 -0.539668
0.792197 -0.898533 -0.539868
0.792258 -0.898325 -0.540068
0.792319 -0.898117 -0.540268
0.792379 -0.897909 -0.540468
0.792440 -0.897700 -0.540668
0.792500 -0.897492 -0.540868
0.792561 -0.897284 -0.541068
0.792622 -0.897076 -0.541268
0.792682 -0.896868 -0.541468
0.792743 -0.896660 -0.541667
0.792803 -0.896452 -0.541867
0.792864 -0.896244 -0.542067
0.792924 -0.896036 -0.542266
0.792985 -0.895828 -0.542466
0.793045 -0.895620 -0.542666
0.793106 -0.895412 -0.542865
0.793167 -0.895204 -0.543065
0.793227 -0.894997 -0.543264
0.793288 -0.894789 -0.543464
0.793348 -0.894581 -0.543663
0.793409 -0.894373 -0.543862
0.793469 -0.894166 -0.544062
0.793530 -0.893958 -0.544261
0.793590 -0.893750 -0.544460
0.793651 -0.893543 -0.544660
0.793711 -0.893335 -0.544859
0.793772 -0.893128 -0.545058
0.793832 -0.892920 -0.545257
0.793893 -0.892713 -0.545456
0.793953 -0.892505 -0.545655
0.794014 -0.892298 -0.545854
0.794074 -0.892091 -0.546053
0.794135 -0.891883 -0.546252
0.794195 -0.891676 -0.546451
0.794256 -0.891469 -0.546650
0.794316 -0.891261 -0.546849
0.794377 -0.891054 -0.547048
0.794437 -0.890847 -0.547246
0.794498 -0.890640 -0.547445
0.794558 -0.890433 -0.547644
0.794619 -0.890226 -0.547843
0.794679 -0.890019 -0.548041
0.794740 -0.889812 -0.548240
0.794800 -0.889605 -0.548438
0.794861 -0.889398 -0.548637
0.794921 -0.889191 -0.548835
0.794982 -0.888984 -0.549034
0.795042 -0.888777 -0.549232
0.795102 -0.888570 -0.549431
0.795163 -0.888363 -0.549629
0.795223 -0.888156 -0.549827
0.795284 -0.887950 -0.550025
0.795344 -0.887743 -0.550224
0.795405 -0.887536 -0.550422
0.795465 -0.887329 -0.550620
0.795525 -0.887123 -0.550818
0.795586 -0.886916 -0.551016
0.795646 -0.886710 -0.551214
0.795707 -0.886503 -0.551412
0.795767 -0.886297 -0.551610
0.795828 -0.886090 -0.551808
0.795888 -0.885884 -0.552006
0.795948 -0.885677 -0.552204
0.796009 -0.885471 -0.552402
0.796069 -0.885264 -0.552600
0.796130 -0.885058 -0.552798
0.796190 -0.884852 -0.552995
0.796250 -0.884645 -0.553193
0.796311 -0.884439 -0.553391
0.796371 -0.884233 -0.553588
0.796432 -0.884027 -0.553786
0.796492 -0.883821 -0.553983
0.796552 -0.883615 -0.554181
0.796613 -0.883408 -0.554378
0.796673 -0.883202 -0.554576
0.796733 -0.882996 -0.554773
0.796794 -0.882790 -0.554971
0.796854 -0.882584 -0.555168
0.796914 -0.882378 -0.555365
0.796975 -0.882172 -0.555563
0.797035 -0.881967 -0.555760
0.797096 -0.881761 -0.555957
0.797156 -0.881555 -0.556154
0.797216 -0.881349 -0.556351
0.797277 -0.881143 -0.556549
0.797337 -0.880938 -0.556746
0.797397 -0.880732 -0.556943
0.797458 -0.880526 -0.557140
0.797518 -0.880321 -0.557337
0.797578 -0.880115 -0.557534
0.797638 -0.879909 -0.557730
0.797699 -0.879704 -0.557927
0.797759 -0.879498 -0.558124
0.797819 -0.879293 -0.558321
0.797880 -0.879087 -0.558518
0.797940 -0.878882 -0.558714
0.798000 -0.878676 -0.558911
0.798061 -0.878471 -0.559108
0.798121 -0.878266 -0.559304
0.798181 -0.878060 -0.559501
0.798242 -0.877855 -0.559697
0.798302 -0.877650 -0.559894
0.798362 -0.877445 -0.560090
0.798422 -0.877239 -0.560287
0.798483 -0.877034 -0.560483
0.798543 -0.876829 -0.560680
0.798603 -0.876624 -0.560876
0.798663 -0.876419 -0.561072
0.798724 -0.876214 -0.561268
0.798784 -0.876009 -0.561465
0.798844 -0.875804 -0.561661
0.798904 -0.875599 -0.561857
0.798965 -0.875394 -0.562053
0.799025 -0.875189 -0.562249
0.799085 -0.874984 -0.562445
0.799145 -0.874779 -0.562641
0.799206 -0.874574 -0.562837
0.799266 -0.874370 -0.563033
0.799326 -0.874165 -0.563229
0.799386 -0.873960 -0.563425
0.799447 -0.873756 -0.563621
0.799507 -0.873551 -0.563816
0.799567 -0.873346 -0.564012
0.799627 -0.873142 -0.564208
0.799687 -0.872937 -0.564404
0.799748 -0.872733 -0.564599
0.799808 -0.872528 -0.564795
0.799868 -0.872324 -0.564991
0.799928 -0.872119 -0.565186
0.799988 -0.871915 -0.565382
0.800049 -0.871710 -0.565577
0.800109 -0.871506 -0.565773
0.800169 -0.871302 -0.565968
0.800229 -0.871097 -0.566163
0.800289 -0.870893 -0.566359
0.800350 -0.870689 -0.566554
0.800410 -0.870485 -0.566749
0.800470 -0.870280 -0.566944
0.800530 -0.870076 -0.567140
0.800590 -0.869872 -0.567335
0.800650 -0.869668 -0.567530
0.800711 -0.869464 -0.567725
0.800771 -0.869260 -0.567920
0.800831 -0.869056 -0.568115
0.800891 -0.868852 -0.568310
0.800951 -0.868648 -0.568505
0.801011 -0.868444 -0.568700
0.801072 -0.868240 -0.568895
0.801132 -0.868036 -0.569090
0.801192 -0.867832 -0.569285
0.801252 -0.867629 -0.569479
0.801312 -0.867425 -0.569674
0.801372 -0.867221 -0.569869
0.801432 -0.867017 -0.570063
0.801492 -0.866814 -0.570258
0.801553 -0.866610 -0.570453
0.801613 -0.866406 -0.570647
0.801673 -0.866203 -0.570842
0.801733 -0.865999 -0.571036
0.801793 -0.865796 -0.571231
0.801853 -0.865592 -0.571425
0.801913 -0.865389 -0.571620
0.801973 -0.865185 -0.571814
0.802033 -0.864982 -0.572008
0.802093 -0.864778 -0.572203
0.802154 -0.864575 -0.572397
0.802214 -0.864372 -0.572591
0.802274 -0.864168 -0.572785
0.802334 -0.863965 -0.572979
0.802394 -0.863762 -0.573173
0.802454 -0.863559 -0.573368
0.802514 -0.863356 -0.573562
0.802574 -0.863152 -0.573756
0.802634 -0.862949 -0.573950
0.802694 -0.862746 -0.574144
0.802754 -0.862543 -0.574337
0.802814 -0.862340 -0.574531
0.802874 -0.862137 -0.574725
0.802934 -0.861934 -0.574919
0.802994 -0.861731 -0.575113
0.803054 -0.861528 -0.575306
0.803114 -0.861325 -0.575500
0.803174 -0.861123 -0.575694
0.803235 -0.860920 -0.575887
0.803295 -0.860717 -0.576081
0.803355 -0.860514 -0.576275
0.803415 -0.860311 -0.576468
0.803475 -0.860109 -0.576662
0.803535 -0.859906 -0.576855
0.803595 -0.859703 -0.577049
0.803655 -0.859501 -0.577242
0.803715 -0.859298 -0.577435
0.803775 -0.859096 -0.577629
0.803835 -0.858893 -0.577822
0.803895 -0.858691 -0.578015
0.803955 -0.858488 -0.578208
0.804015 -0.858286 -0.578401
0.804075 -0.858083 -0.578595
0.804135 -0.857881 -0.578788
0.804195 -0.857678 -0.578981
0.804255 -0.857476 -0.579174
0.804315 -0.857274 -0.579367
0.804374 -0.857072 -0.579560
0.804434 -0.856869 -0.579753
0.804494 -0.856667 -0.579946
0.804554 -0.856465 -0.580139
0.804614 -0.856263 -0.580331
0.804674 -0.856061 -0.580524
0.804734 -0.855859 -0.580717
0.804794 -0.855656 -0.580910
0.804854 -0.855454 -0.581102
0.804914 -0.855252 -0.581295
0.804974 -0.855050 -0.581488
0.805034 -0.854848 -0.581680
0.805094 -0.854647 -0.581873
0.805154 -0.854445 -0.582065
0.805214 -0.854243 -0.582258
0.805274 -0.854041 -0.582450
0.805334 -0.853839 -0.582643
0.805393 -0.853637 -0.582835
0.805453 -0.853436 -0.583027
0.805513 -0.853234 -0.583220
0.805573 -0.853032 -0.583412
0.805633 -0.852831 -0.583604
0.805693 -0.852629 -0.583796
0.805753 -0.852427 -0.583989
0.805813 -0.852226 -0.584181
0.805873 -0.852024 -0.584373
0.805933 -0.851823 -0.584565
0.805992 -0.851621 -0.584757
0.806052 -0.851420 -0.584949
0.806112 -0.851218 -0.585141
0.806172 -0.851017 -0.585333
0.806232 -0.850816 -0.585525
0.806292 -0.850614 -0.585717
0.806352 -0.850413 -0.585908
0.806412 -0.850212 -0.586100
0.806471 -0.850010 -0.586292
0.806531 -0.849809 -0.586484
0.806591 -0.849608 -0.586675
0.806651 -0.849407 -0.586867
0.806711 -0.849206 -0.587059
0.806771 -0.849005 -0.587250
0.806831 -0.848804 -0.587442
0.806890 -0.848602 -0.587633
0.806950 -0.848401 -0.587825
0.807010 -0.848200 -0.588016
0.807070 -0.848000 -0.588208
0.807130 -0.847799 -0.588399
0.807190 -0.847598 -0.588590
0.807249 -0.847397 -0.588782
0.807309 -0.847196 -0.588973
0.807369 -0.846995 -0.589164
0.807429 -0.846794 -0.589355
0.807489 -0.846594 -0.589547
0.807548 -0.846393 -0.589738
0.807608 -0.846192 -0.589929
0.807668 -0.845992 -0.590120
0.807728 -0.845791 -0.590311
0.807788 -0.845590 -0.590502
0.807847 -0.845390 -0.590693
0.807907 -0.845189 -0.590884
0.807967 -0.844989 -0.591075
0.808027 -0.844788 -0.591266
0.808086 -0.844588 -0.591456
0.808146 -0.844387 -0.591647
0.808206 -0.844187 -0.591838
0.808266 -0.843986 -0.592029
0.808326 -0.843786 -0.592219
0.808385 -0.843586 -0.592410
0.808445 -0.843385 -0.592601
0.808505 -0.843185 -0.592791
0.808565 -0.842985 -0.592982
0.808624 -0.842785 -0.593172
0.808684 -0.842584 -0.593363
0.808744 -0.842384 -0.593553
0.808804 -0.842184 -0.593744
0.808863 -0.841984 -0.593934
0.808923 -0.841784 -0.594125
0.808983 -0.841584 -0.594315
0.809042 -0.841384 -0.594505
0.809102 -0.841184 -0.594695
0.809162 -0.840984 -0.594886
0.809222 -0.840784 -0.595076
0.809281 -0.840584 -0.595266
0.809341 -0.840384 -0.595456
0.809401 -0.840185 -0.595646
0.809460 -0.839985 -0.595836
0.809520 -0.839785 -0.596026
0.809580 -0.839585 -0.596216
0.809640 -0.839386 -0.596406
0.809699 -0.839186 -0.596596
0.809759 -0.838986 -0.596786
0.809819 -0.838787 -0.596976
0.809878 -0.838587 -0.597166
0.809938 -0.838387 -0.597355
0.809998 -0.838188 -0.597545
0.810057 -0.837988 -0.597735
0.810117 -0.837789 -0.597924
0.810177 -0.837589 -0.598114
0.810236 -0.837390 -0.598304
0.810296 -0.837190 -0.598493
0.810356 -0.836991 -0.598683
0.810415 -0.836792 -0.598872
0.810475 -0.836592 -0.599062
0.810535 -0.836393 -0.599251
0.810594 -0.836194 -0.599441
0.810654 -0.835995 -0.599630
0.810713 -0.835795 -0.599819
0.810773 -0.835596 -0.600009
0.810833 -0.835397 -0.600198
0.810892 -0.835198 -0.600387
0.810952 -0.834999 -0.600576
0.811012 -0.834800 -0.600765
0.811071 -0.834601 -0.600954
0.811131 -0.834402 -0.601144
0.811190 -0.834203 -0.601333
0.811250 -0.834004 -0.601522
0.811310 -0.833805 -0.601711
0.811369 -0.833606 -0.601900
0.811429 -0.833407 -0.602089
0.811488 -0.833208 -0.602277
0.811548 -0.833010 -0.602466
0.811608 -0.832811 -0.602655
0.811667 -0.832612 -0.602844
0.811727 -0.832413 -0.603033
0.811786 -0.832215 -0.603221
0.811846 -0.832016 -0.603410
0.811906 -0.831817 -0.603599
0.811965 -0.831619 -0.603787
0.812025 -0.831420 -0.603976
0.812084 -0.831222 -0.604164
0.812144 -0.831023 -0.604353
0.812203 -0.830825 -0.604541
0.812263 -0.830626 -0.604730
0.812322 -0.830428 -0.604918
0.812382 -0.830229 -0.605107
0.812442 -0.830031 -0.605295
0.812501 -0.829832 -0.605483
0.812561 -0.829634 -0.605672
0.812620 -0.829436 -0.605860
0.812680 -0.829238 -0.606048
0.812739 -0.829039 -0.606236
0.812799 -0.828841 -0.606424
0.812858 -0.828643 -0.606612
0.812918 -0.828445 -0.606801
0.812977 -0.828247 -0.606989
0.813037 -0.828049 -0.607177
0.813096 -0.827851 -0.607365
0.813156 -0.827652 -0.607552
0.813215 -0.827454 -0.607740
0.813275 -0.827256 -0.607928
0.813334 -0.827059 -0.608116
0.813394 -0.826861 -0.608304
0.813453 -0.826663 -0.608492
0.813513 -0.826465 -0.608679
0.813572 -0.826267 -0.608867
0.813632 -0.826069 -0.609055
0.813691 -0.825871 -0.609242
0.813751 -0.825674 -0.609430
0.813810 -0.825476 -0.609618
0.813870 -0.825278 -0.609805
0.813929 -0.825081 -0.609993
0.813989 -0.824883 -0.610180
0.814048 -0.824685 -0.610368
0.814108 -0.824488 -0.610555
0.814167 -0.824290 -0.610742
0.814226 -0.824093 -0.610930
0.814286 -0.823895 -0.611117
0.814345 -0.823698 -0.611304
0.814405 -0.823500 -0.611491
0.814464 -0.823303 -0.611679
0.814524 -0.823105 -0.611866
0.814583 -0.822908 -0.612053
0.814642 -0.822711 -0.612240
0.814702 -0.822513 -0.612427
0.814761 -0.822316 -0.612614
0.814821 -0.822119 -0.612801
0.814880 -0.821922 -0.612988
0.814940 -0.821724 -0.613175
0.814999 -0.821527 -0.613362
0.815058 -0.821330 -0.613549
0.815118 -0.821133 -0.613736
0.815177 -0.820936 -0.613922
0.815237 -0.820739 -0.614109
0.815296 -0.820542 -0.614296
0.815355 -0.820345 -0.614482
0.815415 -0.820148 -0.614669
0.815474 -0.819951 -0.614856
0.815533 -0.819754 -0.615042
0.815593 -0.819557 -0.615229
0.815652 -0.819360 -0.615415
0.815712 -0.819163 -0.615602
0.815771 -0.818967 -0.615788
0.815830 -0.818770 -0.615975
0.815890 -0.818573 -0.616161
0.815949 -0.818376 -0.616348
0.816008 -0.818180 -0.616534
0.816068 -0.817983 -0.616720
0.816127 -0.817786 -0.616906
0.816186 -0.817590 -0.617093
0.816246 -0.817393 -0.617279
0.816305 -0.817197 -0.617465
0.816364 -0.817000 -0.617651
0.816424 -0.816804 -0.617837
0.816483 -0.816607 -0.618023
0.816542 -0.816411 -0.618209
0.816602 -0.816214 -0.618395
0.816661 -0.816018 -0.618581
0.816720 -0.815822 -0.618767
0.816780 -0.815625 -0.618953
0.816839 -0.815429 -0.619139
0.816898 -0.815233 -0.619325
0.816958 -0.815037 -0.619511
0.817017 -0.814840 -0.619696
0.817076 -0.814644 -0.619882
0.817136 -0.814448 -0.620068
0.817195 -0.814252 -0.620253
0.817254 -0.814056 -0.620439
0.817313 -0.813860 -0.620625
0.817373 -0.813664 -0.620810
0.817432 -0.813468 -0.620996
0.817491 -0.813272 -0.621181
0.817551 -0.813076 -0.621367
0.817610 -0.812880 -0.621552
0.817669 -0.812684 -0.621737
0.817728 -0.812488 -0.621923
0.817788 -0.812292 -0.622108
0.817847 -0.812096 -0.622293
0.817906 -0.811900 -0.622479
0.817965 -0.811705 -0.622664
0.818025 -0.811509 -0.622849
0.818084 -0.811313 -0.623034
0.818143 -0.811118 -0.623219
0.818202 -0.810922 -0.623404
0.818262 -0.810726 -0.623589
0.818321 -0.810531 -0.623774
0.818380 -0.810335 -0.623959
0.818439 -0.810140 -0.624144
0.818498 -0.809944 -0.624329
0.818558 -0.809749 -0.624514
0.818617 -0.809553 -0.624699
0.818676 -0.809358 -0.624884
0.818735 -0.809162 -0.625069
0.818794 -0.808967 -0.625253
0.818854 -0.808772 -0.625438
0.818913 -0.808576 -0.625623
0.818972 -0.808381 -0.625807
0.819031 -0.808186 -0.625992
0.819090 -0.807990 -0.626177
0.819150 -0.807795 -0.626361
0.819209 -0.807600 -0.626546
0.819268 -0.807405 -0.626730
0.819327 -0.807210 -0.626915
0.819386 -0.807015 -0.627099
0.819446 -0.806820 -0.627283
0.819505 -0.806625 -0.627468
0.819564 -0.806429 -0.627652
0.819623 -0.806235 -0.627836
0.819682 -0.806040 -0.628021
0.819741 -0.805845 -0.628205
0.819800 -0.805650 -0.628389
0.819860 -0.805455 -0.628573
0.819919 -0.805260 -0.628757
0.819978 -0.805065 -0.628941
0.820037 -0.804870 -0.629126
0.820096 -0.804676 -0.629310
0.820155 -0.804481 -0.629494
0.820214 -0.804286 -0.629678
0.820274 -0.804091 -0.629861
0.820333 -0.803897 -0.630045
0.820392 -0.803702 -0.630229
0.820451 -0.803508 -0.630413
0.820510 -0.803313 -0.630597
0.820569 -0.803118 -0.630781
0.820628 -0.802924 -0.630964
0.820687 -0.802729 -0.631148
0.820746 -0.802535 -0.631332
0.820806 -0.802340 -0.631515
0.820865 -0.802146 -0.631699
0.820924 -0.801952 -0.631882
0.820983 -0.801757 -0.632066
0.821042 -0.801563 -0.632249
0.821101 -0.801369 -0.632433
0.821160 -0.801174 -0.632616
0.821219 -0.800980 -0.632800
0.821278 -0.800786 -0.632983
0.821337 -0.800592 -0.633166
0.821396 -0.800398 -0.633350
0.821455 -0.800203 -0.633533
0.821514 -0.800009 -0.633716
0.821574 -0.799815 -0.633899
0.821633 -0.799621 -0.634083
0.821692 -0.799427 -0.634266
0.821751 -0.799233 -0.634449
0.821810 -0.799039 -0.634632
0.821869 -0.798845 -0.634815
0.821928 -0.798651 -0.634998
0.821987 -0.798457 -0.635181
0.822046 -0.798264 -0.635364
0.822105 -0.798070 -0.635547
0.822164 -0.797876 -0.635730
0.822223 -0.797682 -0.635912
0.822282 -0.797488 -0.636095
0.822341 -0.797295 -0.636278
0.822400 -0.797101 -0.636461
0.822459 -0.796907 -0.636643
0.822518 -0.796714 -0.636826
0.822577 -0.796520 -0.637009
0.822636 -0.796326 -0.637191
0.822695 -0.796133 -0.637374
0.822754 -0.795939 -0.637556
0.822813 -0.795746 -0.637739
0.822872 -0.795552 -0.637921
0.822931 -0.795359 -0.638104
0.822990 -0.795166 -0.638286
0.823049 -0.794972 -0.638469
0.823108 -0.794779 -0.638651
0.823167 -0.794585 -0.638833
0.823226 -0.794392 -0.639016
0.823285 -0.794199 -0.639198
0.823344 -0.794006 -0.639380
0.823403 -0.793812 -0.639562
0.823462 -0.793619 -0.639744
0.823521 -0.793426 -0.639927
0.823579 -0.793233 -0.640109
0.823638 -0.793040 -0.640291
0.823697 -0.792847 -0.640473
0.823756 -0.792653 -0.640655
0.823815 -0.792460 -0.640837
0.823874 -0.792267 -0.641018
0.823933 -0.792074 -0.641200
0.823992 -0.791881 -0.641382
0.824051 -0.791689 -0.641564
0.824110 -0.791496 -0.641746
0.824169 -0.791303 -0.641928
0.824228 -0.791110 -0.642109
0.824287 -0.790917 -0.642291
0.824346 -0.790724 -0.642473
0.824404 -0.790531 -0.642654
0.824463 -0.790339 -0.642836
0.824522 -0.790146 -0.643017
0.824581 -0.789953 -0.643199
0.824640 -0.789761 -0.643380
0.824699 -0.789568 -0.643562
0.824758 -0.789375 -0.643743
0.824817 -0.789183 -0.643925
0.824876 -0.788990 -0.644106
0.824934 -0.788798 -0.644287
0.824993 -0.788605 -0.644469
0.825052 -0.788413 -0.644650
0.825111 -0.788220 -0.644831
0.825170 -0.788028 -0.645012
0.825229 -0.787836 -0.645194
0.825288 -0.787643 -0.645375
0.825346 -0.787451 -0.645556
0.825405 -0.787259 -0.645737
0.825464 -0.787066 -0.645918
0.825523 -0.786874 -0.646099
0.825582 -0.786682 -0.646280
0.825641 -0.786490 -0.646461
0.825699 -0.786297 -0.646642
0.825758 -0.786105 -0.646823
0.825817 -0.785913 -0.647003
0.825876 -0.785721 -0.647184
0.825935 -0.785529 -0.647365
0.825994 -0.785337 -0.647546
0.826052 -0.785145 -0.647726
0.826111 -0.784953 -0.647907
0.826170 -0.784761 -0.648088
0.826229 -0.784569 -0.648268
0.826288 -0.784377 -0.648449
0.826346 -0.784185 -0.648629
0.826405 -0.783993 -0.648810
0.826464 -0.783802 -0.648990
0.826523 -0.783610 -0.649171
0.826582 -0.783418 -0.649351
0.826640 -0.783226 -0.649532
0.826699 -0.783035 -0.649712
0.826758 -0.782843 -0.649892
0.826817 -0.782651 -0.650073
0.826875 -0.782460 -0.650253
0.826934 -0.782268 -0.650433
0.826993 -0.782076 -0.650613
0.827052 -0.781885 -0.650793
0.827110 -0.781693 -0.650974
0.827169 -0.781502 -0.651154
0.827228 -0.781310 -0.651334
0.827287 -0.781119 -0.651514
0.827345 -0.780927 -0.651694
0.827404 -0.780736 -0.651874
0.827463 -0.780545 -0.652054
0.827522 -0.780353 -0.652234
0.827580 -0.780162 -0.652413
0.827639 -0.779971 -0.652593
0.827698 -0.779779 -0.652773
0.827756 -0.779588 -0.652953
0.827815 -0.779397 -0.653133
0.827874 -0.779206 -0.653312
0.827933 -0.779015 -0.653492
0.827991 -0.778824 -0.653672
0.828050 -0.778632 -0.653851
0.828109 -0.778441 -0.654031
0.828167 -0.778250 -0.654210
0.828226 -0.778059 -0.654390
0.828285 -0.777868 -0.654569
0.828344 -0.777677 -0.654749
0.828402 -0.777486 -0.654928
0.828461 -0.777295 -0.655107
0.828520 -0.777105 -0.655287
0.828578 -0.776914 -0.655466
0.828637 -0.776723 -0.655645
0.828696 -0.776532 -0.655825
0.828754 -0.776341 -0.656004
0.828813 -0.776151 -0.656183
0.828872 -0.775960 -0.656362
0.828930 -0.775769 -0.656541
0.828989 -0.775578 -0.656720
0.829047 -0.775388 -0.656900
0.829106 -0.775197 -0.657079
0.829165 -0.775007 -0.657258
0.829223 -0.774816 -0.657436
0.829282 -0.774625 -0.657615
0.829341 -0.774435 -0.657794
0.829399 -0.774244 -0.657973
0.829458 -0.774054 -0.658152
0.829517 -0.773864 -0.658331
0.829575 -0.773673 -0.658510
0.829634 -0.773483 -0.658688
0.829692 -0.773292 -0.658867
0.829751 -0.773102 -0.659046
0.829810 -0.772912 -0.659224
0.829868 -0.772722 -0.659403
0.829927 -0.772531 -0.659581
0.829985 -0.772341 -0.659760
0.830044 -0.772151 -0.659939
0.830103 -0.771961 -0.660117
0.830161 -0.771771 -0.660295
0.830220 -0.771580 -0.660474
0.830278 -0.771390 -0.660652
0.830337 -0.771200 -0.660831
0.830396 -0.771010 -0.661009
0.830454 -0.770820 -0.661187
0.830513 -0.770630 -0.661365
0.830571 -0.770440 -0.661544
0.830630 -0.770250 -0.661722
0.830688 -0.770061 -0.661900
0.830747 -0.769871 -0.662078
0.830805 -0.769681 -0.662256
0.830864 -0.769491 -0.662434
0.830923 -0.769301 -0.662612
0.830981 -0.769111 -0.662790
0.831040 -0.768922 -0.662968
0.831098 -0.768732 -0.663146
0.831157 -0.768542 -0.663324
0.831215 -0.768353 -0.663502
0.831274 -0.768163 -0.663680
0.831332 -0.767973 -0.663858
0.831391 -0.767784 -0.664035
0.831449 -0.767594 -0.664213
0.831508 -0.767405 -0.664391
0.831566 -0.767215 -0.664568
0.831625 -0.767026 -0.664746
0.831683 -0.766836 -0.664924
0.831742 -0.766647 -0.665101
0.831800 -0.766457 -0.665279
0.831859 -0.766268 -0.665456
0.831917 -0.766079 -0.665634
0.831976 -0.765889 -0.665811
0.832034 -0.765700 -0.665989
0.832093 -0.765511 -0.666166
0.832151 -0.765322 -0.666343
0.832210 -0.765132 -0.666521
0.832268 -0.764943 -0.666698
0.832327 -0.764754 -0.666875
0.832385 -0.764565 -0.667053
0.832444 -0.764376 -0.667230
0.832502 -0.764187 -0.667407
0.832560 -0.763998 -0.667584
0.832619 -0.763809 -0.667761
0.832677 -0.763620 -0.667938
0.832736 -0.763431 -0.668115
0.832794 -0.763242 -0.668292
0.832853 -0.763053 -0.668469
0.832911 -0.762864 -0.668646
0.832970 -0.762675 -0.668823
0.833028 -0.762486 -0.669000
0.833086 -0.762297 -0.669177
0.833145 -0.762109 -0.669354
0.833203 -0.761920 -0.669530
0.833262 -0.761731 -0.669707
0.833320 -0.761542 -0.669884
0.833379 -0.761354 -0.670060
0.833437 -0.761165 -0.670237
0.833495 -0.760976 -0.670414
0.833554 -0.760788 -0.670590
0.833612 -0.760599 -0.670767
0.833671 -0.760411 -0.670943
0.833729 -0.760222 -0.671120
0.833787 -0.760034 -0.671296
0.833846 -0.759845 -0.671473
0.833904 -0.759657 -0.671649
0.833962 -0.759468 -0.671826
0.834021 -0.759280 -0.672002
0.834079 -0.759091 -0.672178
0.834138 -0.758903 -0.672354
0.834196 -0.758715 -0.672531
0.834254 -0.758526 -0.672707
0.834313 -0.758338 -0.672883
0.834371 -0.758150 -0.673059
0.834429 -0.757962 -0.673235
0.834488 -0.757774 -0.673411
0.834546 -0.757585 -0.673587
0.834604 -0.757397 -0.673763
0.834663 -0.757209 -0.673939
0.834721 -0.757021 -0.674115
0.834779 -0.756833 -0.674291
0.834838 -0.756645 -0.674467
0.834896 -0.756457 -0.674643
0.834954 -0.756269 -0.674819
0.835013 -0.756081 -0.674995
0.835071 -0.755893 -0.675170
0.835129 -0.755705 -0.675346
0.835188 -0.755517 -0.675522
0.835246 -0.755329 -0.675698
0.835304 -0.755142 -0.675873
0.835363 -0.754954 -0.676049
0.835421 -0.754766 -0.676224
0.835479 -0.754578 -0.676400
0.835537 -0.754391 -0.676575
0.835596 -0.754203 -0.676751
0.835654 -0.754015 -0.676926
0.835712 -0.753828 -0.677102
0.835771 -0.753640 -0.677277
0.835829 -0.753452 -0.677452
0.835887 -0.753265 -0.677628
0.835945 -0.753077 -0.677803
0.836004 -0.752890 -0.677978
0.836062 -0.752702 -0.678154
0.836120 -0.752515 -0.678329
0.836178 -0.752327 -0.678504
0.836237 -0.752140 -0.678679
0.836295 -0.751953 -0.678854
0.836353 -0.751765 -0.679029
0.836411 -0.751578 -0.679204
0.836470 -0.751391 -0.679379
0.836528 -0.751203 -0.679554
0.836586 -0.751016 -0.679729
0.836644 -0.750829 -0.679904
0.836703 -0.750642 -0.680079
0.836761 -0.750454 -0.680254
0.836819 -0.750267 -0.680429
0.836877 -0.750080 -0.680603
0.836935 -0.749893 -0.680778
0.836994 -0.749706 -0.680953
0.837052 -0.749519 -0.681128
0.837110 -0.749332 -0.681302
0.837168 -0.749145 -0.681477
0.837226 -0.748958 -0.681651
0.837285 -0.748771 -0.681826
0.837343 -0.748584 -0.682000
0.837401 -0.748397 -0.682175
0.837459 -0.748210 -0.682349
0.837517 -0.748024 -0.682524
0.837576 -0.747837 -0.682698
0.837634 -0.747650 -0.682873
0.837692 -0.747463 -0.683047
0.837750 -0.747276 -0.683221
0.837808 -0.747090 -0.683396
0.837866 -0.746903 -0.683570
0.837925 -0.746716 -0.683744
0.837983 -0.746530 -0.683918
0.838041 -0.746343 -0.684092
0.838099 -0.746157 -0.684266
0.838157 -0.745970 -0.684441
0.838215 -0.745783 -0.684615
0.838273 -0.745597 -0.684789
0.838332 -0.745410 -0.684963
0.838390 -0.745224 -0.685137
0.838448 -0.745038 -0.685311
0.838506 -0.744851 -0.685484
0.838564 -0.744665 -0.685658
0.838622 -0.744478 -0.685832
0.838680 -0.744292 -0.686006
0.838738 -0.744106 -0.686180
0.838796 -0.743920 -0.686353
0.838855 -0.743733 -0.686527
0.838913 -0.743547 -0.686701
0.838971 -0.743361 -0.686875
0.839029 -0.743175 -0.687048
0.839087 -0.742989 -0.687222
0.839145 -0.742803 -0.687395
0.839203 -0.742616 -0.687569
0.839261 -0.742430 -0.687742
0.839319 -0.742244 -0.687916
0.839377 -0.742058 -0.688089
0.839435 -0.741872 -0.688263
0.839494 -0.741686 -0.688436
0.839552 -0.741500 -0.688609
0.839610 -0.741314 -0.688783
0.839668 -0.741129 -0.688956
0.839726 -0.740943 -0.689129
0.839784 -0.740757 -0.689302
0.839842 -0.740571 -0.689476
0.839900 -0.740385 -0.689649
0.839958 -0.740200 -0.689822
0.840016 -0.740014 -0.689995
0.840074 -0.739828 -0.690168
0.840132 -0.739642 -0.690341
0.840190 -0.739457 -0.690514
0.840248 -0.739271 -0.690687
0.840306 -0.739086 -0.690860
0.840364 -0.738900 -0.691033
0.840422 -0.738714 -0.691206
0.840480 -0.738529 -0.691378
0.840538 -0.738343 -0.691551
0.840596 -0.738158 -0.691724
0.840654 -0.737972 -0.691897
0.840712 -0.737787 -0.692069
0.840770 -0.737602 -0.692242
0.840828 -0.737416 -0.692415
0.840886 -0.737231 -0.692587
0.840944 -0.737046 -0.692760
0.841002 -0.736860 -0.692933
0.841060 -0.736675 -0.693105
0.841118 -0.736490 -0.693278
0.841176 -0.736305 -0.693450
0.841234 -0.736119 -0.693622
0.841292 -0.735934 -0.693795
0.841350 -0.735749 -0.693967
0.841408 -0.735564 -0.694140
0.841466 -0.735379 -0.694312
0.841524 -0.735194 -0.694484
0.841582 -0.735009 -0.694656
0.841640 -0.734824 -0.694829
0.841698 -0.734639 -0.695001
0.841756 -0.734454 -0.695173
0.841814 -0.734269 -0.695345
0.841872 -0.734084 -0.695517
0.841930 -0.733899 -0.695689
0.841987 -0.733714 -0.695861
0.842045 -0.733529 -0.696033
0.842103 -0.733344 -0.696205
0.842161 -0.733160 -0.696377
0.842219 -0.732975 -0.696549
0.842277 -0.732790 -0.696721
0.842335 -0.732605 -0.696893
0.842393 -0.732421 -0.697065
0.842451 -0.732236 -0.697236
0.842509 -0.732051 -0.697408
0.842567 -0.731867 -0.697580
0.842625 -0.731682 -0.697752
0.842682 -0.731498 -0.697923
0.842740 -0.731313 -0.698095
0.842798 -0.731129 -0.698266
0.842856 -0.730944 -0.698438
0.842914 -0.730760 -0.698610
0.842972 -0.730575 -0.698781
0.843030 -0.730391 -0.698952
0.843088 -0.730206 -0.699124
0.843145 -0.730022 -0.699295
0.843203 -0.729838 -0.699467
0.843261 -0.729653 -0.699638
0.843319 -0.729469 -0.699809
0.843377 -0.729285 -0.699981
0.843435 -0.729101 -0.700152
0.843493 -0.728916 -0.700323
0.843550 -0.728732 -0.700494
0.843608 -0.728548 -0.700665
0.843666 -0.728364 -0.700837
0.843724 -0.728180 -0.701008
0.843782 -0.727996 -0.701179
0.843840 -0.727812 -0.701350
0.843897 -0.727628 -0.701521
0.843955 -0.727444 -0.701692
0.844013 -0.727260 -0.701863
0.844071 -0.727076 -0.702034
0.844129 -0.726892 -0.702205
0.844186 -0.726708 -0.702375
0.844244 -0.726524 -0.702546
0.844302 -0.726340 -0.702717
0.844360 -0.726156 -0.702888
0.844418 -0.725973 -0.703058
0.844475 -0.725789 -0.703229
0.844533 -0.725605 -0.703400
0.844591 -0.725421 -0.703570
0.844649 -0.725238 -0.703741
0.844707 -0.725054 -0.703912
0.844764 -0.724870 -0.704082
0.844822 -0.724687 -0.704253
0.844880 -0.724503 -0.704423
0.844938 -0.724320 -0.704594
0.844995 -0.724136 -0.704764
0.845053 -0.723952 -0.704934
0.845111 -0.723769 -0.705105
0.845169 -0.723585 -0.705275
0.845226 -0.723402 -0.705445
0.845284 -0.723219 -0.705616
0.845342 -0.723035 -0.705786
0.845400 -0.722852 -0.705956
0.845457 -0.722668 -0.706126
0.845515 -0.722485 -0.706296
0.845573 -0.722302 -0.706467
0.845631 -0.722119 -0.706637
0.845688 -0.721935 -0.706807
0.845746 -0.721752 -0.706977
0.845804 -0.721569 -0.707147
0.845861 -0.721386 -0.707317
0.845919 -0.721203 -0.707487
0.845977 -0.721019 -0.707656
0.846035 -0.720836 -0.707826
0.846092 -0.720653 -0.707996
0.846150 -0.720470 -0.708166
0.846208 -0.720287 -0.708336
0.846265 -0.720104 -0.708506
0.846323 -0.719921 -0.708675
0.846381 -0.719738 -0.708845
0.846438 -0.719555 -0.709015
0.846496 -0.719372 -0.709184
0.846554 -0.719190 -0.709354
0.846611 -0.719007 -0.709523
0.846669 -0.718824 -0.709693
0.846727 -0.718641 -0.709862
0.846784 -0.718458 -0.710032
0.846842 -0.718276 -0.710201
0.846900 -0.718093 -0.710371
0.846957 -0.717910 -0.710540
0.847015 -0.717727 -0.710709
0.847073 -0.717545 -0.710879
0.847130 -0.717362 -0.711048
0.847188 -0.717180 -0.711217
0.847246 -0.716997 -0.711386
0.847303 -0.716814 -0.711556
0.847361 -0.716632 -0.711725
0.847418 -0.716449 -0.711894
0.847476 -0.716267 -0.712063
0.847534 -0.716084 -0.712232
0.847591 -0.715902 -0.712401
0.847649 -0.715720 -0.712570
0.847707 -0.715537 -0.712739
0.847764 -0.715355 -0.712908
0.847822 -0.715173 -0.713077
0.847879 -0.714990 -0.713246
0.847937 -0.714808 -0.713415
0.847995 -0.714626 -0.713584
0.848052 -0.714444 -0.713752
0.848110 -0.714261 -0.713921
0.848167 -0.714079 -0.714090
0.848225 -0.713897 -0.714259
0.848282 -0.713715 -0.714427
0.848340 -0.713533 -0.714596
0.848398 -0.713351 -0.714765
0.848455 -0.713169 -0.714933
0.848513 -0.712987 -0.715102
0.848570 -0.712805 -0.715270
0.848628 -0.712623 -0.715439
0.848685 -0.712441 -0.715607
0.848743 -0.712259 -0.715776
0.848801 -0.712077 -0.715944
0.848858 -0.711895 -0.716112
0.848916 -0.711713 -0.716281
0.848973 -0.711531 -0.716449
0.849031 -0.711349 -0.716617
0.849088 -0.711168 -0.716786
0.849146 -0.710986 -0.716954
0.849203 -0.710804 -0.717122
0.849261 -0.710622 -0.717290
0.849318 -0.710441 -0.717458
0.849376 -0.710259 -0.717626
0.849433 -0.710077 -0.717794
0.849491 -0.709896 -0.717962
0.849548 -0.709714 -0.718130
0.849606 -0.709533 -0.718298
0.849663 -0.709351 -0.718466
0.849721 -0.709170 -0.718634
0.849778 -0.708988 -0.718802
0.849836 -0.708807 -0.718970
0.849893 -0.708625 -0.719138
0.849951 -0.708444 -0.719306
0.850008 -0.708262 -0.719473
0.850066 -0.708081 -0.719641
0.850123 -0.707900 -0.719809
0.850181 -0.707718 -0.719976
0.850238 -0.707537 -0.720144
0.850296 -0.707356 -0.720312
0.850353 -0.707175 -0.720479
0.850411 -0.706993 -0.720647
0.850468 -0.706812 -0.720814
0.850525 -0.706631 -0.720982
0.850583 -0.706450 -0.721149
0.850640 -0.706269 -0.721317
0.850698 -0.706088 -0.721484
0.850755 -0.705907 -0.721652
0.850813 -0.705726 -0.721819
0.850870 -0.705545 -0.721986
0.850927 -0.705364 -0.722153
0.850985 -0.705183 -0.722321
0.851042 -0.705002 -0.722488
0.851100 -0.704821 -0.722655
0.851157 -0.704640 -0.722822
0.851215 -0.704459 -0.722989
0.851272 -0.704278 -0.723156
0.851329 -0.704097 -0.723324
0.851387 -0.703917 -0.723491
0.851444 -0.703736 -0.723658
0.851502 -0.703555 -0.723825
0.851559 -0.703374 -0.723991
0.851616 -0.703194 -0.724158
0.851674 -0.703013 -0.724325
0.851731 -0.702832 -0.724492
0.851789 -0.702652 -0.724659
0.851846 -0.702471 -0.724826
0.851903 -0.702291 -0.724993
0.851961 -0.702110 -0.725159
0.852018 -0.701929 -0.725326
0.852075 -0.701749 -0.725493
0.852133 -0.701568 -0.725659
0.852190 -0.701388 -0.725826
0.852247 -0.701208 -0.725992
0.852305 -0.701027 -0.726159
0.852362 -0.700847 -0.726326
0.852419 -0.700666 -0.726492
0.852477 -0.700486 -0.726659
0.852534 -0.700306 -0.726825
0.852591 -0.700126 -0.726991
0.852649 -0.699945 -0.727158
0.852706 -0.699765 -0.727324
0.852763 -0.699585 -0.727490
0.852821 -0.699405 -0.727657
0.852878 -0.699224 -0.727823
0.852935 -0.699044 -0.727989
0.852993 -0.698864 -0.728155
0.853050 -0.698684 -0.728321
0.853107 -0.698504 -0.728488
0.853165 -0.698324 -0.728654
0.853222 -0.698144 -0.728820
0.853279 -0.697964 -0.728986
0.853336 -0.697784 -0.729152
0.853394 -0.697604 -0.729318
0.853451 -0.697424 -0.729484
0.853508 -0.697244 -0.729650
0.853566 -0.697064 -0.729816
0.853623 -0.696885 -0.729981
0.853680 -0.696705 -0.730147
0.853737 -0.696525 -0.730313
0.853795 -0.696345 -0.730479
0.853852 -0.696165 -0.730645
0.853909 -0.695986 -0.730810
0.853966 -0.695806 -0.730976
0.854024 -0.695626 -0.731142
0.854081 -0.695447 -0.731307
0.854138 -0.695267 -0.731473
0.854195 -0.695087 -0.731638
0.854253 -0.694908 -0.731804
0.854310 -0.694728 -0.731969
0.854367 -0.694549 -0.732135
0.854424 -0.694369 -0.732300
0.854482 -0.694190 -0.732466
0.854539 -0.694010 -0.732631
0.854596 -0.693831 -0.732797
0.854653 -0.693652 -0.732962
0.854710 -0.693472 -0.733127
0.854768 -0.693293 -0.733292
0.854825 -0.693113 -0.733458
0.854882 -0.692934 -0.733623
0.854939 -0.692755 -0.733788
0.854996 -0.692576 -0.733953
0.855054 -0.692396 -0.734118
0.855111 -0.692217 -0.734283
0.855168 -0.692038 -0.734448
0.855225 -0.691859 -0.734613
0.855282 -0.691680 -0.734778
0.855340 -0.691501 -0.734943
0.855397 -0.691321 -0.735108
0.855454 -0.691142 -0.735273
0.855511 -0.690963 -0.735438
0.855568 -0.690784 -0.735603
0.855625 -0.690605 -0.735768
0.855683 -0.690426 -0.735933
0.855740 -0.690247 -0.736097
0.855797 -0.690068 -0.736262
0.855854 -0.689890 -0.736427
0.855911 -0.689711 -0.736591
0.855968 -0.689532 -0.736756
0.856025 -0.689353 -0.736921
0.856083 -0.689174 -0.737085
0.856140 -0.688995 -0.737250
0.856197 -0.688817 -0.737414
0.856254 -0.688638 -0.737579
0.856311 -0.688459 -0.737743
0.856368 -0.688281 -0.737908
0.856425 -0.688102 -0.738072
0.856482 -0.687923 -0.738236
0.856540 -0.687745 -0.738401
0.856597 -0.687566 -0.738565
0.856654 -0.687387 -0.738729
0.856711 -0.687209 -0.738894
0.856768 -0.687030 -0.739058
0.856825 -0.686852 -0.739222
0.856882 -0.686673 -0.739386
0.856939 -0.686495 -0.739550
0.856996 -0.686317 -0.739714
0.857053 -0.686138 -0.739878
0.857110 -0.685960 -0.740042
0.857168 -0.685781 -0.740206
0.857225 -0.685603 -0.740370
0.857282 -0.685425 -0.740534
0.857339 -0.685247 -0.740698
0.857396 -0.685068 -0.740862
0.857453 -0.684890 -0.741026
0.857510 -0.684712 -0.741190
0.857567 -0.684534 -0.741354
0.857624 -0.684356 -0.741518
0.857681 -0.684177 -0.741681
0.857738 -0.683999 -0.741845
0.857795 -0.683821 -0.742009
0.857852 -0.683643 -0.742172
0.857909 -0.683465 -0.742336
0.857966 -0.683287 -0.742500
0.858023 -0.683109 -0.742663
0.858080 -0.682931 -0.742827
0.858137 -0.682753 -0.742990
0.858194 -0.682575 -0.743154
0.858251 -0.682397 -0.743317
0.858308 -0.682220 -0.743480
0.858365 -0.682042 -0.743644
0.858422 -0.681864 -0.743807
0.858479 -0.681686 -0.743971
0.858536 -0.681508 -0.744134
0.858593 -0.681331 -0.744297
0.858650 -0.681153 -0.744460
0.858707 -0.680975 -0.744624
0.858764 -0.680797 -0.744787
0.858821 -0.680620 -0.744950
0.858878 -0.680442 -0.745113
0.858935 -0.680265 -0.745276
0.858992 -0.680087 -0.745439
0.859049 -0.679909 -0.745602
0.859106 -0.679732 -0.745765
0.859163 -0.679554 -0.745928
0.859220 -0.679377 -0.746091
0.859277 -0.679199 -0.746254
0.859334 -0.679022 -0.746417
0.859391 -0.678845 -0.746580
0.859448 -0.678667 -0.746743
0.859505 -0.678490 -0.746905
0.859562 -0.678312 -0.747068
0.859619 -0.678135 -0.747231
0.859675 -0.677958 -0.747394
0.859732 -0.677781 -0.747556
0.859789 -0.677603 -0.747719
0.859846 -0.677426 -0.747882
0.859903 -0.677249 -0.748044
0.859960 -0.677072 -0.748207
0.860017 -0.676895 -0.748369
0.860074 -0.676717 -0.748532
0.860131 -0.676540 -0.748694
0.860188 -0.676363 -0.748857
0.860245 -0.676186 -0.749019
0.860301 -0.676009 -0.749182
0.860358 -0.675832 -0.749344
0.860415 -0.675655 -0.749506
0.860472 -0.675478 -0.749669
0.860529 -0.675301 -0.749831
0.860586 -0.675124 -0.749993
0.860643 -0.674947 -0.750155
0.860700 -0.674771 -0.750317
0.860756 -0.674594 -0.750480
0.860813 -0.674417 -0.750642
0.860870 -0.674240 -0.750804
0.860927 -0.674063 -0.750966
0.860984 -0.673887 -0.751128
0.861041 -0.673710 -0.751290
0.861098 -0.673533 -0.751452
0.861154 -0.673356 -0.751614
0.861211 -0.673180 -0.751776
0.861268 -0.673003 -0.751938
0.861325 -0.672827 -0.752099
0.861382 -0.672650 -0.752261
0.861439 -0.672473 -0.752423
0.861495 -0.672297 -0.752585
0.861552 -0.672120 -0.752747
0.861609 -0.671944 -0.752908
0.861666 -0.671767 -0.753070
0.861723 -0.671591 -0.753232
0.861780 -0.671415 -0.753393
0.861836 -0.671238 -0.753555
0.861893 -0.671062 -0.753716
0.861950 -0.670885 -0.753878
0.862007 -0.670709 -0.754040
0.862063 -0.670533 -0.754201
0.862120 -0.670357 -0.754362
0.862177 -0.670180 -0.754524
0.862234 -0.670004 -0.754685
0.862291 -0.669828 -0.754847
0.862347 -0.669652 -0.755008
0.862404 -0.669475 -0.755169
0.862461 -0.669299 -0.755331
0.862518 -0.669123 -0.755492
0.862574 -0.668947 -0.755653
0.862631 -0.668771 -0.755814
0.862688 -0.668595 -0.755975
0.862745 -0.668419 -0.756136
0.862801 -0.668243 -0.756298
0.862858 -0.668067 -0.756459
0.862915 -0.667891 -0.756620
0.862972 -0.667715 -0.756781
0.863028 -0.667539 -0.756942
0.863085 -0.667363 -0.757103
0.863142 -0.667188 -0.757263
0.863199 -0.667012 -0.757424
0.863255 -0.666836 -0.757585
0.863312 -0.666660 -0.757746
0.863369 -0.666484 -0.757907
0.863426 -0.666309 -0.758068
0.863482 -0.666133 -0.758228
0.863539 -0.665957 -0.758389
0.863596 -0.665782 -0.758550
0.863652 -0.665606 -0.758710
0.863709 -0.665430 -0.758871
0.863766 -0.665255 -0.759032
0.863822 -0.665079 -0.759192
0.863879 -0.664904 -0.759353
0.863936 -0.664728 -0.759513
0.863992 -0.664552 -0.759674
0.864049 -0.664377 -0.759834
0.864106 -0.664202 -0.759995
0.864162 -0.664026 -0.760155
0.864219 -0.663851 -0.760315
0.864276 -0.663675 -0.760476
0.864332 -0.663500 -0.760636
0.864389 -0.663325 -0.760796
0.864446 -0.663149 -0.760957
0.864502 -0.662974 -0.761117
0.864559 -0.662799 -0.761277
0.864616 -0.662623 -0.761437
0.864672 -0.662448 -0.761597
0.864729 -0.662273 -0.761758
0.864786 -0.662098 -0.761918
0.864842 -0.661923 -0.762078
0.864899 -0.661748 -0.762238
0.864956 -0.661572 -0.762398
0.865012 -0.661397 -0.762558
0.865069 -0.661222 -0.762718
0.865125 -0.661047 -0.762877
0.865182 -0.660872 -0.763037
0.865239 -0.660697 -0.763197
0.865295 -0.660522 -0.763357
0.865352 -0.660347 -0.763517
0.865408 -0.660172 -0.763677
0.865465 -0.659998 -0.763836
0.865522 -0.659823 -0.763996
0.865578 -0.659648 -0.764156
0.865635 -0.659473 -0.764315
0.865691 -0.659298 -0.764475
0.865748 -0.659123 -0.764634
0.865805 -0.658949 -0.764794
0.865861 -0.658774 -0.764954
0.865918 -0.658599 -0.765113
0.865974 -0.658424 -0.765273
0.866031 -0.658250 -0.765432
0.866087 -0.658075 -0.765591
0.866144 -0.657901 -0.765751
0.866200 -0.657726 -0.765910
0.866257 -0.657551 -0.766069
0.866314 -0.657377 -0.766229
0.866370 -0.657202 -0.766388
0.866427 -0.657028 -0.766547
0.866483 -0.656853 -0.766706
0.866540 -0.656679 -0.766866
0.866596 -0.656504 -0.767025
0.866653 -0.656330 -0.767184
0.866709 -0.656156 -0.767343
0.866766 -0.655981 -0.767502
0.866822 -0.655807 -0.767661
0.866879 -0.655633 -0.767820
0.866935 -0.655458 -0.767979
